tree
version=v4
num_class=1
num_tree_per_iteration=1
label_index=0
max_feature_idx=2
objective=regression
feature_names=Column_0 Column_1 Column_2
feature_infos=[4.2999999999999998:7.9000000000000004] [2:4.4000000000000004] [1:6.9000000000000004]
tree_sizes=1010 1004 1006 1004 908 1006 1005 1003 1005 1006 994 910 995 909 966 1007 994 1008 995 880 1012 1014 899 993 1100 996 984 884 1017 904 1001 1002 903 1007 1018 1006 1011 1143 1028 916 900 897 1028 1029 1144 1029 1042 1029 1039 1026 1013 1026 1028 914 929 1013 1048 1031 933 931 1036 1031 1035 933 910 908 935 1038 909 905 904 1042 1025

Tree=0
num_leaves=9
num_cat=0
split_feature=2 2 1 1 2 0 2 1
split_gain=90.7492 13.3312 1.16764 0.714685 0.513621 0.32018 0.241964 0.0857622
threshold=3.4000000000000004 4.7500000000000009 3.0500000000000003 2.6500000000000008 5.1500000000000012 4.9500000000000011 1.5500000000000003 2.9500000000000006
decision_type=2 2 2 2 2 2 2 2
left_child=5 3 4 -2 -3 -1 -7 -5
right_child=1 2 -4 7 -6 6 -8 -9
leaf_value=-0.062254564213541759 -0.00099095177927375848 0.041371946172741821 0.067885963869305843 0.012105782431575047 0.054752023209842439 -0.057525188771672647 -0.047484358745602376 0.018654149499746552
leaf_weight=18 10.000000000000002 13.000000000000002 10.999999999999998 10.000000000000002 15.999999999999998 15.000000000000002 9.9999999999999982 9.9999999999999982
leaf_count=18 10 13 11 10 16 15 10 10
internal_value=-4.2198e-09 0.0351186 0.0540153 0.00992299 0.0487541 -0.0571699 -0.0535089 0.01538
internal_weight=0 70 40 30 29 43 25 20
internal_count=113 70 40 30 29 43 25 20
is_linear=0
shrinkage=1


Tree=1
num_leaves=9
num_cat=0
split_feature=2 2 1 1 2 0 2 1
split_gain=81.9012 12.0314 1.05379 0.645003 0.463543 0.288962 0.218372 0.0774004
threshold=3.4000000000000004 4.7500000000000009 3.0500000000000003 2.6500000000000008 5.1500000000000012 4.9500000000000011 1.5500000000000003 2.9500000000000006
decision_type=2 2 2 2 2 2 2 2
left_child=5 3 4 -2 -3 -1 -7 -5
right_child=1 2 -4 7 -6 6 -8 -9
leaf_value=-0.059141832590103152 -0.00094139985740184754 0.039303353314216312 0.06449166861447421 0.011500497478991744 0.052014426607638602 -0.054648925860722855 -0.045110136345028883 0.017721446361392737
leaf_weight=18 10.000000000000002 13.000000000000002 10.999999999999998 10.000000000000002 15.999999999999998 15.000000000000002 9.9999999999999982 9.9999999999999982
leaf_count=18 10 13 11 10 16 15 10 10
internal_value=0 0.0333627 0.0513146 0.00942685 0.0463164 -0.0543114 -0.0508334 0.014611
internal_weight=0 70 40 30 29 43 25 20
internal_count=113 70 40 30 29 43 25 20
is_linear=0
shrinkage=0.05


Tree=2
num_leaves=9
num_cat=0
split_feature=2 2 1 2 0 0 1 2
split_gain=73.9158 10.9017 0.989855 0.929359 0.527237 0.260788 0.218777 0.197081
threshold=3.4000000000000004 4.8500000000000005 3.0500000000000003 4.4500000000000011 6.3500000000000005 4.9500000000000011 2.6500000000000008 1.5500000000000003
decision_type=2 2 2 2 2 2 2 2
left_child=5 3 4 6 -3 -1 -2 -7
right_child=1 2 -4 -5 -6 7 -8 -9
leaf_value=-0.056184738874435425 -0.00089432999491691569 0.037540526626010727 0.063767372369766248 0.021901069705684981 0.051601609190305077 -0.051916478077570584 0.0093240992081436245 -0.042854629345238211
leaf_weight=18 10.000000000000002 12.000000000000002 9.9999999999999982 11.999999999999998 14.999999999999998 15.000000000000002 10.999999999999998 9.9999999999999982
leaf_count=18 10 12 10 12 15 15 11 10
internal_value=0 0.0316946 0.0503293 0.010801 0.0453522 -0.0515958 0.00445818 -0.0482917
internal_weight=0 70 37 33 27 43 21 25
internal_count=113 70 37 33 27 43 21 25
is_linear=0
shrinkage=0.05


Tree=3
num_leaves=9
num_cat=0
split_feature=2 2 1 2 0 0 1 2
split_gain=66.709 9.83875 0.893344 0.838746 0.475832 0.235361 0.197446 0.177866
threshold=3.4000000000000004 4.8500000000000005 3.0500000000000003 4.4500000000000011 6.3500000000000005 4.9500000000000011 2.6500000000000008 1.5500000000000003
decision_type=2 2 2 2 2 2 2 2
left_child=5 3 4 6 -3 -1 -2 -7
right_child=1 2 -4 -5 -6 7 -8 -9
leaf_value=-0.053375500937302915 -0.00084961373358964892 0.035663500862816964 0.060579001307487494 0.020806016152103743 0.049021528164545698 -0.049320654074350989 0.0088578944263810466 -0.040711898002773528
leaf_weight=18 10.000000000000002 12.000000000000002 9.9999999999999982 11.999999999999998 14.999999999999998 15.000000000000002 10.999999999999998 9.9999999999999982
leaf_count=18 10 12 10 12 15 15 11 10
internal_value=0 0.0301098 0.0478128 0.010261 0.0430846 -0.049016 0.00423527 -0.0458772
internal_weight=0 70 37 33 27 43 21 25
internal_count=113 70 37 33 27 43 21 25
is_linear=0
shrinkage=0.05


Tree=4
num_leaves=8
num_cat=0
split_feature=2 2 1 2 2 0 2
split_gain=60.2049 8.90612 0.784748 0.469198 0.331347 0.212414 0.160524
threshold=3.4000000000000004 4.7500000000000009 3.0500000000000003 4.2500000000000009 5.1500000000000012 4.9500000000000011 1.5500000000000003
decision_type=2 2 2 2 2 2 2
left_child=5 3 4 -2 -3 -1 -7
right_child=1 2 -4 -5 -6 6 -8
leaf_value=-0.050706726809342711 0.0017576396962006883 0.033807117663896991 0.055420855771411551 0.014263617222507794 0.044553917180746798 -0.046854622761408476 -0.038676302125677464
leaf_weight=18 15.000000000000002 13.000000000000002 10.999999999999998 14.999999999999998 15.999999999999998 15.000000000000002 9.9999999999999982
leaf_count=18 15 13 11 15 16 15 10
internal_value=0 0.0286043 0.0440496 0.00801063 0.0397364 -0.0465652 -0.0435833
internal_weight=0 70 40 30 29 43 25
internal_count=113 70 40 30 29 43 25
is_linear=0
shrinkage=0.05


Tree=5
num_leaves=9
num_cat=0
split_feature=2 2 1 2 0 0 1 2
split_gain=54.3349 8.07032 0.733982 0.683723 0.402009 0.191703 0.174263 0.144873
threshold=3.4000000000000004 4.8500000000000005 3.0500000000000003 4.4500000000000011 6.3500000000000005 4.9500000000000011 2.6500000000000008 1.5500000000000003
decision_type=2 2 2 2 2 2 2 2
left_child=5 3 4 6 -3 -1 -2 -7
right_child=1 2 -4 -5 -6 7 -8 -9
leaf_value=-0.048171391420894202 -0.0010200745426118371 0.032100412560005974 0.05477900981903077 0.018718183164795243 0.044378579755624141 -0.044511890212694798 0.0080997359473258257 -0.036742488835006956
leaf_weight=18 10.000000000000002 12.000000000000002 9.9999999999999982 11.999999999999998 14.999999999999998 15.000000000000002 10.999999999999998 9.9999999999999982
leaf_count=18 10 12 10 12 15 15 11 10
internal_value=0 0.0271741 0.0432074 0.00919741 0.0389216 -0.0442369 0.00375697 -0.0414041
internal_weight=0 70 37 33 27 43 21 25
internal_count=113 70 37 33 27 43 21 25
is_linear=0
shrinkage=0.05


Tree=6
num_leaves=9
num_cat=0
split_feature=2 2 1 2 0 0 1 2
split_gain=49.0373 7.28346 0.662419 0.61706 0.362813 0.173012 0.157272 0.130748
threshold=3.4000000000000004 4.8500000000000005 3.0500000000000003 4.4500000000000011 6.3500000000000005 4.9500000000000011 2.6500000000000008 1.5500000000000003
decision_type=2 2 2 2 2 2 2 2
left_child=5 3 4 6 -3 -1 -2 -7
right_child=1 2 -4 -5 -6 7 -8 -9
leaf_value=-0.045762822694248625 -0.00096907082945108392 0.030495391072084502 0.05204005837440491 0.017782274012764297 0.042159649729728702 -0.042286297480265293 0.0076947491954673418 -0.034905363507568836
leaf_weight=18 10.000000000000002 12.000000000000002 9.9999999999999982 11.999999999999998 14.999999999999998 15.000000000000002 10.999999999999998 9.9999999999999982
leaf_count=18 10 12 10 12 15 15 11 10
internal_value=0 0.0258154 0.041047 0.00873754 0.0369755 -0.0420251 0.00356912 -0.0393339
internal_weight=0 70 37 33 27 43 21 25
internal_count=113 70 37 33 27 43 21 25
is_linear=0
shrinkage=0.05


Tree=7
num_leaves=9
num_cat=0
split_feature=2 2 1 1 2 0 2 1
split_gain=44.2561 6.59282 0.584649 0.35822 0.235148 0.156144 0.118 0.0508808
threshold=3.4000000000000004 4.7500000000000009 3.0500000000000003 2.6500000000000008 5.1500000000000012 4.9500000000000011 1.5500000000000003 2.9500000000000006
decision_type=2 2 2 2 2 2 2 2
left_child=5 3 4 -2 -3 -1 -7 -5
right_child=1 2 -4 7 -6 6 -8 -9
leaf_value=-0.043474680185317999 -0.00092061743140220615 0.029095619343794302 0.04762849022041668 0.0081476512365043132 0.038148949749302122 -0.040171980659166967 -0.033160094991326335 0.013191497064253783
leaf_weight=18 10.000000000000002 13.000000000000002 10.999999999999998 10.000000000000002 15.999999999999998 15.000000000000002 9.9999999999999982 9.9999999999999982
leaf_count=18 10 13 11 10 16 15 10 10
internal_value=0 0.0245246 0.0378135 0.00680618 0.0340906 -0.0399238 -0.0373672 0.0106696
internal_weight=0 70 40 30 29 43 25 20
internal_count=113 70 40 30 29 43 25 20
is_linear=0
shrinkage=0.05


Tree=8
num_leaves=9
num_cat=0
split_feature=2 2 1 2 0 0 1 2
split_gain=39.9412 5.97459 0.544091 0.505903 0.30725 0.14092 0.12376 0.106495
threshold=3.4000000000000004 4.8500000000000005 3.0500000000000003 4.4500000000000011 6.3500000000000005 4.9500000000000011 2.6500000000000008 1.5500000000000003
decision_type=2 2 2 2 2 2 2 2
left_child=5 3 4 6 -3 -1 -2 -7
right_child=1 2 -4 -5 -6 7 -8 -9
leaf_value=-0.041300946474075319 -0.00087458632886409742 0.027440396820505454 0.047056632041931154 0.016020611828813949 0.038174399087826411 -0.038163381616274507 0.0068109231090850448 -0.031502090319991113
leaf_weight=18 10.000000000000002 12.000000000000002 9.9999999999999982 11.999999999999998 14.999999999999998 15.000000000000002 10.999999999999998 9.9999999999999982
leaf_count=18 10 12 10 12 15 15 11 10
internal_value=0 0.0232984 0.0370937 0.00783096 0.0334037 -0.0379276 0.00315116 -0.0354989
internal_weight=0 70 37 33 27 43 21 25
internal_count=113 70 37 33 27 43 21 25
is_linear=0
shrinkage=0.05


Tree=9
num_leaves=9
num_cat=0
split_feature=2 2 1 2 0 0 1 2
split_gain=36.0469 5.39206 0.491042 0.456577 0.277293 0.12718 0.111693 0.0961115
threshold=3.4000000000000004 4.8500000000000005 3.0500000000000003 4.4500000000000011 6.3500000000000005 4.9500000000000011 2.6500000000000008 1.5500000000000003
decision_type=2 2 2 2 2 2 2 2
left_child=5 3 4 6 -3 -1 -2 -7
right_child=1 2 -4 -5 -6 7 -8 -9
leaf_value=-0.039235898852348329 -0.00083085726946592305 0.026068377626749368 0.044703800678253178 0.015219580956424276 0.036265679498513545 -0.036255213419596345 0.0064703767336058348 -0.029926986768841746
leaf_weight=18 10.000000000000002 12.000000000000002 9.9999999999999982 11.999999999999998 14.999999999999998 15.000000000000002 10.999999999999998 9.9999999999999982
leaf_count=18 10 12 10 12 15 15 11 10
internal_value=0 0.0221335 0.035239 0.00743941 0.0317335 -0.0360313 0.0029936 -0.0337239
internal_weight=0 70 37 33 27 43 21 25
internal_count=113 70 37 33 27 43 21 25
is_linear=0
shrinkage=0.05


Tree=10
num_leaves=9
num_cat=0
split_feature=2 2 2 1 0 1 2 0
split_gain=32.5323 4.88346 0.747488 0.259479 0.11478 0.100803 0.0867407 0.0321885
threshold=3.4000000000000004 5.0500000000000007 4.4500000000000011 3.0500000000000003 4.9500000000000011 2.6500000000000008 1.5500000000000003 6.5500000000000007
decision_type=2 2 2 2 2 2 2 2
left_child=4 2 5 7 -1 -2 -6 -3
right_child=1 3 -4 -5 6 -7 -8 -9
leaf_value=-0.037274104356765751 -0.00078931435942649817 0.030816456675529458 0.016729322137931983 0.042468612194061284 -0.034442454377810149 0.0061468579764054586 -0.028430636450648306 0.034735981076955795
leaf_weight=18 10.000000000000002 11.000000000000005 18 9.9999999999999982 15.000000000000002 10.999999999999998 9.9999999999999982 9.9999999999999982
leaf_count=18 10 11 18 10 15 11 10 10
internal_value=0 0.0210268 0.00925257 0.0358396 -0.0342297 0.00284392 -0.0320377 0.0326829
internal_weight=0 70 39 31 43 21 25 21
internal_count=113 70 39 31 43 21 25 21
is_linear=0
shrinkage=0.05


Tree=11
num_leaves=8
num_cat=0
split_feature=2 2 1 2 2 0 2
split_gain=29.3604 4.44194 0.392738 0.260972 0.142118 0.103589 0.0782834
threshold=3.4000000000000004 4.7500000000000009 3.0500000000000003 4.2500000000000009 5.1500000000000012 4.9500000000000011 1.5500000000000003
decision_type=2 2 2 2 2 2 2
left_child=5 3 4 -2 -3 -1 -7
right_child=1 2 -4 -5 -6 6 -8
leaf_value=-0.035410398244857789 0.00076827916316688047 0.023948818158644889 0.038927700031887405 0.010095164440572263 0.030987011734396219 -0.032720330158869416 -0.027009104490280152
leaf_weight=18 15.000000000000002 13.000000000000002 10.999999999999998 14.999999999999998 15.999999999999998 15.000000000000002 9.9999999999999982
leaf_count=18 15 13 11 15 16 15 10
internal_value=0 0.0199755 0.0308833 0.00543172 0.027832 -0.0325182 -0.0304358
internal_weight=0 70 40 30 29 43 25
internal_count=113 70 40 30 29 43 25
is_linear=0
shrinkage=0.05


Tree=12
num_leaves=9
num_cat=0
split_feature=2 2 2 1 0 1 0 0
split_gain=26.4978 4.02638 0.602873 0.210582 0.093489 0.0888797 0.0712549 0.0266078
threshold=3.4000000000000004 5.0500000000000007 4.4500000000000011 3.0500000000000003 4.9500000000000011 2.6500000000000008 5.1500000000000012 6.5500000000000007
decision_type=2 2 2 2 2 2 2 2
left_child=4 2 5 7 -1 -2 -6 -3
right_child=1 3 -4 -5 6 -7 -8 -9
leaf_value=-0.033639881014823916 -0.00088153127580881086 0.027886242453347539 0.015000148365894953 0.038398795127868653 -0.026349408638018823 0.0056315213780511516 -0.031692408273617433 0.031449832916259766
leaf_weight=18 10.000000000000002 11.000000000000005 18 9.9999999999999982 13.000000000000002 10.999999999999998 11.999999999999998 9.9999999999999982
leaf_count=18 10 11 18 10 13 11 12 10
internal_value=0 0.0189767 0.00828549 0.0324269 -0.0308923 0.00253007 -0.028914 0.0295832
internal_weight=0 70 39 31 43 21 25 21
internal_count=113 70 39 31 43 21 25 21
is_linear=0
shrinkage=0.05


Tree=13
num_leaves=8
num_cat=0
split_feature=2 2 1 2 0 0 2
split_gain=23.9142 3.64867 0.319344 0.214168 0.118442 0.0843738 0.068579
threshold=3.4000000000000004 4.7500000000000009 3.0500000000000003 4.2500000000000009 6.3500000000000005 4.9500000000000011 1.5500000000000003
decision_type=2 2 2 2 2 2 2
left_child=5 3 4 -2 -3 -1 -7
right_child=1 2 -4 -5 -6 6 -8
leaf_value=-0.031957885622978209 0.00062197046975294738 0.021617383409578063 0.03516773378307169 0.0090711916501944271 0.028042630839627238 -0.029606553415457398 -0.0242610339820385
leaf_weight=18 15.000000000000002 13.000000000000002 10.999999999999998 14.999999999999998 15.999999999999998 15.000000000000002 9.9999999999999982
leaf_count=18 15 13 11 15 16 15 10
internal_value=0 0.0180279 0.0279138 0.00484658 0.0251623 -0.0293477 -0.0274683
internal_weight=0 70 40 30 29 43 25
internal_count=113 70 40 30 29 43 25
is_linear=0
shrinkage=0.05


Tree=14
num_leaves=9
num_cat=0
split_feature=2 2 2 1 1 2 0 2
split_gain=21.5826 3.33146 0.482666 0.171151 0.0784315 0.0765273 0.00705929 0.00595563
threshold=3.4000000000000004 5.0500000000000007 4.4500000000000011 2.9500000000000006 2.6500000000000008 1.4500000000000002 5.0500000000000007 1.3500000000000003
decision_type=2 2 2 2 2 2 2 2
left_child=5 2 4 -3 -2 7 -7 -1
right_child=1 3 -4 -5 -6 6 -8 -9
leaf_value=-0.029279488772153851 -0.00095304539427161191 0.024989450386223879 0.01340959089057934 0.032518364509774578 0.005165224657817321 -0.02499843023040077 -0.026752018059293434 -0.031005123555660243
leaf_weight=10 10.000000000000002 13.000000000000002 18 18 10.999999999999998 11.000000000000002 11.999999999999998 10
leaf_count=10 10 13 18 18 11 11 12 10
internal_value=0 0.0171265 0.00740153 0.0293611 0.00225176 -0.0278803 -0.0259133 -0.0301423
internal_weight=0 70 39 31 21 43 23 20
internal_count=113 70 39 31 21 43 23 20
is_linear=0
shrinkage=0.05


Tree=15
num_leaves=9
num_cat=0
split_feature=2 2 1 1 0 0 0 1
split_gain=19.4783 3.01807 0.270094 0.2604 0.171862 0.0751998 0.0613287 0.0609308
threshold=3.4000000000000004 4.8500000000000005 3.0500000000000003 2.9500000000000006 6.3500000000000005 4.9500000000000011 5.1500000000000012 2.6500000000000008
decision_type=2 2 2 2 2 2 2 2
left_child=5 3 4 7 -3 -1 -7 -2
right_child=1 2 -4 -5 -6 6 -8 -9
leaf_value=-0.028950499412086272 -0.00090539347380399679 0.01901520810400446 0.033094550669193271 0.011152425874024631 0.027043163925409321 -0.02233274705134905 -0.027289641896883651 0.0044872509738938379
leaf_weight=18 10.000000000000002 12.000000000000002 9.9999999999999982 11.999999999999998 14.999999999999998 13.000000000000002 11.999999999999998 10.999999999999998
leaf_count=18 10 12 10 12 15 13 12 11
internal_value=0 0.0162701 0.026075 0.00527682 0.0234752 -0.0264863 -0.0247121 0.00191933
internal_weight=0 70 37 33 27 43 25 21
internal_count=113 70 37 33 27 43 25 21
is_linear=0
shrinkage=0.05


Tree=16
num_leaves=9
num_cat=0
split_feature=2 2 2 2 1 1 2 0
split_gain=17.5893 2.39559 0.445362 0.295525 0.142116 0.0374121 0.0427781 0.0168991
threshold=3.6500000000000008 5.0500000000000007 1.6500000000000001 4.4500000000000011 3.0500000000000003 3.3500000000000001 1.4500000000000002 6.5500000000000007
decision_type=2 2 2 2 2 2 2 2
left_child=2 3 5 -2 7 -1 -7 -3
right_child=1 4 -4 -5 -6 6 -8 -9
leaf_value=-0.028307599127292634 0.0030418302346434858 0.022845375774936227 -0.014472795762121677 0.012102201280908453 0.031439822316169742 -0.027189833874052213 -0.022671337723731994 0.025685355216264728
leaf_weight=14.999999999999998 18 11.000000000000005 9.9999999999999982 18 9.9999999999999982 11.000000000000002 9.9999999999999982 9.9999999999999982
leaf_count=15 18 11 10 18 10 11 10 10
internal_value=0 0.0163454 -0.0238075 0.00757202 0.0265339 -0.0264004 -0.0250382 0.0241977
internal_weight=0 67 46 36 31 36 21 21
internal_count=113 67 46 36 31 36 21 21
is_linear=0
shrinkage=0.05


Tree=17
num_leaves=9
num_cat=0
split_feature=2 2 1 1 0 0 0 1
split_gain=15.9119 2.46228 0.217992 0.217103 0.14382 0.0605919 0.0555666 0.0495446
threshold=3.4000000000000004 4.8500000000000005 3.0500000000000003 2.9500000000000006 6.3500000000000005 4.9500000000000011 5.1500000000000012 2.6500000000000008
decision_type=2 2 2 2 2 2 2 2
left_child=5 3 4 7 -3 -1 -7 -2
right_child=1 2 -4 -5 -6 6 -8 -9
leaf_value=-0.02615099565850364 -0.00083706906065344772 0.017145995058429734 0.02986783266067505 0.010140700622772177 0.024489881346623103 -0.020081648975610728 -0.024799939741690955 0.0040256748653270981
leaf_weight=18 10.000000000000002 12.000000000000002 9.9999999999999982 11.999999999999998 14.999999999999998 13.000000000000002 11.999999999999998 10.999999999999998
leaf_count=18 10 12 10 12 15 13 12 11
internal_value=0 0.0147054 0.0235616 0.00477576 0.0212259 -0.023939 -0.0223464 0.00171008
internal_weight=0 70 37 33 27 43 25 21
internal_count=113 70 37 33 27 43 25 21
is_linear=0
shrinkage=0.05


Tree=18
num_leaves=9
num_cat=0
split_feature=2 2 2 2 1 2 0 2
split_gain=14.3605 2.23395 0.205483 0.136663 0.100628 0.0550157 0.0095291 0.00531304
threshold=3.4000000000000004 4.7500000000000009 5.8500000000000005 4.2500000000000009 2.9500000000000006 1.4500000000000002 5.0500000000000007 1.3500000000000003
decision_type=2 2 2 2 2 2 2 2
left_child=5 3 4 -2 -3 7 -7 -1
right_child=1 2 -4 -5 -6 6 -8 -9
leaf_value=-0.023845053017139434 0.00028144877403974528 0.016540863068907386 0.027912724018096927 0.0070308432603875806 0.022345374571159482 -0.020011356743899256 -0.022048740833997729 -0.025474935770034787
leaf_weight=10 15.000000000000002 14.000000000000002 9.9999999999999982 14.999999999999998 15.999999999999998 11.000000000000002 11.999999999999998 10
leaf_count=10 15 14 10 15 16 11 12 10
internal_value=0 0.0139701 0.0217056 0.00365615 0.0196366 -0.0227421 -0.0210743 -0.02466
internal_weight=0 70 40 30 30 43 23 20
internal_count=113 70 40 30 30 43 23 20
is_linear=0
shrinkage=0.05


Tree=19
num_leaves=8
num_cat=0
split_feature=2 2 2 2 1 1 2
split_gain=12.9637 1.79671 0.346098 0.211511 0.112031 0.0319799 0.0345789
threshold=3.6500000000000008 5.0500000000000007 1.6500000000000001 4.4500000000000011 2.9500000000000006 3.3500000000000001 1.4500000000000002
decision_type=2 2 2 2 2 2 2
left_child=2 3 5 -2 -3 -1 -7
right_child=1 4 -4 -5 -6 6 -8
leaf_value=-0.02448782096306483 0.0026020089474817119 0.019319181917951653 -0.012209824770689012 0.010267059111760722 0.025410506005088491 -0.023399557444182303 -0.019337099529802799
leaf_weight=14.999999999999998 18 13.000000000000002 9.9999999999999982 18 18 11.000000000000002 9.9999999999999982
leaf_count=15 18 13 10 18 18 11 10
internal_value=0 0.0140326 -0.0204387 0.00643453 0.0228561 -0.0227245 -0.0214651
internal_weight=0 67 46 36 31 36 21
internal_count=113 67 46 36 31 36 21
is_linear=0
shrinkage=0.05


Tree=20
num_leaves=9
num_cat=0
split_feature=2 2 2 1 0 0 0 0
split_gain=11.7305 1.83781 0.255372 0.102285 0.097411 0.0484191 0.0494029 0.00877108
threshold=3.4000000000000004 5.0500000000000007 4.2500000000000009 3.0500000000000003 6.3500000000000005 4.9500000000000011 5.1500000000000012 6.5500000000000007
decision_type=2 2 2 2 2 2 2 2
left_child=5 2 -2 7 -4 -1 -7 -3
right_child=1 3 4 -5 -6 6 -8 -9
leaf_value=-0.022531663295295504 0.00028539435317118963 0.018757064234126687 0.011294020978467802 0.025875299200415616 0.0048327844962477683 -0.016995188249991487 -0.021444101321200532 0.020803084596991539
leaf_weight=18 14.999999999999998 11.000000000000005 14.000000000000002 9.9999999999999982 9.9999999999999982 13.000000000000002 11.999999999999998 9.9999999999999982
leaf_count=18 15 11 14 10 10 13 12 10
internal_value=0 0.0126262 0.00540321 0.0217133 0.00860184 -0.0205543 -0.0191307 0.0197314
internal_weight=0 70 39 31 24 43 25 21
internal_count=113 70 39 31 24 43 25 21
is_linear=0
shrinkage=0.05


Tree=21
num_leaves=9
num_cat=0
split_feature=2 2 2 1 1 0 0 1
split_gain=10.5868 1.66189 0.164867 0.0999815 0.0761422 0.0436982 0.0445861 0.0133068
threshold=3.4000000000000004 4.7500000000000009 5.8500000000000005 2.6500000000000008 2.9500000000000006 4.9500000000000011 5.1500000000000012 2.9500000000000006
decision_type=2 2 2 2 2 2 2 2
left_child=5 3 4 -2 -3 -1 -7 -5
right_child=1 2 -4 7 -6 6 -8 -9
leaf_value=-0.021405080043607291 -0.00098311999812722168 0.014120689540037085 0.024226790592074395 0.0038503316976129993 0.019169851252809168 -0.01614542884322313 -0.020371896401047709 0.0064297466725111016
leaf_weight=18 10.000000000000002 14.000000000000002 9.9999999999999982 10.000000000000002 15.999999999999998 13.000000000000002 11.999999999999998 9.9999999999999982
leaf_count=18 10 14 10 10 16 13 12 10
internal_value=0 0.0119949 0.0186669 0.00309899 0.0168136 -0.0195266 -0.0181741 0.00514004
internal_weight=0 70 40 30 30 43 25 20
internal_count=113 70 40 30 30 43 25 20
is_linear=0
shrinkage=0.05


Tree=22
num_leaves=8
num_cat=0
split_feature=2 2 2 1 0 0 0
split_gain=9.55455 1.52059 0.209437 0.0886552 0.0847476 0.0394376 0.040239
threshold=3.4000000000000004 5.0500000000000007 4.2500000000000009 2.9500000000000006 6.3500000000000005 4.9500000000000011 5.1500000000000012
decision_type=2 2 2 2 2 2 2
left_child=5 2 -2 -3 -4 -1 -7
right_child=1 3 4 -5 -6 6 -8
leaf_value=-0.020334825664758683 0.00019030383477608364 0.016514509601088669 0.010232834218602093 0.021933207122815979 0.0042061939276754855 -0.015338157432583658 -0.019353301636874678
leaf_weight=18 14.999999999999998 13.000000000000002 14.000000000000002 18 9.9999999999999982 13.000000000000002 11.999999999999998
leaf_count=18 15 13 14 18 10 13 12
internal_value=0 0.0113952 0.00482503 0.0196609 0.00772173 -0.0185503 -0.0172654
internal_weight=0 70 39 31 24 43 25
internal_count=113 70 39 31 24 43 25
is_linear=0
shrinkage=0.05


Tree=23
num_leaves=9
num_cat=0
split_feature=2 2 2 2 1 1 2 0
split_gain=8.63405 1.20496 0.252611 0.14217 0.0829222 0.0238354 0.0285032 0.00517821
threshold=3.6500000000000008 5.0500000000000007 1.6500000000000001 4.4500000000000011 3.0500000000000003 3.3500000000000001 1.4500000000000002 6.5500000000000007
decision_type=2 2 2 2 2 2 2 2
left_child=2 3 5 -2 7 -1 -7 -3
right_child=1 4 -4 -5 -6 6 -8 -9
leaf_value=-0.020155137032270433 0.0020875698421150449 0.016144707494161338 -0.009649810083210468 0.0083718157218148313 0.022425243109464647 -0.019301864098418837 -0.015613531731069089 0.017716782800853256
leaf_weight=14.999999999999998 18 11.000000000000005 9.9999999999999982 18 9.9999999999999982 11.000000000000002 9.9999999999999982 9.9999999999999982
leaf_count=15 18 11 10 18 10 11 10 10
internal_value=0 0.011452 -0.01668 0.00522969 0.0186778 -0.0186329 -0.0175455 0.0168933
internal_weight=0 67 46 36 31 36 21 21
internal_count=113 67 46 36 31 36 21 21
is_linear=0
shrinkage=0.05


Tree=24
num_leaves=10
num_cat=0
split_feature=2 2 2 1 1 2 0 1 2
split_gain=7.80328 1.23675 0.132986 0.0801439 0.0575236 0.0321928 0.0141868 0.00974278 0.00475913
threshold=3.4000000000000004 4.7500000000000009 5.8500000000000005 2.6500000000000008 2.9500000000000006 1.4500000000000002 5.0500000000000007 2.9500000000000006 1.3500000000000003
decision_type=2 2 2 2 2 2 2 2 2
left_child=5 3 4 -2 -3 8 -7 -5 -1
right_child=1 2 -4 7 -6 6 -8 -9 -10
leaf_value=-0.017460074275732037 -0.0010309090092778203 0.012048578049455368 0.021047155875712636 0.0033476809877902255 0.016437213693279773 -0.014191494069316166 -0.016677421703934669 0.0055548029439523826 -0.019002658799290653
leaf_weight=10 10.000000000000002 14.000000000000002 9.9999999999999982 10.000000000000002 15.999999999999998 11.000000000000002 11.999999999999998 9.9999999999999982 10
leaf_count=10 10 14 10 10 16 11 12 10 10
internal_value=0 0.010298 0.0160537 0.00262386 0.0143892 -0.0167643 -0.0154885 0.00445124 -0.0182314
internal_weight=0 70 40 30 30 43 23 20 20
internal_count=113 70 40 30 30 43 23 20 20
is_linear=0
shrinkage=0.05


Tree=25
num_leaves=9
num_cat=0
split_feature=2 2 1 2 1 1 2 1
split_gain=7.05157 1.27641 0.12472 0.118645 0.0333393 0.0200639 0.0157452 0.0103926
threshold=1.8 4.7500000000000009 2.9500000000000006 3.9500000000000006 3.0500000000000003 3.2500000000000004 1.4500000000000002 2.9500000000000006
decision_type=2 2 2 2 2 2 2 2
left_child=5 3 -3 -2 -4 -1 -7 -5
right_child=1 2 4 7 -6 6 -8 -9
leaf_value=-0.018319180061419804 -0.0022732048549435357 0.012164367466337152 0.015829992971637029 0.0030945719685405485 0.01972283571958542 -0.017421696876937686 -0.014893828704953194 0.0052770630281884223
leaf_weight=14.999999999999998 10.999999999999998 18 11.000000000000002 12.000000000000002 10.999999999999998 11.000000000000002 13.999999999999998 9.9999999999999982
leaf_count=15 11 18 11 12 11 11 14 10
internal_value=0 0.00924575 0.015251 0.00196667 0.0177764 -0.0168735 -0.0160061 0.00408661
internal_weight=0 73 40 33 22 40 25 22
internal_count=113 73 40 33 22 40 25 22
is_linear=0
shrinkage=0.05


Tree=26
num_leaves=9
num_cat=0
split_feature=2 2 2 0 1 1 2 1
split_gain=6.36404 1.16448 0.182208 0.0697101 0.0631312 0.0181077 0.0142101 0.00304144
threshold=1.8 5.0500000000000007 4.2500000000000009 6.3500000000000005 3.0500000000000003 3.2500000000000004 1.4500000000000002 2.8500000000000001
decision_type=2 2 2 2 2 2 2 2
left_child=5 2 -2 -4 7 -1 -7 -3
right_child=1 4 3 -5 -6 6 -8 -9
leaf_value=-0.017403220733006795 -0.0004446713978217708 0.015150658904828801 0.0084875985813726261 0.0030217258585616951 0.019403779208660127 -0.016550611230460074 -0.014149137323589198 0.013945837421342727
leaf_weight=14.999999999999998 18 11.000000000000004 14.000000000000002 9.9999999999999982 9.9999999999999982 11.000000000000002 13.999999999999998 10
leaf_count=15 18 11 14 10 10 11 14 10
internal_value=0 0.00878347 0.00335808 0.00621015 0.016134 -0.0160298 -0.0152058 0.0145769
internal_weight=0 73 42 24 31 40 25 21
internal_count=113 73 42 24 31 40 25 21
is_linear=0
shrinkage=0.05


Tree=27
num_leaves=8
num_cat=0
split_feature=2 2 2 2 1 1 2
split_gain=5.75298 0.825072 0.163915 0.0897197 0.0593033 0.0185911 0.0206445
threshold=3.6500000000000008 5.0500000000000007 1.6500000000000001 4.4500000000000011 2.9500000000000006 3.3500000000000001 1.4500000000000002
decision_type=2 2 2 2 2 2 2
left_child=2 3 5 -2 -3 -1 -7
right_child=1 4 -4 -5 -6 6 -8
leaf_value=-0.016533060073852541 0.0017030710121616723 0.012753964709834406 -0.0079525028914213172 0.0066952803068690836 0.017185788743922282 -0.01572308086536147 -0.012584124468266964
leaf_weight=14.999999999999998 18 13.000000000000002 9.9999999999999982 18 18 11.000000000000002 9.9999999999999982
leaf_count=15 18 13 10 18 18 11 10
internal_value=0 0.009348 -0.0136156 0.00419918 0.0153273 -0.0151886 -0.0142283
internal_weight=0 67 46 36 31 36 21
internal_count=113 67 46 36 31 36 21
is_linear=0
shrinkage=0.05


Tree=28
num_leaves=9
num_cat=0
split_feature=2 2 2 2 1 2 1 2
split_gain=5.21094 0.949314 0.107897 0.0890838 0.046133 0.0397886 0.0138546 0.0104388
threshold=1.8 4.8500000000000005 3.9500000000000006 5.8500000000000005 2.9500000000000006 5.4500000000000011 3.2500000000000004 1.4500000000000002
decision_type=2 2 2 2 2 2 2 2
left_child=6 2 -2 5 -4 -3 -1 -8
right_child=1 3 4 -5 -6 -7 7 -9
leaf_value=-0.015706406831741331 -0.0019591307775540787 0.013670627528335897 0.0019196492592947409 0.017603578420821577 0.0062188108476523979 0.0097642460774460989 -0.014936926893212575 -0.012878640328666993
leaf_weight=14.999999999999998 10.999999999999998 16.000000000000004 13.000000000000002 9.9999999999999982 11.999999999999998 10.999999999999998 11.000000000000002 13.999999999999998
leaf_count=15 11 16 13 10 12 11 11 14
internal_value=0 0.00794799 0.00216752 0.0135722 0.00398325 0.0120791 -0.0145051 -0.0137843
internal_weight=0 73 36 37 25 27 40 25
internal_count=113 73 36 37 25 27 40 25
is_linear=0
shrinkage=0.05


Tree=29
num_leaves=8
num_cat=0
split_feature=2 2 2 1 2 1 2
split_gain=4.70287 0.864308 0.133803 0.0531391 0.0408224 0.0125037 0.00942106
threshold=1.8 5.0500000000000007 3.9500000000000006 2.9500000000000006 4.6500000000000012 3.2500000000000004 1.4500000000000002
decision_type=2 2 2 2 2 2 2
left_child=5 2 -2 -3 -4 -1 -7
right_child=1 3 4 -5 -6 6 -8
leaf_value=-0.014921086728572848 -0.0018611742691560227 0.011447350867092608 0.0030156177885752788 0.015642525128916736 0.0066926062017535941 -0.01419008062644438 -0.012234708254358599
leaf_weight=14.999999999999998 10.999999999999998 13.000000000000002 18.000000000000004 18 12.999999999999998 11.000000000000002 13.999999999999998
leaf_count=15 11 13 18 18 13 11 14
internal_value=0 0.00755059 0.00287648 0.0138833 0.00455758 -0.0137798 -0.0130951
internal_weight=0 73 42 31 31 40 25
internal_count=113 73 42 31 31 40 25
is_linear=0
shrinkage=0.05


Tree=30
num_leaves=9
num_cat=0
split_feature=2 2 2 1 2 1 2 1
split_gain=4.24434 0.780038 0.120757 0.0489748 0.0368422 0.0112846 0.0085025 0.00451768
threshold=1.8 5.0500000000000007 3.9500000000000006 3.0500000000000003 4.6500000000000012 3.2500000000000004 1.4500000000000002 2.8500000000000001
decision_type=2 2 2 2 2 2 2 2
left_child=5 2 -2 7 -4 -1 -7 -3
right_child=1 3 4 -5 -6 6 -8 -9
leaf_value=-0.014175032426913578 -0.0017681153829802168 0.012516922428304409 0.0028648369848572955 0.016069048177450897 0.0063579759488885225 -0.013480576720427379 -0.011622972999300277 0.011048533478751777
leaf_weight=14.999999999999998 10.999999999999998 11.000000000000004 18.000000000000004 9.9999999999999982 12.999999999999998 11.000000000000002 13.999999999999998 10
leaf_count=15 11 11 18 10 13 11 14 10
internal_value=0 0.00717306 0.00273265 0.0131891 0.0043297 -0.0130908 -0.0124403 0.0118177
internal_weight=0 73 42 31 31 40 25 21
internal_count=113 73 42 31 31 40 25 21
is_linear=0
shrinkage=0.05


Tree=31
num_leaves=9
num_cat=0
split_feature=2 2 2 0 2 2 1 1
split_gain=3.83052 0.703985 0.109464 0.0574904 0.0469794 0.0959217 0.0101844 0.00793284
threshold=1.8 5.0500000000000007 4.2500000000000009 6.3500000000000005 5.8500000000000005 5.4500000000000011 3.2500000000000004 3.5500000000000003
decision_type=2 2 2 2 2 2 2 2
left_child=6 2 -2 -4 5 -3 -1 -8
right_child=1 4 3 -5 -6 -7 7 -9
leaf_value=-0.013466280425588291 -0.00035146072299944032 0.014730637427419414 0.0068748593418734199 0.0019111170526593926 0.015350313850212844 0.00796448679386892 -0.010891268930087484 -0.012674026105266351
leaf_weight=14.999999999999998 18 10.000000000000005 14.000000000000002 9.9999999999999982 9.9999999999999982 10.999999999999998 12.000000000000002 12.999999999999998
leaf_count=15 18 10 14 10 10 11 12 13
internal_value=0 0.00681441 0.00259602 0.00480663 0.0125296 0.0111865 -0.0124363 -0.0118183
internal_weight=0 73 42 24 31 21 40 25
internal_count=113 73 42 24 31 21 40 25
is_linear=0
shrinkage=0.05


Tree=32
num_leaves=8
num_cat=0
split_feature=2 2 1 0 1 0 0
split_gain=3.45936 0.566804 0.0938322 0.0663557 0.0456877 0.0180406 0.0266573
threshold=3.4000000000000004 5.0500000000000007 2.6500000000000008 6.0500000000000007 2.9500000000000006 4.9500000000000011 5.1500000000000012
decision_type=2 2 2 2 2 2 2
left_child=5 2 -2 -4 -3 -1 -7
right_child=1 4 3 -5 -6 6 -8
leaf_value=-0.012368998076352809 -0.00062302631469300163 0.0096444854226249901 0.0077746550086885665 0.0025826398137724031 0.0135344229095305 -0.0087243617154084702 -0.011992391509314379
leaf_weight=18 12.999999999999998 13.000000000000002 10.000000000000002 15.999999999999998 18 13.000000000000002 11.999999999999998
leaf_count=18 13 13 10 16 18 13 12
internal_value=0 0.00685668 0.00284537 0.00457957 0.0119032 -0.011162 -0.010293
internal_weight=0 70 39 26 31 43 25
internal_count=113 70 39 26 31 43 25
is_linear=0
shrinkage=0.05


Tree=33
num_leaves=9
num_cat=0
split_feature=2 2 1 2 0 1 0 2
split_gain=3.13559 0.582577 0.0779481 0.0542184 0.0167081 0.00860976 0.00768461 0.00738658
threshold=1.8 4.7500000000000009 2.9500000000000006 3.9500000000000006 6.5500000000000007 3.2500000000000004 6.1500000000000012 1.4500000000000002
decision_type=2 2 2 2 2 2 2 2
left_child=5 3 -3 -2 -4 -1 -5 -7
right_child=1 2 4 6 -6 7 -8 -9
leaf_value=-0.012198814253012341 -0.0016184599731456151 0.0077822763938456777 0.013728355513885612 0.0017463107826188201 0.010961070672298472 -0.011653172580355945 0.0036152694077992982 -0.0099217563468430719
leaf_weight=14.999999999999998 10.999999999999998 18 10.000000000000002 11.000000000000002 11.999999999999998 11.000000000000002 10.999999999999998 13.999999999999998
leaf_count=15 11 18 10 11 12 11 11 14
internal_value=0 0.00616537 0.0102224 0.00124771 0.0122189 -0.0112518 0.00268079 -0.0106836
internal_weight=0 73 40 33 22 40 22 25
internal_count=113 73 40 33 22 40 22 25
is_linear=0
shrinkage=0.05


Tree=34
num_leaves=9
num_cat=0
split_feature=2 2 2 2 2 1 1 1
split_gain=2.82987 0.530435 0.0642766 0.0598615 0.0402589 0.034189 0.00777031 0.00697919
threshold=1.8 4.8500000000000005 5.8500000000000005 3.9500000000000006 5.4500000000000011 2.9500000000000006 3.2500000000000004 3.5500000000000003
decision_type=2 2 2 2 2 2 2 2
left_child=6 3 4 -2 -3 -5 -1 -8
right_child=1 2 -4 5 -6 -7 7 -9
leaf_value=-0.01158887361486753 -0.001537536694244905 0.010393808664230161 0.013485561534762384 0.0011121530820114105 0.0064644051546400242 0.0048131686635315418 -0.0092798724925766372 -0.010952041874854612
leaf_weight=14.999999999999998 10.999999999999998 16.000000000000004 9.9999999999999982 13.000000000000002 10.999999999999998 11.999999999999998 12.000000000000002 12.999999999999998
leaf_count=15 11 16 10 13 11 12 12 13
internal_value=0 0.0058571 0.0100612 0.0015362 0.00879294 0.00288864 -0.0106892 -0.0101494
internal_weight=0 73 37 36 27 25 40 25
internal_count=113 73 37 36 27 25 40 25
is_linear=0
shrinkage=0.05


Tree=35
num_leaves=9
num_cat=0
split_feature=2 2 2 0 0 2 1 2
split_gain=2.55396 0.482448 0.0743998 0.0469978 0.0253531 0.0642129 0.0070127 0.00663562
threshold=1.8 5.0500000000000007 3.9500000000000006 6.4500000000000011 6.3500000000000005 4.4500000000000011 3.2500000000000004 1.4500000000000002
decision_type=2 2 2 2 2 2 2 2
left_child=6 2 -2 -3 5 -4 -1 -8
right_child=1 3 4 -5 -6 -7 7 -9
leaf_value=-0.011009429916739463 -0.0014606601643291387 0.01274521929832796 0.0014126033242791883 0.0087483308572126068 0.0012535603460855783 0.0069485826015641744 -0.010560915684750809 -0.0089198707735964246
leaf_weight=14.999999999999998 10.999999999999998 12.000000000000002 10.000000000000005 19 9.9999999999999982 10.999999999999998 11.000000000000002 13.999999999999998
leaf_count=15 11 12 10 19 10 11 11 14
internal_value=0 0.00556424 0.00207211 0.0102955 0.00332568 0.0043124 -0.0101547 -0.00964193
internal_weight=0 73 42 31 31 21 40 25
internal_count=113 73 42 31 31 21 40 25
is_linear=0
shrinkage=0.05


Tree=36
num_leaves=9
num_cat=0
split_feature=2 2 2 0 0 2 1 1
split_gain=2.30495 0.43541 0.0671459 0.0424155 0.0228812 0.0579521 0.00632897 0.00626956
threshold=1.8 5.0500000000000007 3.9500000000000006 6.4500000000000011 6.3500000000000005 4.4500000000000011 3.2500000000000004 3.5500000000000003
decision_type=2 2 2 2 2 2 2 2
left_child=6 2 -2 -3 5 -4 -1 -8
right_child=1 3 4 -5 -6 -7 7 -9
leaf_value=-0.010458958546320597 -0.0013876271518793975 0.012107958567018308 0.0013419731846079223 0.0083109144415510327 0.0011908823368139566 0.0066011534284122972 -0.0083356968437631913 -0.0099205760786739688
leaf_weight=14.999999999999998 10.999999999999998 12.000000000000002 10.000000000000005 19 9.9999999999999982 10.999999999999998 12.000000000000002 12.999999999999998
leaf_count=15 11 12 10 19 10 11 12 13
internal_value=0 0.00528603 0.00196851 0.00978074 0.00315939 0.00409678 -0.00964701 -0.00915983
internal_weight=0 73 42 31 31 21 40 25
internal_count=113 73 42 31 31 21 40 25
is_linear=0
shrinkage=0.05


Tree=37
num_leaves=10
num_cat=0
split_feature=2 2 1 2 2 1 0 0 0
split_gain=2.08041 0.310879 0.0820735 0.0407697 0.0792894 0.0397295 0.0394104 0.0073331 0.00221734
threshold=3.6500000000000008 5.0500000000000007 3.0500000000000003 5.8500000000000005 5.4500000000000011 2.6500000000000008 6.3500000000000005 4.9500000000000011 5.1500000000000012
decision_type=2 2 2 2 2 2 2 2 2
left_child=2 5 -1 4 -3 -2 -7 -4 -9
right_child=1 3 7 -5 -6 6 -8 8 -10
leaf_value=-0.0046327142355342714 -4.3174599043347625e-05 0.011262725424021475 -0.010504237748682499 0.011919351564720274 0.005111087672412396 0.0051836205956836533 0.0011313381115905941 -0.0084218597886237204 -0.0094046553519244007
leaf_weight=11.999999999999998 10.999999999999998 10.000000000000005 10.999999999999998 9.9999999999999982 10.999999999999998 15.000000000000002 9.9999999999999982 11.000000000000002 11.999999999999998
leaf_count=12 11 10 11 10 11 15 10 11 12
internal_value=0 0.00562143 -0.00818773 0.0092917 0.00804044 0.00246091 0.00356271 -0.00944244 -0.00893462
internal_weight=0 67 46 31 21 36 25 34 23
internal_count=113 67 46 31 21 36 25 34 23
is_linear=0
shrinkage=0.05


Tree=38
num_leaves=9
num_cat=0
split_feature=2 2 2 2 2 1 1 2
split_gain=1.8922 0.352716 0.0528718 0.0383574 0.0363253 0.0264588 0.00667144 0.00581834
threshold=1.8 4.8500000000000005 5.8500000000000005 3.9500000000000006 5.4500000000000011 2.9500000000000006 3.2500000000000004 1.4500000000000002
decision_type=2 2 2 2 2 2 2 2
left_child=6 3 4 -2 -3 -5 -1 -8
right_child=1 2 -4 5 -6 -7 7 -9
leaf_value=-0.0095743138094743097 -0.0011945217001167211 0.0085880384402116754 0.011323384458664806 0.00078574508034552507 0.0048555333675308664 0.0040415849381436912 -0.0091010357845913263 -0.0075643704148075953
leaf_weight=14.999999999999998 10.999999999999998 16.000000000000004 9.9999999999999982 13.000000000000002 10.999999999999998 11.999999999999998 11.000000000000002 13.999999999999998
leaf_count=15 11 16 10 13 11 12 11 14
internal_value=0 0.00478941 0.00821766 0.00126594 0.00706739 0.00234855 -0.00874068 -0.0082405
internal_weight=0 73 37 36 27 25 40 25
internal_count=113 73 37 36 27 25 40 25
is_linear=0
shrinkage=0.05


Tree=39
num_leaves=8
num_cat=0
split_feature=2 2 2 0 0 1 1
split_gain=1.70771 0.322767 0.0500132 0.0418785 0.0354203 0.00602097 0.00559758
threshold=1.8 5.0500000000000007 4.2500000000000009 6.8500000000000005 6.3500000000000005 3.2500000000000004 3.5500000000000003
decision_type=2 2 2 2 2 2 2
left_child=5 2 -2 -3 -4 -1 -7
right_child=1 3 4 -5 -6 6 -8
leaf_value=-0.009095598130176465 -0.00029870082022777448 0.0097827238135505465 0.0048112448770552861 0.0059418063653125007 0.00091507652774453169 -0.0070497586178438106 -0.0085472960526553482
leaf_weight=14.999999999999998 18 20.000000000000004 14.000000000000002 10.999999999999998 9.9999999999999982 12.000000000000002 12.999999999999998
leaf_count=15 18 20 14 11 10 12 13
internal_value=0 0.00454994 0.00169361 0.00841982 0.00318784 -0.00830365 -0.00782848
internal_weight=0 73 42 31 24 40 25
internal_count=113 73 42 31 24 40 25
is_linear=0
shrinkage=0.05


Tree=40
num_leaves=8
num_cat=0
split_feature=2 2 2 1 1 0 1
split_gain=1.54121 0.291297 0.0451369 0.0392999 0.0331621 0.00578028 0.00719816
threshold=1.8 5.0500000000000007 4.2500000000000009 2.9500000000000006 2.9500000000000006 4.8500000000000005 3.6500000000000008
decision_type=2 2 2 2 2 2 2
left_child=5 2 -2 -3 -4 -1 -7
right_child=1 3 4 -5 -6 6 -8
leaf_value=-0.0070222529475218983 -0.00028376582207177611 0.0059039937224812222 0.0011698503173344455 0.0095117617825356618 0.0048870482947677377 -0.0089316754601895792 -0.0072410857072100045
leaf_weight=12.999999999999998 18 13.000000000000002 12.000000000000002 18 11.999999999999998 17.000000000000004 9.9999999999999982
leaf_count=13 18 13 12 18 12 17 10
internal_value=0 0.00432245 0.00160893 0.00799883 0.00302845 -0.00788847 -0.00830553
internal_weight=0 73 42 31 24 40 27
internal_count=113 73 42 31 24 40 27
is_linear=0
shrinkage=0.05


Tree=41
num_leaves=8
num_cat=0
split_feature=2 2 1 1 0 1 1
split_gain=1.39094 0.26407 0.0629542 0.0251288 0.0162361 0.00560113 0.00546071
threshold=1.8 4.7500000000000009 2.9500000000000006 2.8500000000000001 6.5500000000000007 3.2500000000000004 3.5500000000000003
decision_type=2 2 2 2 2 2 2
left_child=5 3 -3 -2 -4 -1 -7
right_child=1 2 4 -5 -6 6 -8
leaf_value=-0.008257881849228094 0.0022176704311277716 0.0046448420319292281 0.010119971334934232 -0.00054308700337595147 0.0073920478190605838 -0.0062665986624779171 -0.007745714148936364
leaf_weight=14.999999999999998 15.999999999999998 18 10.000000000000002 17 11.999999999999998 12.000000000000002 12.999999999999998
leaf_count=15 16 18 10 17 12 12 13
internal_value=0 0.00410632 0.00683779 0.000795462 0.00863201 -0.00749404 -0.00703574
internal_weight=0 73 40 33 22 40 25
internal_count=113 73 40 33 22 40 25
is_linear=0
shrinkage=0.05


Tree=42
num_leaves=9
num_cat=0
split_feature=2 1 2 0 0 2 2 0
split_gain=1.26723 0.257846 0.149324 0.0406318 0.0170935 0.0377359 0.0138001 0.00864369
threshold=3.9500000000000006 2.9500000000000006 5.0500000000000007 6.4500000000000011 6.3500000000000005 4.4500000000000011 1.5500000000000003 5.0500000000000007
decision_type=2 2 2 2 2 2 2 2
left_child=1 -1 4 -4 5 -2 7 -3
right_child=2 6 3 -5 -6 -7 -8 -9
leaf_value=0.00094144994906276806 0.00093571551697095795 -0.007858187857394415 0.0095338496534774688 0.0058174994087925088 0.0006470495427493006 0.0051795709200880748 -0.0090408538244306485 -0.0060578037014541531
leaf_weight=10.999999999999998 10.000000000000005 15.000000000000002 12.000000000000002 19 9.9999999999999982 10.999999999999998 12.999999999999998 11.999999999999998
leaf_count=11 10 15 12 19 10 11 13 12
internal_value=0 -0.00583807 0.00480228 0.00725609 0.00234848 0.00315869 -0.00770244 -0.00705802
internal_weight=0 51 62 31 31 21 40 27
internal_count=113 51 62 31 31 21 40 27
is_linear=0
shrinkage=0.05


Tree=43
num_leaves=9
num_cat=0
split_feature=2 1 2 0 0 2 2 0
split_gain=1.14368 0.232706 0.134765 0.0366702 0.0154269 0.0340566 0.0124546 0.00780093
threshold=3.9500000000000006 2.9500000000000006 5.0500000000000007 6.4500000000000011 6.3500000000000005 4.4500000000000011 1.5500000000000003 5.0500000000000007
decision_type=2 2 2 2 2 2 2 2
left_child=1 -1 4 -4 5 -2 7 -3
right_child=2 6 3 -5 -6 -7 -8 -9
leaf_value=0.00089437739172188401 0.00088892968502477681 -0.0074652785536212215 0.0090571570637014969 0.0055266244729098527 0.00061469709035009154 0.0049205925315618515 -0.008588811142656666 -0.0057549134983370699
leaf_weight=10.999999999999998 10.000000000000005 15.000000000000002 12.000000000000002 19 9.9999999999999982 10.999999999999998 12.999999999999998 11.999999999999998
leaf_count=11 10 15 12 19 10 11 13 12
internal_value=0 -0.00554617 0.00456217 0.00689328 0.00223106 0.00300075 -0.00731732 -0.00670512
internal_weight=0 51 62 31 31 21 40 27
internal_count=113 51 62 31 31 21 40 27
is_linear=0
shrinkage=0.05


Tree=44
num_leaves=10
num_cat=0
split_feature=2 1 2 2 2 0 2 2 0
split_gain=1.03217 0.210017 0.121626 0.038033 0.0658152 0.0139228 0.0307361 0.0112402 0.00704034
threshold=3.9500000000000006 2.9500000000000006 5.0500000000000007 5.8500000000000005 5.4500000000000011 6.3500000000000005 4.4500000000000011 1.5500000000000003 5.0500000000000007
decision_type=2 2 2 2 2 2 2 2 2
left_child=1 -1 5 4 -4 6 -2 8 -3
right_child=2 7 3 -5 -6 -7 -8 -9 -10
leaf_value=0.0008496587259948931 0.00084448322304524431 -0.0070920146893088997 0.0082758377492427784 0.0090865444019436834 0.0026712130014361307 0.00058396219799760729 0.0046745627779852259 -0.0081593707203865048 -0.0054671678536882011
leaf_weight=10.999999999999998 10.000000000000005 15.000000000000002 10.000000000000005 9.9999999999999982 10.999999999999998 9.9999999999999982 10.999999999999998 12.999999999999998 11.999999999999998
leaf_count=11 10 15 10 10 11 10 11 13 12
internal_value=0 -0.00526886 0.00433406 0.00654862 0.00534008 0.0021195 0.00285072 -0.00695145 -0.00636986
internal_weight=0 51 62 31 21 31 21 40 27
internal_count=113 51 62 31 21 31 21 40 27
is_linear=0
shrinkage=0.05


Tree=45
num_leaves=9
num_cat=0
split_feature=2 1 2 0 0 2 2 1
split_gain=0.931531 0.189541 0.109767 0.0357997 0.0125653 0.0277393 0.0101443 0.006361
threshold=3.9500000000000006 2.9500000000000006 5.0500000000000007 6.8500000000000005 6.3500000000000005 4.4500000000000011 1.5500000000000003 3.3500000000000001
decision_type=2 2 2 2 2 2 2 2
left_child=1 -1 4 -4 5 -2 7 -3
right_child=2 6 3 -5 -6 -7 -8 -9
leaf_value=0.00080717559057203207 0.00080225912039168137 -0.0070520017575472563 0.0074813029379583885 0.0039300676435232162 0.00055476404028013352 0.0044408347118984571 -0.0077514022517089672 -0.0054627589059664926
leaf_weight=10.999999999999998 10.000000000000005 10.000000000000002 20.000000000000004 10.999999999999998 9.9999999999999982 10.999999999999998 12.999999999999998 17
leaf_count=11 10 10 20 11 10 11 13 17
internal_value=0 -0.00500542 0.00411736 0.00622119 0.00201353 0.00270818 -0.00660388 -0.00605137
internal_weight=0 51 62 31 31 21 40 27
internal_count=113 51 62 31 31 21 40 27
is_linear=0
shrinkage=0.05


Tree=46
num_leaves=9
num_cat=0
split_feature=2 1 0 1 0 2 2 0
split_gain=0.840707 0.17106 0.105601 0.251001 0.181716 0.0730844 0.00915524 0.00592527
threshold=3.9500000000000006 2.9500000000000006 5.8500000000000005 2.9500000000000006 6.3500000000000005 5.1500000000000012 1.5500000000000003 5.0500000000000007
decision_type=2 2 2 2 2 2 2 2
left_child=1 -1 -2 4 -4 -5 7 -3
right_child=2 6 3 5 -6 -7 -8 -9
leaf_value=0.00076681693846529183 0.0086170249397400766 -0.0064113012515008439 -0.0055941397747532873 0.0035135085880756371 0.003494219545973465 0.0084492433133224656 -0.007363831996917725 -0.0049206714921941367
leaf_weight=10.999999999999998 9.9999999999999982 15.000000000000002 11.000000000000002 15.000000000000002 10.999999999999998 14.999999999999998 12.999999999999998 11.999999999999998
leaf_count=11 10 15 11 15 11 15 13 12
internal_value=0 -0.00475515 0.00391149 0.00300658 -0.00104996 0.00598138 -0.00627368 -0.0057488
internal_weight=0 51 62 52 22 30 40 27
internal_count=113 51 62 52 22 30 40 27
is_linear=0
shrinkage=0.05


Tree=47
num_leaves=9
num_cat=0
split_feature=2 1 0 1 0 2 2 1
split_gain=0.758738 0.154382 0.0953045 0.226529 0.163999 0.0659587 0.00826261 0.00534768
threshold=3.9500000000000006 2.9500000000000006 5.8500000000000005 2.9500000000000006 6.3500000000000005 5.1500000000000012 1.5500000000000003 3.3500000000000001
decision_type=2 2 2 2 2 2 2 2
left_child=1 -1 -2 4 -4 -5 7 -3
right_child=2 6 3 5 -6 -7 -8 -9
leaf_value=0.00072847604963251135 0.0081861734250560404 -0.0063788367062807064 -0.0053144328084520302 0.0033378331611553821 0.0033195084363052789 0.0080267812063296636 -0.0069956406377829046 -0.0049216663738822237
leaf_weight=10.999999999999998 9.9999999999999982 10.000000000000002 11.000000000000002 15.000000000000002 10.999999999999998 14.999999999999998 12.999999999999998 17
leaf_count=11 10 10 11 15 11 15 13 17
internal_value=0 -0.00451739 0.00371592 0.00285625 -0.000997462 0.00568231 -0.00596 -0.00546136
internal_weight=0 51 62 52 22 30 40 27
internal_count=113 51 62 52 22 30 40 27
is_linear=0
shrinkage=0.05


Tree=48
num_leaves=9
num_cat=0
split_feature=2 1 0 1 0 2 2 0
split_gain=0.684761 0.13933 0.0860123 0.204442 0.148009 0.0595277 0.007457 0.004987
threshold=3.9500000000000006 2.9500000000000006 5.8500000000000005 2.9500000000000006 6.3500000000000005 5.1500000000000012 1.5500000000000003 5.0500000000000007
decision_type=2 2 2 2 2 2 2 2
left_child=1 -1 -2 4 -4 -5 7 -3
right_child=2 6 3 5 -6 -7 -8 -9
leaf_value=0.00069205219730396166 0.0077768650744110355 -0.0057960804489751647 -0.0050487112677232776 0.0031709414968887958 0.0031535330080342569 0.0076254421751946223 -0.0066458585027318736 -0.00442855468330284
leaf_weight=10.999999999999998 9.9999999999999982 15.000000000000002 11.000000000000002 15.000000000000002 10.999999999999998 14.999999999999998 12.999999999999998 11.999999999999998
leaf_count=11 10 15 11 15 11 15 13 12
internal_value=0 -0.00429152 0.00353012 0.00271344 -0.000947589 0.00539819 -0.005662 -0.00518829
internal_weight=0 51 62 52 22 30 40 27
internal_count=113 51 62 52 22 30 40 27
is_linear=0
shrinkage=0.05


Tree=49
num_leaves=9
num_cat=0
split_feature=2 1 2 1 2 0 2 0
split_gain=0.617997 0.125745 0.0811199 0.140253 0.120274 0.12352 0.00672995 0.00450077
threshold=3.9500000000000006 2.9500000000000006 5.8500000000000005 2.6500000000000008 4.8500000000000005 6.4500000000000011 1.5500000000000003 5.0500000000000007
decision_type=2 2 2 2 2 2 2 2
left_child=1 -1 3 -2 -5 -6 7 -3
right_child=2 6 -4 4 5 -7 -8 -9
leaf_value=0.00065744979815049605 -0.0027611811459064485 -0.0055062765007217714 0.0074778121337294584 0.0010213096183724702 0.0097987929696197757 0.0022746055235620586 -0.0063135655883413098 -0.0042071268428117035
leaf_weight=10.999999999999998 9.9999999999999982 15.000000000000002 9.9999999999999982 20 12.000000000000002 9.9999999999999982 12.999999999999998 11.999999999999998
leaf_count=11 10 15 10 20 12 10 13 12
internal_value=0 -0.00407694 0.00335361 0.0025605 0.00382757 0.00637871 -0.0053789 -0.00492888
internal_weight=0 51 62 52 42 22 40 27
internal_count=113 51 62 52 42 22 40 27
is_linear=0
shrinkage=0.05


Tree=50
num_leaves=9
num_cat=0
split_feature=2 1 0 1 0 0 2 1
split_gain=0.557742 0.113485 0.0775416 0.180512 0.126697 0.0519262 0.00607378 0.00419233
threshold=3.9500000000000006 2.9500000000000006 5.8500000000000005 2.9500000000000006 6.3500000000000005 6.4500000000000011 1.5500000000000003 3.3500000000000001
decision_type=2 2 2 2 2 2 2 2
left_child=1 -1 -2 4 -4 -5 7 -3
right_child=2 6 3 5 -6 -7 -8 -9
leaf_value=0.00062457709361545075 0.0072181438934057962 -0.0054947770386934262 -0.0048239776060323807 0.007667151059616694 0.0027647976467216561 0.0033504602487051957 -0.0059978872465972716 -0.0042045832775971471
leaf_weight=10.999999999999998 9.9999999999999982 10.000000000000002 11.000000000000002 11.000000000000002 10.999999999999998 19 12.999999999999998 17
leaf_count=11 10 10 11 11 11 19 13 17
internal_value=0 -0.0038731 0.00318593 0.00241051 -0.00102959 0.00493325 -0.00510996 -0.00468243
internal_weight=0 51 62 52 22 30 40 27
internal_count=113 51 62 52 22 30 40 27
is_linear=0
shrinkage=0.05


Tree=51
num_leaves=9
num_cat=0
split_feature=2 1 2 1 2 0 2 0
split_gain=0.503362 0.10242 0.072536 0.117801 0.108207 0.109508 0.00548158 0.0037838
threshold=3.9500000000000006 2.9500000000000006 5.8500000000000005 2.6500000000000008 4.8500000000000005 6.4500000000000011 1.5500000000000003 5.0500000000000007
decision_type=2 2 2 2 2 2 2 2
left_child=1 -1 3 -2 -5 -6 7 -3
right_child=2 6 -4 4 5 -7 -8 -9
leaf_value=0.0005933484655212273 -0.0026004990004003048 -0.0049777269984285031 0.0069265281781554222 0.00077612806344404825 0.0090779250080231556 0.0019933521165512503 -0.0056979928452235004 -0.0037865412266304098
leaf_weight=10.999999999999998 9.9999999999999982 15.000000000000002 9.9999999999999982 20 12.000000000000002 9.9999999999999982 12.999999999999998 11.999999999999998
leaf_count=11 10 15 10 20 12 10 13 12
internal_value=0 -0.00367944 0.00302664 0.00227666 0.00343789 0.00585766 -0.00485446 -0.00444831
internal_weight=0 51 62 52 42 22 40 27
internal_count=113 51 62 52 42 22 40 27
is_linear=0
shrinkage=0.05


Tree=52
num_leaves=9
num_cat=0
split_feature=2 1 0 1 0 2 2 1
split_gain=0.454284 0.0924343 0.0698768 0.159509 0.108441 0.0484485 0.00494713 0.00352847
threshold=3.9500000000000006 2.9500000000000006 5.8500000000000005 2.9500000000000006 6.3500000000000005 5.1500000000000012 1.5500000000000003 3.3500000000000001
decision_type=2 2 2 2 2 2 2 2
left_child=1 -1 -2 4 -4 -5 7 -3
right_child=2 6 3 5 -6 -7 -8 -9
leaf_value=0.00056368093514306975 0.0067030436033383017 -0.0049711517989635447 -0.004604966295036401 0.0025013206899166104 0.0024158035785975785 0.0065199628130843254 -0.0054130932459464445 -0.0037875096697141141
leaf_weight=10.999999999999998 9.9999999999999982 10.000000000000002 11.000000000000002 15.000000000000002 10.999999999999998 14.999999999999998 12.999999999999998 17
leaf_count=11 10 10 11 15 11 15 13 17
internal_value=0 -0.00349547 0.0028753 0.0021392 -0.00109458 0.00451064 -0.00461173 -0.0042259
internal_weight=0 51 62 52 22 30 40 27
internal_count=113 51 62 52 22 30 40 27
is_linear=0
shrinkage=0.05


Tree=53
num_leaves=8
num_cat=0
split_feature=2 1 0 1 2 2 1
split_gain=0.411433 0.135763 0.0636332 0.0973278 0.0517184 0.00524456 0.00318444
threshold=4.2500000000000009 2.9500000000000006 6.0500000000000007 2.9500000000000006 5.1500000000000012 1.5500000000000003 3.3500000000000001
decision_type=2 2 2 2 2 2 2
left_child=1 -1 -2 -4 -5 6 -3
right_child=2 5 3 4 -6 -7 -8
leaf_value=0.00098135573207400748 0.0067059796489775184 -0.0047225941717624655 -0.00042364173813870082 0.0016802184114401986 0.0061939647886902101 -0.0051806630690892537 -0.003598134077208884
leaf_weight=15.999999999999998 9.9999999999999982 10.000000000000002 19 11.000000000000002 14.999999999999998 14.999999999999998 17
leaf_count=16 10 10 19 11 15 15 17
internal_value=0 -0.00293797 0.00309823 0.0022965 0.0042843 -0.00443105 -0.0040146
internal_weight=0 58 55 45 26 42 27
internal_count=113 58 55 45 26 42 27
is_linear=0
shrinkage=0.05


Tree=54
num_leaves=8
num_cat=0
split_feature=2 1 0 1 2 2 0
split_gain=0.371319 0.122526 0.057429 0.0878384 0.0466758 0.00473322 0.00296632
threshold=4.2500000000000009 2.9500000000000006 6.0500000000000007 2.9500000000000006 5.1500000000000012 1.5500000000000003 5.0500000000000007
decision_type=2 2 2 2 2 2 2
left_child=1 -1 -2 -4 -5 6 -3
right_child=2 5 3 4 -6 -7 -8
leaf_value=0.00093228797268238859 0.0063706805184483538 -0.00428262174129486 -0.00040245975098131525 0.0015962074256756086 0.0058842665327635286 -0.0049216299628218017 -0.003227932145819068
leaf_weight=15.999999999999998 9.9999999999999982 15.000000000000002 19 11.000000000000002 14.999999999999998 14.999999999999998 11.999999999999998
leaf_count=16 10 15 19 11 15 15 12
internal_value=0 -0.00279108 0.00294332 0.00218168 0.00407009 -0.0042095 -0.00381387
internal_weight=0 58 55 45 26 42 27
internal_count=113 58 55 45 26 42 27
is_linear=0
shrinkage=0.05


Tree=55
num_leaves=9
num_cat=0
split_feature=2 1 0 1 0 0 1 0
split_gain=0.335821 0.0665861 0.0632303 0.12083 0.10047 0.0465419 0.00376288 0.00366627
threshold=3.9500000000000006 2.9500000000000006 5.8500000000000005 2.9500000000000006 6.3500000000000005 6.4500000000000011 3.1500000000000008 5.0500000000000007
decision_type=2 2 2 2 2 2 2 2
left_child=1 -1 -2 4 -4 -5 -3 -8
right_child=2 6 3 5 -6 -7 7 -9
leaf_value=0.00043981461362405257 0.0061132933740736918 -0.0047927393019199377 -0.0044215138133784576 0.0064241912554610847 0.0023363184776495805 0.0023374287092960198 -0.0029958206151301653 -0.0041240976499264236
leaf_weight=10.999999999999998 9.9999999999999982 9.9999999999999982 11.000000000000002 11.000000000000002 10.999999999999998 19 12.000000000000002 18
leaf_count=11 10 10 11 11 11 19 12 18
internal_value=0 -0.00300535 0.00247215 0.00177193 -0.0010426 0.00383591 -0.00395277 -0.00367279
internal_weight=0 51 62 52 22 30 40 30
internal_count=113 51 62 52 22 30 40 30
is_linear=0
shrinkage=0.05


Tree=56
num_leaves=9
num_cat=0
split_feature=2 1 2 0 1 0 2 0
split_gain=0.307063 0.10091 0.0493333 0.0751368 0.0526095 0.0586007 0.00492734 0.0027227
threshold=4.2500000000000009 2.9500000000000006 5.8500000000000005 6.0500000000000007 3.0500000000000003 6.3500000000000005 1.5500000000000003 5.0500000000000007
decision_type=2 2 2 2 2 2 2 2
left_child=1 -1 3 -2 5 -5 7 -3
right_child=2 6 -4 4 -6 -7 -8 -9
leaf_value=0.00084087745635770268 0.005792937986552716 -0.0038707817594210298 0.0058531787432730201 -0.0033571618003770697 0.0037419288503852764 0.0016542844673884767 -0.0045519396717039248 -0.0028603304798404377
leaf_weight=15.999999999999998 9.9999999999999982 15.000000000000002 9.9999999999999982 10.000000000000002 10.999999999999998 13.999999999999998 14.999999999999998 11.999999999999998
leaf_count=16 10 15 10 10 11 14 15 12
internal_value=0 -0.00253812 0.00267656 0.00197064 0.000878559 -0.000433818 -0.00382535 -0.00342169
internal_weight=0 58 55 45 35 24 42 27
internal_count=113 58 55 45 35 24 42 27
is_linear=0
shrinkage=0.05


Tree=57
num_leaves=9
num_cat=0
split_feature=2 1 2 0 1 0 1 2
split_gain=0.277124 0.0910711 0.0445233 0.067811 0.0474801 0.0528871 0.00459475 0.00356382
threshold=4.2500000000000009 2.9500000000000006 5.8500000000000005 6.0500000000000007 3.0500000000000003 6.3500000000000005 3.1500000000000008 1.4500000000000002
decision_type=2 2 2 2 2 2 2 2
left_child=1 -1 3 -2 5 -5 -3 -8
right_child=2 6 -4 4 -6 -7 7 -9
leaf_value=0.00079883340076776228 0.0055032913759350786 -0.004460972221568227 0.0055605199001729491 -0.0031893036828842002 0.0035548324866051025 0.0015715701771633968 -0.003926519204217653 -0.00282677269047674
leaf_weight=15.999999999999998 9.9999999999999982 11.999999999999998 9.9999999999999982 10.000000000000002 10.999999999999998 13.999999999999998 13.000000000000002 17
leaf_count=16 10 12 10 10 11 14 13 17
internal_value=0 -0.00241121 0.00254273 0.00187211 0.000834632 -0.000412127 -0.00363408 -0.00330333
internal_weight=0 58 55 45 35 24 42 30
internal_count=113 58 55 45 35 24 42 30
is_linear=0
shrinkage=0.05


Tree=58
num_leaves=8
num_cat=0
split_feature=2 1 0 0 2 2 0
split_gain=0.250104 0.0821917 0.0423124 0.045373 0.0145741 0.0046895 0.00224816
threshold=4.2500000000000009 2.9500000000000006 6.4500000000000011 6.1500000000000012 5.1500000000000012 1.5500000000000003 5.0500000000000007
decision_type=2 2 2 2 2 2 2
left_child=1 -1 3 -2 -4 6 -3
right_child=2 5 4 -5 -6 -7 -8
leaf_value=0.00075889169384026902 0.0017646822612732646 -0.0034666646520296728 -0.00051130086183547962 0.0057901815540390093 0.0018942719928043729 -0.0041612148036559429 -0.0025484816636890174
leaf_weight=15.999999999999998 14.000000000000002 15.000000000000002 10.000000000000002 13.999999999999998 17 14.999999999999998 11.999999999999998
leaf_count=16 14 15 10 14 17 15 12
internal_value=0 -0.00229065 0.00241559 0.00377743 0.00100332 -0.00345238 -0.00305858
internal_weight=0 58 55 28 27 42 27
internal_count=113 58 55 28 27 42 27
is_linear=0
shrinkage=0.05


Tree=59
num_leaves=8
num_cat=0
split_feature=2 1 1 0 0 2 1
split_gain=0.225719 0.074178 0.0409973 0.142586 0.0280565 0.00423227 0.00209
threshold=4.2500000000000009 2.9500000000000006 2.7500000000000004 6.4500000000000011 6.8500000000000005 1.5500000000000003 3.4500000000000006
decision_type=2 2 2 2 2 2 2
left_child=1 -1 -2 -4 -5 6 -3
right_child=2 5 3 4 -6 -7 -8
leaf_value=0.00072094718343578283 -0.0006010114029049874 -0.0024491408338340424 0.0060850454267347238 0.0019056970985340217 -0.0014687033708799969 -0.0039531541072453059 -0.0033295594421880585
leaf_weight=15.999999999999998 9.9999999999999982 13.000000000000002 20 14.000000000000002 10.999999999999998 14.999999999999998 13.999999999999998
leaf_count=16 10 13 20 14 11 15 14
internal_value=0 -0.00217612 0.00229481 0.00293833 0.000420961 -0.00327976 -0.00290565
internal_weight=0 58 55 45 25 42 27
internal_count=113 58 55 45 25 42 27
is_linear=0
shrinkage=0.05


Tree=60
num_leaves=9
num_cat=0
split_feature=2 1 2 0 1 0 1 0
split_gain=0.203712 0.0669456 0.0440787 0.0614455 0.0439031 0.0513199 0.00419095 0.00382282
threshold=4.2500000000000009 2.9500000000000006 5.8500000000000005 6.0500000000000007 3.0500000000000003 6.3500000000000005 3.1500000000000008 5.0500000000000007
decision_type=2 2 2 2 2 2 2 2
left_child=1 -1 3 -2 5 -5 -3 -8
right_child=2 6 -4 4 -6 -7 7 -9
leaf_value=0.00068489979021251206 0.0049693614244461061 -0.0039054906228557229 0.0051827567256987096 -0.0034093684749677763 0.0031409561634063721 0.0012804332189261915 -0.0021086177463682052 -0.0032607320023493635
leaf_weight=15.999999999999998 9.9999999999999982 11.999999999999998 9.9999999999999982 10.000000000000002 10.999999999999998 13.999999999999998 12.000000000000002 18
leaf_count=16 10 12 10 10 11 14 12 18
internal_value=0 -0.00206731 0.00218007 0.00151281 0.000525226 -0.000673651 -0.00311577 -0.00279989
internal_weight=0 58 55 45 35 24 42 30
internal_count=113 58 55 45 35 24 42 30
is_linear=0
shrinkage=0.05


Tree=61
num_leaves=9
num_cat=0
split_feature=2 0 0 2 0 1 2 0
split_gain=0.184018 0.0627849 0.108071 0.087126 0.165308 0.0337373 0.00291872 0.00219329
threshold=3.9500000000000006 5.8500000000000005 6.1500000000000012 5.1500000000000012 6.8500000000000005 2.9500000000000006 1.5500000000000003 5.0500000000000007
decision_type=2 2 2 2 2 2 2 2
left_child=5 -2 -3 -4 -5 -1 7 -7
right_child=1 2 3 4 -6 6 -8 -9
leaf_value=0.0002276014028625055 0.0054582974314689638 -0.0032684304666790094 -0.00029251801574395764 0.0080697077469756955 -0.00048114482313394553 -0.0030057879909873002 -0.0035146081733938234 -0.002098879947637518
leaf_weight=10.999999999999998 9.9999999999999982 10.999999999999998 18 13.000000000000002 9.9999999999999982 15.000000000000002 12.999999999999998 11.999999999999998
leaf_count=11 10 11 18 13 10 15 13 12
internal_value=0 0.00182999 0.00113224 0.00231291 0.00435195 -0.0022247 -0.00289908 -0.00260272
internal_weight=0 62 52 41 23 51 40 27
internal_count=113 62 52 41 23 51 40 27
is_linear=0
shrinkage=0.05


Tree=62
num_leaves=9
num_cat=0
split_feature=2 1 2 0 1 0 1 2
split_gain=0.169191 0.0550666 0.0404203 0.0566295 0.0396446 0.0417348 0.00420768 0.00382148
threshold=4.2500000000000009 2.9500000000000006 5.8500000000000005 6.0500000000000007 3.0500000000000003 6.3500000000000005 3.1500000000000008 1.4500000000000002
decision_type=2 2 2 2 2 2 2 2
left_child=1 -1 3 -2 5 -5 -3 -8
right_child=2 6 -4 4 -6 -7 7 -9
leaf_value=0.00061208717816043647 0.004666146580129862 -0.0036262205181022489 0.0048621676675975325 -0.0032065671868622293 0.0028853613121265719 0.0010226555833859105 -0.0031637367720787333 -0.0020249289891901699
leaf_weight=15.999999999999998 9.9999999999999982 11.999999999999998 9.9999999999999982 10.000000000000002 10.999999999999998 13.999999999999998 13.000000000000002 17
leaf_count=16 10 12 10 10 11 14 13 17
internal_value=0 -0.00188403 0.00198679 0.00134782 0.000399728 -0.000739521 -0.00283493 -0.00251841
internal_weight=0 58 55 45 35 24 42 30
internal_count=113 58 55 45 35 24 42 30
is_linear=0
shrinkage=0.05


Tree=63
num_leaves=8
num_cat=0
split_feature=2 1 0 0 2 2 1
split_gain=0.152695 0.0496976 0.0377686 0.0414827 0.0106384 0.00420694 0.00225741
threshold=4.2500000000000009 2.9500000000000006 6.4500000000000011 6.1500000000000012 5.1500000000000012 1.5500000000000003 3.4500000000000006
decision_type=2 2 2 2 2 2 2
left_child=1 -1 3 -2 -4 6 -3
right_child=2 5 4 -5 -6 -7 -8
leaf_value=0.00058148280077148235 0.0012495647683473568 -0.00184575175293363 -0.00074088610708713512 0.0050986210320843389 0.0013143646804725422 -0.0033645568663875263 -0.0027607528800477408
leaf_weight=15.999999999999998 14.000000000000002 13.000000000000002 10.000000000000002 13.999999999999998 17 14.999999999999998 13.999999999999998
leaf_count=16 14 13 10 14 17 15 14
internal_value=0 -0.00178983 0.00188745 0.00317409 0.000553161 -0.00269318 -0.0023202
internal_weight=0 58 55 28 27 42 27
internal_count=113 58 55 28 27 42 27
is_linear=0
shrinkage=0.05


Tree=64
num_leaves=8
num_cat=0
split_feature=2 2 0 1 2 1 2
split_gain=0.139689 0.0342998 0.0339899 0.00770238 0.0117771 0.00423456 0.00476104
threshold=4.8500000000000005 1.8 6.4500000000000011 3.1500000000000008 1.4500000000000002 2.7500000000000004 4.4500000000000011
decision_type=2 2 2 2 2 2 2
left_child=1 3 -2 -1 -5 -3 -7
right_child=2 5 -4 4 -6 6 -8
leaf_value=-0.0032941481059727573 0.0041632642476435973 0.00057283973853502958 0.0011223369417712092 -0.0028815893223509189 -0.00082545516702036076 -0.0013452828978188331 0.00013192545544976991
leaf_weight=11.999999999999998 17 13.999999999999998 20 13.000000000000002 14.999999999999998 10.000000000000002 11.999999999999998
leaf_count=12 17 14 20 13 15 10 12
internal_value=0 -0.00122661 0.00251952 -0.00223431 -0.00178009 -0.000106944 -0.000539533
internal_weight=0 76 37 40 28 36 22
internal_count=113 76 37 40 28 36 22
is_linear=0
shrinkage=0.05


Tree=65
num_leaves=8
num_cat=0
split_feature=2 2 0 1 2 0 1
split_gain=0.126069 0.0309556 0.0306758 0.0069514 0.0106289 0.00400684 0.0201697
threshold=4.8500000000000005 1.8 6.4500000000000011 3.1500000000000008 1.4500000000000002 5.6500000000000012 2.9500000000000006
decision_type=2 2 2 2 2 2 2
left_child=1 3 -2 -1 -5 -3 -7
right_child=2 5 -4 4 -6 6 -8
leaf_value=-0.0031294407400613033 0.0039551010410137036 0.00055965613573789603 0.0010662201559171081 -0.0027375098120851005 -0.00078418241192897164 -0.0020363342524929474 0.00099154756489125157
leaf_weight=11.999999999999998 17 13.999999999999998 20 13.000000000000002 14.999999999999998 11.000000000000002 10.999999999999998
leaf_count=12 17 14 20 13 15 11 11
internal_value=0 -0.00116528 0.00239354 -0.00212259 -0.00169108 -0.000101596 -0.000522393
internal_weight=0 76 37 40 28 36 22
internal_count=113 76 37 40 28 36 22
is_linear=0
shrinkage=0.05


Tree=66
num_leaves=8
num_cat=0
split_feature=2 1 1 0 0 2 1
split_gain=0.114394 0.0403471 0.0381689 0.121439 0.0274224 0.00501554 0.00243433
threshold=4.2500000000000009 2.9500000000000006 2.7500000000000004 6.4500000000000011 6.8500000000000005 1.5500000000000003 3.4500000000000006
decision_type=2 2 2 2 2 2 2
left_child=1 -1 -2 -4 -5 6 -3
right_child=2 5 3 4 -6 -7 -8
leaf_value=0.00058744750276673585 -0.001160480920225382 -0.0014631766915464627 0.0051586025144206363 0.0013992464568998129 -0.0019368033517490734 -0.0030961806109795972 -0.0024133577061417914
leaf_weight=15.999999999999998 9.9999999999999982 13.000000000000002 20 14.000000000000002 10.999999999999998 14.999999999999998 13.999999999999998
leaf_count=16 10 13 20 14 11 15 14
internal_value=0 -0.00154917 0.00163367 0.00225459 -6.86155e-05 -0.00236312 -0.00195586
internal_weight=0 58 55 45 25 42 27
internal_count=113 58 55 45 25 42 27
is_linear=0
shrinkage=0.05


Tree=67
num_leaves=9
num_cat=0
split_feature=2 1 2 2 2 1 1 0
split_gain=0.108527 0.0274897 0.0292694 0.0269023 0.0354618 0.0057335 0.00436489 0.00402696
threshold=4.8500000000000005 2.5500000000000003 3.4000000000000004 5.8500000000000005 5.4500000000000011 2.9500000000000006 3.1500000000000008 5.0500000000000007
decision_type=2 2 2 2 2 2 2 2
left_child=1 -1 6 4 -2 -4 -3 -8
right_child=3 2 5 -5 -6 -7 7 -9
leaf_value=0.0013618143554776909 0.0029027375625446435 -0.0031255065082487739 -0.00083038362746055299 0.0044361441396176815 -0.0007851376367563551 0.00068522651757424078 -0.0012516488359930612 -0.0024341248286267121
leaf_weight=9.9999999999999982 16.000000000000004 10.999999999999998 13.000000000000002 9.9999999999999982 10.999999999999998 11.999999999999998 12.000000000000002 18
leaf_count=10 16 11 13 10 11 12 12 18
internal_value=0 -0.00108117 -0.00145132 0.00222078 0.00140027 -0.000102891 -0.00227353 -0.00196113
internal_weight=0 76 66 37 27 25 41 30
internal_count=113 76 66 37 27 25 41 30
is_linear=0
shrinkage=0.05


Tree=68
num_leaves=8
num_cat=0
split_feature=2 0 1 2 1 1 0
split_gain=0.0979453 0.0248607 0.0248095 0.0264156 0.00517448 0.00393932 0.00363433
threshold=4.8500000000000005 6.4500000000000011 2.5500000000000003 3.4000000000000004 2.9500000000000006 3.1500000000000008 5.0500000000000007
decision_type=2 2 2 2 2 2 2
left_child=2 -2 -1 5 -5 -4 -7
right_child=1 -3 3 4 -6 6 -8
leaf_value=0.0012937237741425635 0.0035155155586407468 0.00091482638847082862 -0.0029692311892920934 -0.00078886450948910045 0.00065096518956124787 -0.0011890664269837237 -0.0023124184666408437
leaf_weight=9.9999999999999982 17 20 10.999999999999998 13.000000000000002 11.999999999999998 12.000000000000002 18
leaf_count=10 17 20 11 13 12 12 18
internal_value=0 0.00210974 -0.00102711 -0.00137875 -9.77463e-05 -0.00215985 -0.00186308
internal_weight=0 37 76 66 25 41 30
internal_count=113 37 76 66 25 41 30
is_linear=0
shrinkage=0.05


Tree=69
num_leaves=8
num_cat=0
split_feature=2 2 2 1 0 0 0
split_gain=0.0883956 0.0253698 0.0314533 0.0223905 0.0239723 0.00280755 0.00536866
threshold=4.8500000000000005 5.8500000000000005 5.4500000000000011 2.5500000000000003 5.8500000000000005 4.9500000000000011 5.4500000000000011
decision_type=2 2 2 2 2 2 2
left_child=3 2 -2 -1 5 -5 -7
right_child=1 -3 -4 4 -6 6 -8
leaf_value=0.0012290374329313636 0.0026224607601761812 0.004155592145398259 -0.00085072881457480532 -0.0023903544489953408 0.00030799409073284443 -0.0010935819498263299 -0.0024313241476193073
leaf_weight=9.9999999999999982 16.000000000000004 9.9999999999999982 10.999999999999998 17 17 20 11.999999999999998
leaf_count=10 16 10 11 17 17 20 12
internal_value=0 0.00200425 0.00120746 -0.000975754 -0.00130981 -0.00187109 -0.00159524
internal_weight=0 37 27 76 66 49 32
internal_count=113 37 27 76 66 49 32
is_linear=0
shrinkage=0.05


Tree=70
num_leaves=8
num_cat=0
split_feature=2 0 1 2 1 1 0
split_gain=0.079777 0.022966 0.0202075 0.0223087 0.00443243 0.00333763 0.00339933
threshold=4.8500000000000005 6.4500000000000011 2.5500000000000003 3.4000000000000004 2.9500000000000006 3.1500000000000008 5.0500000000000007
decision_type=2 2 2 2 2 2 2
left_child=2 -2 -1 5 -5 -4 -7
right_child=1 -3 3 4 -6 6 -8
leaf_value=0.0011675856960937381 0.0032551839838133138 0.00075556437484920031 -0.002707146281715144 -0.00070675100522259084 0.00062584484306474526 -0.00103711147676222 -0.0021235387565361127
leaf_weight=9.9999999999999982 17 20 10.999999999999998 13.000000000000002 11.999999999999998 12.000000000000002 18
leaf_count=10 17 20 11 13 12 12 18
internal_value=0 0.00190404 -0.000926966 -0.00124432 -6.7105e-05 -0.00196214 -0.00168897
internal_weight=0 37 76 66 25 41 30
internal_count=113 37 76 66 25 41 30
is_linear=0
shrinkage=0.05


Tree=71
num_leaves=9
num_cat=0
split_feature=2 2 2 1 2 0 1 0
split_gain=0.0719988 0.0239139 0.0278878 0.0182372 0.0201336 0.00421954 0.00301221 0.0030679
threshold=4.8500000000000005 5.8500000000000005 5.4500000000000011 2.5500000000000003 3.4000000000000004 6.0500000000000007 3.1500000000000008 5.0500000000000007
decision_type=2 2 2 2 2 2 2 2
left_child=3 2 -2 -1 6 -6 -5 -8
right_child=1 -3 -4 4 5 -7 7 -9
leaf_value=0.0011092062713578344 0.0023676351353060449 0.0038975361920893198 -0.00090278011154044761 -0.0025717891064811161 0.00066907543858343887 -0.00063954100644748131 -0.00098525583161972424 -0.0020173617949088415
leaf_weight=9.9999999999999982 16.000000000000004 9.9999999999999982 10.999999999999998 10.999999999999998 11.000000000000002 13.999999999999998 12.000000000000002 18
leaf_count=10 16 10 11 11 11 14 12 18
internal_value=0 0.00180884 0.00103524 -0.000880618 -0.00118211 -6.37498e-05 -0.00186403 -0.00160452
internal_weight=0 37 27 76 66 25 41 30
internal_count=113 37 27 76 66 25 41 30
is_linear=0
shrinkage=0.05


Tree=72
num_leaves=9
num_cat=0
split_feature=2 0 2 1 0 2 1 2
split_gain=0.0649789 0.0220147 0.0469707 0.0164591 0.0187865 0.00248305 0.00636752 0.00866905
threshold=4.8500000000000005 6.8500000000000005 5.1500000000000012 2.5500000000000003 5.8500000000000005 1.8 3.2500000000000004 1.4500000000000002
decision_type=2 2 2 2 2 2 2 2
left_child=3 2 -2 -1 5 6 -5 -8
right_child=1 -3 -4 4 -6 -7 7 -9
leaf_value=0.0010537459701299666 0.00021622865460813043 -0.00015666974200443789 0.0044792299824101588 -0.0022933904987959461 0.00030916837893207286 -0.0023227808158844711 -0.0020119424994018936 -0.0001362340258700507
leaf_weight=9.9999999999999982 12.000000000000002 10.999999999999998 13.999999999999998 13.999999999999998 17 9.9999999999999982 11.000000000000002 13.999999999999998
leaf_count=10 12 11 14 14 17 10 11 14
internal_value=0 0.00171839 0.00251169 -0.000836587 -0.001123 -0.00161988 -0.00143964 -0.000961546
internal_weight=0 37 26 76 66 49 39 25
internal_count=113 37 26 76 66 49 39 25
is_linear=0
shrinkage=0.05


end of trees

feature_importances:
Column_2=270
Column_1=161
Column_0=134

parameters:
[boosting: gbdt]
[objective: regression]
[metric: rmse]
[tree_learner: serial]
[device_type: cpu]
[data_sample_strategy: bagging]
[data: ]
[valid: ]
[num_iterations: 10000]
[learning_rate: 0.05]
[num_leaves: 95]
[num_threads: 0]
[seed: 5]
[deterministic: 0]
[force_col_wise: 0]
[force_row_wise: 0]
[histogram_pool_size: -1]
[max_depth: -1]
[min_data_in_leaf: 10]
[min_sum_hessian_in_leaf: 0.001]
[bagging_fraction: 0.9]
[pos_bagging_fraction: 1]
[neg_bagging_fraction: 1]
[bagging_freq: 0]
[bagging_seed: 28693]
[feature_fraction: 0.9]
[feature_fraction_bynode: 1]
[feature_fraction_seed: 24449]
[extra_trees: 0]
[extra_seed: 31430]
[early_stopping_round: 0]
[early_stopping_min_delta: 0]
[first_metric_only: 0]
[max_delta_step: 0]
[lambda_l1: 0]
[lambda_l2: 0]
[linear_lambda: 0]
[min_gain_to_split: 0]
[drop_rate: 0.1]
[max_drop: 50]
[skip_drop: 0.5]
[xgboost_dart_mode: 0]
[uniform_drop: 0]
[drop_seed: 12255]
[top_rate: 0.2]
[other_rate: 0.1]
[min_data_per_group: 100]
[max_cat_threshold: 32]
[cat_l2: 10]
[cat_smooth: 10]
[max_cat_to_onehot: 4]
[top_k: 20]
[monotone_constraints: ]
[monotone_constraints_method: basic]
[monotone_penalty: 0]
[feature_contri: ]
[forcedsplits_filename: ]
[refit_decay_rate: 0.9]
[cegb_tradeoff: 1]
[cegb_penalty_split: 0]
[cegb_penalty_feature_lazy: ]
[cegb_penalty_feature_coupled: ]
[path_smooth: 0]
[interaction_constraints: ]
[verbosity: -1]
[saved_feature_importance_type: 0]
[use_quantized_grad: 0]
[num_grad_quant_bins: 4]
[quant_train_renew_leaf: 0]
[stochastic_rounding: 1]
[linear_tree: 0]
[max_bin: 255]
[max_bin_by_feature: ]
[min_data_in_bin: 3]
[bin_construct_sample_cnt: 200000]
[data_random_seed: 54]
[is_enable_sparse: 1]
[enable_bundle: 1]
[use_missing: 1]
[zero_as_missing: 0]
[feature_pre_filter: 1]
[pre_partition: 0]
[two_round: 0]
[header: 0]
[label_column: ]
[weight_column: ]
[group_column: ]
[ignore_column: ]
[categorical_feature: ]
[forcedbins_filename: ]
[precise_float_parser: 0]
[parser_config_file: ]
[objective_seed: 27660]
[num_class: 1]
[is_unbalance: 0]
[scale_pos_weight: 1]
[sigmoid: 1]
[boost_from_average: 1]
[reg_sqrt: 0]
[alpha: 0.9]
[fair_c: 1]
[poisson_max_delta_step: 0.7]
[tweedie_variance_power: 1.5]
[lambdarank_truncation_level: 30]
[lambdarank_norm: 1]
[label_gain: ]
[lambdarank_position_bias_regularization: 0]
[eval_at: ]
[multi_error_top_k: 1]
[auc_mu_weights: ]
[num_machines: 1]
[local_listen_port: 12400]
[time_out: 120]
[machine_list_filename: ]
[machines: ]
[gpu_platform_id: -1]
[gpu_device_id: -1]
[gpu_use_dp: 0]
[num_gpu: 1]

end of parameters

pandas_categorical:null
