tree
version=v4
num_class=1
num_tree_per_iteration=1
label_index=0
max_feature_idx=2
objective=regression
feature_names=Column_0 Column_1 Column_2
feature_infos=[4.2999999999999998:7.9000000000000004] [2.2000000000000002:4.4000000000000004] [1:6.7000000000000002]
tree_sizes=896 908 890 908 891 887 877 893 878 993 896 878 895 881 997 1011 1011 882 1000 997 998 1009 1117 999 883 882 1123 1018 1130 885 1123 883 1135 1010 1019 1007 1012 900 1023 1014 1134 1029 997 911 1014 1030 944 1017 1045 1017 1045 944 1018 1046 1147 1017 1048 1045 1017 1154 947 1152 1152 1155 1150 1152 1032

Tree=0
num_leaves=8
num_cat=0
split_feature=2 2 2 2 1 2 0
split_gain=89.3213 11.1707 1.95286 0.926248 0.611492 0.477283 0.0105214
threshold=3.4500000000000006 4.7500000000000009 5.1500000000000012 1.5500000000000003 3.0500000000000003 4.1500000000000012 4.9500000000000011
decision_type=2 2 2 2 2 2 2
left_child=3 5 -3 6 -4 -2 -1
right_child=1 2 4 -5 -6 -7 -8
leaf_value=-0.06375013380311427 0.0019958626944571729 0.037745248572900895 0.053183817830202818 -0.046555027534038979 0.068937241417271172 0.015491093790746834 -0.06181642834699768
leaf_weight=12.000000000000002 10.000000000000002 15.999999999999998 14.000000000000002 12.999999999999998 10.999999999999998 19 17
leaf_count=12 10 16 14 13 11 19 17
internal_value=2.09548e-09 0.0345871 0.0513855 -0.0576451 0.0601153 0.0108376 -0.0626166
internal_weight=0 70 41 42 25 29 29
internal_count=112 70 41 42 25 29 29
is_linear=0
shrinkage=1


Tree=1
num_leaves=8
num_cat=0
split_feature=2 2 2 2 1 2 0
split_gain=80.6124 10.0816 1.76246 0.835939 0.551871 0.443809 0.00949555
threshold=3.4500000000000006 4.7500000000000009 5.1500000000000012 1.5500000000000003 3.0500000000000003 4.4500000000000011 4.9500000000000011
decision_type=2 2 2 2 2 2 2
left_child=3 5 -3 6 -4 -2 -1
right_child=1 2 4 -5 -6 -7 -8
leaf_value=-0.060562628507614118 0.0050988948849194186 0.035857984609901909 0.050524625927209847 -0.044227277688108961 0.065490379658612347 0.017657805420458316 -0.058725607745787681
leaf_weight=12.000000000000002 17.000000000000004 15.999999999999998 14.000000000000002 12.999999999999998 10.999999999999998 11.999999999999998 17
leaf_count=12 17 16 14 13 11 12 17
internal_value=0 0.0328577 0.0488163 -0.0547629 0.0571096 0.0102957 -0.0594858
internal_weight=0 70 41 42 25 29 29
internal_count=112 70 41 42 25 29 29
is_linear=0
shrinkage=0.05


Tree=2
num_leaves=8
num_cat=0
split_feature=2 2 2 2 1 2 0
split_gain=72.7527 9.09864 1.59062 0.754435 0.498064 0.40451 0.00856974
threshold=3.4500000000000006 4.7500000000000009 5.1500000000000012 1.5500000000000003 3.0500000000000003 4.1500000000000012 4.9500000000000011
decision_type=2 2 2 2 2 2 2
left_child=3 5 -3 6 -4 -2 -1
right_child=1 2 4 -5 -6 -7 -8
leaf_value=-0.057534497976303084 0.0016411227546632287 0.034065084764733911 0.047998394923550736 -0.042015915199254572 0.06221585680137981 0.014064995465359012 -0.055789327972075524
leaf_weight=12.000000000000002 10.000000000000002 15.999999999999998 14.000000000000002 12.999999999999998 10.999999999999998 19 17
leaf_count=12 10 16 14 13 11 19 17
internal_value=0 0.0312148 0.0463754 -0.0520247 0.0542541 0.0097809 -0.0565115
internal_weight=0 70 41 42 25 29 29
internal_count=112 70 41 42 25 29 29
is_linear=0
shrinkage=0.05


Tree=3
num_leaves=8
num_cat=0
split_feature=2 2 2 2 1 2 0
split_gain=65.6593 8.21152 1.43553 0.680877 0.449503 0.376379 0.00773421
threshold=3.4500000000000006 4.7500000000000009 5.1500000000000012 1.5500000000000003 3.0500000000000003 4.4500000000000011 4.9500000000000011
decision_type=2 2 2 2 2 2 2
left_child=3 5 -3 6 -4 -2 -1
right_child=1 2 4 -5 -6 -7 -8
leaf_value=-0.05465777466694513 0.0045061083784436471 0.032361830165609722 0.045598474889993662 -0.039915119613019322 0.059105065735903656 0.016071665529549743 -0.052999861100140745
leaf_weight=12.000000000000002 17.000000000000004 15.999999999999998 14.000000000000002 12.999999999999998 10.999999999999998 11.999999999999998 17
leaf_count=12 17 16 14 13 11 12 17
internal_value=0 0.0296541 0.0440567 -0.0494235 0.0515414 0.00929186 -0.0536859
internal_weight=0 70 41 42 25 29 29
internal_count=112 70 41 42 25 29 29
is_linear=0
shrinkage=0.05


Tree=4
num_leaves=8
num_cat=0
split_feature=2 2 2 2 1 2 0
split_gain=59.2575 7.4109 1.29557 0.614492 0.405676 0.342826 0.00698011
threshold=3.4500000000000006 4.7500000000000009 5.1500000000000012 1.5500000000000003 3.0500000000000003 4.1500000000000012 4.9500000000000011
decision_type=2 2 2 2 2 2 2
left_child=3 5 -3 6 -4 -2 -1
right_child=1 2 4 -5 -6 -7 -8
leaf_value=-0.051924884319305413 0.0013337611313909287 0.03074373919516802 0.043318549676665229 -0.037919361287584677 0.056149812720038675 0.012771211763212801 -0.050349867694518151
leaf_weight=12.000000000000002 10.000000000000002 15.999999999999998 14.000000000000002 12.999999999999998 10.999999999999998 19 17
leaf_count=12 10 16 14 13 11 19 17
internal_value=0 0.0281714 0.0418538 -0.0469523 0.0489643 0.00882726 -0.0510016
internal_weight=0 70 41 42 25 29 29
internal_count=112 70 41 42 25 29 29
is_linear=0
shrinkage=0.05


Tree=5
num_leaves=8
num_cat=0
split_feature=2 2 1 2 2 2 0
split_gain=53.4799 6.68834 1.21528 0.789422 0.554579 0.3192 0.00629953
threshold=3.4500000000000006 4.7500000000000009 2.9500000000000006 5.5500000000000007 1.5500000000000003 4.4500000000000011 4.9500000000000011
decision_type=2 2 2 2 2 2 2
left_child=4 5 -3 -4 6 -2 -1
right_child=1 2 3 -5 -6 -7 -8
leaf_value=-0.049328639606634764 0.0039786380250006912 0.029532970838687 0.037937950591246279 0.056074264893929165 -0.036023395300771185 0.014629521236444513 -0.047832376115462365
leaf_weight=12.000000000000002 17.000000000000004 17 12.000000000000002 11.999999999999998 12.999999999999998 11.999999999999998 17
leaf_count=12 17 17 12 12 13 12 17
internal_value=0 0.0267628 0.0397611 0.0470061 -0.0446047 0.0083859 -0.0484515
internal_weight=0 70 41 24 42 29 29
internal_count=112 70 41 24 42 29 29
is_linear=0
shrinkage=0.05


Tree=6
num_leaves=8
num_cat=0
split_feature=2 2 1 2 2 2 0
split_gain=48.2656 6.03622 1.09679 0.712454 0.500507 0.290542 0.00568534
threshold=3.4500000000000006 4.7500000000000009 2.9500000000000006 5.5500000000000007 1.5500000000000003 4.1500000000000012 4.9500000000000011
decision_type=2 2 2 2 2 2 2
left_child=4 5 -3 -4 6 -2 -1
right_child=1 2 3 -5 -6 -7 -8
leaf_value=-0.046862208843231196 0.0010681411530822512 0.028056322224438192 0.036041052142779022 0.053270551810661954 -0.034222225271738495 0.011597375557022661 -0.045440757625243244
leaf_weight=12.000000000000002 10.000000000000002 17 12.000000000000002 11.999999999999998 12.999999999999998 19 17
leaf_count=12 10 17 12 12 13 19 17
internal_value=0 0.0254247 0.0377731 0.0446558 -0.0423745 0.00796661 -0.0460289
internal_weight=0 70 41 24 42 29 29
internal_count=112 70 41 24 42 29 29
is_linear=0
shrinkage=0.05


Tree=7
num_leaves=8
num_cat=0
split_feature=2 2 2 2 1 1 1
split_gain=43.705 6.70461 1.02138 0.52448 0.298098 0.0373781 0.0390555
threshold=1.8 4.7500000000000009 5.1500000000000012 4.1500000000000012 3.0500000000000003 3.3500000000000001 3.5500000000000003
decision_type=2 2 2 2 2 2 2
left_child=5 3 -3 -2 -4 -1 -7
right_child=1 2 4 -5 -6 6 -8
leaf_value=-0.045760996525104236 -0.0017366106422351943 0.026019780826754869 0.037358189153019326 0.011017507049990327 0.048357341099869125 -0.040556844266561351 -0.044512502352396649
leaf_weight=12.999999999999998 13.999999999999998 15.999999999999998 14.000000000000002 19 10.999999999999998 13.000000000000002 11.999999999999998
leaf_count=13 14 16 14 19 11 13 12
internal_value=0 0.0223822 0.0358844 0.00560667 0.0421978 -0.0435864 -0.0424556
internal_weight=0 74 41 33 25 38 25
internal_count=112 74 41 33 25 38 25
is_linear=0
shrinkage=0.05


Tree=8
num_leaves=8
num_cat=0
split_feature=2 2 1 2 2 1 1
split_gain=39.4438 6.05091 0.934924 0.603346 0.473343 0.0337337 0.0352476
threshold=1.8 4.7500000000000009 2.9500000000000006 5.5500000000000007 4.1500000000000012 3.3500000000000001 3.5500000000000003
decision_type=2 2 2 2 2 2 2
left_child=5 4 -3 -4 -2 -1 -7
right_child=1 2 3 -5 -6 6 -8
leaf_value=-0.043472947065646833 -0.0016497799794056587 0.025119079331703049 0.032517061010003082 0.048372474933664006 0.01046663137446893 -0.038529001978727481 -0.042286878575881322
leaf_weight=12.999999999999998 13.999999999999998 17 12.000000000000002 11.999999999999998 19 13.000000000000002 11.999999999999998
leaf_count=13 14 17 12 12 19 13 12
internal_value=0 0.0212631 0.0340902 0.0404448 0.00532634 -0.041407 -0.0403328
internal_weight=0 74 41 24 33 38 25
internal_count=112 74 41 24 33 38 25
is_linear=0
shrinkage=0.05


Tree=9
num_leaves=9
num_cat=0
split_feature=2 2 1 2 1 0 1 1
split_gain=35.6045 4.44119 0.840388 0.622518 0.358155 0.0130743 0.0040042 0.000313402
threshold=3.4500000000000006 4.9500000000000011 2.9500000000000006 4.4500000000000011 3.1500000000000008 5.2500000000000009 3.4500000000000006 2.8500000000000001
decision_type=2 2 2 2 2 2 2 2
left_child=4 3 -3 -2 -1 6 -6 -5
right_child=1 2 -4 7 5 -7 -8 -9
leaf_value=-0.028643559732220394 0.0031667999484959772 0.025100362751012045 0.041837432309985163 0.016240133615210647 -0.040511971170251994 -0.037657077610492709 -0.039129547327756885 0.015853380140933123
leaf_weight=10.999999999999998 17 11.999999999999998 20 10.000000000000002 11.000000000000005 9.9999999999999982 9.9999999999999982 10.999999999999998
leaf_count=11 17 12 20 10 11 10 10 11
internal_value=0 0.0218368 0.035561 0.0102796 -0.0363947 -0.0391451 -0.0398537 0.0160375
internal_weight=0 70 32 38 42 31 21 21
internal_count=112 70 32 38 42 31 21 21
is_linear=0
shrinkage=0.05


Tree=10
num_leaves=8
num_cat=0
split_feature=2 2 2 2 1 1 1
split_gain=32.3372 4.92218 0.776838 0.362826 0.222178 0.0364377 0.0327542
threshold=1.8 4.7500000000000009 5.1500000000000012 4.1500000000000012 3.0500000000000003 3.3500000000000001 3.5500000000000003
decision_type=2 2 2 2 2 2 2
left_child=5 3 -3 -2 -4 -1 -7
right_child=1 2 4 -5 -6 6 -8
leaf_value=-0.03963888287544251 -0.0012288099620491268 0.022218529235397001 0.032149425494883734 0.0093792422331477471 0.041645189984278248 -0.034636479960038102 -0.03825900306304296
leaf_weight=12.999999999999998 13.999999999999998 15.999999999999998 14.000000000000002 19 10.999999999999998 13.000000000000002 11.999999999999998
leaf_count=13 14 16 14 19 11 13 12
internal_value=0 0.0192525 0.0308216 0.00487886 0.0363276 -0.0374918 -0.0363753
internal_weight=0 74 41 33 25 38 25
internal_count=112 74 41 33 25 38 25
is_linear=0
shrinkage=0.05


Tree=11
num_leaves=8
num_cat=0
split_feature=2 2 1 2 2 1 1
split_gain=29.1843 4.44227 0.717216 0.48281 0.327451 0.0328851 0.0295607
threshold=1.8 4.7500000000000009 2.9500000000000006 5.5500000000000007 4.1500000000000012 3.3500000000000001 3.5500000000000003
decision_type=2 2 2 2 2 2 2
left_child=5 4 -3 -4 -2 -1 -7
right_child=1 2 3 -5 -6 6 -8
leaf_value=-0.037656939029693609 -0.0011673694942146539 0.02142301924417124 0.027754508579770715 0.04193798396736384 0.0089102799661065404 -0.03290465577290607 -0.036346053332090379
leaf_weight=12.999999999999998 13.999999999999998 17 12.000000000000002 11.999999999999998 19 13.000000000000002 11.999999999999998
leaf_count=13 14 17 12 12 19 13 12
internal_value=0 0.0182899 0.0292805 0.0348462 0.00463491 -0.0356172 -0.0345565
internal_weight=0 74 41 24 33 38 25
internal_count=112 74 41 24 33 38 25
is_linear=0
shrinkage=0.05


Tree=12
num_leaves=8
num_cat=0
split_feature=2 2 2 2 1 1 1
split_gain=26.3388 4.00915 0.654849 0.295524 0.180105 0.0296788 0.0266785
threshold=1.8 4.7500000000000009 5.1500000000000012 4.1500000000000012 3.0500000000000003 3.3500000000000001 3.5500000000000003
decision_type=2 2 2 2 2 2 2
left_child=5 3 -3 -2 -4 -1 -7
right_child=1 2 4 -5 -6 6 -8
leaf_value=-0.035774091573861931 -0.00110900096063103 0.019917735760100187 0.02910989496324743 0.0084647662251403459 0.037659441815181216 -0.031259423838211932 -0.034528750305374466
leaf_weight=12.999999999999998 13.999999999999998 15.999999999999998 14.000000000000002 19 10.999999999999998 13.000000000000002 11.999999999999998
leaf_count=13 14 16 14 19 11 13 12
internal_value=0 0.0173754 0.0278165 0.00440317 0.0328717 -0.0338363 -0.0328287
internal_weight=0 74 41 33 25 38 25
internal_count=112 74 41 33 25 38 25
is_linear=0
shrinkage=0.05


Tree=13
num_leaves=8
num_cat=0
split_feature=2 2 1 2 2 1 1
split_gain=23.7708 3.61826 0.612107 0.409753 0.266711 0.0267851 0.0240773
threshold=1.8 4.7500000000000009 2.9500000000000006 5.5500000000000007 4.1500000000000012 3.3500000000000001 3.5500000000000003
decision_type=2 2 2 2 2 2 2
left_child=5 4 -3 -4 -2 -1 -7
right_child=1 2 3 -5 -6 6 -8
leaf_value=-0.033985388278961186 -0.0010535507729010922 0.019166730596300433 0.025034223124384875 0.038100604961315794 0.0080415276737001388 -0.02969645284689389 -0.032802312945326172
leaf_weight=12.999999999999998 13.999999999999998 17 12.000000000000002 11.999999999999998 19 13.000000000000002 11.999999999999998
leaf_count=13 14 17 12 12 19 13 12
internal_value=0 0.0165066 0.0264257 0.0315674 0.00418301 -0.0321445 -0.0311873
internal_weight=0 74 41 24 33 38 25
internal_count=112 74 41 24 33 38 25
is_linear=0
shrinkage=0.05


Tree=14
num_leaves=9
num_cat=0
split_feature=2 2 1 2 1 0 1 1
split_gain=21.4688 2.72014 0.560914 0.370283 0.248723 0.0165489 0.00671978 0.000144285
threshold=3.4500000000000006 4.9500000000000011 2.9500000000000006 4.4500000000000011 3.1500000000000008 5.2500000000000009 3.4500000000000006 2.8500000000000001
decision_type=2 2 2 2 2 2 2 2
left_child=4 3 -3 -2 -1 6 -6 -5
right_child=1 2 -4 7 5 -7 -8 -9
leaf_value=-0.021801751310175116 0.0024261557825786227 0.019151287805289033 0.032825031317770481 0.012490080759162079 -0.032203099402514354 -0.028879005461931229 -0.030412242561578751 0.012227662290785124
leaf_weight=10.999999999999998 17 11.999999999999998 20 10.000000000000002 11.000000000000005 9.9999999999999982 9.9999999999999982 10.999999999999998
leaf_count=11 17 12 20 10 11 10 10 11
internal_value=0 0.0169567 0.0276974 0.00791184 -0.0282611 -0.0305531 -0.0313503 0.0123526
internal_weight=0 70 32 38 42 31 21 21
internal_count=112 70 32 38 42 31 21 21
is_linear=0
shrinkage=0.05


Tree=15
num_leaves=9
num_cat=0
split_feature=2 2 2 2 1 2 1 1
split_gain=19.4865 2.94086 0.497776 0.208031 0.132933 0.0401017 0.028296 0.0226446
threshold=1.8 4.7500000000000009 5.1500000000000012 4.4500000000000011 3.0500000000000003 4.0500000000000007 3.3500000000000001 3.5500000000000003
decision_type=2 2 2 2 2 2 2 2
left_child=6 3 -3 5 -4 -2 -1 -8
right_child=1 2 4 -5 -6 -7 7 -9
leaf_value=-0.030996004778605243 -0.0012492649765177203 0.017001098758191804 0.025063305667468474 0.0090866024217878781 0.032408365505662833 0.0031256019696593289 -0.026674268967830213 -0.029686304802695913
leaf_weight=12.999999999999998 11.000000000000002 15.999999999999998 14.000000000000002 11.999999999999998 10.999999999999998 9.9999999999999982 13.000000000000002 11.999999999999998
leaf_count=13 11 16 14 12 11 10 13 12
internal_value=0 0.0149453 0.0238877 0.00383495 0.0282951 0.000834005 -0.0291039 -0.02812
internal_weight=0 74 41 33 25 21 38 25
internal_count=112 74 41 33 25 21 38 25
is_linear=0
shrinkage=0.05


Tree=16
num_leaves=9
num_cat=0
split_feature=2 2 1 2 2 2 1 1
split_gain=17.5865 2.66002 0.390417 0.299399 0.278729 0.0361918 0.0255783 0.0183449
threshold=1.8 4.8500000000000005 2.9500000000000006 4.4500000000000011 5.5500000000000007 4.0500000000000007 3.2500000000000004 3.5500000000000003
decision_type=2 2 2 2 2 2 2 2
left_child=6 3 -3 5 -4 -2 -1 -8
right_child=1 2 4 -5 -6 -7 7 -9
leaf_value=-0.029558186729749043 -0.0011868018910966133 0.017457607922454675 0.021753628933802241 0.0098710673279128972 0.033056322547296686 0.00296932190656662 -0.025537831389478266 -0.028201989705363913
leaf_weight=11.999999999999998 11.000000000000002 14.999999999999998 10.000000000000002 15.999999999999998 11.999999999999998 9.9999999999999982 14.000000000000002 11.999999999999998
leaf_count=12 11 15 10 16 12 10 14 12
internal_value=0 0.014198 0.0236777 0.00471826 0.0279187 0.000792305 -0.0276487 -0.0267674
internal_weight=0 74 37 37 22 21 38 26
internal_count=112 74 37 37 22 21 38 26
is_linear=0
shrinkage=0.05


Tree=17
num_leaves=8
num_cat=0
split_feature=2 2 1 2 2 1 1
split_gain=15.8718 2.40612 0.428338 0.293101 0.167273 0.0233143 0.0185783
threshold=1.8 4.7500000000000009 2.9500000000000006 5.5500000000000007 4.1500000000000012 3.3500000000000001 3.5500000000000003
decision_type=2 2 2 2 2 2 2
left_child=5 4 -3 -4 -2 -1 -7
right_child=1 2 3 -5 -6 6 -8
leaf_value=-0.027983757624259364 -0.00070852089141096395 0.015504493347971755 0.020352466303544734 0.031403506586017711 0.0064942313456221633 -0.024063664330885956 -0.026791889965534211
leaf_weight=12.999999999999998 13.999999999999998 17 12.000000000000002 11.999999999999998 19 13.000000000000002 11.999999999999998
leaf_count=13 14 17 12 12 19 13 12
internal_value=0 0.0134881 0.0215768 0.025878 0.00343852 -0.0262663 -0.0253732
internal_weight=0 74 41 24 33 38 25
internal_count=112 74 41 24 33 38 25
is_linear=0
shrinkage=0.05


Tree=18
num_leaves=9
num_cat=0
split_feature=2 2 1 2 2 1 1 1
split_gain=14.3243 2.19013 0.399003 0.361285 0.0286252 0.0210411 0.0167669 9.80019e-05
threshold=1.8 4.9500000000000011 2.9500000000000006 4.4500000000000011 4.0500000000000007 3.3500000000000001 3.5500000000000003 2.8500000000000001
decision_type=2 2 2 2 2 2 2 2
left_child=5 3 -3 4 -2 -1 -7 -5
right_child=1 2 -4 7 -6 6 -8 -9
leaf_value=-0.026584569651346941 -0.0010920357975092798 0.015460415634637079 0.026993019804358483 0.010056064748205243 0.0026041853427886965 -0.022860480644381957 -0.025452295069893202 0.0098397926004095519
leaf_weight=12.999999999999998 11.000000000000002 11.999999999999998 20 10.000000000000002 9.9999999999999982 13.000000000000002 11.999999999999998 10.999999999999998
leaf_count=13 11 12 20 10 10 13 12 11
internal_value=0 0.0128137 0.0226683 0.00530542 0.00066807 -0.024953 -0.0241046 0.00994278
internal_weight=0 74 32 42 21 38 25 21
internal_count=112 74 32 42 21 38 25 21
is_linear=0
shrinkage=0.05


Tree=19
num_leaves=9
num_cat=0
split_feature=2 2 1 2 1 0 1 1
split_gain=12.9431 1.65141 0.3601 0.207838 0.178746 0.0189844 0.00891322 8.84464e-05
threshold=3.4500000000000006 4.9500000000000011 2.9500000000000006 4.4500000000000011 3.1500000000000008 5.2500000000000009 3.4500000000000006 2.8500000000000001
decision_type=2 2 2 2 2 2 2 2
left_child=4 3 -3 -2 -1 6 -6 -5
right_child=1 2 -4 7 5 -7 -8 -9
leaf_value=-0.016467618874528193 0.002008763317237882 0.014687394878516594 0.025643368409946563 0.0095532612502574887 -0.025722443109208872 -0.022093374207615854 -0.023659911565482618 0.0093478030948476367
leaf_weight=10.999999999999998 17 11.999999999999998 20 10.000000000000002 11.000000000000005 9.9999999999999982 9.9999999999999982 10.999999999999998
leaf_count=11 17 12 20 10 11 10 10 11
internal_value=0 0.0131661 0.0215349 0.00611862 -0.0219434 -0.0238864 -0.0247403 0.00944564
internal_weight=0 70 32 38 42 31 21 21
internal_count=112 70 32 38 42 31 21 21
is_linear=0
shrinkage=0.05


Tree=20
num_leaves=9
num_cat=0
split_feature=2 2 2 2 1 1 2 1
split_gain=11.7414 1.78082 0.312455 0.114167 0.0658835 0.0222954 0.0205716 0.0144606
threshold=1.8 4.7500000000000009 5.5500000000000007 4.4500000000000011 2.9500000000000006 3.2500000000000004 4.0500000000000007 3.5500000000000003
decision_type=2 2 2 2 2 2 2 2
left_child=5 3 4 6 -3 -1 -2 -7
right_child=1 2 -4 -5 -6 7 -8 -9
leaf_value=-0.02437423380712668 -0.00075987059284340235 0.011903336847370318 0.023493776967128122 0.0068458415567874912 0.017260503419674934 -0.020677023434213224 0.0023735379800200462 -0.023042375966906548
leaf_weight=11.999999999999998 11.000000000000002 11.000000000000002 18 11.999999999999998 11.999999999999998 14.000000000000002 9.9999999999999982 11.999999999999998
leaf_count=12 11 11 18 12 12 14 10 12
internal_value=0 0.011601 0.0185598 0.00295536 0.0146984 -0.0225915 0.000732229 -0.0217687
internal_weight=0 74 41 33 23 38 21 26
internal_count=112 74 41 33 23 38 21 26
is_linear=0
shrinkage=0.05


Tree=21
num_leaves=9
num_cat=0
split_feature=2 2 1 2 2 1 2 2
split_gain=10.5966 1.613 0.234673 0.198523 0.168293 0.0201216 0.0185658 0.0140142
threshold=1.8 4.8500000000000005 2.9500000000000006 5.5500000000000007 4.4500000000000011 3.2500000000000004 4.0500000000000007 1.4500000000000002
decision_type=2 2 2 2 2 2 2 2
left_child=5 4 -3 -4 6 -1 -2 -7
right_child=1 2 3 -5 -6 7 -8 -9
leaf_value=-0.023155522098143897 -0.00072187689894979631 0.013580521518985431 0.016487967451103026 0.026026823495825132 0.0075022762175649405 -0.021934125820795691 0.0022548610717058183 -0.01960557047277689
leaf_weight=11.999999999999998 11.000000000000002 14.999999999999998 10.000000000000002 11.999999999999998 15.999999999999998 12.000000000000002 9.9999999999999982 13.999999999999998
leaf_count=12 11 15 10 12 16 12 10 14
internal_value=0 0.011021 0.018403 0.021691 0.00363904 -0.0214619 0.000695617 -0.0206803
internal_weight=0 74 37 22 37 38 21 26
internal_count=112 74 37 22 37 38 21 26
is_linear=0
shrinkage=0.05


Tree=22
num_leaves=10
num_cat=0
split_feature=2 2 1 2 2 1 2 1 1
split_gain=9.56346 1.46194 0.291183 0.226865 0.0860903 0.0181598 0.0167557 0.0131637 0.00012951
threshold=1.8 4.9500000000000011 3.0500000000000003 4.4500000000000011 5.5500000000000007 3.2500000000000004 4.0500000000000007 3.5500000000000003 2.8500000000000001
decision_type=2 2 2 2 2 2 2 2 2
left_child=5 3 4 6 -3 -1 -2 -7 -5
right_child=1 2 -4 8 -6 7 -8 -9 -10
leaf_value=-0.021997745955983798 -0.00068578314544125022 0.011546363495290276 0.024678754544584083 0.008140581268817183 0.018107242137193679 -0.018604679665129097 0.0021421181038022044 -0.020861466911931834 0.0078919614580544566
leaf_weight=11.999999999999998 11.000000000000002 10.000000000000002 11.999999999999998 10.000000000000002 9.9999999999999982 14.000000000000002 9.9999999999999982 11.999999999999998 10.999999999999998
leaf_count=12 11 10 12 10 10 14 10 12 11
internal_value=0 0.0104699 0.0185213 0.00433559 0.0148268 -0.0203888 0.000660836 -0.0196463 0.00801035
internal_weight=0 74 32 42 20 38 21 26 21
internal_count=112 74 32 42 20 38 21 26 21
is_linear=0
shrinkage=0.05


Tree=23
num_leaves=9
num_cat=0
split_feature=2 2 1 1 2 0 1 1
split_gain=8.63253 1.10406 0.271662 0.139316 0.128869 0.0188862 0.00993386 0.000116883
threshold=3.4500000000000006 4.9500000000000011 2.9500000000000006 3.1500000000000008 4.4500000000000011 5.2500000000000009 3.4500000000000006 2.8500000000000001
decision_type=2 2 2 2 2 2 2 2
left_child=3 4 -3 -1 -2 6 -5 -6
right_child=1 2 -4 5 7 -7 -8 -9
leaf_value=-0.013086407563903116 0.0017538180026937936 0.011647730988139909 0.021163713843561711 -0.021524562754414285 0.0077335524559020976 -0.017847638577222824 -0.01934714227449149 0.0074973633343523201
leaf_weight=10.999999999999998 17 11.999999999999998 20 11.000000000000005 10.000000000000002 9.9999999999999982 9.9999999999999982 10.999999999999998
leaf_count=11 17 12 20 11 10 10 10 11
internal_value=0 0.0107524 0.0175952 -0.0179207 0.00499004 -0.0196361 -0.0204877 0.00760983
internal_weight=0 70 32 42 38 31 21 21
internal_count=112 70 32 42 38 31 21 21
is_linear=0
shrinkage=0.05


Tree=24
num_leaves=8
num_cat=0
split_feature=2 2 1 2 2 1 1
split_gain=7.83876 1.19676 0.226689 0.171797 0.0701685 0.0189578 0.0127182
threshold=1.8 4.7500000000000009 2.9500000000000006 5.5500000000000007 4.1500000000000012 3.2500000000000004 3.5500000000000003
decision_type=2 2 2 2 2 2 2
left_child=5 4 -3 -4 -2 -1 -7
right_child=1 2 3 -5 -6 6 -8
leaf_value=-0.020102901880939803 -0.00029447183811238839 0.01076604154727915 0.014082263006518282 0.022542883673061929 0.0043705877896986515 -0.016676495819618657 -0.018894772169490658
leaf_weight=11.999999999999998 13.999999999999998 17 12.000000000000002 11.999999999999998 19 14.000000000000002 11.999999999999998
leaf_count=12 14 17 12 12 19 14 12
internal_value=0 0.00947896 0.0151835 0.0183126 0.00239147 -0.018459 -0.0177003
internal_weight=0 74 41 24 33 38 26
internal_count=112 74 41 24 33 38 26
is_linear=0
shrinkage=0.05


Tree=25
num_leaves=8
num_cat=0
split_feature=2 2 1 2 2 1 2
split_gain=7.07448 1.08007 0.204587 0.155047 0.0633271 0.0171095 0.0126023
threshold=1.8 4.7500000000000009 2.9500000000000006 5.5500000000000007 4.1500000000000012 3.2500000000000004 1.4500000000000002
decision_type=2 2 2 2 2 2 2
left_child=5 4 -3 -4 -2 -1 -7
right_child=1 2 3 -5 -6 6 -8
leaf_value=-0.01909775733947754 -0.00027974834000425681 0.010227739586330512 0.013378149783238766 0.021415739009777706 0.004152058378646249 -0.018004298706849411 -0.015796157691095557
leaf_weight=11.999999999999998 13.999999999999998 17 12.000000000000002 11.999999999999998 19 12.000000000000002 13.999999999999998
leaf_count=12 14 17 12 12 19 12 14
internal_value=0 0.00900501 0.0144243 0.0173969 0.0022719 -0.0175361 -0.0168153
internal_weight=0 74 41 24 33 38 26
internal_count=112 74 41 24 33 38 26
is_linear=0
shrinkage=0.05


Tree=26
num_leaves=10
num_cat=0
split_feature=2 2 1 2 2 1 1 2 1
split_gain=6.38472 0.982258 0.216491 0.145992 0.0696878 0.0154413 0.0115787 0.00889082 0.000138307
threshold=1.8 4.9500000000000011 3.0500000000000003 4.4500000000000011 5.5500000000000007 3.2500000000000004 3.5500000000000003 4.0500000000000007 2.8500000000000001
decision_type=2 2 2 2 2 2 2 2 2
left_child=5 3 4 7 -3 -1 -7 -2 -5
right_child=1 2 -4 8 -6 6 -8 -9 -10
leaf_value=-0.018142868764698505 -0.00040229602970860207 0.0090173174999654254 0.020463670246923964 0.0066089639440178845 0.014920187741518022 -0.014997659211180037 -0.017114222856859367 0.0016576420329511166 0.0063520398668267522
leaf_weight=11.999999999999998 11.000000000000002 10.000000000000002 11.999999999999998 10.000000000000002 9.9999999999999982 14.000000000000002 11.999999999999998 9.9999999999999982 10.999999999999998
leaf_count=12 11 10 12 10 10 14 12 10 11
internal_value=0 0.00855476 0.0151543 0.00352651 0.0119688 -0.0166593 -0.0159745 0.000578627 0.00647438
internal_weight=0 74 32 42 20 38 26 21 21
internal_count=112 74 32 42 20 38 26 21 21
is_linear=0
shrinkage=0.05


Tree=27
num_leaves=9
num_cat=0
split_feature=2 2 1 2 2 1 1 2
split_gain=5.76221 0.888666 0.124822 0.122783 0.085505 0.0139599 0.0116468 0.00802397
threshold=1.8 4.8500000000000005 2.9500000000000006 5.5500000000000007 4.4500000000000011 3.3500000000000001 3.5500000000000003 4.0500000000000007
decision_type=2 2 2 2 2 2 2 2
left_child=5 4 -3 -4 7 -1 -7 -2
right_child=1 2 3 -5 -6 6 -8 -9
leaf_value=-0.017155288503720209 -0.00038218165493824257 0.010089243820790822 0.011912463884800668 0.019414160128993295 0.0054014306399039931 -0.014098371880558817 -0.016258511754373709 0.0015747598838061095
leaf_weight=12.999999999999998 11.000000000000002 14.999999999999998 10.000000000000002 11.999999999999998 15.999999999999998 13.000000000000002 11.999999999999998 9.9999999999999982
leaf_count=13 11 15 10 12 16 13 12 10
internal_value=0 0.00812702 0.0136063 0.0160043 0.00264774 -0.0158263 -0.0151352 0.000549695
internal_weight=0 74 37 22 37 38 25 21
internal_count=112 74 37 22 37 38 25 21
is_linear=0
shrinkage=0.05


Tree=28
num_leaves=10
num_cat=0
split_feature=2 2 1 1 1 2 2 0 1
split_gain=5.20862 0.67297 0.184417 0.105946 0.0988859 0.0673659 0.0595728 0.0191264 0.0110044
threshold=3.4500000000000006 4.9500000000000011 3.0500000000000003 3.1500000000000008 2.9500000000000006 4.4500000000000011 5.5500000000000007 5.2500000000000009 3.4500000000000006
decision_type=2 2 2 2 2 2 2 2 2
left_child=3 4 6 -1 5 -2 -3 8 -5
right_child=1 2 -4 7 -6 -7 -8 -9 -10
leaf_value=-0.0097045119513164881 -0.00018139913279031 0.0080255253298673751 0.018594806885812432 -0.017364482852545642 0.0078493363139304252 0.004817061212200385 0.013483217880129815 -0.013616376072168352 -0.015072732158005238
leaf_weight=10.999999999999998 14.000000000000002 10.000000000000002 11.999999999999998 11.000000000000005 10.999999999999998 12.999999999999998 9.9999999999999982 9.9999999999999982 9.9999999999999982
leaf_count=11 14 10 12 11 11 13 10 10 10
internal_value=0 0.00835214 0.0136945 -0.0139202 0.00385329 0.00222527 0.0107544 -0.0154161 -0.0162732
internal_weight=0 70 32 42 38 27 20 31 21
internal_count=112 70 32 42 38 27 20 31 21
is_linear=0
shrinkage=0.05


Tree=29
num_leaves=8
num_cat=0
split_feature=2 2 1 2 2 1 2
split_gain=4.72207 0.725322 0.144643 0.104631 0.037562 0.0145107 0.0111877
threshold=1.8 4.7500000000000009 2.9500000000000006 5.5500000000000007 4.1500000000000012 3.2500000000000004 1.4500000000000002
decision_type=2 2 2 2 2 2 2
left_child=5 4 -3 -4 -2 -1 -7
right_child=1 2 3 -5 -6 6 -8
leaf_value=-0.01576506911466519 -0.00012578461984438555 0.0082694437080884694 0.010996166216985631 0.017598905416283138 0.0032874065500340965 -0.014783368259668346 -0.012702848336526327
leaf_weight=11.999999999999998 13.999999999999998 17 12.000000000000002 11.999999999999998 19 12.000000000000002 13.999999999999998
leaf_count=12 14 17 12 12 19 12 14
internal_value=0 0.00735704 0.0117981 0.0142975 0.00183939 -0.0143269 -0.0136631
internal_weight=0 74 41 24 33 38 26
internal_count=112 74 41 24 33 38 26
is_linear=0
shrinkage=0.05


Tree=30
num_leaves=10
num_cat=0
split_feature=2 2 1 2 2 1 1 2 1
split_gain=4.26167 0.657173 0.156063 0.0923104 0.0510606 0.0130959 0.0103209 0.00417267 0.000269773
threshold=1.8 4.9500000000000011 3.0500000000000003 4.4500000000000011 5.5500000000000007 3.2500000000000004 3.5500000000000003 4.0500000000000007 2.8500000000000001
decision_type=2 2 2 2 2 2 2 2 2
left_child=5 3 4 7 -3 -1 -7 -2 -5
right_child=1 2 -4 8 -6 6 -8 -9 -10
leaf_value=-0.014976815755168597 -0.00013974771242250092 0.0071562421717680973 0.016895166877657176 0.0054083527997136095 0.01220899574458599 -0.012057643330522944 -0.014055939903482795 0.0012714583380147816 0.0050495279190892525
leaf_weight=11.999999999999998 11.000000000000002 10.000000000000002 11.999999999999998 10.000000000000002 9.9999999999999982 14.000000000000002 11.999999999999998 9.9999999999999982 10.999999999999998
leaf_count=12 11 10 12 10 10 14 12 10 11
internal_value=0 0.00698919 0.0123873 0.00287633 0.00968262 -0.0136105 -0.0129799 0.000532255 0.0052204
internal_weight=0 74 32 42 20 38 26 21 21
internal_count=112 74 32 42 20 38 26 21 21
is_linear=0
shrinkage=0.05


Tree=31
num_leaves=8
num_cat=0
split_feature=2 2 1 2 2 1 2
split_gain=3.84616 0.59651 0.121381 0.0861399 0.030251 0.0118191 0.0101821
threshold=1.8 4.7500000000000009 2.9500000000000006 5.5500000000000007 4.1500000000000012 3.2500000000000004 1.4500000000000002
decision_type=2 2 2 2 2 2 2
left_child=5 4 -3 -4 -2 -1 -7
right_child=1 2 3 -5 -6 6 -8
leaf_value=-0.014227975532412529 -0.00012762820614235743 0.007434697230072583 0.009961342159658668 0.015952304253975549 0.0029354345589557565 -0.013399686540166534 -0.011414866348994631
leaf_weight=11.999999999999998 13.999999999999998 17 12.000000000000002 11.999999999999998 19 12.000000000000002 13.999999999999998
leaf_count=12 14 17 12 12 19 12 14
internal_value=0 0.00663973 0.0106672 0.0129568 0.00163595 -0.01293 -0.0123309
internal_weight=0 74 41 24 33 38 26
internal_count=112 74 41 24 33 38 26
is_linear=0
shrinkage=0.05


Tree=32
num_leaves=10
num_cat=0
split_feature=2 2 1 0 2 1 0 2 0
split_gain=3.47716 0.452509 0.132123 0.0874171 0.192192 0.0789783 0.066641 0.0438103 0.0019547
threshold=3.4500000000000006 4.9500000000000011 3.0500000000000003 4.8500000000000005 1.5500000000000003 2.9500000000000006 5.7500000000000009 5.5500000000000007 5.1500000000000012
decision_type=2 2 2 2 2 2 2 2 2
left_child=3 5 7 -1 8 6 -2 -3 -5
right_child=1 2 -4 4 -6 -7 -8 -9 -10
leaf_value=-0.014980319576958815 0.0046759991885416876 0.0063761625997722131 0.015352642784516016 -0.013255043700337402 -0.0042712203040719031 0.0067063048503107642 -0.00037952788843540478 0.011056458950042725 -0.012266434747725726
leaf_weight=11.999999999999998 11.000000000000002 10.000000000000002 11.999999999999998 10.000000000000005 9.9999999999999982 10.999999999999998 15.999999999999998 9.9999999999999982 9.9999999999999982
leaf_count=12 11 10 12 10 10 11 16 10 10
internal_value=0 0.00682415 0.0112049 -0.0113736 -0.0099309 0.00313508 0.00168013 0.00871631 -0.0127607
internal_weight=0 70 32 42 30 38 27 20 20
internal_count=112 70 32 42 30 38 27 20 20
is_linear=0
shrinkage=0.05


Tree=33
num_leaves=9
num_cat=0
split_feature=2 2 1 2 2 1 1 2
split_gain=3.14465 0.491614 0.0986372 0.0717919 0.0262297 0.00903782 0.00964999 0.00208906
threshold=1.8 4.7500000000000009 2.9500000000000006 5.5500000000000007 4.4500000000000011 3.2500000000000004 3.5500000000000003 4.0500000000000007
decision_type=2 2 2 2 2 2 2 2
left_child=5 4 -3 -4 7 -1 -7 -2
right_child=1 2 3 -5 -6 6 -8 -9
leaf_value=-0.012826559102783601 -7.9885489222678249e-05 0.0067460398901911349 0.0089893565047532292 0.014458659756928683 0.0033259756727299344 -0.010275861368115457 -0.012208121144794859 0.00091863796813413496
leaf_weight=11.999999999999998 11.000000000000002 17 12.000000000000002 11.999999999999998 11.999999999999998 14.000000000000002 11.999999999999998 9.9999999999999982
leaf_count=12 11 17 12 12 12 14 12 10
internal_value=0 0.00600376 0.00965997 0.011724 0.00146119 -0.0116915 -0.0111677 0.000395602
internal_weight=0 74 41 24 33 38 26 21
internal_count=112 74 41 24 33 38 26 21
is_linear=0
shrinkage=0.05


Tree=34
num_leaves=9
num_cat=0
split_feature=2 2 1 1 1 0 2 1
split_gain=2.83822 0.371505 0.111982 0.081747 0.0679199 0.0621232 0.0376173 0.0187629
threshold=3.4500000000000006 4.9500000000000011 3.0500000000000003 3.1500000000000008 2.9500000000000006 5.7500000000000009 5.5500000000000007 3.4500000000000006
decision_type=2 2 2 2 2 2 2 2
left_child=3 4 6 -1 5 -2 -3 -5
right_child=1 2 -4 7 -6 -7 -8 -9
leaf_value=-0.0065725267272103913 0.0043660491789606478 0.0056751858256757241 0.013953232175360123 -0.013037084487195195 0.0061345475344834009 -0.00051510243138181983 0.010012081377208234 -0.010544250359655255
leaf_weight=10.999999999999998 11.000000000000002 10.000000000000002 11.999999999999998 13.000000000000002 10.999999999999998 15.999999999999998 9.9999999999999982 18
leaf_count=11 11 10 12 13 11 16 10 18
internal_value=0 0.00616538 0.0101347 -0.0102756 0.00282276 0.00147351 0.00784363 -0.0115896
internal_weight=0 70 32 42 38 27 20 31
internal_count=112 70 32 42 38 27 20 31
is_linear=0
shrinkage=0.05


Tree=35
num_leaves=9
num_cat=0
split_feature=2 2 1 2 2 1 1 2
split_gain=2.57621 0.404049 0.0799615 0.059838 0.0222634 0.00954881 0.00939806 0.00102801
threshold=1.8 4.7500000000000009 2.9500000000000006 5.5500000000000007 4.4500000000000011 3.2500000000000004 3.5500000000000003 4.0500000000000007
decision_type=2 2 2 2 2 2 2 2
left_child=5 4 -3 -4 7 -1 -7 -2
right_child=1 2 3 -5 -6 6 -8 -9
leaf_value=-0.011748862328628699 6.3503499735485403e-07 0.006125122516909067 0.008110505978887279 0.013103751217325529 0.0030339281569467858 -0.0091636321307825164 -0.011070502712391317 0.00070109331747516992
leaf_weight=11.999999999999998 11.000000000000002 17 12.000000000000002 11.999999999999998 11.999999999999998 14.000000000000002 11.999999999999998 9.9999999999999982
leaf_count=12 11 17 12 12 12 14 12 10
internal_value=0 0.0054341 0.00874874 0.0106071 0.00131591 -0.0105822 -0.0100437 0.000334187
internal_weight=0 74 41 24 33 38 26 21
internal_count=112 74 41 24 33 38 26 21
is_linear=0
shrinkage=0.05


Tree=36
num_leaves=9
num_cat=0
split_feature=2 2 1 2 2 1 1 0
split_gain=2.32503 0.364654 0.0721653 0.0540038 0.0200927 0.0086178 0.00848175 0.000976694
threshold=1.8 4.7500000000000009 2.9500000000000006 5.5500000000000007 4.4500000000000011 3.2500000000000004 3.5500000000000003 5.6500000000000012
decision_type=2 2 2 2 2 2 2 2
left_child=5 4 -3 -4 7 -1 -7 -2
right_child=1 2 3 -5 -6 6 -8 -9
leaf_value=-0.011161419066290063 -7.6425092464143558e-06 0.0058188662152079979 0.0077049805782735325 0.012448563426733018 0.0028822317961688291 -0.0087054503250068842 -0.010516977418834965 0.00067510895896703014
leaf_weight=11.999999999999998 11.000000000000002 17 12.000000000000002 11.999999999999998 11.999999999999998 14.000000000000002 11.999999999999998 9.9999999999999982
leaf_count=12 11 17 12 12 12 14 12 10
internal_value=0 0.00516239 0.0083113 0.0100768 0.00125012 -0.0100531 -0.00954154 0.000317477
internal_weight=0 74 41 24 33 38 26 21
internal_count=112 74 41 24 33 38 26 21
is_linear=0
shrinkage=0.05


Tree=37
num_leaves=8
num_cat=0
split_feature=2 2 2 2 0 2 2
split_gain=2.09834 0.33055 0.0436484 0.0308845 0.00788389 0.00657154 0.000887553
threshold=1.8 4.8500000000000005 5.5500000000000007 4.4500000000000011 5.2500000000000009 1.4500000000000002 4.0500000000000007
decision_type=2 2 2 2 2 2 2
left_child=4 3 -3 6 5 -1 -2
right_child=1 2 -4 -5 -6 -7 -8
leaf_value=-0.0093174550216644988 -8.3248554305596753e-06 0.0065744910781320781 0.010010402608248923 0.0032174974083318377 -0.008345314344624058 -0.010865315888077022 0.00064252461772412066
leaf_weight=16.000000000000004 11.000000000000002 19 18 15.999999999999998 9.9999999999999982 11.999999999999998 9.9999999999999982
leaf_count=16 11 19 18 16 10 12 10
internal_value=0 0.00490427 0.00824602 0.00156253 -0.00955043 -0.00998082 0.000301603
internal_weight=0 74 37 37 38 28 21
internal_count=112 74 37 37 38 28 21
is_linear=0
shrinkage=0.05


Tree=38
num_leaves=9
num_cat=0
split_feature=2 1 2 2 0 2 0 0
split_gain=1.89495 0.271215 0.128234 0.126244 0.0724408 0.146996 0.0240087 0.00184997
threshold=3.4500000000000006 2.9500000000000006 5.0500000000000007 4.8500000000000005 4.8500000000000005 1.5500000000000003 5.7500000000000009 5.1500000000000012
decision_type=2 2 2 2 2 2 2 2
left_child=4 3 -3 6 -1 7 -2 -6
right_child=1 2 -4 -5 5 -7 -8 -9
leaf_value=-0.01167950260763367 0.0018851708387956018 0.004482100795333583 0.011084241243569475 0.0058613229170441632 -0.010038640350103371 -0.0021332462877035143 -0.0013225477089041048 -0.0090768787101842465
leaf_weight=11.999999999999998 10.000000000000002 12.000000000000002 19 14.999999999999998 10.000000000000005 9.9999999999999982 13.999999999999998 9.9999999999999982
leaf_count=12 10 12 19 15 10 10 14 10
internal_value=0 0.00503774 0.00852857 0.00226297 -0.00839623 -0.00708292 1.40017e-05 -0.00955776
internal_weight=0 70 31 39 42 30 24 20
internal_count=112 70 31 39 42 30 24 20
is_linear=0
shrinkage=0.05


Tree=39
num_leaves=9
num_cat=0
split_feature=2 2 1 2 2 1 1 0
split_gain=1.71444 0.265481 0.0568554 0.0417151 0.0153177 0.00622535 0.00816221 0.000755094
threshold=1.8 4.7500000000000009 2.9500000000000006 5.5500000000000007 4.4500000000000011 3.2500000000000004 3.5500000000000003 5.6500000000000012
decision_type=2 2 2 2 2 2 2 2
left_child=5 4 -3 -4 7 -1 -7 -2
right_child=1 2 3 -5 -6 6 -8 -9
leaf_value=-0.0095747032358000691 -5.3275715221058226e-06 0.004907503581660636 0.0066023145181437317 0.010771403430650632 0.0025198976528675605 -0.0073777284473180759 -0.0091548037560035787 0.00059499388793483377
leaf_weight=11.999999999999998 11.000000000000002 17 12.000000000000002 11.999999999999998 11.999999999999998 14.000000000000002 11.999999999999998 9.9999999999999982
leaf_count=12 11 17 12 12 12 14 12 10
internal_value=0 0.004433 0.00711981 0.00868686 0.00109485 -0.00863269 -0.00819792 0.00028054
internal_weight=0 74 41 24 33 38 26 21
internal_count=112 74 41 24 33 38 26 21
is_linear=0
shrinkage=0.05


Tree=40
num_leaves=10
num_cat=0
split_feature=2 2 1 2 2 0 2 1 0
split_gain=1.54728 0.240864 0.0783618 0.0355607 0.0264574 0.00602819 0.00730435 0.00140633 0.000681473
threshold=1.8 4.9500000000000011 3.0500000000000003 4.4500000000000011 5.5500000000000007 5.2500000000000009 1.4500000000000002 2.8500000000000001 5.6500000000000012
decision_type=2 2 2 2 2 2 2 2 2
left_child=5 3 4 8 -3 6 -1 -5 -2
right_child=1 2 -4 7 -6 -7 -8 -9 -10
leaf_value=-0.0078780289972200986 -5.0614503296938795e-06 0.0037442875280976288 0.010673683260877927 0.0036054365336894976 0.0073814136534929272 -0.007147275041788817 -0.0095099127851426615 0.0027861659203402022 0.00056524398270994423
leaf_weight=16.000000000000004 11.000000000000002 10.000000000000002 11.999999999999998 10.000000000000002 9.9999999999999982 9.9999999999999982 11.999999999999998 10.999999999999998 9.9999999999999982
leaf_count=16 11 10 12 10 10 10 12 11 10
internal_value=0 0.00421135 0.00747941 0.0017214 0.00556285 -0.00820106 -0.00857741 0.00317629 0.000266513
internal_weight=0 74 32 42 20 38 28 21 21
internal_count=112 74 32 42 20 38 28 21 21
is_linear=0
shrinkage=0.05


Tree=41
num_leaves=9
num_cat=0
split_feature=2 1 2 2 0 2 0 0
split_gain=1.39921 0.214253 0.0999421 0.0943661 0.0633861 0.124389 0.0236392 0.00159672
threshold=3.4500000000000006 2.9500000000000006 4.8500000000000005 5.0500000000000007 4.8500000000000005 1.5500000000000003 5.7500000000000009 5.1500000000000012
decision_type=2 2 2 2 2 2 2 2
left_child=4 2 6 -3 -1 7 -2 -6
right_child=1 3 -4 -5 5 -7 -8 -9
leaf_value=-0.010286072144905727 0.0017183682974427933 0.003960350559403498 0.0050643133309980241 0.0096239354265363602 -0.0087097016721963821 -0.0014331592619419098 -0.0014645684111331192 -0.0078161923214793202
leaf_weight=11.999999999999998 10.000000000000002 12.000000000000002 14.999999999999998 19 10.000000000000005 9.9999999999999982 13.999999999999998 9.9999999999999982
leaf_count=12 10 12 15 19 10 10 14 10
internal_value=0 0.00432891 0.00186268 0.00743158 -0.00721484 -0.00598635 -0.000138345 -0.00826295
internal_weight=0 70 39 31 42 30 24 20
internal_count=112 70 39 31 42 30 24 20
is_linear=0
shrinkage=0.05


Tree=42
num_leaves=9
num_cat=0
split_feature=2 2 1 2 1 0 0 0
split_gain=1.26369 0.193574 0.042033 0.0319839 0.0168562 0.037592 0.00645245 0.000537427
threshold=1.8 4.7500000000000009 2.9500000000000006 5.5500000000000007 2.6500000000000008 5.8500000000000005 5.0500000000000007 4.8500000000000005
decision_type=2 2 2 2 2 2 2 2
left_child=6 4 -3 -4 -2 -6 7 -1
right_child=1 2 3 -5 5 -7 -8 -9
leaf_value=-0.0070664379576390428 0.0025535660055042669 0.0041979609249050134 0.0056222577579319467 0.009272823451707761 -0.0019104421562091867 0.0022232356290756302 -0.0081356262349907092 -0.0065599803254008304
leaf_weight=11.000000000000002 10.999999999999998 17 12.000000000000002 11.999999999999998 11.000000000000002 10.999999999999998 17 9.9999999999999982
leaf_count=11 11 17 12 12 11 11 17 10
internal_value=0 0.0038059 0.00610015 0.00744754 0.000955453 0.000156397 -0.00741148 -0.00682527
internal_weight=0 74 41 24 33 22 38 21
internal_count=112 74 41 24 33 22 38 21
is_linear=0
shrinkage=0.05


Tree=43
num_leaves=8
num_cat=0
split_feature=2 1 2 1 1 0 1
split_gain=1.14467 0.184213 0.200248 0.0681468 0.0571486 0.0186007 0.0183145
threshold=3.4500000000000006 2.6500000000000008 5.5500000000000007 2.9500000000000006 3.1500000000000008 6.0500000000000007 3.4500000000000006
decision_type=2 2 2 2 2 2 2
left_child=4 -2 3 5 -1 -3 -6
right_child=1 2 -4 -5 6 -7 -8
leaf_value=-0.0034294388934292576 -0.0012145231569385424 0.0029045493435114617 0.009925367424875731 0.0054765637473840473 -0.0090543775604321388 -7.4985337612981152e-05 -0.0065915107054428925
leaf_weight=10.999999999999998 13.999999999999998 10.000000000000002 15.999999999999998 19 13.000000000000002 10.999999999999998 18
leaf_count=11 14 10 16 19 13 11 18
internal_value=0 0.0039154 0.00519788 0.00330688 -0.00652566 0.00134384 -0.00762433
internal_weight=0 70 56 40 42 21 31
internal_count=112 70 56 40 42 21 31
is_linear=0
shrinkage=0.05


Tree=44
num_leaves=9
num_cat=0
split_feature=2 2 1 2 1 0 1 1
split_gain=1.03448 0.159124 0.0315058 0.0252814 0.018137 0.0341901 0.00550516 0.00832653
threshold=1.8 4.7500000000000009 2.9500000000000006 5.5500000000000007 2.6500000000000008 5.8500000000000005 3.2500000000000004 3.5500000000000003
decision_type=2 2 2 2 2 2 2 2
left_child=6 4 -3 -4 -2 -6 -1 -8
right_child=1 2 3 -5 5 -7 7 -9
leaf_value=-0.0075915767694823451 0.0025168171152472499 0.0038767438395606243 0.0050673167221248136 0.0083129135891795158 -0.0019408618607981633 0.0020013426367024132 -0.0054684722396944243 -0.0072633463966970645
leaf_weight=11.999999999999998 10.999999999999998 17 12.000000000000002 11.999999999999998 11.000000000000002 10.999999999999998 14.000000000000002 11.999999999999998
leaf_count=12 11 17 12 12 11 11 14 12
internal_value=0 0.00344348 0.0055236 0.00669012 0.000859099 3.02404e-05 -0.00670573 -0.00629688
internal_weight=0 74 41 24 33 22 38 26
internal_count=112 74 41 24 33 22 38 26
is_linear=0
shrinkage=0.05


Tree=45
num_leaves=9
num_cat=0
split_feature=2 1 2 1 0 2 0 0
split_gain=0.936551 0.164685 0.166804 0.058405 0.0552029 0.100845 0.0187618 0.00175952
threshold=3.4500000000000006 2.6500000000000008 5.5500000000000007 2.9500000000000006 4.8500000000000005 1.5500000000000003 6.0500000000000007 5.1500000000000012
decision_type=2 2 2 2 2 2 2 2
left_child=4 -2 3 6 -1 7 -3 -6
right_child=1 2 -4 -5 5 -7 -8 -9
leaf_value=-0.0087688390320787828 -0.0013087789059812037 0.0027784781251102677 0.0090689055941766128 0.0050369708063571078 -0.0072750818356871558 -0.00065654690959490844 -0.00021392588757655838 -0.0063371274434030058
leaf_weight=11.999999999999998 13.999999999999998 10.000000000000002 15.999999999999998 19 10.000000000000005 9.9999999999999982 10.999999999999998 9.9999999999999982
leaf_count=12 14 10 16 19 10 10 11 10
internal_value=0 0.00354162 0.00475422 0.00302835 -0.00590271 -0.00475625 0.00121103 -0.0068061
internal_weight=0 70 56 40 42 30 21 20
internal_count=112 70 56 40 42 30 21 20
is_linear=0
shrinkage=0.05


Tree=46
num_leaves=8
num_cat=0
split_feature=2 1 2 0 1 1 0
split_gain=0.845237 0.148628 0.15054 0.0532915 0.0520495 0.0356615 0.0195349
threshold=3.4500000000000006 2.6500000000000008 5.5500000000000007 6.2500000000000009 3.2500000000000004 2.8500000000000001 5.2500000000000009
decision_type=2 2 2 2 2 2 2
left_child=4 -2 3 5 -1 -3 -6
right_child=1 2 -4 -5 6 -7 -8
leaf_value=-0.0032460585935041308 -0.0012433401932607272 0.0020865714270621532 0.0086154603050090373 0.00064174293074756869 -0.0079510216382058223 0.0059959811308155104 -0.0051659699960146105
leaf_weight=14.999999999999998 13.999999999999998 10.000000000000002 15.999999999999998 15.999999999999998 17.000000000000004 13.999999999999998 9.9999999999999982
leaf_count=15 14 10 16 16 17 14 10
internal_value=0 0.00336454 0.00451651 0.00287693 -0.00560757 0.00436706 -0.00691952
internal_weight=0 70 56 40 42 24 27
internal_count=112 70 56 40 42 24 27
is_linear=0
shrinkage=0.05


Tree=47
num_leaves=9
num_cat=0
split_feature=2 2 0 2 1 0 0 0
split_gain=0.766382 0.123387 0.0399444 0.0283479 0.0225609 0.0308484 0.00609266 0.00031747
threshold=1.8 4.7500000000000009 6.7500000000000009 5.1500000000000012 2.6500000000000008 5.8500000000000005 5.0500000000000007 4.8500000000000005
decision_type=2 2 2 2 2 2 2 2
left_child=6 4 3 -3 -2 -6 7 -1
right_child=1 2 -4 -5 5 -7 -8 -9
leaf_value=-0.0053874777968634241 0.0025369981028647588 0.0043299846924268271 0.0027408760413527491 0.0076319587434856943 -0.002108605705540288 0.0016359898388724438 -0.0064754194175988882 -0.0049982223473489283
leaf_weight=11.000000000000002 10.999999999999998 13.000000000000002 14.999999999999998 12.999999999999998 11.000000000000002 10.999999999999998 17 9.9999999999999982
leaf_count=11 11 13 15 13 11 11 17 10
internal_value=0 0.00296387 0.00479557 0.00598097 0.000688127 -0.000236308 -0.00577175 -0.00520212
internal_weight=0 74 41 26 33 22 38 21
internal_count=112 74 41 26 33 22 38 21
is_linear=0
shrinkage=0.05


Tree=48
num_leaves=9
num_cat=0
split_feature=2 1 2 0 0 2 1 0
split_gain=0.691667 0.13636 0.129993 0.0522396 0.0519696 0.0850355 0.031553 0.00159251
threshold=3.4500000000000006 2.6500000000000008 5.5500000000000007 6.2500000000000009 4.8500000000000005 1.5500000000000003 2.8500000000000001 5.1500000000000012
decision_type=2 2 2 2 2 2 2 2
left_child=4 -2 3 6 -1 7 -3 -6
right_child=1 2 -4 -5 5 -7 -8 -9
leaf_value=-0.0078535700527330235 -0.0013700295838394337 0.0019536484219133845 0.0079559357487596575 0.00041038659401237965 -0.0062887570448219732 -0.00019561668392270804 0.0056309719902596306 -0.005396425724029541
leaf_weight=11.999999999999998 13.999999999999998 10.000000000000002 15.999999999999998 15.999999999999998 10.000000000000005 9.9999999999999982 13.999999999999998 9.9999999999999982
leaf_count=12 14 10 16 16 10 10 14 10
internal_value=0 0.00304358 0.00414699 0.00262341 -0.00507264 -0.00396027 0.00409875 -0.00584259
internal_weight=0 70 56 40 42 30 24 20
internal_count=112 70 56 40 42 30 24 20
is_linear=0
shrinkage=0.05


Tree=49
num_leaves=9
num_cat=0
split_feature=2 2 0 1 0 2 0 0
split_gain=0.625406 0.10535 0.0393043 0.0235271 0.0275827 0.0235096 0.00640004 8.39393e-05
threshold=1.8 4.7500000000000009 6.7500000000000009 2.6500000000000008 5.8500000000000005 5.1500000000000012 5.0500000000000007 4.8500000000000005
decision_type=2 2 2 2 2 2 2 2
left_child=6 3 5 -2 -5 -3 7 -1
right_child=1 2 -4 4 -6 -7 -8 -9
leaf_value=-0.0047254254427653809 0.0024626349543475294 0.0040423125315171013 0.002331794667989016 -0.0021398549645461813 0.0014009917154908182 0.0070493300490152956 -0.0059351396883892665 -0.0045252706203609706
leaf_weight=11.000000000000002 10.999999999999998 13.000000000000002 14.999999999999998 11.000000000000002 10.999999999999998 12.999999999999998 17 9.9999999999999982
leaf_count=11 11 13 15 11 11 13 17 10
internal_value=0 0.00267743 0.00436996 0.000574591 -0.000369432 0.00554582 -0.00521394 -0.00463011
internal_weight=0 74 41 33 22 26 38 21
internal_count=112 74 41 33 22 26 38 21
is_linear=0
shrinkage=0.05


Tree=50
num_leaves=9
num_cat=0
split_feature=2 1 2 0 0 2 1 0
split_gain=0.566159 0.125465 0.11235 0.050958 0.0470491 0.0732813 0.0279226 0.00160943
threshold=3.4500000000000006 2.6500000000000008 5.5500000000000007 6.2500000000000009 4.8500000000000005 1.5500000000000003 2.8500000000000001 5.1500000000000012
decision_type=2 2 2 2 2 2 2 2
left_child=4 -2 3 6 -1 7 -3 -6
right_child=1 2 -4 -5 5 -7 -8 -9
leaf_value=-0.007235393692584087 -0.0014799888145976834 0.0018348177801817652 0.0073530955123715103 0.00020990722114220262 -0.0057269075885415036 -3.6193444393575192e-05 0.0052941307824637207 -0.0048298476263880733
leaf_weight=11.999999999999998 13.999999999999998 10.000000000000002 15.999999999999998 15.999999999999998 10.000000000000005 9.9999999999999982 13.999999999999998 9.9999999999999982
leaf_count=12 14 10 16 16 10 10 14 10
internal_value=0 0.00275363 0.00381204 0.00239561 -0.00458939 -0.00353098 0.00385275 -0.00527838
internal_weight=0 70 56 40 42 30 24 20
internal_count=112 70 56 40 42 30 24 20
is_linear=0
shrinkage=0.05


Tree=51
num_leaves=8
num_cat=0
split_feature=2 1 2 0 1 1 0
split_gain=0.510958 0.113232 0.101396 0.0459896 0.0435718 0.0252002 0.0169731
threshold=3.4500000000000006 2.6500000000000008 5.5500000000000007 6.2500000000000009 3.2500000000000004 2.8500000000000001 5.2500000000000009
decision_type=2 2 2 2 2 2 2
left_child=4 -2 3 5 -1 -3 -6
right_child=1 2 -4 -5 6 -7 -8
leaf_value=-0.0021992658823728564 -0.001405989400310708 0.0017430766951292748 0.0069854407629463822 0.00019941191421821714 -0.0065217674518113613 0.0050294243264943361 -0.0039257466560229659
leaf_weight=14.999999999999998 13.999999999999998 10.000000000000002 15.999999999999998 15.999999999999998 17.000000000000004 13.999999999999998 9.9999999999999982
leaf_count=15 14 10 16 16 17 14 10
internal_value=0 0.00261595 0.00362143 0.00227583 -0.00435992 0.00366011 -0.00556028
internal_weight=0 70 56 40 42 24 27
internal_count=112 70 56 40 42 24 27
is_linear=0
shrinkage=0.05


Tree=52
num_leaves=9
num_cat=0
split_feature=2 2 2 0 1 0 0 0
split_gain=0.462883 0.0857221 0.023203 0.0566321 0.0219729 0.0334857 0.00620341 4.18649e-05
threshold=1.8 4.8500000000000005 5.8500000000000005 6.3500000000000005 2.6500000000000008 5.8500000000000005 5.0500000000000007 4.8500000000000005
decision_type=2 2 2 2 2 2 2 2
left_child=6 4 3 -3 -2 -6 7 -1
right_child=1 2 -4 -5 5 -7 -8 -9
leaf_value=-0.0039781257086856786 0.0024749312634495171 0.0020054526965726498 0.0019477638881653548 0.0066658921481575822 -0.0022862720133906052 0.0013457177082697551 -0.0051956363487988717 -0.0038367715571075676
leaf_weight=11.000000000000002 10.999999999999998 11.000000000000002 9.9999999999999982 15.999999999999998 11.000000000000002 14.999999999999998 17 9.9999999999999982
leaf_count=11 11 11 10 16 11 15 17 10
internal_value=0 0.00230342 0.00400519 0.00476719 0.000601649 -0.000190893 -0.0044856 -0.00391081
internal_weight=0 74 37 27 37 26 38 21
internal_count=112 74 37 27 37 26 38 21
is_linear=0
shrinkage=0.05


Tree=53
num_leaves=9
num_cat=0
split_feature=2 1 2 0 0 2 1 0
split_gain=0.418359 0.102848 0.0874984 0.047352 0.0444767 0.061698 0.022394 0.00145226
threshold=3.4500000000000006 2.6500000000000008 5.5500000000000007 6.2500000000000009 4.8500000000000005 1.5500000000000003 2.8500000000000001 5.1500000000000012
decision_type=2 2 2 2 2 2 2 2
left_child=4 -2 3 6 -1 7 -3 -6
right_child=1 2 -4 -5 5 -7 -8 -9
leaf_value=-0.0065177723377322153 -0.0014660207837420916 0.0016728395596146577 0.0064503156638238586 -3.1597900670021775e-05 -0.0049454774684272677 0.00029065441922284665 0.0047708116870905674 -0.0040933457016944881
leaf_weight=11.999999999999998 13.999999999999998 10.000000000000002 15.999999999999998 15.999999999999998 10.000000000000005 9.9999999999999982 13.999999999999998 9.9999999999999982
leaf_count=12 14 10 16 16 10 10 14 10
internal_value=0 0.00236707 0.00332534 0.00207535 -0.00394512 -0.00291606 0.00347999 -0.00451941
internal_weight=0 70 56 40 42 30 24 20
internal_count=112 70 56 40 42 30 24 20
is_linear=0
shrinkage=0.05


Tree=54
num_leaves=10
num_cat=0
split_feature=2 1 2 0 0 1 0 2 0
split_gain=0.377569 0.0928204 0.0801554 0.13809 0.0539767 0.101556 0.0401402 0.0556824 0.00131066
threshold=3.4500000000000006 2.6500000000000008 5.1500000000000012 6.7500000000000009 5.7500000000000009 2.9500000000000006 4.8500000000000005 1.5500000000000003 5.1500000000000012
decision_type=2 2 2 2 2 2 2 2 2
left_child=6 -2 4 -4 -3 -6 -1 8 -8
right_child=1 2 3 -5 5 -7 7 -9 -10
leaf_value=-0.0061918837561582528 -0.0013927195237816445 0.0046465936116874221 0.0094714617187326572 0.0017156463523861022 -0.0026675206967271287 0.0040346276201307782 -0.004698203483421818 0.00027612187666818503 -0.0038886784762144095
leaf_weight=11.999999999999998 13.999999999999998 9.9999999999999982 11.000000000000002 11.999999999999998 13.000000000000002 9.9999999999999982 10.000000000000005 9.9999999999999982 9.9999999999999982
leaf_count=12 14 10 11 12 13 10 10 10 10
internal_value=0 0.00224872 0.00315908 0.00542495 0.00157983 0.000246457 -0.00374786 -0.00277025 -0.00429344
internal_weight=0 70 56 23 33 23 42 30 20
internal_count=112 70 56 23 33 23 42 30 20
is_linear=0
shrinkage=0.05


Tree=55
num_leaves=9
num_cat=0
split_feature=2 2 0 1 0 2 0 0
split_gain=0.341116 0.0673963 0.04077 0.0305643 0.0241926 0.0139729 0.00733335 6.21074e-05
threshold=1.8 4.7500000000000009 6.7500000000000009 2.6500000000000008 5.8500000000000005 5.0500000000000007 5.0500000000000007 4.8500000000000005
decision_type=2 2 2 2 2 2 2 2
left_child=6 3 5 -2 -5 -3 7 -1
right_child=1 2 -4 4 -6 -7 -8 -9
leaf_value=-0.0031437366184863171 0.0024474103744565089 0.0058822606097568148 0.0012552992725977676 -0.0024385967291891569 0.00087751976468346336 0.003536096972723802 -0.0046226656749187153 -0.0033159056748263542
leaf_weight=11.000000000000002 10.999999999999998 11.000000000000002 14.999999999999998 11.000000000000002 10.999999999999998 14.999999999999998 17 9.9999999999999982
leaf_count=11 11 11 15 11 11 15 17 10
internal_value=0 0.00197737 0.00333112 0.000295444 -0.000780538 0.0045287 -0.00385067 -0.00322572
internal_weight=0 74 41 33 22 26 38 21
internal_count=112 74 41 33 22 26 38 21
is_linear=0
shrinkage=0.05


Tree=56
num_leaves=9
num_cat=0
split_feature=2 1 2 0 0 2 1 0
split_gain=0.309292 0.0876006 0.0738751 0.0458907 0.0366682 0.0479018 0.0184088 0.00132775
threshold=3.4500000000000006 2.6500000000000008 5.5500000000000007 6.2500000000000009 4.8500000000000005 1.5500000000000003 2.8500000000000001 5.1500000000000012
decision_type=2 2 2 2 2 2 2 2
left_child=4 -2 3 6 -1 7 -3 -6
right_child=1 2 -4 -5 5 -7 -8 -9
leaf_value=-0.0057280409149825578 -0.0015022997278720141 0.001515407301485538 0.0057910661384084966 -0.00030309370486065746 -0.0042778966203331917 0.00036779646994546057 0.0043242264672049453 -0.0034631112590432171
leaf_weight=11.999999999999998 13.999999999999998 10.000000000000002 15.999999999999998 15.999999999999998 10.000000000000005 9.9999999999999982 13.999999999999998 9.9999999999999982
leaf_count=12 14 10 16 16 10 10 14 10
internal_value=0 0.00203527 0.00291966 0.00177109 -0.00339211 -0.00245774 0.00315389 -0.0038705
internal_weight=0 70 56 40 42 30 24 20
internal_count=112 70 56 40 42 30 24 20
is_linear=0
shrinkage=0.05


Tree=57
num_leaves=9
num_cat=0
split_feature=2 1 0 2 1 1 0 0
split_gain=0.279136 0.0790595 0.0735518 0.192495 0.0502532 0.037432 0.0278428 0.0139738
threshold=3.4500000000000006 2.6500000000000008 6.9500000000000011 5.1500000000000012 2.9500000000000006 3.2500000000000004 6.0500000000000007 5.2500000000000009
decision_type=2 2 2 2 2 2 2 2
left_child=5 -2 3 4 6 -1 -3 -7
right_child=1 2 -4 -5 -6 7 -8 -9
leaf_value=-0.0012198628423114618 -0.0014271849766373636 0.0018099265731871123 -0.0011127620562911033 0.0085085892251559672 0.0040371636239190899 -0.0052074941135395094 -0.0019212096184492112 -0.0028519830666482449
leaf_weight=14.999999999999998 13.999999999999998 10.000000000000002 9.9999999999999982 13.999999999999998 11.999999999999998 17.000000000000004 9.9999999999999982 9.9999999999999982
leaf_count=15 14 10 10 14 12 17 10 10
internal_value=0 0.0019335 0.00277367 0.00361855 0.00147916 -0.0032225 -5.56415e-05 -0.00433508
internal_weight=0 70 56 46 32 42 20 27
internal_count=112 70 56 46 32 42 20 27
is_linear=0
shrinkage=0.05


Tree=58
num_leaves=9
num_cat=0
split_feature=2 2 1 0 2 0 0 0
split_gain=0.252102 0.0535617 0.0273108 0.0300043 0.0218817 0.0362836 0.00701063 8.58647e-05
threshold=1.8 4.8500000000000005 2.6500000000000008 5.8500000000000005 5.8500000000000005 6.3500000000000005 5.0500000000000007 4.8500000000000005
decision_type=2 2 2 2 2 2 2 2
left_child=6 2 -2 -4 5 -3 7 -1
right_child=1 4 3 -5 -6 -7 -8 -9
leaf_value=-0.0026029033925045616 0.002443185520612381 0.0015745001421733332 -0.0025123194283382454 0.00092568267136812217 0.0010471077309921384 0.0053048598201712593 -0.00406516202561119 -0.0028053407825063916
leaf_weight=11.000000000000002 10.999999999999998 11.000000000000002 11.000000000000002 14.999999999999998 9.9999999999999982 15.999999999999998 17 9.9999999999999982
leaf_count=11 11 11 11 15 10 16 17 10
internal_value=0 0.00169991 0.000354723 -0.000528857 0.00304509 0.00378508 -0.00331034 -0.0026993
internal_weight=0 74 37 26 37 27 38 21
internal_count=112 74 37 26 37 27 38 21
is_linear=0
shrinkage=0.05


Tree=59
num_leaves=10
num_cat=0
split_feature=2 1 0 2 0 0 2 0 2
split_gain=0.228775 0.072719 0.0654114 0.162542 0.0503871 0.0350459 0.0401034 0.00120303 0.000742259
threshold=3.4500000000000006 2.6500000000000008 6.9500000000000011 5.1500000000000012 5.7500000000000009 4.8500000000000005 1.5500000000000003 5.1500000000000012 4.7500000000000009
decision_type=2 2 2 2 2 2 2 2 2
left_child=5 -2 3 4 -3 -1 7 -7 -6
right_child=1 2 -4 -5 8 6 -8 -9 -10
leaf_value=-0.0052010324298559377 -0.0014726928086020053 0.0043298754654824733 -0.0011088723549619317 0.0078464458297405927 -0.00024103796617551277 -0.0036843390390276886 0.00058143156580626966 -0.0029087657108902935 0.00033981507136063142
leaf_weight=11.999999999999998 13.999999999999998 9.9999999999999982 9.9999999999999982 13.999999999999998 11.000000000000002 10.000000000000005 9.9999999999999982 9.9999999999999982 10.999999999999998
leaf_count=12 14 10 10 14 11 10 10 10 11
internal_value=0 0.00175042 0.00255619 0.00335295 0.00138704 -0.00291736 -0.00200389 -0.00329655 4.93886e-05
internal_weight=0 70 56 46 32 42 30 20 22
internal_count=112 70 56 46 32 42 30 20 22
is_linear=0
shrinkage=0.05


Tree=60
num_leaves=8
num_cat=0
split_feature=2 1 2 0 1 1 0
split_gain=0.20647 0.0656289 0.0627156 0.0495747 0.0325391 0.0149608 0.0123766
threshold=3.4500000000000006 2.6500000000000008 5.5500000000000007 6.2500000000000009 3.2500000000000004 2.8500000000000001 5.2500000000000009
decision_type=2 2 2 2 2 2 2
left_child=4 -2 3 5 -1 -3 -6
right_child=1 2 -4 -5 6 -7 -8
leaf_value=-0.00090432028208548834 -0.0013990583081197527 0.0013302560523152348 0.0050740416379994715 -0.00078571439953520903 -0.0046298505122061148 0.0038624062202870847 -0.0024130404554307465
leaf_weight=14.999999999999998 13.999999999999998 10.000000000000002 15.999999999999998 15.999999999999998 17.000000000000004 13.999999999999998 9.9999999999999982
leaf_count=15 14 10 16 16 17 14 10
internal_value=0 0.0016629 0.00242838 0.00137012 -0.00277149 0.00280734 -0.00380881
internal_weight=0 70 56 40 42 24 27
internal_count=112 70 56 40 42 24 27
is_linear=0
shrinkage=0.05


Tree=61
num_leaves=10
num_cat=0
split_feature=2 1 0 1 0 0 0 2 0
split_gain=0.188505 0.0740656 0.0584136 0.0862815 0.0496397 0.0442584 0.0291639 0.0103017 0.00852658
threshold=4.4500000000000011 3.0500000000000003 6.9500000000000011 3.0500000000000003 6.0500000000000007 6.3500000000000005 4.9500000000000011 3.9500000000000006 5.1500000000000012
decision_type=2 2 2 2 2 2 2 2 2
left_child=1 7 3 4 -2 -6 -3 -1 -8
right_child=2 6 -4 -5 5 -7 8 -9 -10
leaf_value=0.0011782044544816014 0.0045725289359688764 -0.0055807461845688525 -0.0012778318891650997 0.0067848421633243568 -0.0021327692456543437 0.0023711316015881797 -0.0013528951117768879 -0.00085336623999934932 -0.0032948967499228628
leaf_weight=12.000000000000002 9.9999999999999982 10.999999999999998 9.9999999999999982 10.999999999999998 10.000000000000002 11.999999999999998 10.000000000000002 12.999999999999998 12.999999999999998
leaf_count=12 10 11 10 11 10 12 10 13 13
internal_value=0 -0.00194417 0.00216427 0.00296475 0.0016516 0.000323904 -0.00346326 0.000121788 -0.00245055
internal_weight=0 59 53 43 32 22 34 25 23
internal_count=112 59 53 43 32 22 34 25 23
is_linear=0
shrinkage=0.05


Tree=62
num_leaves=10
num_cat=0
split_feature=2 1 0 1 0 0 0 2 0
split_gain=0.170126 0.0668442 0.0527183 0.0778691 0.0447999 0.0399433 0.0263204 0.00929727 0.00769523
threshold=4.4500000000000011 3.0500000000000003 6.9500000000000011 3.0500000000000003 6.0500000000000007 6.3500000000000005 4.9500000000000011 3.9500000000000006 5.1500000000000012
decision_type=2 2 2 2 2 2 2 2 2
left_child=1 7 3 4 -2 -6 -3 -1 -8
right_child=2 6 -4 -5 5 -7 8 -9 -10
leaf_value=0.0011192942038178442 0.0043439024686813361 -0.0053017086391760546 -0.0012139404035406188 0.0064455999569459398 -0.0020261308364570136 0.0022525750488663716 -0.0012852504896000024 -0.00081069792907398483 -0.003130151847234139
leaf_weight=12.000000000000002 9.9999999999999982 10.999999999999998 9.9999999999999982 10.999999999999998 10.000000000000002 11.999999999999998 10.000000000000002 12.999999999999998 12.999999999999998
leaf_count=12 10 11 10 11 10 12 10 13 13
internal_value=0 -0.00184696 0.00205605 0.00281652 0.00156902 0.000307709 -0.0032901 0.000115698 -0.00232802
internal_weight=0 59 53 43 32 22 34 25 23
internal_count=112 59 53 43 32 22 34 25 23
is_linear=0
shrinkage=0.05


Tree=63
num_leaves=10
num_cat=0
split_feature=2 1 0 1 0 0 0 1 0
split_gain=0.153539 0.0603269 0.0475782 0.0702768 0.0404319 0.0360488 0.0237542 0.00880934 0.00694495
threshold=4.4500000000000011 3.0500000000000003 6.9500000000000011 3.0500000000000003 6.0500000000000007 6.3500000000000005 4.9500000000000011 2.8500000000000001 5.1500000000000012
decision_type=2 2 2 2 2 2 2 2 2
left_child=1 7 3 4 -2 -6 -3 -1 -8
right_child=2 6 -4 -5 5 -7 8 -9 -10
leaf_value=0.00094187653906244227 0.0041267074644565586 -0.0050366231748326263 -0.0011532432795502247 0.0061233200302178211 -0.0019248241558670991 0.0021399462207530935 -0.0012209878768771882 -0.00094894851473244766 -0.0029736443064533749
leaf_weight=14.000000000000002 9.9999999999999982 10.999999999999998 9.9999999999999982 10.999999999999998 10.000000000000002 11.999999999999998 10.000000000000002 10.999999999999998 12.999999999999998
leaf_count=14 10 11 10 11 10 12 10 11 13
internal_value=0 -0.00175461 0.00195325 0.00267569 0.00149057 0.000292323 -0.00312559 0.000109914 -0.00221162
internal_weight=0 59 53 43 32 22 34 25 23
internal_count=112 59 53 43 32 22 34 25 23
is_linear=0
shrinkage=0.05


Tree=64
num_leaves=10
num_cat=0
split_feature=2 1 0 1 0 0 0 2 0
split_gain=0.138569 0.054445 0.0429394 0.0634248 0.0364898 0.032534 0.0214381 0.00849093 0.00626782
threshold=4.4500000000000011 3.0500000000000003 6.9500000000000011 3.0500000000000003 6.0500000000000007 6.3500000000000005 4.9500000000000011 3.9500000000000006 5.1500000000000012
decision_type=2 2 2 2 2 2 2 2 2
left_child=1 7 3 4 -2 -6 -3 -1 -8
right_child=2 6 -4 -5 5 -7 8 -9 -10
leaf_value=0.0010635064293940859 0.0039203720353543766 -0.0047847921113398952 -0.0010955810733139515 0.0058171540498733526 -0.0018285830691456787 0.00203294912353158 -0.0011599384713917968 -0.00078089493326842789 -0.0028249620101772825
leaf_weight=12.000000000000002 9.9999999999999982 10.999999999999998 9.9999999999999982 10.999999999999998 10.000000000000002 11.999999999999998 10.000000000000002 12.999999999999998 12.999999999999998
leaf_count=12 10 11 10 11 10 12 10 13 13
internal_value=0 -0.00166688 0.00185559 0.00254191 0.00141604 0.000277707 -0.00296931 0.000104418 -0.00210104
internal_weight=0 59 53 43 32 22 34 25 23
internal_count=112 59 53 43 32 22 34 25 23
is_linear=0
shrinkage=0.05


Tree=65
num_leaves=10
num_cat=0
split_feature=2 1 0 1 0 0 0 1 0
split_gain=0.125058 0.0491366 0.0387528 0.0572409 0.032932 0.029362 0.0193479 0.00804613 0.0056567
threshold=4.4500000000000011 3.0500000000000003 6.9500000000000011 3.0500000000000003 6.0500000000000007 6.3500000000000005 4.9500000000000011 2.8500000000000001 5.1500000000000012
decision_type=2 2 2 2 2 2 2 2 2
left_child=1 7 3 4 -2 -6 -3 -1 -8
right_child=2 6 -4 -5 5 -7 8 -9 -10
leaf_value=0.00089430453954264511 0.0037243532948195938 -0.0045455524316904226 -0.0010408020881004631 0.0055262963541529396 -0.0017371540144085877 0.0019313014810904861 -0.0011019415501505132 -0.00091275830160487785 -0.0026837139605329591
leaf_weight=14.000000000000002 9.9999999999999982 10.999999999999998 9.9999999999999982 10.999999999999998 10.000000000000002 11.999999999999998 10.000000000000002 10.999999999999998 12.999999999999998
leaf_count=14 10 11 10 11 10 12 10 11 13
internal_value=0 -0.00158354 0.00176281 0.00241481 0.00134524 0.000263822 -0.00282085 9.91969e-05 -0.00199599
internal_weight=0 59 53 43 32 22 34 25 23
internal_count=112 59 53 43 32 22 34 25 23
is_linear=0
shrinkage=0.05


Tree=66
num_leaves=9
num_cat=0
split_feature=2 1 0 1 0 0 2 2
split_gain=0.112865 0.0443458 0.0349744 0.0516599 0.0297211 0.0264992 0.018582 0.00775453
threshold=4.4500000000000011 3.0500000000000003 6.9500000000000011 3.0500000000000003 6.0500000000000007 6.3500000000000005 1.4500000000000002 3.9500000000000006
decision_type=2 2 2 2 2 2 2 2
left_child=1 7 3 4 -2 -6 -3 -1
right_child=2 6 -4 -5 5 -7 -8 -9
leaf_value=0.0010107924540837603 0.0035381356813013556 -0.0013642515587465216 -0.00098876215284690269 0.0052499814466996633 -0.0016502960398793215 0.0018347362754866483 -0.0037183980751586592 -0.00075181410200177482
leaf_weight=12.000000000000002 9.9999999999999982 14.999999999999998 9.9999999999999982 10.999999999999998 10.000000000000002 11.999999999999998 19 12.999999999999998
leaf_count=12 10 15 10 11 10 12 19 13
internal_value=0 -0.00150436 0.00167467 0.00229407 0.00127798 0.000250631 -0.0026798 9.4237e-05
internal_weight=0 59 53 43 32 22 34 25
internal_count=112 59 53 43 32 22 34 25
is_linear=0
shrinkage=0.05


end of trees

feature_importances:
Column_2=251
Column_1=163
Column_0=112

parameters:
[boosting: gbdt]
[objective: regression]
[metric: rmse]
[tree_learner: serial]
[device_type: cpu]
[data_sample_strategy: bagging]
[data: ]
[valid: ]
[num_iterations: 10000]
[learning_rate: 0.05]
[num_leaves: 63]
[num_threads: 0]
[seed: 5]
[deterministic: 0]
[force_col_wise: 0]
[force_row_wise: 0]
[histogram_pool_size: -1]
[max_depth: -1]
[min_data_in_leaf: 10]
[min_sum_hessian_in_leaf: 0.001]
[bagging_fraction: 0.9]
[pos_bagging_fraction: 1]
[neg_bagging_fraction: 1]
[bagging_freq: 0]
[bagging_seed: 28693]
[feature_fraction: 0.9]
[feature_fraction_bynode: 1]
[feature_fraction_seed: 24449]
[extra_trees: 0]
[extra_seed: 31430]
[early_stopping_round: 0]
[early_stopping_min_delta: 0]
[first_metric_only: 0]
[max_delta_step: 0]
[lambda_l1: 0]
[lambda_l2: 0]
[linear_lambda: 0]
[min_gain_to_split: 0]
[drop_rate: 0.1]
[max_drop: 50]
[skip_drop: 0.5]
[xgboost_dart_mode: 0]
[uniform_drop: 0]
[drop_seed: 12255]
[top_rate: 0.2]
[other_rate: 0.1]
[min_data_per_group: 100]
[max_cat_threshold: 32]
[cat_l2: 10]
[cat_smooth: 10]
[max_cat_to_onehot: 4]
[top_k: 20]
[monotone_constraints: ]
[monotone_constraints_method: basic]
[monotone_penalty: 0]
[feature_contri: ]
[forcedsplits_filename: ]
[refit_decay_rate: 0.9]
[cegb_tradeoff: 1]
[cegb_penalty_split: 0]
[cegb_penalty_feature_lazy: ]
[cegb_penalty_feature_coupled: ]
[path_smooth: 0]
[interaction_constraints: ]
[verbosity: -1]
[saved_feature_importance_type: 0]
[use_quantized_grad: 0]
[num_grad_quant_bins: 4]
[quant_train_renew_leaf: 0]
[stochastic_rounding: 1]
[linear_tree: 0]
[max_bin: 255]
[max_bin_by_feature: ]
[min_data_in_bin: 3]
[bin_construct_sample_cnt: 200000]
[data_random_seed: 54]
[is_enable_sparse: 1]
[enable_bundle: 1]
[use_missing: 1]
[zero_as_missing: 0]
[feature_pre_filter: 1]
[pre_partition: 0]
[two_round: 0]
[header: 0]
[label_column: ]
[weight_column: ]
[group_column: ]
[ignore_column: ]
[categorical_feature: ]
[forcedbins_filename: ]
[precise_float_parser: 0]
[parser_config_file: ]
[objective_seed: 27660]
[num_class: 1]
[is_unbalance: 0]
[scale_pos_weight: 1]
[sigmoid: 1]
[boost_from_average: 1]
[reg_sqrt: 0]
[alpha: 0.9]
[fair_c: 1]
[poisson_max_delta_step: 0.7]
[tweedie_variance_power: 1.5]
[lambdarank_truncation_level: 30]
[lambdarank_norm: 1]
[label_gain: ]
[lambdarank_position_bias_regularization: 0]
[eval_at: ]
[multi_error_top_k: 1]
[auc_mu_weights: ]
[num_machines: 1]
[local_listen_port: 12400]
[time_out: 120]
[machine_list_filename: ]
[machines: ]
[gpu_platform_id: -1]
[gpu_device_id: -1]
[gpu_use_dp: 0]
[num_gpu: 1]

end of parameters

pandas_categorical:null
