tree
version=v4
num_class=1
num_tree_per_iteration=1
label_index=0
max_feature_idx=2
objective=regression
feature_names=Column_0 Column_1 Column_2
feature_infos=[4.2999999999999998:7.9000000000000004] [2:4.2000000000000002] [1.1000000000000001:6.9000000000000004]
tree_sizes=915 756 762 904 763 876 905 761 877 878 878 763 878 764 878 1014 767 880 899 882 1010 880 1012 884 866 883 755 887 886 758 1016 889 892 891 1020 890 1018 872 897 1026 1012 895 1013 895 881 1043

Tree=0
num_leaves=8
num_cat=0
split_feature=2 2 2 2 2 1 0
split_gain=86.9932 13.3979 2.72125 1.55014 0.573387 0.448229 0.0535973
threshold=3.6000000000000005 4.7500000000000009 1.6500000000000001 5.1500000000000012 4.4500000000000011 3.1500000000000008 5.0500000000000007
decision_type=2 2 2 2 2 2 2
left_child=2 4 6 -3 -2 -5 -1
right_child=1 3 -4 5 -6 -7 -8
leaf_value=-0.068643444841693671 0.00018273171314747613 0.038037129908505357 -0.036677509199465268 0.051969651610021823 0.014457790440931959 0.065080951622965247 -0.064378574865865748
leaf_weight=17.000000000000004 17.000000000000004 17 9.9999999999999982 16.000000000000004 11.999999999999998 10.999999999999998 12.999999999999998
leaf_count=17 17 17 10 16 12 11 13
internal_value=7.64838e-09 0.0324745 -0.0592659 0.0498645 0.00608965 0.0573113 -0.0667953
internal_weight=0 73 40 44 29 27 30
internal_count=113 73 40 44 29 27 30
is_linear=0
shrinkage=1


Tree=1
num_leaves=7
num_cat=0
split_feature=2 2 2 2 1 0
split_gain=78.6291 14.596 1.399 0.869499 0.404527 0.26126
threshold=3.1500000000000004 4.7500000000000009 5.1500000000000012 4.1500000000000012 3.1500000000000008 5.0500000000000007
decision_type=2 2 2 2 2 2
left_child=5 3 -3 -2 -4 -1
right_child=1 2 4 -5 -6 -7
leaf_value=-0.065257589022318527 -0.0060732067695685801 0.036135265844709739 0.04937116159126162 0.01034859199272959 0.061826894500038844 -0.056738649101720919
leaf_weight=18 13.999999999999998 17 16.000000000000004 19 10.999999999999998 18
leaf_count=18 14 17 16 19 11 18
internal_value=0 0.0285186 0.0473712 0.00338177 0.0544457 -0.0609981
internal_weight=0 77 44 33 27 36
internal_count=113 77 44 33 27 36
is_linear=0
shrinkage=0.05


Tree=2
num_leaves=7
num_cat=0
split_feature=2 2 2 2 1 0
split_gain=70.9627 13.1729 1.2626 0.784723 0.365086 0.235788
threshold=3.1500000000000004 4.7500000000000009 5.1500000000000012 4.1500000000000012 3.1500000000000008 5.0500000000000007
decision_type=2 2 2 2 2 2
left_child=5 3 -3 -2 -4 -1
right_child=1 2 4 -5 -6 -7
leaf_value=-0.061994711226887184 -0.0057695464364119937 0.034328502942534055 0.046902604028582567 0.0098311623852503933 0.058735552701083098 -0.053901717087460888
leaf_weight=18 13.999999999999998 17 16.000000000000004 19 10.999999999999998 18
leaf_count=18 14 17 16 19 11 18
internal_value=0 0.0270927 0.0450027 0.00321268 0.0517234 -0.0579482
internal_weight=0 77 44 33 27 36
internal_count=113 77 44 33 27 36
is_linear=0
shrinkage=0.05


Tree=3
num_leaves=8
num_cat=0
split_feature=2 2 2 2 2 1 0
split_gain=64.1437 9.79251 2.06693 1.1395 0.448099 0.32949 0.0305717
threshold=3.6000000000000005 4.7500000000000009 1.6500000000000001 5.1500000000000012 4.4500000000000011 3.1500000000000008 5.0500000000000007
decision_type=2 2 2 2 2 2 2
left_child=2 4 6 -3 -2 -5 -1
right_child=1 3 -4 5 -6 -7 -8
leaf_value=-0.05884866293738869 0.00010643845752758136 0.03261207701528774 -0.031204515229910613 0.044557472597807637 0.012725905779128275 0.055798773061145439 -0.055627636496837322
leaf_weight=17.000000000000004 17.000000000000004 17 9.9999999999999982 16.000000000000004 11.999999999999998 10.999999999999998 12.999999999999998
leaf_count=17 17 17 10 16 12 11 13
internal_value=0 0.0278854 -0.0508908 0.0427525 0.00532829 0.0491373 -0.0574529
internal_weight=0 73 40 44 29 27 30
internal_count=113 73 40 44 29 27 30
is_linear=0
shrinkage=0.05


Tree=4
num_leaves=7
num_cat=0
split_feature=2 2 2 2 1 0
split_gain=58.0178 10.6683 1.02839 0.629684 0.297365 0.190002
threshold=3.1500000000000004 4.7500000000000009 5.1500000000000012 4.1500000000000012 3.1500000000000008 5.0500000000000007
decision_type=2 2 2 2 2 2
left_child=5 3 -3 -2 -4 -1
right_child=1 2 4 -5 -6 -7
leaf_value=-0.056029330359564894 -0.0050390918073909621 0.030981473624706268 0.042329599987715474 0.0089357726422971805 0.053008834475820714 -0.048764459879344538
leaf_weight=18 13.999999999999998 17 16.000000000000004 19 10.999999999999998 18
leaf_count=18 14 17 16 19 11 18
internal_value=0 0.0244972 0.0406149 0.00300704 0.0466804 -0.0523969
internal_weight=0 77 44 33 27 36
internal_count=113 77 44 33 27 36
is_linear=0
shrinkage=0.05


Tree=5
num_leaves=8
num_cat=0
split_feature=2 2 2 2 1 1 0
split_gain=52.3611 9.6281 0.928126 0.582279 0.268372 0.177239 0.171477
threshold=3.1500000000000004 4.7500000000000009 5.1500000000000012 4.4500000000000011 3.1500000000000008 2.6500000000000008 5.0500000000000007
decision_type=2 2 2 2 2 2 2
left_child=6 3 -3 5 -4 -2 -1
right_child=1 2 4 -5 -6 -7 -8
leaf_value=-0.053227864371405711 -0.0065436508337205091 0.029432399307980257 0.040213118400424713 0.011642822258484861 0.050358394059267911 0.002653707638382912 -0.046326236540658608
leaf_weight=18 11.000000000000002 17 16.000000000000004 11.999999999999998 10.999999999999998 9.9999999999999982 18
leaf_count=18 11 17 16 12 11 10 18
internal_value=0 0.0232724 0.0385842 0.00285669 0.0443464 -0.00216396 -0.0497771
internal_weight=0 77 44 33 27 21 36
internal_count=113 77 44 33 27 21 36
is_linear=0
shrinkage=0.05


Tree=6
num_leaves=8
num_cat=0
split_feature=2 2 2 2 2 1 0
split_gain=47.277 7.16253 1.57808 0.837634 0.336682 0.242205 0.0162958
threshold=3.6000000000000005 4.7500000000000009 1.6500000000000001 5.1500000000000012 4.4500000000000011 3.1500000000000008 5.0500000000000007
decision_type=2 2 2 2 2 2 2
left_child=2 4 6 -3 -2 -5 -1
right_child=1 3 -4 5 -6 -7 -8
leaf_value=-0.050443370903239519 0.00012202532414127797 0.027960780438254864 -0.026489081494510177 0.038202463323250405 0.011060680666317543 0.047840473326769745 -0.048091719471491302
leaf_weight=17.000000000000004 17.000000000000004 17 9.9999999999999982 16.000000000000004 11.999999999999998 10.999999999999998 12.999999999999998
leaf_count=17 17 17 10 16 12 11 13
internal_value=0 0.02394 -0.0436905 0.036655 0.00464837 0.0421291 -0.0494243
internal_weight=0 73 40 44 29 27 30
internal_count=113 73 40 44 29 27 30
is_linear=0
shrinkage=0.05


Tree=7
num_leaves=7
num_cat=0
split_feature=2 2 2 2 1 0
split_gain=42.8087 7.79746 0.755965 0.465797 0.21859 0.138628
threshold=3.1500000000000004 4.7500000000000009 5.1500000000000012 4.1500000000000012 3.1500000000000008 5.0500000000000007
decision_type=2 2 2 2 2 2
left_child=5 3 -3 -2 -4 -1
right_child=1 2 4 -5 -6 -7
leaf_value=-0.048110841876930661 -0.0042501357650118216 0.026562740259310783 0.036292340839281671 0.007769306475835804 0.04544844966043126 -0.041905375714931227
leaf_weight=18 13.999999999999998 17 16.000000000000004 19 10.999999999999998 18
leaf_count=18 14 17 16 19 11 18
internal_value=0 0.0210428 0.0348222 0.00267015 0.0400226 -0.0450081
internal_weight=0 77 44 33 27 36
internal_count=113 77 44 33 27 36
is_linear=0
shrinkage=0.05


Tree=8
num_leaves=8
num_cat=0
split_feature=2 2 2 2 1 1 0
split_gain=38.6348 7.03721 0.682258 0.433676 0.197278 0.136196 0.125112
threshold=3.1500000000000004 4.7500000000000009 5.1500000000000012 4.4500000000000011 3.1500000000000008 2.6500000000000008 5.0500000000000007
decision_type=2 2 2 2 2 2 2
left_child=6 3 -3 5 -4 -2 -1
right_child=1 2 4 -5 -6 -7 -8
leaf_value=-0.045705299907260473 -0.0056354920210486097 0.02523460410097066 0.034477723273448641 0.010119181215607871 0.043176028403368871 0.0024269417300820349 -0.039810108103685911
leaf_weight=18 11.000000000000002 17 16.000000000000004 11.999999999999998 10.999999999999998 9.9999999999999982 18
leaf_count=18 11 17 16 12 11 10 18
internal_value=0 0.0199906 0.0330811 0.00253664 0.0380215 -0.00179624 -0.0427577
internal_weight=0 77 44 33 27 21 36
internal_count=113 77 44 33 27 21 36
is_linear=0
shrinkage=0.05


Tree=9
num_leaves=8
num_cat=0
split_feature=2 2 2 2 1 1 0
split_gain=34.8679 6.35108 0.615738 0.391392 0.178043 0.122917 0.112913
threshold=3.1500000000000004 4.7500000000000009 5.1500000000000012 4.4500000000000011 3.1500000000000008 2.6500000000000008 5.0500000000000007
decision_type=2 2 2 2 2 2 2
left_child=6 3 -3 5 -4 -2 -1
right_child=1 2 4 -5 -6 -7 -8
leaf_value=-0.043420033322440259 -0.0053537177429957804 0.023972873433547863 0.032753836852498351 0.0096132223028689637 0.041017225723374975 0.0023055947385728359 -0.037819602257675597
leaf_weight=18 11.000000000000002 17 16.000000000000004 11.999999999999998 10.999999999999998 9.9999999999999982 18
leaf_count=18 11 17 16 12 11 10 18
internal_value=0 0.0189911 0.031427 0.00240981 0.0361204 -0.00170643 -0.0406198
internal_weight=0 77 44 33 27 21 36
internal_count=113 77 44 33 27 21 36
is_linear=0
shrinkage=0.05


Tree=10
num_leaves=8
num_cat=0
split_feature=2 2 2 2 1 0 0
split_gain=31.4814 4.85901 1.11626 0.509725 0.462075 0.153157 0.00616841
threshold=3.6000000000000005 4.9500000000000011 1.6500000000000001 4.4500000000000011 3.0500000000000003 6.4500000000000011 4.9500000000000011
decision_type=2 2 2 2 2 2 2
left_child=2 3 6 -2 5 -3 -1
right_child=1 4 -4 -5 -6 -7 -8
leaf_value=-0.041294697614816508 0.00016802795888746486 0.023474203744395208 -0.021185282617807388 0.012085603746144397 0.039026774565378827 0.031817876886237752 -0.039847855708178358
leaf_weight=13.000000000000002 17 11.000000000000002 9.9999999999999982 19 14.999999999999998 10.999999999999998 17
leaf_count=13 17 11 10 19 15 11 17
internal_value=0 0.0195356 -0.0356524 0.00645786 0.0322599 0.027646 -0.0404748
internal_weight=0 73 40 36 37 22 30
internal_count=113 73 40 36 37 22 30
is_linear=0
shrinkage=0.05


Tree=11
num_leaves=7
num_cat=0
split_feature=2 2 2 2 1 0
split_gain=28.5032 5.18148 0.491477 0.31224 0.144974 0.0922022
threshold=3.1500000000000004 4.7500000000000009 5.1500000000000012 4.1500000000000012 3.1500000000000008 5.0500000000000007
decision_type=2 2 2 2 2 2
left_child=5 3 -3 -2 -4 -1
right_child=1 2 4 -5 -6 -7
leaf_value=-0.039256233308050371 -0.0034722680891198774 0.02174350514268393 0.029558418242959301 0.0063685346884947078 0.037015026469122282 -0.03419543099072244
leaf_weight=18 13.999999999999998 17 16.000000000000004 19 10.999999999999998 18
leaf_count=18 14 17 16 19 11 18
internal_value=0 0.0171705 0.0284032 0.00219365 0.0325963 -0.0367258
internal_weight=0 77 44 33 27 36
internal_count=113 77 44 33 27 36
is_linear=0
shrinkage=0.05


Tree=12
num_leaves=8
num_cat=0
split_feature=2 2 2 1 0 1 0
split_gain=25.7241 4.70559 0.603276 0.389461 0.128491 0.094943 0.0832125
threshold=3.1500000000000004 4.9500000000000011 4.4500000000000011 3.0500000000000003 6.4500000000000011 2.6500000000000008 5.0500000000000007
decision_type=2 2 2 2 2 2 2
left_child=6 2 5 4 -3 -2 -1
right_child=1 3 -4 -5 -6 -7 -8
leaf_value=-0.037293422387705909 -0.0046220394359393546 0.021106751178475935 0.01087967397301997 0.035376206363240875 0.028749062832106244 0.0021095068007707597 -0.032485659751627184
leaf_weight=18 11.000000000000002 11.000000000000002 19 14.999999999999998 10.999999999999998 9.9999999999999982 18
leaf_count=18 11 11 19 15 11 10 18
internal_value=0 0.016312 0.00442416 0.0291637 0.0249279 -0.00141654 -0.0348895
internal_weight=0 77 40 37 22 21 36
internal_count=113 77 40 37 22 21 36
is_linear=0
shrinkage=0.05


Tree=13
num_leaves=7
num_cat=0
split_feature=2 2 2 2 1 0
split_gain=23.216 4.25072 0.391344 0.254868 0.117823 0.0750993
threshold=3.1500000000000004 4.7500000000000009 5.1500000000000012 4.1500000000000012 3.1500000000000008 5.0500000000000007
decision_type=2 2 2 2 2 2
left_child=5 3 -3 -2 -4 -1
right_child=1 2 4 -5 -6 -7
leaf_value=-0.03542875084612105 -0.0031877589910956367 0.019727612177238747 0.026673270459286864 0.0057031090812463513 0.033395463871684947 -0.030861376639869476
leaf_weight=18 13.999999999999998 17 16.000000000000004 19 10.999999999999998 18
leaf_count=18 14 17 16 19 11 18
internal_value=0 0.0154964 0.0256703 0.00193123 0.0294119 -0.0331451
internal_weight=0 77 44 33 27 36
internal_count=113 77 44 33 27 36
is_linear=0
shrinkage=0.05


Tree=14
num_leaves=8
num_cat=0
split_feature=2 2 2 2 1 0 0
split_gain=20.9719 3.25914 0.793457 0.334352 0.328748 0.108035 0.00199362
threshold=3.6000000000000005 4.9500000000000011 1.6500000000000001 4.4500000000000011 3.0500000000000003 6.4500000000000011 4.9500000000000011
decision_type=2 2 2 2 2 2 2
left_child=2 3 6 -2 5 -3 -1
right_child=1 4 -4 -5 -6 -7 -8
leaf_value=-0.033631042333749618 0.00014009126735960736 0.018970319188453932 -0.016901923567056658 0.009792188672642959 0.0320735564827919 0.025977945022962315 -0.032808505261645603
leaf_weight=13.000000000000002 17 11.000000000000002 9.9999999999999982 19 14.999999999999998 10.999999999999998 17
leaf_count=13 17 11 10 19 15 11 17
internal_value=0 0.0159448 -0.0290992 0.00523425 0.0263658 0.0224741 -0.0331649
internal_weight=0 73 40 36 37 22 30
internal_count=113 73 40 36 37 22 30
is_linear=0
shrinkage=0.05


Tree=15
num_leaves=9
num_cat=0
split_feature=2 2 2 1 0 1 1 1
split_gain=18.975 3.47105 0.438373 0.296695 0.0975016 0.0740189 0.0666331 0.00758892
threshold=3.1500000000000004 4.9500000000000011 4.4500000000000011 3.0500000000000003 6.4500000000000011 2.6500000000000008 3.3500000000000001 3.5500000000000003
decision_type=2 2 2 2 2 2 2 2
left_child=6 2 5 4 -3 -2 -1 -8
right_child=1 3 -4 -5 -6 -7 7 -9
leaf_value=-0.027419854203859968 -0.0040095254016870785 0.018021803772584954 0.0093025791801904373 0.030469878620157639 0.024679048799655656 0.0019341430626809597 -0.032780002951621999 -0.030876852165568958
leaf_weight=14.999999999999998 11.000000000000002 11.000000000000002 19 14.999999999999998 10.999999999999998 9.9999999999999982 10.000000000000002 10.999999999999998
leaf_count=15 11 11 19 15 11 10 10 11
internal_value=0 0.0140097 0.00379964 0.0250475 0.0213504 -0.00117921 -0.0299651 -0.0317831
internal_weight=0 77 40 37 22 21 36 21
internal_count=113 77 40 37 22 21 36 21
is_linear=0
shrinkage=0.05


Tree=16
num_leaves=7
num_cat=0
split_feature=2 2 2 2 1 0
split_gain=17.1249 3.15424 0.272993 0.181635 0.0858463 0.0653111
threshold=3.1500000000000004 4.7500000000000009 5.1500000000000012 4.1500000000000012 3.1500000000000008 5.0500000000000007
decision_type=2 2 2 2 2 2
left_child=5 3 -3 -2 -4 -1
right_child=1 2 4 -5 -6 -7
leaf_value=-0.030596503780947793 -0.0026975788674982533 0.017109798333224128 0.022860575770027931 0.0048080338312214933 0.028598520371385595 -0.026337164888779324
leaf_weight=18 13.999999999999998 17 16.000000000000004 19 10.999999999999998 18
leaf_count=18 14 17 16 19 11 18
internal_value=0 0.0133092 0.0220732 0.00162383 0.0251983 -0.0284668
internal_weight=0 77 44 33 27 36
internal_count=113 77 44 33 27 36
is_linear=0
shrinkage=0.05


Tree=17
num_leaves=8
num_cat=0
split_feature=2 2 2 1 2 0 0
split_gain=15.4562 2.40727 0.619864 0.250941 0.243165 0.0822722 0.0021059
threshold=3.6000000000000005 4.9500000000000011 1.6500000000000001 3.0500000000000003 4.4500000000000011 6.4500000000000011 4.8500000000000005
decision_type=2 2 2 2 2 2 2
left_child=2 4 6 5 -2 -3 -1
right_child=1 3 -4 -5 -6 -7 -8
leaf_value=-0.028024270317771213 0.00013910083045416018 0.016186804078858003 -0.014200506359338762 0.027631302053729698 0.0083704369436753429 0.02230206687342037 -0.028893584248266727
leaf_weight=11.000000000000002 17 11.000000000000002 9.9999999999999982 14.999999999999998 19 10.999999999999998 19
leaf_count=11 17 11 10 15 19 11 19
internal_value=0 0.0136884 -0.0249813 0.0226445 0.00448342 0.0192444 -0.0285748
internal_weight=0 73 40 37 36 22 30
internal_count=113 73 40 37 36 22 30
is_linear=0
shrinkage=0.05


Tree=18
num_leaves=8
num_cat=0
split_feature=2 2 2 1 1 1 1
split_gain=13.9953 2.57538 0.216083 0.152803 0.0645355 0.0590845 0.00679255
threshold=3.1500000000000004 4.7500000000000009 5.5500000000000007 2.8500000000000001 3.3500000000000001 2.9500000000000006 3.5500000000000003
decision_type=2 2 2 2 2 2 2
left_child=4 3 5 -2 -1 -3 -6
right_child=1 2 -4 -5 6 -7 -8
leaf_value=-0.023229683935642245 -0.0014476269933909767 0.014366202357147508 0.023970096146589834 0.0054365522228181362 -0.028466851413249963 0.019231558261582488 -0.026666323705153035
leaf_weight=14.999999999999998 19 12.000000000000002 19 13.999999999999998 10.000000000000002 12.999999999999998 10.999999999999998
leaf_count=15 19 12 19 14 10 13 11
internal_value=0 0.0120317 0.0199508 0.00147293 -0.0257345 0.0168962 -0.0275237
internal_weight=0 77 44 33 36 25 21
internal_count=113 77 44 33 36 25 21
is_linear=0
shrinkage=0.05


Tree=19
num_leaves=8
num_cat=0
split_feature=2 2 2 1 0 0 1
split_gain=12.6308 2.33418 0.29212 0.218056 0.0671536 0.0586035 0.0536421
threshold=3.1500000000000004 4.9500000000000011 4.4500000000000011 3.0500000000000003 6.4500000000000011 5.0500000000000007 2.6500000000000008
decision_type=2 2 2 2 2 2 2
left_child=5 2 6 4 -3 -1 -2
right_child=1 3 -4 -5 -6 -7 -8
leaf_value=-0.026465156343248156 -0.0034162565586897961 0.014549729926511641 0.0075496485750926176 0.025130208022892477 0.020074614035812292 -0.022430464045868983 0.0016435755824204534
leaf_weight=18 11.000000000000002 11.000000000000002 19 14.999999999999998 10.999999999999998 18 9.9999999999999982
leaf_count=18 11 11 19 15 11 18 10
internal_value=0 0.0114301 0.00305751 0.0204816 0.0173122 -0.0244478 -0.00100681
internal_weight=0 77 40 37 22 36 21
internal_count=113 77 40 37 22 36 21
is_linear=0
shrinkage=0.05


Tree=20
num_leaves=9
num_cat=0
split_feature=2 2 2 1 1 0 2 1
split_gain=11.3993 2.11322 0.176431 0.1314 0.0619206 0.0470248 0.045189 0.00596058
threshold=3.1500000000000004 4.7500000000000009 5.5500000000000007 2.9500000000000006 3.3500000000000001 6.2500000000000009 4.1500000000000012 3.5500000000000003
decision_type=2 2 2 2 2 2 2 2
left_child=4 3 5 6 -1 -3 -2 -6
right_child=1 2 -4 -5 7 -7 -8 -9
leaf_value=-0.020771839320659638 -0.002730137450942912 0.017528956693907576 0.02166389695515758 0.0060789704509079459 -0.025861465483903879 0.013188441226688717 0.0017405921645695342 -0.024174805798313836
leaf_weight=14.999999999999998 13.000000000000002 12.000000000000002 19 9.9999999999999982 10.000000000000002 12.999999999999998 9.9999999999999982 10.999999999999998
leaf_count=15 13 12 19 10 10 13 10 11
internal_value=0 0.0108586 0.0180321 0.00129406 -0.0232254 0.0152719 -0.000786342 -0.024978
internal_weight=0 77 44 33 36 25 23 21
internal_count=113 77 44 33 36 25 23 21
is_linear=0
shrinkage=0.05


Tree=21
num_leaves=8
num_cat=0
split_feature=2 2 2 1 2 0 0
split_gain=10.2979 1.62592 0.455058 0.193914 0.159893 0.0593536 0.00275179
threshold=3.6000000000000005 4.9500000000000011 1.6500000000000001 3.0500000000000003 4.4500000000000011 6.4500000000000011 4.9500000000000011
decision_type=2 2 2 2 2 2 2
left_child=2 4 6 5 -2 -3 -1
right_child=1 3 -4 -5 -6 -7 -8
leaf_value=-0.024017501565126265 8.5309387513381605e-05 0.012947664782404895 -0.011153803765773775 0.02291729257286837 0.0067600645124912262 0.018141787820918995 -0.023051135066677542
leaf_weight=13.000000000000002 17 11.000000000000002 9.9999999999999982 14.999999999999998 19 10.999999999999998 17
leaf_count=13 17 11 10 15 19 11 17
internal_value=0 0.0111731 -0.0203909 0.0185336 0.0036081 0.0155447 -0.0234699
internal_weight=0 73 40 37 36 22 30
internal_count=113 73 40 37 36 22 30
is_linear=0
shrinkage=0.05


Tree=22
num_leaves=9
num_cat=0
split_feature=2 2 2 1 1 0 1 1
split_gain=9.31346 1.72972 0.210635 0.175008 0.0577112 0.0535666 0.040975 0.00544933
threshold=3.1500000000000004 4.9500000000000011 4.4500000000000011 3.0500000000000003 3.3500000000000001 6.4500000000000011 2.6500000000000008 3.5500000000000003
decision_type=2 2 2 2 2 2 2 2
left_child=4 2 6 5 -1 -3 -2 -6
right_child=1 3 -4 -5 7 -7 -8 -9
leaf_value=-0.018624572356541951 -0.002949497850865802 0.01230028126050125 0.0064220613738718004 0.02177142723153035 -0.02352997742593288 0.017234697946431964 0.0014727487764321268 -0.021917273375121032
leaf_weight=14.999999999999998 11.000000000000002 11.000000000000002 19 14.999999999999998 10.000000000000002 10.999999999999998 9.9999999999999982 10.999999999999998
leaf_count=15 11 11 19 15 10 11 10 11
internal_value=0 0.00981504 0.00260755 0.0176069 -0.0209933 0.0147675 -0.000843666 -0.0226852
internal_weight=0 77 40 37 36 22 21 21
internal_count=113 77 40 37 36 22 21 21
is_linear=0
shrinkage=0.05


Tree=23
num_leaves=8
num_cat=0
split_feature=2 2 2 1 0 0 2
split_gain=8.4054 1.56934 0.129712 0.104468 0.0549561 0.0518843 0.0295734
threshold=3.1500000000000004 4.7500000000000009 5.5500000000000007 2.9500000000000006 5.0500000000000007 6.2500000000000009 4.1500000000000012
decision_type=2 2 2 2 2 2 2
left_child=4 3 5 6 -1 -3 -2
right_child=1 2 -4 -5 -6 -7 -8
leaf_value=-0.021897183027532366 -0.0023455461809554923 0.015510205645114178 0.018620127223824202 0.0053483968542423106 -0.017990064703755911 0.010950930248229551 0.0012711601515184158
leaf_weight=18 13.000000000000002 12.000000000000002 19 9.9999999999999982 18 12.999999999999998 9.9999999999999982
leaf_count=18 13 12 19 10 18 13 10
internal_value=0 0.00932429 0.0155061 0.00108192 -0.0199436 0.0131394 -0.000773065
internal_weight=0 77 44 33 36 25 23
internal_count=113 77 44 33 36 25 23
is_linear=0
shrinkage=0.05


Tree=24
num_leaves=8
num_cat=0
split_feature=2 2 1 0 2 0 0
split_gain=7.59461 1.60477 0.123156 0.166144 0.11113 0.110566 0.00285326
threshold=1.8 4.7500000000000009 3.1500000000000008 6.6000000000000005 4.1500000000000012 6.2500000000000009 4.9500000000000011
decision_type=2 2 2 2 2 2 2
left_child=6 4 3 5 -2 -3 -1
right_child=1 2 -4 -5 -6 -7 -8
leaf_value=-0.020759007678582117 -0.0024406727129483927 0.013962564312598919 0.019050494426240527 0.018088818307627329 0.0031239459980401752 0.0066982487263157961 -0.019807503484189512
leaf_weight=12.999999999999998 17 11.000000000000002 11.999999999999998 10.999999999999998 19 9.9999999999999982 20
leaf_count=13 17 11 12 11 19 10 20
internal_value=0 0.00832521 0.0147308 0.0131109 0.000496209 0.0105034 -0.0201823
internal_weight=0 80 44 32 36 21 33
internal_count=113 80 44 32 36 21 33
is_linear=0
shrinkage=0.05


Tree=25
num_leaves=8
num_cat=0
split_feature=2 2 1 1 2 0 0
split_gain=6.86503 1.09933 0.321414 0.144531 0.101884 0.0440642 0.00663188
threshold=3.6000000000000005 4.9500000000000011 3.0500000000000003 3.0500000000000003 4.4500000000000011 6.4500000000000011 5.0500000000000007
decision_type=2 2 2 2 2 2 2
left_child=2 4 -1 5 -2 -3 -4
right_child=1 3 6 -5 -6 -7 -8
leaf_value=-0.0093714386224746701 9.0131410123670805e-05 0.010356883239001033 -0.020309157793720559 0.018959532690544924 0.0054182375579043054 0.014832281943579967 -0.018773932053762325
leaf_weight=10.999999999999998 17 11.000000000000002 12.000000000000002 14.999999999999998 19 10.999999999999998 17
leaf_count=11 17 11 12 15 19 11 17
internal_value=0 0.00912264 -0.0166488 0.015175 0.00290219 0.0125946 -0.0194092
internal_weight=0 73 40 37 36 22 29
internal_count=113 73 40 37 36 22 29
is_linear=0
shrinkage=0.05


Tree=26
num_leaves=7
num_cat=0
split_feature=2 2 2 0 2 0
split_gain=6.24021 1.30061 0.0989087 0.109248 0.0848906 0.00377826
threshold=1.8 4.7500000000000009 5.1500000000000012 7.0500000000000016 4.1500000000000012 4.9500000000000011
decision_type=2 2 2 2 2 2
left_child=5 4 -3 -4 -2 -1
right_child=1 2 3 -5 -6 -7
leaf_value=-0.018958008403961474 -0.0020685242598547657 0.010325516497387607 0.017633478914606655 0.011047295285388829 0.002794986147139418 -0.017863079383969308
leaf_weight=12.999999999999998 17 17 17.000000000000004 9.9999999999999982 19 20
leaf_count=13 17 17 17 10 19 20
internal_value=0 0.00754645 0.0133131 0.0151942 0.000498328 -0.0182944
internal_weight=0 80 44 27 36 33
internal_count=113 80 44 27 36 33
is_linear=0
shrinkage=0.05


Tree=27
num_leaves=8
num_cat=0
split_feature=2 2 2 1 0 2 0
split_gain=5.63179 1.18246 0.151767 0.126749 0.0381732 0.0260002 0.00340987
threshold=1.8 4.9500000000000011 4.4500000000000011 3.0500000000000003 6.4500000000000011 3.9500000000000006 4.9500000000000011
decision_type=2 2 2 2 2 2 2
left_child=6 2 5 4 -3 -2 -1
right_child=1 3 -4 -5 -6 -7 -8
leaf_value=-0.018010108172893526 -0.003059877343475818 0.0092231094286861718 0.0048688560675241447 0.017266417617599169 0.013388617387549442 0.00027822621632367373 -0.016969925761222842
leaf_weight=12.999999999999998 10.000000000000002 11.000000000000002 19 14.999999999999998 10.999999999999998 13.999999999999998 20
leaf_count=13 10 11 19 15 11 14 20
internal_value=0 0.00716912 0.00153034 0.0137223 0.0113059 -0.00111265 -0.0173797
internal_weight=0 80 43 37 22 24 33
internal_count=113 80 43 37 22 24 33
is_linear=0
shrinkage=0.05


Tree=28
num_leaves=8
num_cat=0
split_feature=2 2 2 1 0 2 0
split_gain=5.08269 1.06717 0.13697 0.114391 0.0344513 0.0234652 0.00307741
threshold=1.8 4.9500000000000011 4.4500000000000011 3.0500000000000003 6.4500000000000011 3.9500000000000006 4.9500000000000011
decision_type=2 2 2 2 2 2 2
left_child=6 2 5 4 -3 -2 -1
right_child=1 3 -4 -5 -6 -7 -8
leaf_value=-0.017109602689743042 -0.0029068836290389293 0.0087619535794312281 0.0046254132580208149 0.016403096855307619 0.01271918612447652 0.00026431500778666567 -0.016121429316699503
leaf_weight=12.999999999999998 10.000000000000002 11.000000000000002 19 14.999999999999998 10.999999999999998 13.999999999999998 20
leaf_count=13 10 11 19 15 11 14 20
internal_value=0 0.00681067 0.00145382 0.0130362 0.0107406 -0.00105702 -0.0165107
internal_weight=0 80 43 37 22 24 33
internal_count=113 80 43 37 22 24 33
is_linear=0
shrinkage=0.05


Tree=29
num_leaves=7
num_cat=0
split_feature=2 2 2 2 0 0
split_gain=4.58713 0.968688 0.0775818 0.0616965 0.0603846 0.00277737
threshold=1.8 4.7500000000000009 5.5500000000000007 4.1500000000000012 6.2500000000000009 4.9500000000000011
decision_type=2 2 2 2 2 2
left_child=5 3 4 -2 -3 -1
right_child=1 2 -4 -5 -6 -7
leaf_value=-0.016254122555255889 -0.0018007750787279186 0.012174172233790156 0.013855173375065389 0.0023454236111750729 0.0072555785855421655 -0.01531535778194666
leaf_weight=12.999999999999998 17 12.000000000000002 19 19 12.999999999999998 20
leaf_count=13 17 12 19 19 13 20
internal_value=0 0.00647013 0.0114468 0.000387496 0.0096165 -0.0156852
internal_weight=0 80 44 36 25 33
internal_count=113 80 44 36 25 33
is_linear=0
shrinkage=0.05


Tree=30
num_leaves=9
num_cat=0
split_feature=2 2 1 1 0 1 0 0
split_gain=4.14112 0.66681 0.231001 0.102352 0.0997349 0.0652281 0.0312001 0.00558734
threshold=3.6000000000000005 4.9500000000000011 3.0500000000000003 3.0500000000000003 5.6500000000000012 2.9500000000000006 6.4500000000000011 5.0500000000000007
decision_type=2 2 2 2 2 2 2 2
left_child=2 4 -1 6 -2 -6 -3 -4
right_child=1 3 7 -5 5 -7 -8 -9
leaf_value=-0.0067611786452206699 0.0064842324703931814 0.0077445801347494105 -0.016096874450643853 0.014983781340221564 -0.001371337322052568 0.0037763721682131293 0.011510460747575219 -0.014687727325979403
leaf_weight=10.999999999999998 9.9999999999999982 11.000000000000002 12.000000000000002 14.999999999999998 16.000000000000004 9.9999999999999982 10.999999999999998 17
leaf_count=11 10 11 12 15 16 10 11 17
internal_value=0 0.0070853 -0.0129307 0.011799 0.00224068 0.000608551 0.00962752 -0.0152708
internal_weight=0 73 40 37 36 26 22 29
internal_count=113 73 40 37 36 26 22 29
is_linear=0
shrinkage=0.05


Tree=31
num_leaves=8
num_cat=0
split_feature=2 2 2 0 1 0 0
split_gain=3.76758 0.791685 0.0619729 0.0575732 0.05207 0.0794412 0.0034805
threshold=1.8 4.7500000000000009 5.5500000000000007 6.2500000000000009 2.5500000000000003 5.8500000000000005 4.9500000000000011
decision_type=2 2 2 2 2 2 2
left_child=6 4 3 -3 -2 -6 -1
right_child=1 2 -4 -5 5 -7 -8
leaf_value=-0.014852011662263138 0.0032315489920702852 0.011224373957763113 0.01251530873246099 0.0064216463611676145 -0.0031978570887198042 0.0025554452789947391 -0.013801112417131662
leaf_weight=12.999999999999998 10.999999999999998 12.000000000000002 19 12.999999999999998 15.000000000000002 9.9999999999999982 20
leaf_count=13 11 12 19 13 15 10 20
internal_value=0 0.00586373 0.0103628 0.00872696 0.000364823 -0.000896536 -0.0142151
internal_weight=0 80 44 25 36 25 33
internal_count=113 80 44 25 36 25 33
is_linear=0
shrinkage=0.05


Tree=32
num_leaves=8
num_cat=0
split_feature=2 2 2 1 0 2 0
split_gain=3.40024 0.718719 0.0951621 0.0917172 0.028384 0.0152017 0.00314115
threshold=1.8 4.9500000000000011 4.4500000000000011 3.0500000000000003 6.4500000000000011 3.9500000000000006 4.9500000000000011
decision_type=2 2 2 2 2 2 2
left_child=6 2 5 4 -3 -2 -1
right_child=1 3 -4 -5 -6 -7 -8
leaf_value=-0.014109411262548888 -0.0024073759187012902 0.0068280576982281405 0.0038180126318413964 0.013694378770887854 0.010419966464608231 0.00014507508437548364 -0.013111056443303824
leaf_weight=12.999999999999998 10.000000000000002 11.000000000000002 19 14.999999999999998 10.999999999999998 13.999999999999998 20
leaf_count=13 10 11 19 15 11 14 20
internal_value=0 0.00557054 0.00117441 0.0106796 0.00862401 -0.000918446 -0.0135043
internal_weight=0 80 43 37 22 24 33
internal_count=113 80 43 37 22 24 33
is_linear=0
shrinkage=0.05


Tree=33
num_leaves=8
num_cat=0
split_feature=2 2 0 0 1 0 0
split_gain=3.06872 0.648916 0.0502571 0.0554607 0.0487481 0.0682139 0.00283489
threshold=1.8 4.7500000000000009 6.6000000000000005 6.2500000000000009 2.5500000000000003 5.8500000000000005 4.9500000000000011
decision_type=2 2 2 2 2 2 2
left_child=6 4 3 -3 -2 -6 -1
right_child=1 2 -4 -5 5 -7 -8
leaf_value=-0.013403940430054299 0.0030873378061435442 0.010343310019622243 0.011303661239186399 0.0056295177684380464 -0.0030394064076244825 0.0022918663965538146 -0.0124555036239326
leaf_weight=12.999999999999998 10.999999999999998 12.000000000000002 19 12.999999999999998 15.000000000000002 9.9999999999999982 20
leaf_count=13 11 12 19 13 15 10 20
internal_value=0 0.00529202 0.0093653 0.00789214 0.000313563 -0.000906897 -0.0128291
internal_weight=0 80 44 25 36 25 33
internal_count=113 80 44 25 36 25 33
is_linear=0
shrinkage=0.05


Tree=34
num_leaves=9
num_cat=0
split_feature=2 2 1 0 1 1 0 0
split_gain=2.78212 0.448929 0.170421 0.0974269 0.08186 0.0536721 0.0247775 0.00467451
threshold=3.6000000000000005 4.9500000000000011 3.0500000000000003 5.6500000000000012 3.0500000000000003 2.8500000000000001 6.4500000000000011 5.0500000000000007
decision_type=2 2 2 2 2 2 2 2
left_child=2 3 -1 -2 6 -5 -3 -4
right_child=1 4 7 5 -6 -7 -8 -9
leaf_value=-0.0052995252507654113 0.006026548370718956 0.0060551947829398231 -0.013364227302372453 -0.0022345028002746397 0.012523333057761194 0.0023224701240126574 0.0094111597504128106 -0.012075319393154454
leaf_weight=10.999999999999998 9.9999999999999982 11.000000000000002 12.000000000000002 12.000000000000002 14.999999999999998 13.999999999999998 10.999999999999998 17
leaf_count=11 10 11 12 12 15 14 11 17
internal_value=0 0.00580748 -0.0105986 0.00183239 0.00967513 0.000219252 0.00773318 -0.0126087
internal_weight=0 73 40 36 37 26 22 29
internal_count=113 73 40 36 37 26 22 29
is_linear=0
shrinkage=0.05


Tree=35
num_leaves=8
num_cat=0
split_feature=2 2 0 0 2 1 0
split_gain=2.51927 0.532219 0.0791965 0.168251 0.0738804 0.0124732 0.00337968
threshold=1.8 4.9500000000000011 7.0500000000000016 6.4500000000000011 4.4500000000000011 2.6500000000000008 4.9500000000000011
decision_type=2 2 2 2 2 2 2
left_child=6 4 3 -3 5 -2 -1
right_child=1 2 -4 -5 -6 -7 -8
leaf_value=-0.012251640627017389 0.00030772582783053309 0.007068866640329359 0.0053903217241168021 0.015012056659907104 0.0033412254072333635 -0.0019720080580251913 -0.011216073371469975
leaf_weight=12.999999999999998 12.000000000000002 15.000000000000002 9.9999999999999982 11.999999999999998 19 11.999999999999998 20
leaf_count=13 12 15 10 12 19 12 20
internal_value=0 0.00479491 0.00919138 0.0105992 0.0010119 -0.000832141 -0.011624
internal_weight=0 80 37 27 43 24 33
internal_count=113 80 37 27 43 24 33
is_linear=0
shrinkage=0.05


Tree=36
num_leaves=9
num_cat=0
split_feature=2 2 1 0 0 0 1 0
split_gain=2.27599 0.363255 0.144458 0.0883925 0.0714749 0.151847 0.0482277 0.00408968
threshold=3.6000000000000005 4.9500000000000011 3.0500000000000003 5.6500000000000012 7.0500000000000016 6.4500000000000011 2.8500000000000001 5.0500000000000007
decision_type=2 2 2 2 2 2 2 2
left_child=2 3 -1 -2 5 -3 -5 -4
right_child=1 4 7 6 -6 -7 -8 -9
leaf_value=-0.0047074070708318198 0.0056719618663191793 0.0067154234275221816 -0.012143525046606856 -0.002185504573086897 0.005120805073529482 0.014261454056637982 0.0021341644909365905 -0.010937937803785592
leaf_weight=10.999999999999998 9.9999999999999982 15.000000000000002 12.000000000000002 12.000000000000002 9.9999999999999982 11.999999999999998 13.999999999999998 17
leaf_count=11 10 15 12 12 10 12 14 17
internal_value=0 0.00525272 -0.00958622 0.001677 0.00873181 0.0100692 0.000140471 -0.0114368
internal_weight=0 73 40 36 37 27 26 29
internal_count=113 73 40 36 37 27 26 29
is_linear=0
shrinkage=0.05


Tree=37
num_leaves=8
num_cat=0
split_feature=2 2 1 0 0 2 0
split_gain=2.06835 0.43945 0.0452287 0.0537439 0.0415131 0.081596 0.00386319
threshold=1.8 4.7500000000000009 2.5500000000000003 5.8500000000000005 7.0500000000000016 5.1500000000000012 4.9500000000000011
decision_type=2 2 2 2 2 2 2
left_child=6 2 -2 -4 5 -3 -1
right_child=1 4 3 -5 -6 -7 -8
leaf_value=-0.011203485211500755 0.0029195242984728382 0.0060801287126891757 -0.0028206915082409972 0.001911461865529418 0.0048647650890052321 0.0109789876774063 -0.010096317082643511
leaf_weight=12.999999999999998 10.999999999999998 17 15.000000000000002 9.9999999999999982 9.9999999999999982 17 20
leaf_count=13 11 17 15 10 10 17 20
internal_value=0 0.00434465 0.00024775 -0.00092783 0.00769665 0.00852956 -0.0105325
internal_weight=0 80 36 25 44 34 33
internal_count=113 80 36 25 44 34 33
is_linear=0
shrinkage=0.05


Tree=38
num_leaves=8
num_cat=0
split_feature=2 2 1 0 2 0 0
split_gain=1.86668 0.396604 0.0408189 0.0485038 0.0392739 0.0663368 0.00348653
threshold=1.8 4.7500000000000009 2.5500000000000003 5.8500000000000005 5.5500000000000007 6.2500000000000009 4.9500000000000011
decision_type=2 2 2 2 2 2 2
left_child=6 2 -2 -4 5 -3 -1
right_child=1 4 3 -5 -6 -7 -8
leaf_value=-0.010643310959522541 0.0027735480361364105 0.0086903067305684062 -0.0026796569783861437 0.0018158887978643179 0.0090253374392264777 0.0035349933860393673 -0.0095915012957993907
leaf_weight=12.999999999999998 10.999999999999998 12.000000000000002 15.000000000000002 9.9999999999999982 19 12.999999999999998 20
leaf_count=13 11 12 15 10 19 13 20
internal_value=0 0.00412741 0.000235363 -0.000881439 0.00731182 0.00600954 -0.0100059
internal_weight=0 80 36 25 44 25 33
internal_count=113 80 36 25 44 25 33
is_linear=0
shrinkage=0.05


Tree=39
num_leaves=9
num_cat=0
split_feature=2 2 1 0 1 1 0 0
split_gain=1.69289 0.268568 0.112885 0.0834891 0.0659678 0.0412938 0.019188 0.00340298
threshold=3.6000000000000005 4.9500000000000011 3.0500000000000003 5.6500000000000012 3.0500000000000003 2.8500000000000001 6.4500000000000011 5.0500000000000007
decision_type=2 2 2 2 2 2 2 2
left_child=2 3 -1 -2 6 -5 -3 -4
right_child=1 4 7 5 -6 -7 -8 -9
leaf_value=-0.0039547236297618254 0.0053381588310003284 0.0043017168444665979 -0.010548101986447967 -0.0021900023275520648 0.010078465932359299 0.0018070938963709133 0.0072549871253696357 -0.0094483776497380698
leaf_weight=10.999999999999998 9.9999999999999982 11.000000000000002 12.000000000000002 12.000000000000002 14.999999999999998 13.999999999999998 10.999999999999998 17
leaf_count=11 10 11 12 12 15 14 11 17
internal_value=0 0.00453016 -0.00826754 0.00145558 0.00752164 -3.77197e-05 0.00577835 -0.00990344
internal_weight=0 73 40 36 37 26 22 29
internal_count=113 73 40 36 37 26 22 29
is_linear=0
shrinkage=0.05


Tree=40
num_leaves=9
num_cat=0
split_feature=2 2 0 0 1 0 0 0
split_gain=1.53205 0.325758 0.0427622 0.0727187 0.037343 0.0420357 0.0296678 0.00386471
threshold=1.8 4.7500000000000009 7.0500000000000016 6.4500000000000011 2.5500000000000003 5.8500000000000005 6.1500000000000012 4.9500000000000011
decision_type=2 2 2 2 2 2 2 2
left_child=7 4 3 6 -2 -6 -3 -1
right_child=1 2 -4 -5 5 -7 -8 -9
leaf_value=-0.0097358951774927302 0.0026395808905363086 0.0076222711708396652 0.0037510410510003568 0.010409506782889367 -0.0025303533205684892 0.0016547250840812924 0.0038593441586602822 -0.0086285099899396298
leaf_weight=12.999999999999998 10.999999999999998 10.000000000000002 9.9999999999999982 12.999999999999998 15.000000000000002 9.9999999999999982 10.999999999999998 20
leaf_count=13 11 10 10 13 15 10 11 20
internal_value=0 0.00373921 0.00662522 0.00747056 0.000211871 -0.000856322 0.00565121 -0.00906475
internal_weight=0 80 44 34 36 25 21 33
internal_count=113 80 44 34 36 25 21 33
is_linear=0
shrinkage=0.05


Tree=41
num_leaves=8
num_cat=0
split_feature=2 2 1 0 0 1 0
split_gain=1.38719 0.22064 0.0949788 0.0770385 0.061343 0.0354967 0.00292697
threshold=3.6000000000000005 4.9500000000000011 3.0500000000000003 5.6500000000000012 6.6000000000000005 2.8500000000000001 5.0500000000000007
decision_type=2 2 2 2 2 2 2
left_child=2 3 -1 -2 -3 -5 -4
right_child=1 4 6 5 -6 -7 -8
leaf_value=-0.0035279538651758974 0.0050436067208647732 0.0048306643570724291 -0.0095823817575971266 -0.0021159177306496221 0.0089039064943790443 0.0015900040336418897 -0.0085624693456338719
leaf_weight=10.999999999999998 9.9999999999999982 19 12.000000000000002 12.000000000000002 18 13.999999999999998 17
leaf_count=11 10 19 12 12 18 14 17
internal_value=0 0.0041008 -0.00748395 0.00131403 0.00681224 -0.000120421 -0.0089845
internal_weight=0 73 40 36 37 26 29
internal_count=113 73 40 36 37 26 29
is_linear=0
shrinkage=0.05


Tree=42
num_leaves=9
num_cat=0
split_feature=2 2 0 1 1 0 0 0
split_gain=1.25741 0.267671 0.0430939 0.0618494 0.0340678 0.0365416 0.0286085 0.00417467
threshold=1.8 4.7500000000000009 7.0500000000000016 3.0500000000000003 2.5500000000000003 5.8500000000000005 6.2500000000000009 4.9500000000000011
decision_type=2 2 2 2 2 2 2 2
left_child=7 4 3 6 -2 -6 -3 -1
right_child=1 2 -4 -5 5 -7 -8 -9
leaf_value=-0.0089096987190154884 0.0025088978592645041 0.0070802653801034779 0.0031182938255369663 0.0097396894513318948 -0.0023909878078848118 0.0015110182762145996 0.0034741771492091096 -0.0077587619447149342
leaf_weight=12.999999999999998 10.999999999999998 11.000000000000002 9.9999999999999982 11.999999999999998 15.000000000000002 9.9999999999999982 10.999999999999998 20
leaf_count=13 11 11 10 12 15 10 11 20
internal_value=0 0.00338752 0.00600359 0.00685221 0.00019009 -0.000830185 0.00527722 -0.00821216
internal_weight=0 80 44 34 36 25 22 33
internal_count=113 80 44 34 36 25 22 33
is_linear=0
shrinkage=0.05


Tree=43
num_leaves=8
num_cat=0
split_feature=2 2 1 0 0 1 0
split_gain=1.13669 0.182115 0.080026 0.0711948 0.0569275 0.0307647 0.00249647
threshold=3.6000000000000005 4.9500000000000011 3.0500000000000003 5.6500000000000012 6.6000000000000005 2.8500000000000001 5.0500000000000007
decision_type=2 2 2 2 2 2 2
left_child=2 3 -1 -2 -3 -5 -4
right_child=1 4 6 5 -6 -7 -8
leaf_value=-0.0031433127566494728 0.0047656219080090528 0.004266553646639774 -0.0087041212245821935 -0.0020564193623916552 0.0081904628417558134 0.001393655882150467 -0.0077621953616685731
leaf_weight=10.999999999999998 9.9999999999999982 19 12.000000000000002 12.000000000000002 18 13.999999999999998 17
leaf_count=11 10 19 12 12 18 14 17
internal_value=0 0.0037121 -0.00677458 0.00118029 0.00617548 -0.000198687 -0.00815196
internal_weight=0 73 40 36 37 26 29
internal_count=113 73 40 36 37 26 29
is_linear=0
shrinkage=0.05


Tree=44
num_leaves=8
num_cat=0
split_feature=2 2 0 2 1 0 0
split_gain=1.03199 0.220001 0.0431671 0.0569719 0.0309981 0.0318611 0.00441827
threshold=1.8 4.7500000000000009 7.0500000000000016 5.1500000000000012 2.5500000000000003 5.8500000000000005 4.9500000000000011
decision_type=2 2 2 2 2 2 2
left_child=6 4 3 -3 -2 -6 -1
right_child=1 2 -4 -5 5 -7 -8
leaf_value=-0.0081573343047728914 0.0023819985884157096 0.004243213351925507 0.0025528560392558577 0.0083366753533482552 -0.0022605174686759705 0.001383035033941269 -0.0069732948020100596
leaf_weight=12.999999999999998 10.999999999999998 17 9.9999999999999982 17 15.000000000000002 9.9999999999999982 20
leaf_count=13 11 17 10 17 15 10 20
internal_value=0 0.00306889 0.00544061 0.00628994 0.000170127 -0.000803096 -0.00743973
internal_weight=0 80 44 34 36 25 33
internal_count=113 80 44 34 36 25 33
is_linear=0
shrinkage=0.05


Tree=45
num_leaves=9
num_cat=0
split_feature=2 2 1 0 0 1 1 2
split_gain=0.931399 0.148325 0.0675282 0.0655273 0.0546714 0.10921 0.0272208 0.00274297
threshold=3.6000000000000005 4.9500000000000011 3.0500000000000003 5.6500000000000012 7.0500000000000016 3.0500000000000003 2.8500000000000001 1.4500000000000002
decision_type=2 2 2 2 2 2 2 2
left_child=2 3 -1 -2 5 -3 -5 -4
right_child=1 4 7 6 -6 -7 -8 -9
leaf_value=-0.0027967082167213615 0.0045149976015090949 0.0041163671514368614 -0.0068581829707209862 -0.0019950820870387053 0.0024252130091190339 0.010588181018829346 0.0012502019231240931 -0.0078359778737649328
leaf_weight=10.999999999999998 9.9999999999999982 16.000000000000004 13.000000000000002 12.000000000000002 9.9999999999999982 10.999999999999998 13.999999999999998 15.999999999999998
leaf_count=11 10 16 13 12 10 11 14 16
internal_value=0 0.00336022 -0.0061324 0.00107533 0.00558335 0.00675303 -0.000247621 -0.00739766
internal_weight=0 73 40 36 37 27 26 29
internal_count=113 73 40 36 37 27 26 29
is_linear=0
shrinkage=0.05


end of trees

feature_importances:
Column_2=156
Column_0=94
Column_1=73

parameters:
[boosting: gbdt]
[objective: regression]
[metric: rmse]
[tree_learner: serial]
[device_type: cpu]
[data_sample_strategy: bagging]
[data: ]
[valid: ]
[num_iterations: 10000]
[learning_rate: 0.05]
[num_leaves: 63]
[num_threads: 0]
[seed: 5]
[deterministic: 0]
[force_col_wise: 0]
[force_row_wise: 0]
[histogram_pool_size: -1]
[max_depth: -1]
[min_data_in_leaf: 10]
[min_sum_hessian_in_leaf: 0.001]
[bagging_fraction: 0.9]
[pos_bagging_fraction: 1]
[neg_bagging_fraction: 1]
[bagging_freq: 0]
[bagging_seed: 28693]
[feature_fraction: 0.9]
[feature_fraction_bynode: 1]
[feature_fraction_seed: 24449]
[extra_trees: 0]
[extra_seed: 31430]
[early_stopping_round: 0]
[early_stopping_min_delta: 0]
[first_metric_only: 0]
[max_delta_step: 0]
[lambda_l1: 0]
[lambda_l2: 0]
[linear_lambda: 0]
[min_gain_to_split: 0]
[drop_rate: 0.1]
[max_drop: 50]
[skip_drop: 0.5]
[xgboost_dart_mode: 0]
[uniform_drop: 0]
[drop_seed: 12255]
[top_rate: 0.2]
[other_rate: 0.1]
[min_data_per_group: 100]
[max_cat_threshold: 32]
[cat_l2: 10]
[cat_smooth: 10]
[max_cat_to_onehot: 4]
[top_k: 20]
[monotone_constraints: ]
[monotone_constraints_method: basic]
[monotone_penalty: 0]
[feature_contri: ]
[forcedsplits_filename: ]
[refit_decay_rate: 0.9]
[cegb_tradeoff: 1]
[cegb_penalty_split: 0]
[cegb_penalty_feature_lazy: ]
[cegb_penalty_feature_coupled: ]
[path_smooth: 0]
[interaction_constraints: ]
[verbosity: -1]
[saved_feature_importance_type: 0]
[use_quantized_grad: 0]
[num_grad_quant_bins: 4]
[quant_train_renew_leaf: 0]
[stochastic_rounding: 1]
[linear_tree: 0]
[max_bin: 255]
[max_bin_by_feature: ]
[min_data_in_bin: 3]
[bin_construct_sample_cnt: 200000]
[data_random_seed: 54]
[is_enable_sparse: 1]
[enable_bundle: 1]
[use_missing: 1]
[zero_as_missing: 0]
[feature_pre_filter: 1]
[pre_partition: 0]
[two_round: 0]
[header: 0]
[label_column: ]
[weight_column: ]
[group_column: ]
[ignore_column: ]
[categorical_feature: ]
[forcedbins_filename: ]
[precise_float_parser: 0]
[parser_config_file: ]
[objective_seed: 27660]
[num_class: 1]
[is_unbalance: 0]
[scale_pos_weight: 1]
[sigmoid: 1]
[boost_from_average: 1]
[reg_sqrt: 0]
[alpha: 0.9]
[fair_c: 1]
[poisson_max_delta_step: 0.7]
[tweedie_variance_power: 1.5]
[lambdarank_truncation_level: 30]
[lambdarank_norm: 1]
[label_gain: ]
[lambdarank_position_bias_regularization: 0]
[eval_at: ]
[multi_error_top_k: 1]
[auc_mu_weights: ]
[num_machines: 1]
[local_listen_port: 12400]
[time_out: 120]
[machine_list_filename: ]
[machines: ]
[gpu_platform_id: -1]
[gpu_device_id: -1]
[gpu_use_dp: 0]
[num_gpu: 1]

end of parameters

pandas_categorical:null
