{"learner":{"attributes":{"best_iteration":"41","best_score":"0.2780888055744692"},"feature_names":[],"feature_types":[],"gradient_booster":{"model":{"gbtree_model_param":{"num_parallel_tree":"1","num_trees":"92"},"iteration_indptr":[0,1,2,3,4,5,6,7,8,9,10,11,12,13,14,15,16,17,18,19,20,21,22,23,24,25,26,27,28,29,30,31,32,33,34,35,36,37,38,39,40,41,42,43,44,45,46,47,48,49,50,51,52,53,54,55,56,57,58,59,60,61,62,63,64,65,66,67,68,69,70,71,72,73,74,75,76,77,78,79,80,81,82,83,84,85,86,87,88,89,90,91,92],"tree_info":[0,0,0,0,0,0,0,0,0,0,0,0,0,0,0,0,0,0,0,0,0,0,0,0,0,0,0,0,0,0,0,0,0,0,0,0,0,0,0,0,0,0,0,0,0,0,0,0,0,0,0,0,0,0,0,0,0,0,0,0,0,0,0,0,0,0,0,0,0,0,0,0,0,0,0,0,0,0,0,0,0,0,0,0,0,0,0,0,0,0,0,0],"trees":[{"base_weights":[1.9780302E-9,-8.978291E-2,6.4708406E-1,1.741842E-1,1.0032414E0,-9.895444E-3,2.9433075E-1,5.328741E-2,8.67048E-2,-1.011348E-2,7.550517E-3,1.3714205E-2,3.402897E-1,2.9739792E-2,1.5644027E-2],"categories":[],"categories_nodes":[],"categories_segments":[],"categories_sizes":[],"default_left":[0,0,0,0,0,0,0,0,0,0,0,0,0,0,0],"id":0,"left_children":[1,-1,3,5,7,9,11,-1,-1,-1,-1,-1,13,-1,-1],"loss_changes":[8.830757E1,0E0,1.2288836E1,7.3275805E-1,1.0575981E0,2.0699528E-1,4.024124E-2,0E0,0E0,0E0,0E0,0E0,1.3580799E-2,0E0,0E0],"parents":[2147483647,0,0,2,2,3,3,4,4,5,5,6,6,12,12],"right_children":[2,-1,4,6,8,10,12,-1,-1,-1,-1,-1,14,-1,-1],"split_conditions":[3E0,-8.978291E-2,4.8E0,4.2E0,5.2E0,2.6E0,4.5E0,5.328741E-2,8.67048E-2,-1.011348E-2,7.550517E-3,1.3714205E-2,4.6E0,2.9739792E-2,1.5644027E-2],"split_indices":[2,0,2,2,2,1,2,0,0,0,0,0,2,0,0],"split_type":[0,0,0,0,0,0,0,0,0,0,0,0,0,0,0],"sum_hessian":[1.12E2,3.9E1,7.3E1,3.2E1,4.1E1,1.3E1,1.9E1,1.6E1,2.5E1,6E0,7E0,7E0,1.2E1,7E0,5E0],"tree_param":{"num_deleted":"0","num_feature":"3","num_nodes":"15","size_leaf_vector":"1"}},{"base_weights":[9.446468E-4,-8.321753E-2,6.012085E-1,1.6283357E-1,9.3133146E-1,-9.336356E-3,2.7521083E-1,4.9525946E-2,8.045204E-2,-9.463327E-3,7.055014E-3,1.281421E-2,3.1825906E-1,2.7788118E-2,1.4666275E-2],"categories":[],"categories_nodes":[],"categories_segments":[],"categories_sizes":[],"default_left":[0,0,0,0,0,0,0,0,0,0,0,0,0,0,0],"id":1,"left_children":[1,-1,3,5,7,9,11,-1,-1,-1,-1,-1,13,-1,-1],"loss_changes":[7.599289E1,0E0,1.0557457E1,6.4105296E-1,9.0055084E-1,1.810139E-1,3.5469174E-2,0E0,0E0,0E0,0E0,0E0,1.089561E-2,0E0,0E0],"parents":[2147483647,0,0,2,2,3,3,4,4,5,5,6,6,12,12],"right_children":[2,-1,4,6,8,10,12,-1,-1,-1,-1,-1,14,-1,-1],"split_conditions":[3E0,-8.321753E-2,4.8E0,4.2E0,5.2E0,2.6E0,4.5E0,4.9525946E-2,8.045204E-2,-9.463327E-3,7.055014E-3,1.281421E-2,4.6E0,2.7788118E-2,1.4666275E-2],"split_indices":[2,0,2,2,2,1,2,0,0,0,0,0,2,0,0],"split_type":[0,0,0,0,0,0,0,0,0,0,0,0,0,0,0],"sum_hessian":[1.12E2,3.9E1,7.3E1,3.2E1,4.1E1,1.3E1,1.9E1,1.6E1,2.5E1,6E0,7E0,7E0,1.2E1,7E0,5E0],"tree_param":{"num_deleted":"0","num_feature":"3","num_nodes":"15","size_leaf_vector":"1"}},{"base_weights":[1.7553952E-3,-7.7132255E-2,5.585886E-1,1.5222287E-1,8.6457634E-1,-8.808153E-3,2.5733346E-1,4.6812855E-2,1.0030848E0,-8.85497E-3,6.5920292E-3,1.1973278E-2,2.9765534E-1,3.880389E-2,8.2398035E-2,2.5964525E-2,1.3749632E-2],"categories":[],"categories_nodes":[],"categories_segments":[],"categories_sizes":[],"default_left":[0,0,0,0,0,0,0,0,0,0,0,0,0,0,0,0,0],"id":2,"left_children":[1,-1,3,5,7,9,11,-1,13,-1,-1,-1,15,-1,-1,-1,-1],"loss_changes":[6.539596E1,0E0,9.069769E0,5.608268E-1,7.724247E-1,1.5829377E-1,3.126192E-2,0E0,5.9186363E-1,0E0,0E0,0E0,8.672953E-3,0E0,0E0,0E0,0E0],"parents":[2147483647,0,0,2,2,3,3,4,4,5,5,6,6,8,8,12,12],"right_children":[2,-1,4,6,8,10,12,-1,14,-1,-1,-1,16,-1,-1,-1,-1],"split_conditions":[3E0,-7.7132255E-2,4.8E0,4.2E0,3E0,2.6E0,4.5E0,4.6812855E-2,5.1E0,-8.85497E-3,6.5920292E-3,1.1973278E-2,4.6E0,3.880389E-2,8.2398035E-2,2.5964525E-2,1.3749632E-2],"split_indices":[2,0,2,2,1,1,2,0,2,0,0,0,2,0,0,0,0],"split_type":[0,0,0,0,0,0,0,0,0,0,0,0,0,0,0,0,0],"sum_hessian":[1.12E2,3.9E1,7.3E1,3.2E1,4.1E1,1.3E1,1.9E1,1.7E1,2.4E1,6E0,7E0,7E0,1.2E1,5E0,1.9E1,7E0,5E0],"tree_param":{"num_deleted":"0","num_feature":"3","num_nodes":"17","size_leaf_vector":"1"}},{"base_weights":[2.865384E-3,-7.149196E-2,5.196329E-1,1.4230387E-1,8.0373347E-1,-8.309177E-3,2.4061781E-1,4.3496944E-2,9.327015E-1,-8.285723E-3,6.159427E-3,1.1187531E-2,2.7838615E-1,3.6378648E-2,7.652718E-2,2.4260601E-2,1.289028E-2],"categories":[],"categories_nodes":[],"categories_segments":[],"categories_sizes":[],"default_left":[0,0,0,0,0,0,0,0,0,0,0,0,0,0,0,0,0],"id":3,"left_children":[1,-1,3,5,7,9,11,-1,13,-1,-1,-1,15,-1,-1,-1,-1],"loss_changes":[5.632603E1,0E0,7.8183804E0,4.906423E-1,6.711769E-1,1.3842551E-1,2.7552724E-2,0E0,4.861164E-1,0E0,0E0,0E0,6.83856E-3,0E0,0E0,0E0,0E0],"parents":[2147483647,0,0,2,2,3,3,4,4,5,5,6,6,8,8,12,12],"right_children":[2,-1,4,6,8,10,12,-1,14,-1,-1,-1,16,-1,-1,-1,-1],"split_conditions":[3E0,-7.149196E-2,4.8E0,4.2E0,3E0,2.6E0,4.5E0,4.3496944E-2,5.1E0,-8.285723E-3,6.159427E-3,1.1187531E-2,4.6E0,3.6378648E-2,7.652718E-2,2.4260601E-2,1.289028E-2],"split_indices":[2,0,2,2,1,1,2,0,2,0,0,0,2,0,0,0,0],"split_type":[0,0,0,0,0,0,0,0,0,0,0,0,0,0,0,0,0],"sum_hessian":[1.12E2,3.9E1,7.3E1,3.2E1,4.1E1,1.3E1,1.9E1,1.7E1,2.4E1,6E0,7E0,7E0,1.2E1,5E0,1.9E1,7E0,5E0],"tree_param":{"num_deleted":"0","num_feature":"3","num_nodes":"17","size_leaf_vector":"1"}},{"base_weights":[3.81086E-3,-6.626411E-2,4.8339844E-1,1.3303144E-1,7.471773E-1,-7.837868E-3,2.249884E-1,3.968616E-2,6.457476E-2,-7.753068E-3,5.7552145E-3,1.0453349E-2,2.6036492E-1,2.2668498E-2,1.2084638E-2],"categories":[],"categories_nodes":[],"categories_segments":[],"categories_sizes":[],"default_left":[0,0,0,0,0,0,0,0,0,0,0,0,0,0,0],"id":4,"left_children":[1,-1,3,5,7,9,11,-1,-1,-1,-1,-1,13,-1,-1],"loss_changes":[4.8514645E1,0E0,6.7396393E0,4.292426E-1,5.866718E-1,1.2105113E-1,2.4282813E-2,0E0,0E0,0E0,0E0,0E0,5.3299665E-3,0E0,0E0],"parents":[2147483647,0,0,2,2,3,3,4,4,5,5,6,6,12,12],"right_children":[2,-1,4,6,8,10,12,-1,-1,-1,-1,-1,14,-1,-1],"split_conditions":[3E0,-6.626411E-2,4.8E0,4.2E0,5.2E0,2.6E0,4.5E0,3.968616E-2,6.457476E-2,-7.753068E-3,5.7552145E-3,1.0453349E-2,4.6E0,2.2668498E-2,1.2084638E-2],"split_indices":[2,0,2,2,2,1,2,0,0,0,0,0,2,0,0],"split_type":[0,0,0,0,0,0,0,0,0,0,0,0,0,0,0],"sum_hessian":[1.12E2,3.9E1,7.3E1,3.2E1,4.1E1,1.3E1,1.9E1,1.6E1,2.5E1,6E0,7E0,7E0,1.2E1,7E0,5E0],"tree_param":{"num_deleted":"0","num_feature":"3","num_nodes":"15","size_leaf_vector":"1"}},{"base_weights":[4.243672E-3,-6.141855E-2,4.4913638E-1,1.2436344E-1,6.936214E-1,-7.3927348E-3,2.103746E-1,3.6878888E-2,8.1124663E-1,-7.254657E-3,5.3775287E-3,9.767348E-3,2.4351087E-1,3.1624597E-2,6.6567E-2,2.1180877E-2,1.1329347E-2],"categories":[],"categories_nodes":[],"categories_segments":[],"categories_sizes":[],"default_left":[0,0,0,0,0,0,0,0,0,0,0,0,0,0,0,0,0],"id":5,"left_children":[1,-1,3,5,7,9,11,-1,13,-1,-1,-1,15,-1,-1,-1,-1],"loss_changes":[4.175031E1,0E0,5.7894974E0,3.755278E-1,5.98547E-1,1.0585759E-1,2.1400213E-2,0E0,3.6901283E-1,0E0,0E0,0E0,4.093945E-3,0E0,0E0,0E0,0E0],"parents":[2147483647,0,0,2,2,3,3,4,4,5,5,6,6,8,8,12,12],"right_children":[2,-1,4,6,8,10,12,-1,14,-1,-1,-1,16,-1,-1,-1,-1],"split_conditions":[3E0,-6.141855E-2,4.8E0,4.2E0,3E0,2.6E0,4.5E0,3.6878888E-2,5.1E0,-7.254657E-3,5.3775287E-3,9.767348E-3,4.6E0,3.1624597E-2,6.6567E-2,2.1180877E-2,1.1329347E-2],"split_indices":[2,0,2,2,1,1,2,0,2,0,0,0,2,0,0,0,0],"split_type":[0,0,0,0,0,0,0,0,0,0,0,0,0,0,0,0,0],"sum_hessian":[1.12E2,3.9E1,7.3E1,3.2E1,4.1E1,1.3E1,1.9E1,1.7E1,2.4E1,6E0,7E0,7E0,1.2E1,5E0,1.9E1,7E0,5E0],"tree_param":{"num_deleted":"0","num_feature":"3","num_nodes":"17","size_leaf_vector":"1"}},{"base_weights":[4.9347007E-3,-5.692732E-2,4.178224E-1,1.1626044E-1,6.4481574E-1,-6.9723562E-3,1.9671038E-1,3.4266636E-2,7.543308E-1,-6.7882864E-3,5.0246287E-3,9.126366E-3,2.2774835E-1,2.9648058E-2,6.18241E-2,1.9790884E-2,1.0621263E-2],"categories":[],"categories_nodes":[],"categories_segments":[],"categories_sizes":[],"default_left":[0,0,0,0,0,0,0,0,0,0,0,0,0,0,0,0,0],"id":6,"left_children":[1,-1,3,5,7,9,11,-1,13,-1,-1,-1,15,-1,-1,-1,-1],"loss_changes":[3.5960953E1,0E0,4.9905252E0,3.2853583E-1,5.197506E-1,9.257112E-2,1.8859267E-2,0E0,3.0234528E-1,0E0,0E0,0E0,3.0856133E-3,0E0,0E0,0E0,0E0],"parents":[2147483647,0,0,2,2,3,3,4,4,5,5,6,6,8,8,12,12],"right_children":[2,-1,4,6,8,10,12,-1,14,-1,-1,-1,16,-1,-1,-1,-1],"split_conditions":[3E0,-5.692732E-2,4.8E0,4.2E0,3E0,2.6E0,4.5E0,3.4266636E-2,5.1E0,-6.7882864E-3,5.0246287E-3,9.126366E-3,4.6E0,2.9648058E-2,6.18241E-2,1.9790884E-2,1.0621263E-2],"split_indices":[2,0,2,2,1,1,2,0,2,0,0,0,2,0,0,0,0],"split_type":[0,0,0,0,0,0,0,0,0,0,0,0,0,0,0,0,0],"sum_hessian":[1.12E2,3.9E1,7.3E1,3.2E1,4.1E1,1.3E1,1.9E1,1.7E1,2.4E1,6E0,7E0,7E0,1.2E1,5E0,1.9E1,7E0,5E0],"tree_param":{"num_deleted":"0","num_feature":"3","num_nodes":"17","size_leaf_vector":"1"}},{"base_weights":[5.5078436E-3,-5.276451E-2,3.8869536E-1,1.086856E-1,5.994484E-1,-6.575407E-3,1.8393402E-1,3.1839415E-2,7.014149E-1,-6.3518966E-3,4.694887E-3,1.4050366E-1,1.8338885E-2,2.7795056E-2,5.7419132E-2,4.1296575E-3,1.3638989E-2],"categories":[],"categories_nodes":[],"categories_segments":[],"categories_sizes":[],"default_left":[0,0,0,0,0,0,0,0,0,0,0,0,0,0,0,0,0],"id":7,"left_children":[1,-1,3,5,7,9,11,-1,13,-1,-1,15,-1,-1,-1,-1,-1],"loss_changes":[3.0974789E1,0E0,4.3018026E0,2.874253E-1,4.5135498E-1,8.095235E-2,1.8268347E-2,0E0,2.4701023E-1,0E0,0E0,3.944832E-2,0E0,0E0,0E0,0E0,0E0],"parents":[2147483647,0,0,2,2,3,3,4,4,5,5,6,6,8,8,11,11],"right_children":[2,-1,4,6,8,10,12,-1,14,-1,-1,16,-1,-1,-1,-1,-1],"split_conditions":[3E0,-5.276451E-2,4.8E0,4.2E0,3E0,2.6E0,3E0,3.1839415E-2,5.1E0,-6.3518966E-3,4.694887E-3,4.5E0,1.8338885E-2,2.7795056E-2,5.7419132E-2,4.1296575E-3,1.3638989E-2],"split_indices":[2,0,2,2,1,1,1,0,2,0,0,2,0,0,0,0,0],"split_type":[0,0,0,0,0,0,0,0,0,0,0,0,0,0,0,0,0],"sum_hessian":[1.12E2,3.9E1,7.3E1,3.2E1,4.1E1,1.3E1,1.9E1,1.7E1,2.4E1,6E0,7E0,1.3E1,6E0,5E0,1.9E1,5E0,8E0],"tree_param":{"num_deleted":"0","num_feature":"3","num_nodes":"17","size_leaf_vector":"1"}},{"base_weights":[5.9685665E-3,-4.89061E-2,3.6159053E-1,1.0157813E-1,5.572767E-1,-6.200609E-3,1.7194435E-1,2.3385316E-2,6.147752E-1,-5.2783526E-3,5.1023117E-3,1.3123506E-1,1.7159957E-2,3.3628114E-2,5.5875923E-2,3.871554E-3,1.2729722E-2],"categories":[],"categories_nodes":[],"categories_segments":[],"categories_sizes":[],"default_left":[0,0,0,0,0,0,0,0,0,0,0,0,0,0,0,0,0],"id":8,"left_children":[1,-1,3,5,7,9,11,-1,13,-1,-1,15,-1,-1,-1,-1,-1],"loss_changes":[2.6679708E1,0E0,3.7085752E0,2.513376E-1,4.011097E-1,7.148362E-2,1.6264081E-2,0E0,3.811159E-1,0E0,0E0,3.414452E-2,0E0,0E0,0E0,0E0,0E0],"parents":[2147483647,0,0,2,2,3,3,4,4,5,5,6,6,8,8,11,11],"right_children":[2,-1,4,6,8,10,12,-1,14,-1,-1,16,-1,-1,-1,-1,-1],"split_conditions":[3E0,-4.89061E-2,4.8E0,4.2E0,2.8E0,2.7E0,3E0,2.3385316E-2,5.6E0,-5.2783526E-3,5.1023117E-3,4.5E0,1.7159957E-2,3.3628114E-2,5.5875923E-2,3.871554E-3,1.2729722E-2],"split_indices":[2,0,2,2,1,1,1,0,2,0,0,2,0,0,0,0,0],"split_type":[0,0,0,0,0,0,0,0,0,0,0,0,0,0,0,0,0],"sum_hessian":[1.12E2,3.9E1,7.3E1,3.2E1,4.1E1,1.3E1,1.9E1,9E0,3.2E1,7E0,6E0,1.3E1,6E0,1.6E1,1.6E1,5E0,8E0],"tree_param":{"num_deleted":"0","num_feature":"3","num_nodes":"17","size_leaf_vector":"1"}},{"base_weights":[6.3843615E-3,-4.5329843E-2,3.3645064E-1,9.4977506E-2,5.181688E-1,-5.748135E-3,1.6073658E-1,2.7215438E-2,6.0925543E-1,-5.6042373E-3,4.1492647E-3,1.2257825E-1,1.6056817E-2,2.3956109E-2,4.9930867E-2,3.6295822E-3,1.1881075E-2],"categories":[],"categories_nodes":[],"categories_segments":[],"categories_sizes":[],"default_left":[0,0,0,0,0,0,0,0,0,0,0,0,0,0,0,0,0],"id":9,"left_children":[1,-1,3,5,7,9,11,-1,13,-1,-1,15,-1,-1,-1,-1,-1],"loss_changes":[2.2983995E1,0E0,3.1979094E0,2.1950352E-1,3.730259E-1,6.310782E-2,1.4475346E-2,0E0,1.966753E-1,0E0,0E0,2.9552042E-2,0E0,0E0,0E0,0E0,0E0],"parents":[2147483647,0,0,2,2,3,3,4,4,5,5,6,6,8,8,11,11],"right_children":[2,-1,4,6,8,10,12,-1,14,-1,-1,16,-1,-1,-1,-1,-1],"split_conditions":[3E0,-4.5329843E-2,4.8E0,4.2E0,3E0,2.6E0,3E0,2.7215438E-2,5.1E0,-5.6042373E-3,4.1492647E-3,4.5E0,1.6056817E-2,2.3956109E-2,4.9930867E-2,3.6295822E-3,1.1881075E-2],"split_indices":[2,0,2,2,1,1,1,0,2,0,0,2,0,0,0,0,0],"split_type":[0,0,0,0,0,0,0,0,0,0,0,0,0,0,0,0,0],"sum_hessian":[1.12E2,3.9E1,7.3E1,3.2E1,4.1E1,1.3E1,1.9E1,1.7E1,2.4E1,6E0,7E0,1.3E1,6E0,5E0,1.9E1,5E0,8E0],"tree_param":{"num_deleted":"0","num_feature":"3","num_nodes":"17","size_leaf_vector":"1"}},{"base_weights":[6.6655837E-3,-4.2015098E-2,3.1299E-1,8.8766694E-2,4.8171335E-1,-5.420954E-3,1.5025972E-1,4.2006657E-1,5.4745328E-2,-4.655622E-3,4.5075677E-3,1.1449279E-1,1.5024592E-2,1.667075E-2,4.5221534E-1,3.4027332E-3,1.1089004E-2,2.6789049E-2,4.2374384E-2],"categories":[],"categories_nodes":[],"categories_segments":[],"categories_sizes":[],"default_left":[0,0,0,0,0,0,0,0,0,0,0,0,0,0,0,0,0,0,0],"id":10,"left_children":[1,-1,3,5,7,9,11,13,-1,-1,-1,15,-1,-1,17,-1,-1,-1,-1],"loss_changes":[1.9797241E1,0E0,2.7567854E0,1.9194669E-1,3.36071E-1,5.5699814E-2,1.287958E-2,1.2839699E-1,0E0,0E0,0E0,2.5575712E-2,0E0,0E0,1.1969948E-1,0E0,0E0,0E0,0E0],"parents":[2147483647,0,0,2,2,3,3,4,4,5,5,6,6,7,7,11,11,14,14],"right_children":[2,-1,4,6,8,10,12,14,-1,-1,-1,16,-1,-1,18,-1,-1,-1,-1],"split_conditions":[3E0,-4.2015098E-2,4.8E0,4.2E0,3.3E0,2.7E0,3E0,2.7E0,5.4745328E-2,-4.655622E-3,4.5075677E-3,4.5E0,1.5024592E-2,1.667075E-2,5.6E0,3.4027332E-3,1.1089004E-2,2.6789049E-2,4.2374384E-2],"split_indices":[2,0,2,2,1,1,1,1,0,0,0,2,0,0,2,0,0,0,0],"split_type":[0,0,0,0,0,0,0,0,0,0,0,0,0,0,0,0,0,0,0],"sum_hessian":[1.12E2,3.9E1,7.3E1,3.2E1,4.1E1,1.3E1,1.9E1,3.5E1,6E0,7E0,6E0,1.3E1,6E0,6E0,2.9E1,5E0,8E0,1.8E1,1.1E1],"tree_param":{"num_deleted":"0","num_feature":"3","num_nodes":"19","size_leaf_vector":"1"}},{"base_weights":[7.29781E-3,-3.8942743E-2,2.9181236E-1,8.299914E-2,4.48932E-1,-5.0249547E-3,1.4046605E-1,3.9094585E-1,5.1225986E-2,-4.944674E-3,3.667065E-3,1.06940955E-1,1.4058727E-2,1.5599059E-2,4.2060465E-1,3.1900625E-3,1.0349737E-2,2.4885617E-2,3.9461147E-2],"categories":[],"categories_nodes":[],"categories_segments":[],"categories_sizes":[],"default_left":[0,0,0,0,0,0,0,0,0,0,0,0,0,0,0,0,0,0,0],"id":11,"left_children":[1,-1,3,5,7,9,11,13,-1,-1,-1,15,-1,-1,17,-1,-1,-1,-1],"loss_changes":[1.7079676E1,0E0,2.3905792E0,1.6763546E-1,3.030634E-1,4.9198058E-2,1.1456579E-2,1.0786772E-1,0E0,0E0,0E0,2.2133052E-2,0E0,0E0,1.0657692E-1,0E0,0E0,0E0,0E0],"parents":[2147483647,0,0,2,2,3,3,4,4,5,5,6,6,7,7,11,11,14,14],"right_children":[2,-1,4,6,8,10,12,14,-1,-1,-1,16,-1,-1,18,-1,-1,-1,-1],"split_conditions":[3E0,-3.8942743E-2,4.8E0,4.2E0,3.3E0,2.6E0,3E0,2.7E0,5.1225986E-2,-4.944674E-3,3.667065E-3,4.5E0,1.4058727E-2,1.5599059E-2,5.6E0,3.1900625E-3,1.0349737E-2,2.4885617E-2,3.9461147E-2],"split_indices":[2,0,2,2,1,1,1,1,0,0,0,2,0,0,2,0,0,0,0],"split_type":[0,0,0,0,0,0,0,0,0,0,0,0,0,0,0,0,0,0,0],"sum_hessian":[1.12E2,3.9E1,7.3E1,3.2E1,4.1E1,1.3E1,1.9E1,3.5E1,6E0,6E0,7E0,1.3E1,6E0,6E0,2.9E1,5E0,8E0,1.8E1,1.1E1],"tree_param":{"num_deleted":"0","num_feature":"3","num_nodes":"19","size_leaf_vector":"1"}},{"base_weights":[7.7995933E-3,-3.6095053E-2,2.720547E-1,7.757181E-2,4.183852E-1,-4.739344E-3,1.3131103E-1,2.1609828E-2,4.9543282E-1,-4.1063377E-3,3.9820555E-3,9.988751E-2,1.3154952E-2,1.9229185E-2,4.0678076E-2,2.9906835E-3,9.659755E-3],"categories":[],"categories_nodes":[],"categories_segments":[],"categories_sizes":[],"default_left":[0,0,0,0,0,0,0,0,0,0,0,0,0,0,0,0,0],"id":12,"left_children":[1,-1,3,5,7,9,11,-1,13,-1,-1,15,-1,-1,-1,-1,-1],"loss_changes":[1.4734877E1,0E0,2.073495E0,1.4659247E-1,2.787528E-1,4.3399923E-2,1.01879835E-2,0E0,1.4146757E-1,0E0,0E0,1.9152611E-2,0E0,0E0,0E0,0E0,0E0],"parents":[2147483647,0,0,2,2,3,3,4,4,5,5,6,6,8,8,11,11],"right_children":[2,-1,4,6,8,10,12,-1,14,-1,-1,16,-1,-1,-1,-1,-1],"split_conditions":[3E0,-3.6095053E-2,4.8E0,4.2E0,3E0,2.7E0,3E0,2.1609828E-2,5.1E0,-4.1063377E-3,3.9820555E-3,4.5E0,1.3154952E-2,1.9229185E-2,4.0678076E-2,2.9906835E-3,9.659755E-3],"split_indices":[2,0,2,2,1,1,1,0,2,0,0,2,0,0,0,0,0],"split_type":[0,0,0,0,0,0,0,0,0,0,0,0,0,0,0,0,0],"sum_hessian":[1.12E2,3.9E1,7.3E1,3.2E1,4.1E1,1.3E1,1.9E1,1.7E1,2.4E1,7E0,6E0,1.3E1,6E0,5E0,1.9E1,5E0,8E0],"tree_param":{"num_deleted":"0","num_feature":"3","num_nodes":"17","size_leaf_vector":"1"}},{"base_weights":[7.843863E-3,-4.21217E-1,2.6758716E-1,-3.378876E-2,-1.7753696E-2,1.071204E-1,4.041209E-1,6.416694E-2,1.5284401E-2,1.5896278E-2,4.5645142E-1,2.2023682E-2,8.685125E-3,2.4107032E-2,5.328552E-1,-8.800287E-4,5.596155E-3,4.9129326E-2,2.863558E-2],"categories":[],"categories_nodes":[],"categories_segments":[],"categories_sizes":[],"default_left":[0,0,0,0,0,0,0,0,0,0,0,0,0,0,0,0,0,0,0],"id":13,"left_children":[1,3,5,-1,-1,7,9,11,-1,-1,13,15,-1,-1,17,-1,-1,-1,-1],"loss_changes":[1.2706074E1,1.2580681E-1,1.5122585E0,0E0,0E0,1.2810418E-1,2.8539705E-1,5.185101E-2,0E0,0E0,1.2790108E-1,2.7505906E-2,0E0,0E0,6.368637E-2,0E0,0E0,0E0,0E0],"parents":[2147483647,0,0,1,1,2,2,5,5,6,6,7,7,10,10,11,11,14,14],"right_children":[2,4,6,-1,-1,8,10,12,-1,-1,14,16,-1,-1,18,-1,-1,-1,-1],"split_conditions":[3.6E0,1.7E0,4.9E0,-3.378876E-2,-1.7753696E-2,3E0,2.8E0,4.5E0,1.5284401E-2,1.5896278E-2,5.6E0,2.8E0,8.685125E-3,2.4107032E-2,7E0,-8.800287E-4,5.596155E-3,4.9129326E-2,2.863558E-2],"split_indices":[2,2,2,0,0,1,1,2,0,0,2,1,0,0,0,0,0,0,0],"split_type":[0,0,0,0,0,0,0,0,0,0,0,0,0,0,0,0,0,0,0],"sum_hessian":[1.12E2,4.2E1,7E1,3.5E1,7E0,3.3E1,3.7E1,2.4E1,9E0,9E0,2.8E1,1.4E1,1E1,1.2E1,1.6E1,9E0,5E0,7E0,9E0],"tree_param":{"num_deleted":"0","num_feature":"3","num_nodes":"19","size_leaf_vector":"1"}},{"base_weights":[8.0954945E-3,-3.1105062E-2,2.3654266E-1,6.819059E-2,3.631873E-1,-2.502169E-3,1.1426599E-1,3.1201312E-1,4.308638E-2,-3.763883E-3,2.9649881E-3,8.772575E-2,1.1326708E-2,1.2185154E-2,3.3650637E-1,2.696863E-3,8.436763E-3,1.9753132E-2,4.242554E-1,3.942544E-2,2.0753892E-2],"categories":[],"categories_nodes":[],"categories_segments":[],"categories_sizes":[],"default_left":[0,0,0,0,0,0,0,0,0,0,0,0,0,0,0,0,0,0,0,0,0],"id":14,"left_children":[1,-1,3,5,7,9,11,13,-1,-1,-1,15,-1,-1,17,-1,-1,-1,19,-1,-1],"loss_changes":[1.1013251E1,0E0,1.5529795E0,1.0777341E-1,2.74899E-1,3.0045133E-2,6.262064E-3,7.719016E-2,0E0,0E0,0E0,1.390297E-2,0E0,0E0,8.077788E-2,0E0,0E0,0E0,3.4089565E-2,0E0,0E0],"parents":[2147483647,0,0,2,2,3,3,4,4,5,5,6,6,7,7,11,11,14,14,18,18],"right_children":[2,-1,4,6,8,10,12,14,-1,-1,-1,16,-1,-1,18,-1,-1,-1,20,-1,-1],"split_conditions":[3E0,-3.1105062E-2,4.8E0,4.2E0,3.3E0,2.6E0,3E0,2.7E0,4.308638E-2,-3.763883E-3,2.9649881E-3,4.5E0,1.1326708E-2,1.2185154E-2,5.6E0,2.696863E-3,8.436763E-3,1.9753132E-2,7E0,3.942544E-2,2.0753892E-2],"split_indices":[2,0,2,2,1,1,1,1,0,0,0,2,0,0,2,0,0,0,0,0,0],"split_type":[0,0,0,0,0,0,0,0,0,0,0,0,0,0,0,0,0,0,0,0,0],"sum_hessian":[1.12E2,3.9E1,7.3E1,3.2E1,4.1E1,1.3E1,1.9E1,3.5E1,6E0,6E0,7E0,1.3E1,6E0,6E0,2.9E1,5E0,8E0,1.8E1,1.1E1,5E0,6E0],"tree_param":{"num_deleted":"0","num_feature":"3","num_nodes":"21","size_leaf_vector":"1"}},{"base_weights":[8.601244E-3,-2.8830508E-2,2.2092175E-1,6.37327E-2,3.391674E-1,-2.371572E-3,1.06819056E-1,2.9117095E-1,4.031654E-2,-3.1206138E-3,3.2106799E-3,1.204048E-1,4.1288636E-3,1.1401822E-2,3.139328E-1,5.0688423E-3,1.1863084E-2,1.8349618E-2,3.9745116E-1,3.563653E-2,1.8041726E-2],"categories":[],"categories_nodes":[],"categories_segments":[],"categories_sizes":[],"default_left":[0,0,0,0,0,0,0,0,0,0,0,0,0,0,0,0,0,0,0,0,0],"id":15,"left_children":[1,-1,3,5,7,9,11,13,-1,-1,-1,15,-1,-1,17,-1,-1,-1,19,-1,-1],"loss_changes":[9.514057E0,0E0,1.353816E0,9.424366E-2,2.4339724E-1,2.6599495E-2,7.437542E-3,6.629515E-2,0E0,0E0,0E0,1.9234896E-2,0E0,0E0,7.63216E-2,0E0,0E0,0E0,3.1992197E-2,0E0,0E0],"parents":[2147483647,0,0,2,2,3,3,4,4,5,5,6,6,7,7,11,11,14,14,18,18],"right_children":[2,-1,4,6,8,10,12,14,-1,-1,-1,16,-1,-1,18,-1,-1,-1,20,-1,-1],"split_conditions":[3E0,-2.8830508E-2,4.8E0,4.2E0,3.3E0,2.7E0,4.6E0,2.7E0,4.031654E-2,-3.1206138E-3,3.2106799E-3,4.5E0,4.1288636E-3,1.1401822E-2,5.6E0,5.0688423E-3,1.1863084E-2,1.8349618E-2,7.2E0,3.563653E-2,1.8041726E-2],"split_indices":[2,0,2,2,1,1,2,1,0,0,0,2,0,0,2,0,0,0,0,0,0],"split_type":[0,0,0,0,0,0,0,0,0,0,0,0,0,0,0,0,0,0,0,0,0],"sum_hessian":[1.12E2,3.9E1,7.3E1,3.2E1,4.1E1,1.3E1,1.9E1,3.5E1,6E0,7E0,6E0,1.4E1,5E0,6E0,2.9E1,7E0,7E0,1.8E1,1.1E1,6E0,5E0],"tree_param":{"num_deleted":"0","num_feature":"3","num_nodes":"21","size_leaf_vector":"1"}},{"base_weights":[8.983298E-3,-2.6722273E-2,2.0631069E-1,7.420082E-2,3.2951477E-1,3.7330955E-2,1.2751225E-2,1.2904552E-2,3.7244672E-1,3.664841E-3,6.6770427E-3,1.9538853E-2,4.3613058E-1,-2.4591235E-2,4.8206653E-3,4.0822882E-2,2.2948349E-2,4.6978885E-4,-3.8949968E-3],"categories":[],"categories_nodes":[],"categories_segments":[],"categories_sizes":[],"default_left":[0,0,0,0,0,0,0,0,0,0,0,0,0,0,0,0,0,0,0],"id":16,"left_children":[1,-1,3,5,7,9,-1,-1,11,13,-1,-1,15,17,-1,-1,-1,-1,-1],"loss_changes":[8.218525E0,0E0,1.1800084E0,1.24363184E-1,1.9278955E-1,4.840529E-2,0E0,0E0,9.3093395E-2,3.2407783E-2,0E0,0E0,7.2800875E-2,1.1292639E-2,0E0,0E0,0E0,0E0,0E0],"parents":[2147483647,0,0,2,2,3,3,4,4,5,5,8,8,9,9,12,12,13,13],"right_children":[2,-1,4,6,8,10,-1,-1,12,14,-1,-1,16,18,-1,-1,-1,-1,-1],"split_conditions":[3E0,-2.6722273E-2,4.9E0,3E0,2.8E0,4.5E0,1.2751225E-2,1.2904552E-2,5.6E0,2.8E0,6.6770427E-3,1.9538853E-2,7E0,4E0,4.8206653E-3,4.0822882E-2,2.2948349E-2,4.6978885E-4,-3.8949968E-3],"split_indices":[2,0,2,1,1,2,0,0,2,1,0,0,0,2,0,0,0,0,0],"split_type":[0,0,0,0,0,0,0,0,0,0,0,0,0,0,0,0,0,0,0],"sum_hessian":[1.12E2,3.9E1,7.3E1,3.6E1,3.7E1,2.7E1,9E0,9E0,2.8E1,1.7E1,1E1,1.2E1,1.6E1,1.2E1,5E0,7E0,9E0,6E0,6E0],"tree_param":{"num_deleted":"0","num_feature":"3","num_nodes":"19","size_leaf_vector":"1"}},{"base_weights":[9.108801E-3,-3.1178024E-1,2.0332175E-1,-2.6215794E-2,-1.5644107E-2,8.10937E-2,3.0733314E-1,4.6871338E-2,1.18905185E-2,2.6024097E-1,3.5903018E-2,1.7283617E-2,6.2217903E-3,1.1916357E-2,2.2431746E-2,3.8840494E-3,-2.2160537E-3],"categories":[],"categories_nodes":[],"categories_segments":[],"categories_sizes":[],"default_left":[0,0,0,0,0,0,0,0,0,0,0,0,0,0,0,0,0],"id":17,"left_children":[1,3,5,-1,-1,7,9,11,-1,13,-1,15,-1,-1,-1,-1,-1],"loss_changes":[7.1056433E0,9.465647E-2,8.777077E-1,0E0,0E0,8.2682714E-2,1.8209457E-1,2.5258664E-2,0E0,7.8481674E-2,0E0,2.5767824E-2,0E0,0E0,0E0,0E0,0E0],"parents":[2147483647,0,0,1,1,2,2,5,5,6,6,7,7,9,9,11,11],"right_children":[2,4,6,-1,-1,8,10,12,-1,14,-1,16,-1,-1,-1,-1,-1],"split_conditions":[3.6E0,1.6E0,4.9E0,-2.6215794E-2,-1.5644107E-2,3E0,3.3E0,4.5E0,1.18905185E-2,6.4E0,3.5903018E-2,5.8E0,6.2217903E-3,1.1916357E-2,2.2431746E-2,3.8840494E-3,-2.2160537E-3],"split_indices":[2,2,2,0,0,1,1,2,0,0,0,0,0,0,0,0,0],"split_type":[0,0,0,0,0,0,0,0,0,0,0,0,0,0,0,0,0],"sum_hessian":[1.12E2,4.2E1,7E1,2.9E1,1.3E1,3.3E1,3.7E1,2.4E1,9E0,3.1E1,6E0,1.4E1,1E1,1E1,2.1E1,8E0,6E0],"tree_param":{"num_deleted":"0","num_feature":"3","num_nodes":"17","size_leaf_vector":"1"}},{"base_weights":[8.851944E-3,-2.30494E-2,1.7963894E-1,5.2015543E-2,2.7563733E-1,-1.7487814E-3,8.70498E-2,2.3447885E-1,3.3594966E-2,-2.861383E-3,2.2741826E-3,1.0050455E-1,2.9178464E-3,8.960553E-3,2.5349733E-1,4.2256387E-3,9.907814E-3,1.9621511E-1,3.230694E-1,1.9136604E-2,1.4938495E-1,3.0780653E-2,1.5154081E-2,7.105756E-3,1.3701432E-2],"categories":[],"categories_nodes":[],"categories_segments":[],"categories_sizes":[],"default_left":[0,0,0,0,0,0,0,0,0,0,0,0,0,0,0,0,0,0,0,0,0,0,0,0,0],"id":18,"left_children":[1,-1,3,5,7,9,11,13,-1,-1,-1,15,-1,-1,17,-1,-1,19,21,-1,23,-1,-1,-1,-1],"loss_changes":[6.1570897E0,0E0,8.9228415E-1,6.2310793E-2,1.928091E-1,1.750169E-2,9.045526E-3,4.845357E-2,0E0,0E0,0E0,1.3489887E-2,0E0,0E0,5.6166172E-2,0E0,0E0,1.4326572E-2,4.3907404E-2,0E0,6.346643E-3,0E0,0E0,0E0,0E0],"parents":[2147483647,0,0,2,2,3,3,4,4,5,5,6,6,7,7,11,11,14,14,17,17,18,18,20,20],"right_children":[2,-1,4,6,8,10,12,14,-1,-1,-1,16,-1,-1,18,-1,-1,20,22,-1,24,-1,-1,-1,-1],"split_conditions":[3E0,-2.30494E-2,4.8E0,4.2E0,3.3E0,2.6E0,4.6E0,2.7E0,3.3594966E-2,-2.861383E-3,2.2741826E-3,4.5E0,2.9178464E-3,8.960553E-3,5.6E0,4.2256387E-3,9.907814E-3,6.3E0,7E0,1.9136604E-2,6.6E0,3.0780653E-2,1.5154081E-2,7.105756E-3,1.3701432E-2],"split_indices":[2,0,2,2,1,1,2,1,0,0,0,2,0,0,2,0,0,0,0,0,0,0,0,0,0],"split_type":[0,0,0,0,0,0,0,0,0,0,0,0,0,0,0,0,0,0,0,0,0,0,0,0,0],"sum_hessian":[1.12E2,3.9E1,7.3E1,3.2E1,4.1E1,1.3E1,1.9E1,3.5E1,6E0,6E0,7E0,1.4E1,5E0,6E0,2.9E1,7E0,7E0,1.8E1,1.1E1,6E0,1.2E1,5E0,6E0,6E0,6E0],"tree_param":{"num_deleted":"0","num_feature":"3","num_nodes":"25","size_leaf_vector":"1"}},{"base_weights":[9.266362E-3,-2.136391E-2,1.681241E-1,6.045634E-2,2.6853418E-1,3.000489E-2,1.0475608E-2,2.2719808E-1,3.143529E-2,4.1092383E-3,5.223891E-3,1.0310079E-2,1.9630205E-2,-2.0391516E-2,4.2382004E-3,9.465118E-4,-3.7867588E-3],"categories":[],"categories_nodes":[],"categories_segments":[],"categories_sizes":[],"default_left":[0,0,0,0,0,0,0,0,0,0,0,0,0,0,0,0,0],"id":19,"left_children":[1,-1,3,5,7,9,-1,11,-1,13,-1,-1,-1,15,-1,-1,-1],"loss_changes":[5.327589E0,0E0,7.837744E-1,8.5064754E-2,1.4133573E-1,2.8460955E-2,0E0,6.3191056E-2,0E0,2.4261465E-2,0E0,0E0,0E0,1.355406E-2,0E0,0E0,0E0],"parents":[2147483647,0,0,2,2,3,3,4,4,5,5,7,7,9,9,13,13],"right_children":[2,-1,4,6,8,10,-1,12,-1,14,-1,-1,-1,16,-1,-1,-1],"split_conditions":[3E0,-2.136391E-2,4.9E0,3E0,3.3E0,4.5E0,1.0475608E-2,6.4E0,3.143529E-2,2.8E0,5.223891E-3,1.0310079E-2,1.9630205E-2,4E0,4.2382004E-3,9.465118E-4,-3.7867588E-3],"split_indices":[2,0,2,1,1,2,0,0,0,1,0,0,0,2,0,0,0],"split_type":[0,0,0,0,0,0,0,0,0,0,0,0,0,0,0,0,0],"sum_hessian":[1.12E2,3.9E1,7.3E1,3.6E1,3.7E1,2.7E1,9E0,3.1E1,6E0,1.7E1,1E1,1E1,2.1E1,1.2E1,5E0,6E0,6E0],"tree_param":{"num_deleted":"0","num_feature":"3","num_nodes":"17","size_leaf_vector":"1"}},{"base_weights":[9.076783E-3,-2.4895474E-1,1.6522156E-1,-2.109518E-2,-1.2144544E-2,7.807327E-2,2.6320827E-1,9.857848E-2,-3.8351354E-3,1.9430843E-1,2.6569592E-2,5.7479706E-2,1.6872343E-2,4.8879418E-3,1.8121345E-2,9.401757E-3,8.5207805E-2,4.30709E-3,-3.0143484E-3,3.6861415E-3,7.530633E-3],"categories":[],"categories_nodes":[],"categories_segments":[],"categories_sizes":[],"default_left":[0,0,0,0,0,0,0,0,0,0,0,0,0,0,0,0,0,0,0,0,0],"id":20,"left_children":[1,3,5,-1,-1,7,9,11,-1,13,-1,15,-1,-1,-1,17,19,-1,-1,-1,-1],"loss_changes":[4.593934E0,7.53808E-2,5.857458E-1,0E0,0E0,1.083692E-1,1.3819075E-1,1.6367579E-1,0E0,1.125496E-1,0E0,3.5192862E-2,0E0,0E0,0E0,2.8507486E-2,4.383184E-3,0E0,0E0,0E0,0E0],"parents":[2147483647,0,0,1,1,2,2,5,5,6,6,7,7,9,9,11,11,15,15,16,16],"right_children":[2,4,6,-1,-1,8,10,12,-1,14,-1,16,-1,-1,-1,18,20,-1,-1,-1,-1],"split_conditions":[3.6E0,1.6E0,5E0,-2.109518E-2,-1.2144544E-2,6.6E0,3.1E0,4.8E0,-3.8351354E-3,6.4E0,2.6569592E-2,4.2E0,1.6872343E-2,4.8879418E-3,1.8121345E-2,5.7E0,4.5E0,4.30709E-3,-3.0143484E-3,3.6861415E-3,7.530633E-3],"split_indices":[2,2,2,0,0,0,1,2,0,0,0,2,0,0,0,0,2,0,0,0,0],"split_type":[0,0,0,0,0,0,0,0,0,0,0,0,0,0,0,0,0,0,0,0,0],"sum_hessian":[1.12E2,4.2E1,7E1,2.9E1,1.3E1,3.8E1,3.2E1,3.3E1,5E0,2E1,1.2E1,2.6E1,7E0,6E0,1.4E1,1E1,1.6E1,5E0,5E0,6E0,1E1],"tree_param":{"num_deleted":"0","num_feature":"3","num_nodes":"21","size_leaf_vector":"1"}},{"base_weights":[8.766688E-3,-1.8426914E-2,1.4619355E-1,4.330366E-2,2.235548E-1,-7.6950126E-4,7.198969E-2,1.8898252E-1,2.7706407E-2,1.7941926E-3,-2.8259514E-3,8.4483206E-2,2.1568218E-3,7.037455E-3,2.0488471E-1,3.6075583E-3,8.272893E-3,1.555341E-1,2.6594943E-1,1.6338304E-2,1.1001843E-1,2.6286181E-2,1.1662489E-2,4.48644E-3,1.0837557E-2],"categories":[],"categories_nodes":[],"categories_segments":[],"categories_sizes":[],"default_left":[0,0,0,0,0,0,0,0,0,0,0,0,0,0,0,0,0,0,0,0,0,0,0,0,0],"id":21,"left_children":[1,-1,3,5,7,9,11,13,-1,-1,-1,15,-1,-1,17,-1,-1,19,21,-1,23,-1,-1,-1,-1],"loss_changes":[3.98747E0,0E0,5.7933617E-1,4.1776776E-2,1.419859E-1,1.3660716E-2,8.372873E-3,3.5246372E-2,0E0,0E0,0E0,8.786254E-3,0E0,0E0,4.904318E-2,0E0,0E0,2.9918611E-2,5.753964E-2,0E0,1.38588995E-2,0E0,0E0,0E0,0E0],"parents":[2147483647,0,0,2,2,3,3,4,4,5,5,6,6,7,7,11,11,14,14,17,17,18,18,20,20],"right_children":[2,-1,4,6,8,10,12,14,-1,-1,-1,16,-1,-1,18,-1,-1,20,22,-1,24,-1,-1,-1,-1],"split_conditions":[3E0,-1.8426914E-2,4.8E0,4.2E0,3.3E0,5.7E0,4.6E0,2.7E0,2.7706407E-2,1.7941926E-3,-2.8259514E-3,4.5E0,2.1568218E-3,7.037455E-3,5.6E0,3.6075583E-3,8.272893E-3,6.3E0,7E0,1.6338304E-2,6.6E0,2.6286181E-2,1.1662489E-2,4.48644E-3,1.0837557E-2],"split_indices":[2,0,2,2,1,0,2,1,0,0,0,2,0,0,2,0,0,0,0,0,0,0,0,0,0],"split_type":[0,0,0,0,0,0,0,0,0,0,0,0,0,0,0,0,0,0,0,0,0,0,0,0,0],"sum_hessian":[1.12E2,3.9E1,7.3E1,3.2E1,4.1E1,1.3E1,1.9E1,3.5E1,6E0,8E0,5E0,1.4E1,5E0,6E0,2.9E1,7E0,7E0,1.8E1,1.1E1,6E0,1.2E1,5E0,6E0,6E0,6E0],"tree_param":{"num_deleted":"0","num_feature":"3","num_nodes":"25","size_leaf_vector":"1"}},{"base_weights":[8.984702E-3,-1.7079446E-2,1.3681498E-1,6.0125E-2,2.3027451E-1,7.682382E-2,-3.965393E-3,1.6995871E-1,2.3249574E-2,4.180289E-2,1.4891202E-2,4.0489896E-3,2.1274848E-1,-7.85484E-4,7.4416675E-2,9.773136E-3,1.8070322E-2,-2.4230473E-3,2.0170717E-3,3.2172606E-3,6.578222E-3],"categories":[],"categories_nodes":[],"categories_segments":[],"categories_sizes":[],"default_left":[0,0,0,0,0,0,0,0,0,0,0,0,0,0,0,0,0,0,0,0,0],"id":22,"left_children":[1,-1,3,5,7,9,-1,11,-1,13,-1,-1,15,17,19,-1,-1,-1,-1,-1,-1],"loss_changes":[3.4503994E0,0E0,5.1654303E-1,8.331226E-2,1.0598993E-1,1.494289E-1,0E0,9.272528E-2,0E0,4.1727494E-2,0E0,0E0,3.4624934E-3,1.30841145E-2,3.360398E-3,0E0,0E0,0E0,0E0,0E0,0E0],"parents":[2147483647,0,0,2,2,3,3,4,4,5,5,7,7,9,9,12,12,13,13,14,14],"right_children":[2,-1,4,6,8,10,-1,12,-1,14,-1,-1,16,18,20,-1,-1,-1,-1,-1,-1],"split_conditions":[3E0,-1.7079446E-2,5E0,6.6E0,3.1E0,4.8E0,-3.965393E-3,6.4E0,2.3249574E-2,4.2E0,1.4891202E-2,4.0489896E-3,5.6E0,2.6E0,4.5E0,9.773136E-3,1.8070322E-2,-2.4230473E-3,2.0170717E-3,3.2172606E-3,6.578222E-3],"split_indices":[2,0,2,0,1,2,0,0,0,2,0,0,2,1,2,0,0,0,0,0,0],"split_type":[0,0,0,0,0,0,0,0,0,0,0,0,0,0,0,0,0,0,0,0,0],"sum_hessian":[1.12E2,3.9E1,7.3E1,4.1E1,3.2E1,3.6E1,5E0,2E1,1.2E1,2.9E1,7E0,6E0,1.4E1,1.3E1,1.6E1,5E0,9E0,6E0,7E0,6E0,1E1],"tree_param":{"num_deleted":"0","num_feature":"3","num_nodes":"21","size_leaf_vector":"1"}},{"base_weights":[8.827471E-3,-2.1107346E-1,1.2757355E-1,-1.699157E-2,-1.1224841E-2,5.6099325E-2,2.1467488E-1,7.1718276E-2,-3.7175564E-3,1.5873048E-1,2.1639988E-2,3.8980663E-2,1.3913966E-2,3.7886964E-3,1.9864856E-1,-7.555687E-4,6.9411635E-2,9.162315E-3,1.6850574E-2,1.7251136E-3,-2.719895E-3,3.010437E-3,6.129707E-3],"categories":[],"categories_nodes":[],"categories_segments":[],"categories_sizes":[],"default_left":[0,0,0,0,0,0,0,0,0,0,0,0,0,0,0,0,0,0,0,0,0,0,0],"id":23,"left_children":[1,3,5,-1,-1,7,9,11,-1,13,-1,15,-1,-1,17,19,21,-1,-1,-1,-1,-1,-1],"loss_changes":[2.9776251E0,4.119277E-3,4.486438E-1,0E0,0E0,7.2871834E-2,9.055567E-2,1.3061486E-1,0E0,8.067918E-2,0E0,3.632882E-2,0E0,0E0,2.4112463E-3,1.264465E-2,2.8491765E-3,0E0,0E0,0E0,0E0,0E0,0E0],"parents":[2147483647,0,0,1,1,2,2,5,5,6,6,7,7,9,9,11,11,14,14,15,15,16,16],"right_children":[2,4,6,-1,-1,8,10,12,-1,14,-1,16,-1,-1,18,20,22,-1,-1,-1,-1,-1,-1],"split_conditions":[3E0,1.6E0,5E0,-1.699157E-2,-1.1224841E-2,6.6E0,3.1E0,4.8E0,-3.7175564E-3,6.4E0,2.1639988E-2,4.2E0,1.3913966E-2,3.7886964E-3,5.6E0,5.7E0,4.5E0,9.162315E-3,1.6850574E-2,1.7251136E-3,-2.719895E-3,3.010437E-3,6.129707E-3],"split_indices":[2,2,2,0,0,0,1,2,0,0,0,2,0,0,2,0,2,0,0,0,0,0,0],"split_type":[0,0,0,0,0,0,0,0,0,0,0,0,0,0,0,0,0,0,0,0,0,0,0],"sum_hessian":[1.12E2,3.9E1,7.3E1,2.9E1,1E1,4.1E1,3.2E1,3.6E1,5E0,2E1,1.2E1,2.9E1,7E0,6E0,1.4E1,1.3E1,1.6E1,5E0,9E0,8E0,5E0,6E0,1E1],"tree_param":{"num_deleted":"0","num_feature":"3","num_nodes":"23","size_leaf_vector":"1"}},{"base_weights":[8.533269E-3,-1.848593E-1,1.2553817E-1,-2.1012905E-1,-8.812924E-3,5.9200455E-2,2.001331E-1,-1.6842388E-2,-9.796153E-3,7.61069E-2,-3.4852095E-3,1.4824481E-1,2.0141834E-2,4.4476893E-2,1.300086E-2,3.5451364E-3,1.854841E-1,9.112543E-3,6.4743415E-2,8.589671E-3,1.571316E-2,3.8028767E-3,-2.5499016E-3,3.1185222E-3,6.053462E-3],"categories":[],"categories_nodes":[],"categories_segments":[],"categories_sizes":[],"default_left":[0,0,0,0,0,0,0,0,0,0,0,0,0,0,0,0,0,0,0,0,0,0,0,0,0],"id":24,"left_children":[1,3,5,7,-1,9,11,-1,-1,13,-1,15,-1,17,-1,-1,19,21,23,-1,-1,-1,-1,-1,-1],"loss_changes":[2.5801573E0,4.8495173E-2,3.3949244E-1,5.1043034E-3,0E0,7.321024E-2,7.7352285E-2,0E0,0E0,9.686175E-2,0E0,7.019845E-2,0E0,1.8761262E-2,0E0,0E0,1.5752912E-3,2.1448037E-2,2.932258E-3,0E0,0E0,0E0,0E0,0E0,0E0],"parents":[2147483647,0,0,1,1,2,2,3,3,5,5,6,6,9,9,11,11,13,13,16,16,17,17,18,18],"right_children":[2,4,6,8,-1,10,12,-1,-1,14,-1,16,-1,18,-1,-1,20,22,24,-1,-1,-1,-1,-1,-1],"split_conditions":[3.6E0,1.6E0,5E0,5.4E0,-8.812924E-3,6.6E0,3.1E0,-1.6842388E-2,-9.796153E-3,4.8E0,-3.4852095E-3,6.4E0,2.0141834E-2,4.2E0,1.300086E-2,3.5451364E-3,5.6E0,5.7E0,2.9E0,8.589671E-3,1.571316E-2,3.8028767E-3,-2.5499016E-3,3.1185222E-3,6.053462E-3],"split_indices":[2,2,2,0,0,0,1,0,0,2,0,0,0,2,0,0,2,0,1,0,0,0,0,0,0],"split_type":[0,0,0,0,0,0,0,0,0,0,0,0,0,0,0,0,0,0,0,0,0,0,0,0,0],"sum_hessian":[1.12E2,4.2E1,7E1,2.9E1,1.3E1,3.8E1,3.2E1,2.3E1,6E0,3.3E1,5E0,2E1,1.2E1,2.6E1,7E0,6E0,1.4E1,1E1,1.6E1,5E0,9E0,5E0,5E0,8E0,8E0],"tree_param":{"num_deleted":"0","num_feature":"3","num_nodes":"25","size_leaf_vector":"1"}},{"base_weights":[8.180689E-3,-1.8259132E-1,1.1119014E-1,-1.6237706E-2,-1.5358436E-1,4.9309965E-2,1.8657734E-1,-1.3246991E-2,-6.190608E-3,6.303809E-2,-3.2673841E-3,1.5287213E-1,2.174469E-2,3.4555227E-2,1.2147679E-2,3.317233E-3,1.8180664E-1,6.7103334E-4,6.0427196E-2,2.0566042E-1,6.592157E-3,-2.1014523E-3,1.926844E-3,2.522095E-3,5.399092E-3,9.89071E-3,1.862965E-2],"categories":[],"categories_nodes":[],"categories_segments":[],"categories_sizes":[],"default_left":[0,0,0,0,0,0,0,0,0,0,0,0,0,0,0,0,0,0,0,0,0,0,0,0,0,0,0],"id":25,"left_children":[1,3,5,-1,7,9,11,-1,-1,13,-1,15,-1,17,-1,-1,19,21,23,25,-1,-1,-1,-1,-1,-1,-1],"loss_changes":[2.2409017E0,6.095171E-3,3.3600783E-1,0E0,2.6345551E-2,5.6296267E-2,7.063329E-2,0E0,0E0,9.866311E-2,0E0,7.6833546E-2,0E0,2.6258975E-2,0E0,0E0,2.8966308E-2,1.0769612E-2,2.8461032E-3,1.7693162E-2,0E0,0E0,0E0,0E0,0E0,0E0,0E0],"parents":[2147483647,0,0,1,1,2,2,4,4,5,5,6,6,9,9,11,11,13,13,16,16,17,17,18,18,19,19],"right_children":[2,4,6,-1,8,10,12,-1,-1,14,-1,16,-1,18,-1,-1,20,22,24,26,-1,-1,-1,-1,-1,-1,-1],"split_conditions":[3E0,5E0,5E0,-1.6237706E-2,1.6E0,6.6E0,3.3E0,-1.3246991E-2,-6.190608E-3,4.8E0,-3.2673841E-3,6.4E0,2.174469E-2,4.2E0,1.2147679E-2,3.317233E-3,7.2E0,2.6E0,4.5E0,6.6E0,6.592157E-3,-2.1014523E-3,1.926844E-3,2.522095E-3,5.399092E-3,9.89071E-3,1.862965E-2],"split_indices":[2,0,2,0,2,0,1,0,0,2,0,0,0,2,0,0,0,1,2,0,0,0,0,0,0,0,0],"split_type":[0,0,0,0,0,0,0,0,0,0,0,0,0,0,0,0,0,0,0,0,0,0,0,0,0,0,0],"sum_hessian":[1.12E2,3.9E1,7.3E1,1.5E1,2.4E1,4.1E1,3.2E1,1.7E1,7E0,3.6E1,5E0,2.6E1,6E0,2.9E1,7E0,6E0,2E1,1.3E1,1.6E1,1.5E1,5E0,6E0,7E0,6E0,1E1,7E0,8E0],"tree_param":{"num_deleted":"0","num_feature":"3","num_nodes":"27","size_leaf_vector":"1"}},{"base_weights":[7.931092E-3,-1.6978882E-1,1.03888735E-1,-1.5095989E-2,-1.4284301E-1,4.60076E-2,1.7440748E-1,-1.2308661E-2,-5.784346E-3,5.884792E-2,-3.0631726E-3,1.4283004E-1,2.0346817E-2,3.222181E-2,1.1350488E-2,3.103982E-3,1.6984315E-1,6.0823373E-4,5.6361113E-2,1.9201839E-1,6.180147E-3,1.7113654E-3,-2.4606073E-3,2.6226067E-3,5.361885E-3,9.241631E-3,1.7387671E-2],"categories":[],"categories_nodes":[],"categories_segments":[],"categories_sizes":[],"default_left":[0,0,0,0,0,0,0,0,0,0,0,0,0,0,0,0,0,0,0,0,0,0,0,0,0,0,0],"id":26,"left_children":[1,3,5,-1,7,9,11,-1,-1,13,-1,15,-1,17,-1,-1,19,21,23,25,-1,-1,-1,-1,-1,-1,-1],"loss_changes":[1.9446942E0,5.190611E-3,2.940222E-1,0E0,2.2292495E-2,4.924105E-2,6.2209368E-2,0E0,0E0,8.624348E-2,0E0,6.695902E-2,0E0,2.2859612E-2,0E0,0E0,2.489698E-2,1.1139081E-2,3.0028187E-3,1.5261412E-2,0E0,0E0,0E0,0E0,0E0,0E0,0E0],"parents":[2147483647,0,0,1,1,2,2,4,4,5,5,6,6,9,9,11,11,13,13,16,16,17,17,18,18,19,19],"right_children":[2,4,6,-1,8,10,12,-1,-1,14,-1,16,-1,18,-1,-1,20,22,24,26,-1,-1,-1,-1,-1,-1,-1],"split_conditions":[3E0,5E0,5E0,-1.5095989E-2,1.6E0,6.6E0,3.3E0,-1.2308661E-2,-5.784346E-3,4.8E0,-3.0631726E-3,6.4E0,2.0346817E-2,4.2E0,1.1350488E-2,3.103982E-3,7.2E0,5.7E0,2.9E0,6.6E0,6.180147E-3,1.7113654E-3,-2.4606073E-3,2.6226067E-3,5.361885E-3,9.241631E-3,1.7387671E-2],"split_indices":[2,0,2,0,2,0,1,0,0,2,0,0,0,2,0,0,0,0,1,0,0,0,0,0,0,0,0],"split_type":[0,0,0,0,0,0,0,0,0,0,0,0,0,0,0,0,0,0,0,0,0,0,0,0,0,0,0],"sum_hessian":[1.12E2,3.9E1,7.3E1,1.5E1,2.4E1,4.1E1,3.2E1,1.7E1,7E0,3.6E1,5E0,2.6E1,6E0,2.9E1,7E0,6E0,2E1,1.3E1,1.6E1,1.5E1,5E0,8E0,5E0,8E0,8E0,7E0,8E0],"tree_param":{"num_deleted":"0","num_feature":"3","num_nodes":"27","size_leaf_vector":"1"}},{"base_weights":[7.677807E-3,-1.4880891E-1,1.0234331E-1,-1.6824229E-1,-7.2402568E-3,4.8367336E-2,1.6303179E-1,-1.3578351E-2,-7.523533E-3,6.2237177E-2,-2.8717234E-3,1.3344792E-1,1.903881E-2,3.647403E-2,1.0605611E-2,2.904441E-3,1.5866727E-1,6.355449E-3,2.1652859E-2,1.7928135E-1,5.7938867E-3,-1.2843168E-2,4.8249303E-3,9.061339E-3,1.6698197E-2,-3.7933595E-3,2.9707975E-3],"categories":[],"categories_nodes":[],"categories_segments":[],"categories_sizes":[],"default_left":[0,0,0,0,0,0,0,0,0,0,0,0,0,0,0,0,0,0,0,0,0,0,0,0,0,0,0],"id":27,"left_children":[1,3,5,7,-1,9,11,-1,-1,13,-1,15,-1,17,-1,-1,19,-1,21,23,-1,25,-1,-1,-1,-1,-1],"loss_changes":[1.6891997E0,2.7438998E-2,2.2469074E-1,7.928073E-3,0E0,4.925786E-2,5.4787874E-2,0E0,0E0,6.419185E-2,0E0,5.835378E-2,0E0,1.747955E-2,0E0,0E0,2.139461E-2,0E0,3.3216275E-2,1.3661623E-2,0E0,2.7734876E-2,0E0,0E0,0E0,0E0,0E0],"parents":[2147483647,0,0,1,1,2,2,3,3,5,5,6,6,9,9,11,11,13,13,16,16,18,18,19,19,21,21],"right_children":[2,4,6,8,-1,10,12,-1,-1,14,-1,16,-1,18,-1,-1,20,-1,22,24,-1,26,-1,-1,-1,-1,-1],"split_conditions":[3.6E0,1.6E0,5E0,5.4E0,-7.2402568E-3,6.6E0,3.3E0,-1.3578351E-2,-7.523533E-3,4.8E0,-2.8717234E-3,6.4E0,1.903881E-2,5.6E0,1.0605611E-2,2.904441E-3,7.2E0,6.355449E-3,2.9E0,5.6E0,5.7938867E-3,6.1E0,4.8249303E-3,9.061339E-3,1.6698197E-2,-3.7933595E-3,2.9707975E-3],"split_indices":[2,2,2,0,0,0,1,0,0,2,0,0,0,0,0,0,0,0,1,2,0,0,0,0,0,0,0],"split_type":[0,0,0,0,0,0,0,0,0,0,0,0,0,0,0,0,0,0,0,0,0,0,0,0,0,0,0],"sum_hessian":[1.12E2,4.2E1,7E1,2.9E1,1.3E1,3.8E1,3.2E1,2.3E1,6E0,3.3E1,5E0,2.6E1,6E0,2.6E1,7E0,6E0,2E1,5E0,2.1E1,1.5E1,5E0,1.2E1,9E0,8E0,7E0,7E0,5E0],"tree_param":{"num_deleted":"0","num_feature":"3","num_nodes":"27","size_leaf_vector":"1"}},{"base_weights":[7.4846726E-3,-1.4713824E-1,9.096348E-2,-1.316896E-2,-1.2304607E-1,4.0506087E-2,1.5242551E-1,-1.0626366E-2,-4.9296007E-3,5.180094E-2,-2.69224E-3,1.2471554E-1,1.7814886E-2,9.93926E-3,9.543609E-2,2.7177285E-3,1.4826974E-1,-1.7812755E-2,4.034541E-3,9.434695E-3,3.83242E-3,1.7770192E-1,6.696166E-3,1.2996679E-3,-3.7807303E-3,7.000946E-3,1.7750394E-2],"categories":[],"categories_nodes":[],"categories_segments":[],"categories_sizes":[],"default_left":[0,0,0,0,0,0,0,0,0,0,0,0,0,0,0,0,0,0,0,0,0,0,0,0,0,0,0],"id":28,"left_children":[1,3,5,-1,7,9,11,-1,-1,13,-1,15,-1,17,19,-1,21,23,-1,-1,-1,25,-1,-1,-1,-1,-1],"loss_changes":[1.4719585E0,5.8096647E-3,2.2331572E-1,0E0,1.7395824E-2,3.810364E-2,4.8199773E-2,0E0,0E0,6.663714E-2,0E0,5.0896794E-2,0E0,2.5299296E-2,1.7801195E-2,0E0,2.0593137E-2,1.57652E-2,0E0,0E0,0E0,4.2575747E-2,0E0,0E0,0E0,0E0,0E0],"parents":[2147483647,0,0,1,1,2,2,4,4,5,5,6,6,9,9,11,11,13,13,14,14,16,16,17,17,21,21],"right_children":[2,4,6,-1,8,10,12,-1,-1,14,-1,16,-1,18,20,-1,22,24,-1,-1,-1,26,-1,-1,-1,-1,-1],"split_conditions":[3E0,5E0,5E0,-1.316896E-2,1.6E0,6.6E0,3.3E0,-1.0626366E-2,-4.9296007E-3,4.5E0,-2.69224E-3,6.4E0,1.7814886E-2,2.8E0,6.1E0,2.7177285E-3,5.8E0,4E0,4.034541E-3,9.434695E-3,3.83242E-3,6.6E0,6.696166E-3,1.2996679E-3,-3.7807303E-3,7.000946E-3,1.7750394E-2],"split_indices":[2,0,2,0,2,0,1,0,0,2,0,0,0,1,0,0,2,2,0,0,0,0,0,0,0,0,0],"split_type":[0,0,0,0,0,0,0,0,0,0,0,0,0,0,0,0,0,0,0,0,0,0,0,0,0,0,0],"sum_hessian":[1.12E2,3.9E1,7.3E1,1.5E1,2.4E1,4.1E1,3.2E1,1.7E1,7E0,3.6E1,5E0,2.6E1,6E0,1.9E1,1.7E1,6E0,2E1,1.2E1,7E0,9E0,8E0,1.2E1,8E0,6E0,6E0,6E0,6E0],"tree_param":{"num_deleted":"0","num_feature":"3","num_nodes":"27","size_leaf_vector":"1"}},{"base_weights":[7.2364355E-3,-1.3682105E-1,8.500755E-2,-1.2243019E-2,-1.14439905E-1,3.77569E-2,1.4256875E-1,-4.4105668E-3,-1.3280763E-1,4.831643E-2,-2.5239754E-3,3.3627248E-3,1.5841968E-1,-1.2053996E-2,-7.080433E-3,2.5810527E-2,9.500551E-3,1.8497035E-1,6.9098575E-3,5.92582E-3,1.2010009E-2,1.0341947E-1,1.9806856E-2,-1.8128723E-2,5.2016463E-2,1.0883713E-2,3.3364648E-3,-3.622422E-3,2.6382343E-3,1.5059566E-3,5.646307E-3],"categories":[],"categories_nodes":[],"categories_segments":[],"categories_sizes":[],"default_left":[0,0,0,0,0,0,0,0,0,0,0,0,0,0,0,0,0,0,0,0,0,0,0,0,0,0,0,0,0,0,0],"id":29,"left_children":[1,3,5,-1,7,9,11,-1,13,15,-1,-1,17,-1,-1,19,-1,21,-1,-1,23,25,-1,27,29,-1,-1,-1,-1,-1,-1],"loss_changes":[1.2776276E0,4.9704313E-3,1.9588262E-1,0E0,1.7735898E-2,3.3296295E-2,4.4018984E-2,0E0,4.1210353E-3,6.198027E-2,0E0,0E0,3.2238364E-2,0E0,0E0,2.1076871E-2,0E0,9.528327E-2,0E0,0E0,3.1086585E-2,2.0574875E-2,0E0,2.5822435E-2,6.662432E-3,0E0,0E0,0E0,0E0,0E0,0E0],"parents":[2147483647,0,0,1,1,2,2,4,4,5,5,6,6,8,8,9,9,12,12,15,15,17,17,20,20,21,21,23,23,24,24],"right_children":[2,4,6,-1,8,10,12,-1,14,16,-1,-1,18,-1,-1,20,-1,22,-1,-1,24,26,-1,28,30,-1,-1,-1,-1,-1,-1],"split_conditions":[3E0,5E0,5E0,-1.2243019E-2,5.1E0,6.6E0,6.3E0,-4.4105668E-3,5.4E0,4.8E0,-2.5239754E-3,3.3627248E-3,7E0,-1.2053996E-2,-7.080433E-3,5.3E0,9.500551E-3,5.6E0,6.9098575E-3,5.92582E-3,2.9E0,5.3E0,1.9806856E-2,6.1E0,5.8E0,1.0883713E-2,3.3364648E-3,-3.622422E-3,2.6382343E-3,1.5059566E-3,5.646307E-3],"split_indices":[2,0,2,0,0,0,0,0,0,2,0,0,0,0,0,0,0,2,0,0,1,2,0,0,0,0,0,0,0,0,0],"split_type":[0,0,0,0,0,0,0,0,0,0,0,0,0,0,0,0,0,0,0,0,0,0,0,0,0,0,0,0,0,0,0],"sum_hessian":[1.12E2,3.9E1,7.3E1,1.5E1,2.4E1,4.1E1,3.2E1,7E0,1.7E1,3.6E1,5E0,5E0,2.7E1,8E0,9E0,2.9E1,7E0,1.8E1,9E0,5E0,2.4E1,1E1,8E0,1.4E1,1E1,5E0,5E0,9E0,5E0,5E0,5E0],"tree_param":{"num_deleted":"0","num_feature":"3","num_nodes":"31","size_leaf_vector":"1"}},{"base_weights":[6.9377967E-3,-1.205007E-1,8.402114E-2,-1.3532442E-1,-8.0128394E-2,4.02382E-2,1.3321853E-1,-1.096537E-2,-5.9015853E-3,-7.4614594E-3,-3.988075E-3,5.1723182E-2,-2.3662276E-3,1.0755866E-1,1.5987081E-2,3.0062964E-2,8.877076E-3,2.165679E-3,1.2866446E-1,5.660724E-3,1.6311003E-2,1.5638895E-1,5.574146E-3,-1.1884072E-2,3.8500128E-3,5.9026E-3,1.5880147E-2,-3.30338E-3,2.473345E-3],"categories":[],"categories_nodes":[],"categories_segments":[],"categories_sizes":[],"default_left":[0,0,0,0,0,0,0,0,0,0,0,0,0,0,0,0,0,0,0,0,0,0,0,0,0,0,0,0,0],"id":30,"left_children":[1,3,5,7,9,11,13,-1,-1,-1,-1,15,-1,17,-1,19,-1,-1,21,-1,23,25,-1,27,-1,-1,-1,-1,-1],"loss_changes":[1.1201673E0,1.489085E-2,1.4757395E-1,6.9824457E-3,2.0146593E-3,3.378667E-2,4.476607E-2,0E0,0E0,0E0,0E0,4.5516968E-2,0E0,4.1122675E-2,0E0,1.563102E-2,0E0,0E0,2.0015895E-2,0E0,2.2334214E-2,3.923258E-2,0E0,2.0209001E-2,0E0,0E0,0E0,0E0,0E0],"parents":[2147483647,0,0,1,1,2,2,3,3,4,4,5,5,6,6,11,11,13,13,15,15,18,18,20,20,21,21,23,23],"right_children":[2,4,6,8,10,12,14,-1,-1,-1,-1,16,-1,18,-1,20,-1,-1,22,-1,24,26,-1,28,-1,-1,-1,-1,-1],"split_conditions":[3.6E0,1.6E0,5E0,5.4E0,3.3E0,6.6E0,3.3E0,-1.096537E-2,-5.9015853E-3,-7.4614594E-3,-3.988075E-3,4.8E0,-2.3662276E-3,6.4E0,1.5987081E-2,5.6E0,8.877076E-3,2.165679E-3,5.8E0,5.660724E-3,2.9E0,6.6E0,5.574146E-3,6.1E0,3.8500128E-3,5.9026E-3,1.5880147E-2,-3.30338E-3,2.473345E-3],"split_indices":[2,2,2,0,1,0,1,0,0,0,0,2,0,0,0,0,0,0,2,0,1,0,0,0,0,0,0,0,0],"split_type":[0,0,0,0,0,0,0,0,0,0,0,0,0,0,0,0,0,0,0,0,0,0,0,0,0,0,0,0,0],"sum_hessian":[1.12E2,4.2E1,7E1,2.9E1,1.3E1,3.8E1,3.2E1,2.3E1,6E0,6E0,7E0,3.3E1,5E0,2.6E1,6E0,2.6E1,7E0,6E0,2E1,5E0,2.1E1,1.2E1,8E0,1.2E1,9E0,6E0,6E0,7E0,5E0],"tree_param":{"num_deleted":"0","num_feature":"3","num_nodes":"29","size_leaf_vector":"1"}},{"base_weights":[6.704046E-3,-1.12121694E-1,7.857451E-2,-1.2573734E-1,-7.493662E-2,3.7609864E-2,1.2460623E-1,-1.0177234E-2,-5.5221985E-3,-6.981795E-3,-3.7263606E-3,4.8360344E-2,-2.2183377E-3,1.0058519E-1,1.4959342E-2,2.8129749E-2,8.294517E-3,2.0264569E-3,1.2031735E-1,5.3069293E-3,1.5224949E-2,1.4633538E-1,5.202537E-3,-1.1056616E-2,3.590137E-3,5.523146E-3,1.4859282E-2,-3.0865958E-3,2.318761E-3],"categories":[],"categories_nodes":[],"categories_segments":[],"categories_sizes":[],"default_left":[0,0,0,0,0,0,0,0,0,0,0,0,0,0,0,0,0,0,0,0,0,0,0,0,0,0,0,0,0],"id":31,"left_children":[1,3,5,7,9,11,13,-1,-1,-1,-1,15,-1,17,-1,19,-1,-1,21,-1,23,25,-1,27,-1,-1,-1,-1,-1],"loss_changes":[9.7383684E-1,1.2348533E-2,1.291964E-1,5.5772364E-3,1.7927065E-3,2.9600099E-2,3.927195E-2,0E0,0E0,0E0,0E0,3.969553E-2,0E0,3.5942614E-2,0E0,1.3776004E-2,0E0,0E0,1.7687231E-2,0E0,1.9403577E-2,3.4350544E-2,0E0,1.7695477E-2,0E0,0E0,0E0,0E0,0E0],"parents":[2147483647,0,0,1,1,2,2,3,3,4,4,5,5,6,6,11,11,13,13,15,15,18,18,20,20,21,21,23,23],"right_children":[2,4,6,8,10,12,14,-1,-1,-1,-1,16,-1,18,-1,20,-1,-1,22,-1,24,26,-1,28,-1,-1,-1,-1,-1],"split_conditions":[3.6E0,1.6E0,5E0,5.4E0,3.3E0,6.6E0,3.3E0,-1.0177234E-2,-5.5221985E-3,-6.981795E-3,-3.7263606E-3,4.8E0,-2.2183377E-3,6.4E0,1.4959342E-2,5.6E0,8.294517E-3,2.0264569E-3,5.8E0,5.3069293E-3,2.9E0,6.6E0,5.202537E-3,6.1E0,3.590137E-3,5.523146E-3,1.4859282E-2,-3.0865958E-3,2.318761E-3],"split_indices":[2,2,2,0,1,0,1,0,0,0,0,2,0,0,0,0,0,0,2,0,1,0,0,0,0,0,0,0,0],"split_type":[0,0,0,0,0,0,0,0,0,0,0,0,0,0,0,0,0,0,0,0,0,0,0,0,0,0,0,0,0],"sum_hessian":[1.12E2,4.2E1,7E1,2.9E1,1.3E1,3.8E1,3.2E1,2.3E1,6E0,6E0,7E0,3.3E1,5E0,2.6E1,6E0,2.6E1,7E0,6E0,2E1,5E0,2.1E1,1.2E1,8E0,1.2E1,9E0,6E0,6E0,7E0,5E0],"tree_param":{"num_deleted":"0","num_feature":"3","num_nodes":"29","size_leaf_vector":"1"}},{"base_weights":[6.469998E-3,-1.1115032E-1,6.9961116E-2,-1.0021342E-2,-9.232506E-2,3.168921E-2,1.1655078E-1,-3.048221E-3,-1.10165715E-1,4.0468168E-2,-2.079691E-3,9.4063945E-2,1.399767E-2,-9.952794E-3,-5.914858E-3,2.2354512E-2,7.7501885E-3,1.8961858E-3,1.12511866E-1,5.8228867E-3,8.192178E-3,1.3692808E-1,4.8557017E-3,-1.9854864E-2,4.0231045E-2,5.168085E-3,1.3904042E-2,1.9528606E-4,-3.7675304E-3,1.0339321E-3,4.828403E-3],"categories":[],"categories_nodes":[],"categories_segments":[],"categories_sizes":[],"default_left":[0,0,0,0,0,0,0,0,0,0,0,0,0,0,0,0,0,0,0,0,0,0,0,0,0,0,0,0,0,0,0],"id":32,"left_children":[1,3,5,-1,7,9,11,-1,13,15,-1,17,-1,-1,-1,19,-1,-1,21,-1,23,25,-1,27,29,-1,-1,-1,-1,-1,-1],"loss_changes":[8.5164267E-1,4.5820475E-3,1.2825418E-1,0E0,1.8573612E-2,2.3030683E-2,3.4451842E-2,0E0,2.2327453E-3,3.9824225E-2,0E0,3.141506E-2,0E0,0E0,0E0,2.2852477E-2,0E0,0E0,1.56281E-2,0E0,2.3263669E-2,3.0076012E-2,0E0,9.68257E-3,6.7755934E-3,0E0,0E0,0E0,0E0,0E0,0E0],"parents":[2147483647,0,0,1,1,2,2,4,4,5,5,6,6,8,8,9,9,11,11,15,15,18,18,20,20,21,21,23,23,24,24],"right_children":[2,4,6,-1,8,10,12,-1,14,16,-1,18,-1,-1,-1,20,-1,-1,22,-1,24,26,-1,28,30,-1,-1,-1,-1,-1,-1],"split_conditions":[3E0,5E0,5E0,-1.0021342E-2,5.1E0,6.6E0,3.3E0,-3.048221E-3,5.4E0,4.8E0,-2.079691E-3,6.4E0,1.399767E-2,-9.952794E-3,-5.914858E-3,5.3E0,7.7501885E-3,1.8961858E-3,5.8E0,5.8228867E-3,5.9E0,6.6E0,4.8557017E-3,5.7E0,2.9E0,5.168085E-3,1.3904042E-2,1.9528606E-4,-3.7675304E-3,1.0339321E-3,4.828403E-3],"split_indices":[2,0,2,0,0,0,1,0,0,2,0,0,0,0,0,0,0,0,2,0,0,0,0,0,1,0,0,0,0,0,0],"split_type":[0,0,0,0,0,0,0,0,0,0,0,0,0,0,0,0,0,0,0,0,0,0,0,0,0,0,0,0,0,0,0],"sum_hessian":[1.12E2,3.9E1,7.3E1,1.5E1,2.4E1,4.1E1,3.2E1,7E0,1.7E1,3.6E1,5E0,2.6E1,6E0,8E0,9E0,2.9E1,7E0,6E0,2E1,5E0,2.4E1,1.2E1,8E0,1.3E1,1.1E1,6E0,6E0,8E0,5E0,6E0,5E0],"tree_param":{"num_deleted":"0","num_feature":"3","num_nodes":"31","size_leaf_vector":"1"}},{"base_weights":[6.203033E-3,-9.765123E-2,6.901332E-2,-9.0466095E-3,-7.957179E-2,3.3395182E-2,1.0901617E-1,-1.0037305E-1,-2.5629257E-3,7.1827754E-2,1.5731396E-2,8.796557E-2,1.309782E-2,-8.499576E-3,-4.7869594E-3,2.8422307E-3,7.458227E-3,-1.4319497E-2,6.0572424E-3,1.7742871E-3,1.05212875E-1,5.256228E-3,-3.856898E-3,1.2812553E-1,4.531986E-3,-2.8300278E-3,4.022752E-3,4.8358515E-3,1.3010207E-2],"categories":[],"categories_nodes":[],"categories_segments":[],"categories_sizes":[],"default_left":[0,0,0,0,0,0,0,0,0,0,0,0,0,0,0,0,0,0,0,0,0,0,0,0,0,0,0,0,0],"id":33,"left_children":[1,3,5,-1,7,9,11,13,-1,15,17,19,-1,-1,-1,-1,-1,21,-1,-1,23,25,-1,27,-1,-1,-1,-1,-1],"loss_changes":[7.4385136E-1,8.259356E-3,9.752211E-2,0E0,2.2067904E-2,2.5345773E-2,3.0223101E-2,1.2888461E-3,0E0,7.4757375E-3,5.5875897E-2,2.7457923E-2,0E0,0E0,0E0,0E0,0E0,1.4797766E-2,0E0,0E0,1.3807505E-2,3.1142132E-2,0E0,2.6333377E-2,0E0,0E0,0E0,0E0,0E0],"parents":[2147483647,0,0,1,1,2,2,4,4,5,5,6,6,7,7,9,9,10,10,11,11,17,17,20,20,21,21,23,23],"right_children":[2,4,6,-1,8,10,12,14,-1,16,18,20,-1,-1,-1,-1,-1,22,-1,-1,24,26,-1,28,-1,-1,-1,-1,-1],"split_conditions":[3.6E0,5E0,5E0,-9.0466095E-3,1.6E0,5.7E0,3.3E0,5.4E0,-2.5629257E-3,4.3E0,3E0,6.4E0,1.309782E-2,-8.499576E-3,-4.7869594E-3,2.8422307E-3,7.458227E-3,4.7E0,6.0572424E-3,1.7742871E-3,5.8E0,6.1E0,-3.856898E-3,6.6E0,4.531986E-3,-2.8300278E-3,4.022752E-3,4.8358515E-3,1.3010207E-2],"split_indices":[2,0,2,0,2,0,1,0,0,2,1,0,0,0,0,0,0,2,0,0,2,0,0,0,0,0,0,0,0],"split_type":[0,0,0,0,0,0,0,0,0,0,0,0,0,0,0,0,0,0,0,0,0,0,0,0,0,0,0,0,0],"sum_hessian":[1.12E2,4.2E1,7E1,1.6E1,2.6E1,3.8E1,3.2E1,1.7E1,9E0,1.1E1,2.7E1,2.6E1,6E0,1.1E1,6E0,6E0,5E0,1.9E1,8E0,6E0,2E1,1.3E1,6E0,1.2E1,8E0,7E0,6E0,6E0,6E0],"tree_param":{"num_deleted":"0","num_feature":"3","num_nodes":"29","size_leaf_vector":"1"}},{"base_weights":[5.96831E-3,-9.664109E-2,6.13522E-2,-8.98032E-3,-8.108584E-2,2.7978431E-2,1.0196875E-1,-4.658664E-2,-1.1465523E-1,3.6470503E-2,-2.178931E-3,2.0339002E-3,1.1436631E-1,5.947658E-4,-6.285926E-3,-1.1446565E-2,-4.523271E-3,1.9701088E-2,7.109775E-3,1.3885488E-1,4.2301053E-3,5.5073565E-3,6.0177664E-3,6.676858E-2,1.5864903E-2,-2.0223461E-2,3.613105E-2,8.297701E-3,8.82978E-4,-2.83802E-3,7.179243E-4,8.667071E-4,4.4084997E-3],"categories":[],"categories_nodes":[],"categories_segments":[],"categories_sizes":[],"default_left":[0,0,0,0,0,0,0,0,0,0,0,0,0,0,0,0,0,0,0,0,0,0,0,0,0,0,0,0,0,0,0,0,0],"id":34,"left_children":[1,3,5,-1,7,9,11,13,15,17,-1,-1,19,-1,-1,-1,-1,21,-1,23,-1,-1,25,27,-1,29,31,-1,-1,-1,-1,-1,-1],"loss_changes":[6.480977E-1,4.661858E-3,9.74561E-2,0E0,2.5927767E-2,2.1400575E-2,2.7521163E-2,3.1106073E-2,1.7617509E-2,3.4322135E-2,0E0,0E0,3.1913757E-2,0E0,0E0,0E0,0E0,2.1614388E-2,0E0,8.541784E-2,0E0,0E0,2.0485934E-2,2.5235128E-2,0E0,7.7109113E-3,5.999895E-3,0E0,0E0,0E0,0E0,0E0,0E0],"parents":[2147483647,0,0,1,1,2,2,4,4,5,5,6,6,7,7,8,8,9,9,12,12,17,17,19,19,22,22,23,23,25,25,26,26],"right_children":[2,4,6,-1,8,10,12,14,16,18,-1,-1,20,-1,-1,-1,-1,22,-1,24,-1,-1,26,28,-1,30,32,-1,-1,-1,-1,-1,-1],"split_conditions":[3E0,3.4E0,5E0,-8.98032E-3,3.6E0,6.6E0,6.3E0,5.1E0,5.4E0,4.8E0,-2.178931E-3,2.0339002E-3,7E0,5.947658E-4,-6.285926E-3,-1.1446565E-2,-4.523271E-3,5.3E0,7.109775E-3,5.6E0,4.2301053E-3,5.5073565E-3,5.9E0,5.3E0,1.5864903E-2,2.9E0,2.9E0,8.297701E-3,8.82978E-4,-2.83802E-3,7.179243E-4,8.667071E-4,4.4084997E-3],"split_indices":[2,1,2,0,1,0,0,0,0,2,0,0,0,0,0,0,0,0,0,2,0,0,0,2,0,1,1,0,0,0,0,0,0],"split_type":[0,0,0,0,0,0,0,0,0,0,0,0,0,0,0,0,0,0,0,0,0,0,0,0,0,0,0,0,0,0,0,0,0],"sum_hessian":[1.12E2,3.9E1,7.3E1,1.3E1,2.6E1,4.1E1,3.2E1,1.4E1,1.2E1,3.6E1,5E0,5E0,2.7E1,6E0,8E0,6E0,6E0,2.9E1,7E0,1.8E1,9E0,5E0,2.4E1,1E1,8E0,1.3E1,1.1E1,5E0,5E0,8E0,5E0,6E0,5E0],"tree_param":{"num_deleted":"0","num_feature":"3","num_nodes":"33","size_leaf_vector":"1"}},{"base_weights":[5.6468947E-3,-8.526081E-2,6.0624138E-2,-7.900767E-3,-6.945831E-2,4.808842E-2,1.1499891E-2,-8.77929E-2,-2.2132667E-3,2.7136195E-2,7.579568E-2,-7.4554756E-3,-4.1506724E-3,6.649537E-2,8.638188E-3,1.12217814E-1,4.776985E-2,2.6763466E-3,6.851901E-3,-1.46168955E-2,4.927209E-3,1.0998385E-2,4.4315658E-3,-1.3646671E-3,8.540512E-2,4.923103E-3,-3.8706574E-3,8.686471E-3,3.056734E-3,-2.5940675E-3,3.703114E-3],"categories":[],"categories_nodes":[],"categories_segments":[],"categories_sizes":[],"default_left":[0,0,0,0,0,0,0,0,0,0,0,0,0,0,0,0,0,0,0,0,0,0,0,0,0,0,0,0,0,0,0],"id":35,"left_children":[1,3,5,-1,7,9,-1,11,-1,13,15,-1,-1,17,19,21,23,-1,-1,25,-1,-1,-1,-1,27,29,-1,-1,-1,-1,-1],"loss_changes":[5.6992644E-1,6.3293874E-3,7.513976E-2,0E0,1.7184868E-2,3.5097018E-2,0E0,1.2821555E-3,0E0,2.7092118E-2,2.2199929E-2,0E0,0E0,5.9325807E-3,3.6786225E-2,1.1455551E-2,4.375863E-2,0E0,0E0,1.4710498E-2,0E0,0E0,0E0,0E0,1.02172345E-2,2.629621E-2,0E0,0E0,0E0,0E0,0E0],"parents":[2147483647,0,0,1,1,2,2,4,4,5,5,7,7,9,9,10,10,13,13,14,14,15,15,16,16,19,19,24,24,25,25],"right_children":[2,4,6,-1,8,10,-1,12,-1,14,16,-1,-1,18,20,22,24,-1,-1,26,-1,-1,-1,-1,28,30,-1,-1,-1,-1,-1],"split_conditions":[3.6E0,5E0,3.3E0,-7.900767E-3,1.6E0,5E0,1.1499891E-2,5.4E0,-2.2132667E-3,5.7E0,5.5E0,-7.4554756E-3,-4.1506724E-3,4.3E0,3E0,2.8E0,6.6E0,2.6763466E-3,6.851901E-3,4.7E0,4.927209E-3,1.0998385E-2,4.4315658E-3,-1.3646671E-3,7.2E0,6.1E0,-3.8706574E-3,8.686471E-3,3.056734E-3,-2.5940675E-3,3.703114E-3],"split_indices":[2,0,1,0,2,2,0,0,0,0,2,0,0,2,1,1,0,0,0,2,0,0,0,0,0,0,0,0,0,0,0],"split_type":[0,0,0,0,0,0,0,0,0,0,0,0,0,0,0,0,0,0,0,0,0,0,0,0,0,0,0,0,0,0,0],"sum_hessian":[1.12E2,4.2E1,7E1,1.6E1,2.6E1,6.3E1,7E0,1.7E1,9E0,3.7E1,2.6E1,1.1E1,6E0,1.1E1,2.6E1,1E1,1.6E1,6E0,5E0,1.9E1,7E0,5E0,5E0,6E0,1E1,1.3E1,6E0,5E0,5E0,7E0,6E0],"tree_param":{"num_deleted":"0","num_feature":"3","num_nodes":"31","size_leaf_vector":"1"}},{"base_weights":[5.464802E-3,-7.93714E-2,5.6767505E-2,-6.70865E-2,-1.0256067E-1,4.5067765E-2,1.07452115E-2,-8.220277E-2,-2.6370204E-4,-1.0278057E-2,-4.0071784E-3,2.5408711E-2,7.1066886E-2,-6.77313E-3,-3.111267E-3,6.2302228E-2,8.070529E-3,8.9103176E-4,8.741157E-2,2.5042957E-3,6.423657E-3,-1.365871E-2,4.603861E-3,1.0895868E-1,3.4931675E-3,4.6330835E-3,-3.6218292E-3,3.960895E-3,1.1215493E-2,-2.4238322E-3,3.4650562E-3],"categories":[],"categories_nodes":[],"categories_segments":[],"categories_sizes":[],"default_left":[0,0,0,0,0,0,0,0,0,0,0,0,0,0,0,0,0,0,0,0,0,0,0,0,0,0,0,0,0,0,0],"id":36,"left_children":[1,3,5,7,9,11,-1,13,-1,-1,-1,15,17,-1,-1,19,21,-1,23,-1,-1,25,-1,27,-1,29,-1,-1,-1,-1,-1],"loss_changes":[4.9631858E-1,5.3693354E-3,6.539877E-2,2.9500365E-2,1.470086E-2,3.0905843E-2,0E0,4.505053E-3,0E0,0E0,0E0,2.3804516E-2,2.5080875E-2,0E0,0E0,5.2399635E-3,3.2117367E-2,0E0,1.3403028E-2,0E0,0E0,1.2893491E-2,0E0,2.1723062E-2,0E0,2.299655E-2,0E0,0E0,0E0,0E0,0E0],"parents":[2147483647,0,0,1,1,2,2,3,3,4,4,5,5,7,7,11,11,12,12,15,15,16,16,18,18,21,21,23,23,25,25],"right_children":[2,4,6,8,10,12,-1,14,-1,-1,-1,16,18,-1,-1,20,22,-1,24,-1,-1,26,-1,28,-1,30,-1,-1,-1,-1,-1],"split_conditions":[3.6E0,3.6E0,3.3E0,3.5E0,5.4E0,5E0,1.07452115E-2,5.1E0,-2.6370204E-4,-1.0278057E-2,-4.0071784E-3,5.7E0,6.4E0,-6.77313E-3,-3.111267E-3,4.3E0,3E0,8.9103176E-4,5.8E0,2.5042957E-3,6.423657E-3,4.7E0,4.603861E-3,6.6E0,3.4931675E-3,6.1E0,-3.6218292E-3,3.960895E-3,1.1215493E-2,-2.4238322E-3,3.4650562E-3],"split_indices":[2,1,1,1,0,2,0,0,0,0,0,0,0,0,0,2,1,0,2,0,0,2,0,0,0,0,0,0,0,0,0],"split_type":[0,0,0,0,0,0,0,0,0,0,0,0,0,0,0,0,0,0,0,0,0,0,0,0,0,0,0,0,0,0,0],"sum_hessian":[1.12E2,4.2E1,7E1,3E1,1.2E1,6.3E1,7E0,2.4E1,6E0,6E0,6E0,3.7E1,2.6E1,1.9E1,5E0,1.1E1,2.6E1,6E0,2E1,6E0,5E0,1.9E1,7E0,1.2E1,8E0,1.3E1,6E0,6E0,6E0,7E0,6E0],"tree_param":{"num_deleted":"0","num_feature":"3","num_nodes":"31","size_leaf_vector":"1"}},{"base_weights":[5.2038287E-3,-7.876407E-2,5.052156E-2,-7.365834E-3,-6.576323E-2,2.3337789E-2,8.358813E-2,-3.5202034E-2,-9.596744E-2,3.167232E-2,-2.3961093E-3,1.188786E-3,9.511805E-2,1.2289473E-3,-5.3561023E-3,-9.617322E-3,-3.7495713E-3,1.6088651E-2,6.461403E-3,1.1836985E-1,3.1070884E-3,5.2947546E-3,2.363168E-3,5.2359264E-2,1.3942294E-2,-2.1761024E-2,3.0311128E-2,7.067865E-3,1.3153405E-4,-2.7217013E-3,2.743725E-4,6.378225E-4,3.8025433E-3],"categories":[],"categories_nodes":[],"categories_segments":[],"categories_sizes":[],"default_left":[0,0,0,0,0,0,0,0,0,0,0,0,0,0,0,0,0,0,0,0,0,0,0,0,0,0,0,0,0,0,0,0,0],"id":37,"left_children":[1,3,5,-1,7,9,11,13,15,17,-1,-1,19,-1,-1,-1,-1,21,-1,23,-1,-1,25,27,-1,29,31,-1,-1,-1,-1,-1,-1],"loss_changes":[4.3397084E-1,3.6544502E-3,6.456594E-2,0E0,2.1544822E-2,2.0364722E-2,2.4265662E-2,2.9192282E-2,1.2871511E-2,3.0026704E-2,0E0,0E0,3.0051202E-2,0E0,0E0,0E0,0E0,2.2277663E-2,0E0,7.495946E-2,0E0,0E0,1.751515E-2,2.3147067E-2,0E0,5.3029605E-3,4.9043773E-3,0E0,0E0,0E0,0E0,0E0,0E0],"parents":[2147483647,0,0,1,1,2,2,4,4,5,5,6,6,7,7,8,8,9,9,12,12,17,17,19,19,22,22,23,23,25,25,26,26],"right_children":[2,4,6,-1,8,10,12,14,16,18,-1,-1,20,-1,-1,-1,-1,22,-1,24,-1,-1,26,28,-1,30,32,-1,-1,-1,-1,-1,-1],"split_conditions":[3E0,3.4E0,5E0,-7.365834E-3,3.6E0,6.6E0,6.3E0,5.1E0,5.4E0,4.8E0,-2.3961093E-3,1.188786E-3,7E0,1.2289473E-3,-5.3561023E-3,-9.617322E-3,-3.7495713E-3,5.3E0,6.461403E-3,5.6E0,3.1070884E-3,5.2947546E-3,5.9E0,5.3E0,1.3942294E-2,2.9E0,2.9E0,7.067865E-3,1.3153405E-4,-2.7217013E-3,2.743725E-4,6.378225E-4,3.8025433E-3],"split_indices":[2,1,2,0,1,0,0,0,0,2,0,0,0,0,0,0,0,0,0,2,0,0,0,2,0,1,1,0,0,0,0,0,0],"split_type":[0,0,0,0,0,0,0,0,0,0,0,0,0,0,0,0,0,0,0,0,0,0,0,0,0,0,0,0,0,0,0,0,0],"sum_hessian":[1.12E2,3.9E1,7.3E1,1.3E1,2.6E1,4.1E1,3.2E1,1.4E1,1.2E1,3.6E1,5E0,5E0,2.7E1,6E0,8E0,6E0,6E0,2.9E1,7E0,1.8E1,9E0,5E0,2.4E1,1E1,8E0,1.3E1,1.1E1,5E0,5E0,8E0,5E0,6E0,5E0],"tree_param":{"num_deleted":"0","num_feature":"3","num_nodes":"33","size_leaf_vector":"1"}},{"base_weights":[4.919129E-3,-6.943913E-2,4.988372E-2,-5.866153E-2,-8.9798085E-2,3.9265648E-2,9.644463E-3,-7.257775E-2,-4.353864E-5,-9.461451E-3,-3.8480537E-3,-1.8709985E-3,4.5130193E-2,-5.9896065E-3,-2.7151946E-3,9.692928E-3,3.3169962E-2,5.4912074E-3,6.1702088E-2,-3.3011376E-3,2.7494514E-2,-9.719468E-4,8.989098E-2,2.157495E-3,5.5680578E-3,1.1113294E-1,2.8200038E-3,3.4433228E-3,-2.7297363E-3,3.8745862E-3,1.2892989E-2],"categories":[],"categories_nodes":[],"categories_segments":[],"categories_sizes":[],"default_left":[0,0,0,0,0,0,0,0,0,0,0,0,0,0,0,0,0,0,0,0,0,0,0,0,0,0,0,0,0,0,0],"id":38,"left_children":[1,3,5,7,9,11,-1,13,-1,-1,-1,-1,15,-1,-1,-1,17,19,21,-1,23,-1,25,27,-1,29,-1,-1,-1,-1,-1],"loss_changes":[3.812781E-1,4.167378E-3,5.4288194E-2,2.5014192E-2,1.1718512E-2,2.5226705E-2,0E0,3.7323982E-3,0E0,0E0,0E0,0E0,5.506485E-2,0E0,0E0,0E0,4.1517064E-2,3.1710688E-2,5.588509E-2,0E0,2.352804E-2,0E0,1.6925871E-2,2.5287183E-2,0E0,3.8105175E-2,0E0,0E0,0E0,0E0,0E0],"parents":[2147483647,0,0,1,1,2,2,3,3,4,4,5,5,7,7,12,12,16,16,17,17,18,18,20,20,22,22,23,23,25,25],"right_children":[2,4,6,8,10,12,-1,14,-1,-1,-1,-1,16,-1,-1,-1,18,20,22,-1,24,-1,26,28,-1,30,-1,-1,-1,-1,-1],"split_conditions":[3.6E0,3.6E0,3.3E0,3.5E0,5.3E0,2.5E0,9.644463E-3,5.1E0,-4.353864E-5,-9.461451E-3,-3.8480537E-3,-1.8709985E-3,2.6E0,-5.9896065E-3,-2.7151946E-3,9.692928E-3,6.4E0,2.8E0,5.1E0,-3.3011376E-3,4.8E0,-9.719468E-4,7E0,4.3E0,5.5680578E-3,6.6E0,2.8200038E-3,3.4433228E-3,-2.7297363E-3,3.8745862E-3,1.2892989E-2],"split_indices":[2,1,1,1,0,1,0,0,0,0,0,0,1,0,0,0,0,1,2,0,2,0,0,2,0,0,0,0,0,0,0],"split_type":[0,0,0,0,0,0,0,0,0,0,0,0,0,0,0,0,0,0,0,0,0,0,0,0,0,0,0,0,0,0,0],"sum_hessian":[1.12E2,4.2E1,7E1,3E1,1.2E1,6.3E1,7E0,2.4E1,6E0,5E0,7E0,5E0,5.8E1,1.9E1,5E0,6E0,5.2E1,2.7E1,2.5E1,8E0,1.9E1,7E0,1.8E1,1.3E1,6E0,1.2E1,6E0,6E0,7E0,7E0,5E0],"tree_param":{"num_deleted":"0","num_feature":"3","num_nodes":"31","size_leaf_vector":"1"}},{"base_weights":[4.70067E-3,-6.474419E-2,4.6692617E-2,-5.454415E-2,-8.4087044E-2,3.6780387E-2,9.011542E-3,-6.748264E-2,-4.0741477E-5,-8.870113E-3,-3.5955238E-3,7.14993E-2,2.4692977E-2,-5.5628503E-3,-2.545493E-3,1.5898531E-3,9.9858055E-3,-3.186272E-2,4.822562E-2,-8.11547E-3,5.313382E-3,7.045334E-3,6.940467E-2,3.7446371E-3,-3.847983E-3,8.547249E-2,2.6185007E-3,3.40314E-3,9.361184E-3],"categories":[],"categories_nodes":[],"categories_segments":[],"categories_sizes":[],"default_left":[0,0,0,0,0,0,0,0,0,0,0,0,0,0,0,0,0,0,0,0,0,0,0,0,0,0,0,0,0],"id":39,"left_children":[1,3,5,7,9,11,-1,13,-1,-1,-1,15,17,-1,-1,-1,-1,19,21,-1,-1,23,25,-1,-1,27,-1,-1,-1],"loss_changes":[3.3254522E-1,3.897339E-3,4.728043E-2,2.1622762E-2,1.0392167E-2,2.5092825E-2,0E0,3.091544E-3,0E0,0E0,0E0,4.6790555E-2,6.675094E-2,0E0,0E0,0E0,0E0,1.2528208E-1,3.0036598E-2,0E0,0E0,3.5091665E-2,9.762473E-3,0E0,0E0,1.7999858E-2,0E0,0E0,0E0],"parents":[2147483647,0,0,1,1,2,2,3,3,4,4,5,5,7,7,11,11,12,12,17,17,18,18,21,21,22,22,25,25],"right_children":[2,4,6,8,10,12,-1,14,-1,-1,-1,16,18,-1,-1,-1,-1,20,22,-1,-1,24,26,-1,-1,28,-1,-1,-1],"split_conditions":[3.6E0,3.6E0,3.3E0,3.5E0,5.3E0,5.8E0,9.011542E-3,5.1E0,-4.0741477E-5,-8.870113E-3,-3.5955238E-3,4.5E0,6.2E0,-5.5628503E-3,-2.545493E-3,1.5898531E-3,9.9858055E-3,2.9E0,5E0,-8.11547E-3,5.313382E-3,4.8E0,5.8E0,3.7446371E-3,-3.847983E-3,6.6E0,2.6185007E-3,3.40314E-3,9.361184E-3],"split_indices":[2,1,1,1,0,0,0,0,0,0,0,2,0,0,0,0,0,1,2,0,0,2,2,0,0,0,0,0,0],"split_type":[0,0,0,0,0,0,0,0,0,0,0,0,0,0,0,0,0,0,0,0,0,0,0,0,0,0,0,0,0],"sum_hessian":[1.12E2,4.2E1,7E1,3E1,1.2E1,6.3E1,7E0,2.4E1,6E0,5E0,7E0,1.5E1,4.8E1,1.9E1,5E0,9E0,6E0,1.4E1,3.4E1,8E0,6E0,1.2E1,2.2E1,7E0,5E0,1.4E1,8E0,8E0,6E0],"tree_param":{"num_deleted":"0","num_feature":"3","num_nodes":"29","size_leaf_vector":"1"}},{"base_weights":[4.4583003E-3,-6.44357E-2,4.163805E-2,-6.048311E-3,-5.3644806E-2,3.258306E-2,8.420162E-3,-1.2539122E-3,-7.117897E-2,-2.0849921E-3,4.009107E-2,-6.5343403E-3,-3.7282556E-3,8.377692E-3,2.8525358E-2,3.981826E-3,5.3859726E-2,-2.8182257E-3,2.248391E-2,-1.0641981E-3,7.9677224E-2,-7.941063E-4,4.9370965E-3,9.871525E-2,2.470383E-3,3.1838524E-3,-2.890097E-3,3.4043414E-3,1.1502108E-2],"categories":[],"categories_nodes":[],"categories_segments":[],"categories_sizes":[],"default_left":[0,0,0,0,0,0,0,0,0,0,0,0,0,0,0,0,0,0,0,0,0,0,0,0,0,0,0,0,0],"id":40,"left_children":[1,3,5,-1,7,9,-1,-1,11,-1,13,-1,-1,-1,15,17,19,-1,21,-1,23,25,-1,27,-1,-1,-1,-1,-1],"loss_changes":[2.9212812E-1,2.670005E-3,4.3669432E-2,0E0,1.6291559E-2,3.1489365E-2,0E0,0E0,1.8310398E-3,0E0,4.650791E-2,0E0,0E0,0E0,3.2740667E-2,2.2374418E-2,4.6808816E-2,0E0,2.0231541E-2,0E0,1.365494E-2,2.4485338E-2,0E0,3.0920148E-2,0E0,0E0,0E0,0E0,0E0],"parents":[2147483647,0,0,1,1,2,2,4,4,5,5,8,8,10,10,14,14,15,15,16,16,18,18,20,20,21,21,23,23],"right_children":[2,4,6,-1,8,10,-1,-1,12,-1,14,-1,-1,-1,16,18,20,-1,22,-1,24,26,-1,28,-1,-1,-1,-1,-1],"split_conditions":[3E0,3.4E0,3.3E0,-6.048311E-3,5.1E0,2.5E0,8.420162E-3,-1.2539122E-3,5.4E0,-2.0849921E-3,2.6E0,-6.5343403E-3,-3.7282556E-3,8.377692E-3,6.4E0,2.8E0,5.1E0,-2.8182257E-3,4.8E0,-1.0641981E-3,7E0,4.3E0,4.9370965E-3,6.6E0,2.470383E-3,3.1838524E-3,-2.890097E-3,3.4043414E-3,1.1502108E-2],"split_indices":[2,1,1,0,0,1,0,0,0,0,1,0,0,0,0,1,2,0,2,0,0,2,0,0,0,0,0,0,0],"split_type":[0,0,0,0,0,0,0,0,0,0,0,0,0,0,0,0,0,0,0,0,0,0,0,0,0,0,0,0,0],"sum_hessian":[1.12E2,3.9E1,7.3E1,1.3E1,2.6E1,6.6E1,7E0,9E0,1.7E1,7E0,5.9E1,8E0,9E0,7E0,5.2E1,2.7E1,2.5E1,8E0,1.9E1,7E0,1.8E1,1.3E1,6E0,1.2E1,6E0,6E0,7E0,7E0,5E0],"tree_param":{"num_deleted":"0","num_feature":"3","num_nodes":"29","size_leaf_vector":"1"}},{"base_weights":[4.264405E-3,-6.004212E-2,3.896706E-2,-5.6270887E-3,-5.0047964E-2,3.051273E-2,7.867591E-3,-2.489446E-2,-7.522139E-2,-1.9481649E-3,3.753595E-2,1.7274679E-3,-4.4553936E-3,-8.105348E-3,-3.0885963E-3,7.827906E-3,2.6739255E-2,3.7693533E-3,5.044764E-2,2.3828924E-2,-2.6040575E-3,-9.943604E-4,7.4615985E-2,-1.2379906E-3,3.278627E-3,9.2458226E-2,2.3115731E-3,3.1809297E-3,1.07832225E-2],"categories":[],"categories_nodes":[],"categories_segments":[],"categories_sizes":[],"default_left":[0,0,0,0,0,0,0,0,0,0,0,0,0,0,0,0,0,0,0,0,0,0,0,0,0,0,0,0,0],"id":41,"left_children":[1,3,5,-1,7,9,-1,11,13,-1,15,-1,-1,-1,-1,-1,17,19,21,23,-1,-1,25,-1,-1,27,-1,-1,-1],"loss_changes":[2.545113E-1,2.2358E-3,3.804893E-2,0E0,1.5223801E-2,2.7555909E-2,0E0,2.6178446E-2,1.0086283E-2,0E0,4.0505722E-2,0E0,0E0,0E0,0E0,0E0,2.8672546E-2,2.2446025E-2,4.1020513E-2,1.596177E-2,0E0,0E0,1.1996962E-2,0E0,0E0,2.7289435E-2,0E0,0E0,0E0],"parents":[2147483647,0,0,1,1,2,2,4,4,5,5,7,7,8,8,10,10,16,16,17,17,18,18,19,19,22,22,25,25],"right_children":[2,4,6,-1,8,10,-1,12,14,-1,16,-1,-1,-1,-1,-1,18,20,22,24,-1,-1,26,-1,-1,28,-1,-1,-1],"split_conditions":[3E0,3.4E0,3.3E0,-5.6270887E-3,3.6E0,2.5E0,7.867591E-3,5.1E0,5.3E0,-1.9481649E-3,2.6E0,1.7274679E-3,-4.4553936E-3,-8.105348E-3,-3.0885963E-3,7.827906E-3,6.4E0,6.1E0,5.1E0,2.8E0,-2.6040575E-3,-9.943604E-4,7E0,-1.2379906E-3,3.278627E-3,6.6E0,2.3115731E-3,3.1809297E-3,1.07832225E-2],"split_indices":[2,1,1,0,1,1,0,0,0,0,1,0,0,0,0,0,0,0,2,1,0,0,0,0,0,0,0,0,0],"split_type":[0,0,0,0,0,0,0,0,0,0,0,0,0,0,0,0,0,0,0,0,0,0,0,0,0,0,0,0,0],"sum_hessian":[1.12E2,3.9E1,7.3E1,1.3E1,2.6E1,6.6E1,7E0,1.4E1,1.2E1,7E0,5.9E1,6E0,8E0,5E0,7E0,7E0,5.2E1,2.7E1,2.5E1,1.8E1,9E0,7E0,1.8E1,6E0,1.2E1,1.2E1,6E0,7E0,5E0],"tree_param":{"num_deleted":"0","num_feature":"3","num_nodes":"29","size_leaf_vector":"1"}},{"base_weights":[4.023481E-3,-5.2735653E-2,3.8342062E-2,-4.3609746E-2,-7.044084E-2,3.028359E-2,7.3512816E-3,-5.5542015E-2,3.9265884E-4,-7.598761E-3,-2.8859072E-3,6.263246E-2,1.9102665E-2,-4.574174E-3,-2.109633E-3,1.2886352E-3,8.896085E-3,-2.8963141E-2,3.9156504E-2,-7.319676E-3,4.7562215E-3,1.7450437E-2,7.454751E-2,5.126073E-3,-4.533731E-3,8.220431E-3,2.162971E-3,3.6732366E-3,-3.0911028E-2,-6.0654837E-3,2.439743E-3],"categories":[],"categories_nodes":[],"categories_segments":[],"categories_sizes":[],"default_left":[0,0,0,0,0,0,0,0,0,0,0,0,0,0,0,0,0,0,0,0,0,0,0,0,0,0,0,0,0,0,0],"id":42,"left_children":[1,3,5,7,9,11,-1,13,-1,-1,-1,15,17,-1,-1,-1,-1,19,21,-1,-1,23,25,-1,27,-1,-1,-1,29,-1,-1],"loss_changes":[2.221339E-1,3.8758665E-3,3.1174846E-2,1.8358637E-2,8.930638E-3,2.1951739E-2,0E0,2.017498E-3,0E0,0E0,0E0,3.8672693E-2,4.836539E-2,0E0,0E0,0E0,0E0,1.0129268E-1,2.5586095E-2,0E0,0E0,2.604532E-2,1.7670713E-2,0E0,2.5508648E-2,0E0,0E0,0E0,4.066649E-2,0E0,0E0],"parents":[2147483647,0,0,1,1,2,2,3,3,4,4,5,5,7,7,11,11,12,12,17,17,18,18,21,21,22,22,24,24,28,28],"right_children":[2,4,6,8,10,12,-1,14,-1,-1,-1,16,18,-1,-1,-1,-1,20,22,-1,-1,24,26,-1,28,-1,-1,-1,30,-1,-1],"split_conditions":[3.6E0,3.6E0,3.3E0,3.5E0,5.3E0,5.8E0,7.3512816E-3,5.1E0,3.9265884E-4,-7.598761E-3,-2.8859072E-3,4.5E0,6.2E0,-4.574174E-3,-2.109633E-3,1.2886352E-3,8.896085E-3,2.9E0,5.6E0,-7.319676E-3,4.7562215E-3,2.8E0,7E0,5.126073E-3,4.8E0,8.220431E-3,2.162971E-3,3.6732366E-3,6.8E0,-6.0654837E-3,2.439743E-3],"split_indices":[2,1,1,1,0,0,0,0,0,0,0,2,0,0,0,0,0,1,2,0,0,1,0,0,2,0,0,0,0,0,0],"split_type":[0,0,0,0,0,0,0,0,0,0,0,0,0,0,0,0,0,0,0,0,0,0,0,0,0,0,0,0,0,0,0],"sum_hessian":[1.12E2,4.2E1,7E1,3E1,1.2E1,6.3E1,7E0,2.4E1,6E0,5E0,7E0,1.5E1,4.8E1,1.9E1,5E0,9E0,6E0,1.4E1,3.4E1,8E0,6E0,2.2E1,1.2E1,6E0,1.6E1,6E0,6E0,5E0,1.1E1,6E0,5E0],"tree_param":{"num_deleted":"0","num_feature":"3","num_nodes":"31","size_leaf_vector":"1"}},{"base_weights":[3.8434388E-3,-5.247671E-2,3.4234826E-2,-5.513198E-3,-4.57877E-2,2.687611E-2,6.8688537E-3,-5.221752E-2,-1.437549E-3,-1.7055012E-3,3.304366E-2,-3.6325756E-2,-7.4351835E-3,6.9819153E-3,2.3356263E-2,-5.6794588E-2,-1.255458E-2,2.5418084E-3,4.487351E-2,-2.0232783E-3,-5.7859784E-3,2.1014186E-3,-3.8276734E-3,1.995597E-2,-2.309946E-3,-1.0557326E-3,6.7332774E-2,-9.645505E-4,2.7068546E-3,6.385752E-3,1.8477764E-3],"categories":[],"categories_nodes":[],"categories_segments":[],"categories_sizes":[],"default_left":[0,0,0,0,0,0,0,0,0,0,0,0,0,0,0,0,0,0,0,0,0,0,0,0,0,0,0,0,0,0,0],"id":43,"left_children":[1,3,5,-1,7,9,-1,11,-1,-1,13,15,-1,-1,17,19,21,23,25,-1,-1,-1,-1,27,-1,-1,29,-1,-1,-1,-1],"loss_changes":[1.952127E-1,2.261661E-3,2.8768145E-2,0E0,4.6475604E-3,2.125407E-2,0E0,1.578477E-2,0E0,0E0,3.2728553E-2,9.504899E-3,0E0,0E0,2.3623042E-2,4.5940652E-3,1.8604385E-2,1.687163E-2,3.5371087E-2,0E0,0E0,0E0,0E0,1.0524858E-2,0E0,0E0,1.2350619E-2,0E0,0E0,0E0,0E0],"parents":[2147483647,0,0,1,1,2,2,4,4,5,5,7,7,10,10,11,11,14,14,15,15,16,16,17,17,18,18,23,23,26,26],"right_children":[2,4,6,-1,8,10,-1,12,-1,-1,14,16,-1,-1,18,20,22,24,26,-1,-1,-1,-1,28,-1,-1,30,-1,-1,-1,-1],"split_conditions":[3E0,1.4E0,3.3E0,-5.513198E-3,5.4E0,2.5E0,6.8688537E-3,3.6E0,-1.437549E-3,-1.7055012E-3,2.6E0,3.4E0,-7.4351835E-3,6.9819153E-3,6.4E0,1.5E0,5.1E0,6.1E0,5.1E0,-2.0232783E-3,-5.7859784E-3,2.1014186E-3,-3.8276734E-3,2.8E0,-2.309946E-3,-1.0557326E-3,3.1E0,-9.645505E-4,2.7068546E-3,6.385752E-3,1.8477764E-3],"split_indices":[2,2,1,0,0,1,0,1,0,0,1,1,0,0,0,2,0,0,2,0,0,0,0,1,0,0,1,0,0,0,0],"split_type":[0,0,0,0,0,0,0,0,0,0,0,0,0,0,0,0,0,0,0,0,0,0,0,0,0,0,0,0,0,0,0],"sum_hessian":[1.12E2,3.9E1,7.3E1,7E0,3.2E1,6.6E1,7E0,2.5E1,7E0,7E0,5.9E1,2E1,5E0,7E0,5.2E1,1E1,1E1,2.7E1,2.5E1,5E0,5E0,5E0,5E0,1.8E1,9E0,7E0,1.8E1,6E0,1.2E1,1.2E1,6E0],"tree_param":{"num_deleted":"0","num_feature":"3","num_nodes":"31","size_leaf_vector":"1"}},{"base_weights":[3.5094586E-3,-4.9139004E-2,3.1920664E-2,-5.1513948E-3,-4.291146E-2,2.5037808E-2,6.418086E-3,-4.8953936E-2,-1.3432101E-3,-1.5935776E-3,3.0791914E-2,-3.4055416E-2,-6.9704833E-3,6.523728E-3,2.1729257E-2,-5.324497E-2,-1.1769912E-2,2.3308974E-3,4.1784056E-2,-1.896827E-3,-5.4243566E-3,1.9700797E-3,-3.5884427E-3,2.7817343E-3,-1.34271495E-2,-9.864505E-4,6.271615E-2,-5.3701438E-2,3.1322856E-3,7.972953E-2,1.6620316E-3,-1.7400442E-3,-5.413004E-3,2.48699E-3,9.640062E-3],"categories":[],"categories_nodes":[],"categories_segments":[],"categories_sizes":[],"default_left":[0,0,0,0,0,0,0,0,0,0,0,0,0,0,0,0,0,0,0,0,0,0,0,0,0,0,0,0,0,0,0,0,0,0,0],"id":44,"left_children":[1,3,5,-1,7,9,-1,11,-1,-1,13,15,-1,-1,17,19,21,23,25,-1,-1,-1,-1,-1,27,-1,29,31,-1,33,-1,-1,-1,-1,-1],"loss_changes":[1.7059466E-1,1.921624E-3,2.518496E-2,0E0,4.1087046E-3,1.8498477E-2,0E0,1.387332E-2,0E0,0E0,2.8664377E-2,8.353941E-3,0E0,0E0,2.0521205E-2,4.037736E-3,1.6351502E-2,1.5834514E-2,3.0723345E-2,0E0,0E0,0E0,0E0,0E0,4.6698302E-2,0E0,1.13429725E-2,5.0864555E-3,0E0,2.5284424E-2,0E0,0E0,0E0,0E0,0E0],"parents":[2147483647,0,0,1,1,2,2,4,4,5,5,7,7,10,10,11,11,14,14,15,15,16,16,17,17,18,18,24,24,26,26,27,27,29,29],"right_children":[2,4,6,-1,8,10,-1,12,-1,-1,14,16,-1,-1,18,20,22,24,26,-1,-1,-1,-1,-1,28,-1,30,32,-1,34,-1,-1,-1,-1,-1],"split_conditions":[3E0,1.4E0,3.3E0,-5.1513948E-3,5.4E0,2.5E0,6.418086E-3,3.6E0,-1.3432101E-3,-1.5935776E-3,2.6E0,3.4E0,-6.9704833E-3,6.523728E-3,6.4E0,1.5E0,5.1E0,5.7E0,5.1E0,-1.896827E-3,-5.4243566E-3,1.9700797E-3,-3.5884427E-3,2.7817343E-3,2.9E0,-9.864505E-4,7E0,4.6E0,3.1322856E-3,6.6E0,1.6620316E-3,-1.7400442E-3,-5.413004E-3,2.48699E-3,9.640062E-3],"split_indices":[2,2,1,0,0,1,0,1,0,0,1,1,0,0,0,2,0,0,2,0,0,0,0,0,1,0,0,2,0,0,0,0,0,0,0],"split_type":[0,0,0,0,0,0,0,0,0,0,0,0,0,0,0,0,0,0,0,0,0,0,0,0,0,0,0,0,0,0,0,0,0,0,0],"sum_hessian":[1.12E2,3.9E1,7.3E1,7E0,3.2E1,6.6E1,7E0,2.5E1,7E0,7E0,5.9E1,2E1,5E0,7E0,5.2E1,1E1,1E1,2.7E1,2.5E1,5E0,5E0,5E0,5E0,8E0,1.9E1,7E0,1.8E1,1.1E1,8E0,1.2E1,6E0,5E0,6E0,7E0,5E0],"tree_param":{"num_deleted":"0","num_feature":"3","num_nodes":"35","size_leaf_vector":"1"}},{"base_weights":[3.2507454E-3,-4.3319117E-2,3.1409245E-2,-4.813335E-3,-3.7480548E-2,2.4849802E-2,5.996898E-3,-2.8445944E-2,-5.5427745E-2,5.3703744E-2,1.4920968E-2,-1.762972E-2,-4.6171304E-3,-6.5348255E-3,-1.0864899E-3,8.526451E-2,-9.831217E-4,-2.610316E-2,3.2076422E-2,-4.9917135E-2,1.2195298E-3,3.235984E-3,8.487887E-3,-6.516025E-3,4.182595E-3,1.40306875E-2,6.1536074E-2,-1.7782734E-3,-5.085333E-3,4.565509E-3,-6.082844E-3,7.0159086E-3,1.5551876E-3,3.5354898E-3,-3.2187294E-2,-5.724761E-3,1.850794E-3],"categories":[],"categories_nodes":[],"categories_segments":[],"categories_sizes":[],"default_left":[0,0,0,0,0,0,0,0,0,0,0,0,0,0,0,0,0,0,0,0,0,0,0,0,0,0,0,0,0,0,0,0,0,0,0,0,0],"id":45,"left_children":[1,3,5,-1,7,9,-1,11,13,15,17,19,-1,-1,-1,21,-1,23,25,27,-1,-1,-1,-1,-1,29,31,-1,-1,-1,33,-1,-1,-1,35,-1,-1],"loss_changes":[1.4954175E-1,2.8313324E-3,2.062349E-2,0E0,4.260555E-3,1.7533794E-2,0E0,8.227568E-3,1.3015445E-2,3.48559E-2,3.5322886E-2,2.3790378E-2,0E0,0E0,0E0,8.046456E-3,0E0,7.948352E-2,1.7743342E-2,3.548801E-3,0E0,0E0,0E0,0E0,0E0,2.2040274E-2,1.5038125E-2,0E0,0E0,0E0,2.5136245E-2,0E0,0E0,0E0,3.200558E-2,0E0,0E0],"parents":[2147483647,0,0,1,1,2,2,4,4,5,5,7,7,8,8,9,9,10,10,11,11,15,15,17,17,18,18,19,19,25,25,26,26,30,30,34,34],"right_children":[2,4,6,-1,8,10,-1,12,14,16,18,20,-1,-1,-1,22,-1,24,26,28,-1,-1,-1,-1,-1,30,32,-1,-1,-1,34,-1,-1,-1,36,-1,-1],"split_conditions":[3.6E0,1.4E0,3.3E0,-4.813335E-3,3.6E0,5.8E0,5.996898E-3,1.7E0,5.4E0,2.9E0,6.2E0,3.4E0,-4.6171304E-3,-6.5348255E-3,-1.0864899E-3,4.3E0,-9.831217E-4,2.9E0,5.6E0,1.5E0,1.2195298E-3,3.235984E-3,8.487887E-3,-6.516025E-3,4.182595E-3,2.8E0,7E0,-1.7782734E-3,-5.085333E-3,4.565509E-3,4.8E0,7.0159086E-3,1.5551876E-3,3.5354898E-3,6.8E0,-5.724761E-3,1.850794E-3],"split_indices":[2,2,1,0,1,0,0,2,0,1,0,1,0,0,0,2,0,1,2,2,0,0,0,0,0,1,0,0,0,0,2,0,0,0,0,0,0],"split_type":[0,0,0,0,0,0,0,0,0,0,0,0,0,0,0,0,0,0,0,0,0,0,0,0,0,0,0,0,0,0,0,0,0,0,0,0,0],"sum_hessian":[1.12E2,4.2E1,7E1,7E0,3.5E1,6.3E1,7E0,2.5E1,1E1,1.5E1,4.8E1,2E1,5E0,5E0,5E0,1E1,5E0,1.4E1,3.4E1,1E1,1E1,5E0,5E0,8E0,6E0,2.2E1,1.2E1,5E0,5E0,6E0,1.6E1,6E0,6E0,5E0,1.1E1,6E0,5E0],"tree_param":{"num_deleted":"0","num_feature":"3","num_nodes":"37","size_leaf_vector":"1"}},{"base_weights":[3.0468132E-3,-4.3434758E-2,2.8130813E-2,-5.060892E-2,-3.284179E-2,1.3310193E-2,4.6140973E-2,-3.3437878E-2,-6.1970386E-3,1.3623387E-3,-5.2355792E-2,4.602332E-3,5.157879E-3,8.135766E-2,2.4834555E-2,-4.137033E-2,-9.991557E-4,-4.7355616E-3,-2.0589218E-3,-2.7216128E-3,1.7842587E-2,9.021607E-3,2.7274648E-3,5.6025665E-3,5.6389575E-3,-4.2759986E-3,-1.4124216E-3,2.9396875E-2,-2.3511248E-3,-2.944013E-3,3.3638015E-2,-3.161599E-3,8.168933E-3,3.4894838E-3,1.1357435E-3,-2.3050087E-3,2.086881E-3],"categories":[],"categories_nodes":[],"categories_segments":[],"categories_sizes":[],"default_left":[0,0,0,0,0,0,0,0,0,0,0,0,0,0,0,0,0,0,0,0,0,0,0,0,0,0,0,0,0,0,0,0,0,0,0,0,0],"id":46,"left_children":[1,3,5,7,9,11,13,15,-1,-1,17,-1,19,21,23,25,-1,-1,-1,-1,27,-1,-1,29,-1,-1,-1,31,-1,-1,33,35,-1,-1,-1,-1,-1],"loss_changes":[1.3297349E-1,1.377739E-3,1.9138057E-2,9.332433E-3,1.986242E-2,1.6137123E-2,2.2740789E-2,2.001943E-3,0E0,0E0,2.0268299E-3,0E0,2.009952E-2,1.664403E-2,2.0882692E-2,2.8044954E-3,0E0,0E0,0E0,0E0,1.7404156E-2,0E0,0E0,2.2698933E-2,0E0,0E0,0E0,6.2483307E-2,0E0,0E0,1.9174935E-3,1.6233644E-2,0E0,0E0,0E0,0E0,0E0],"parents":[2147483647,0,0,1,1,2,2,3,3,4,4,5,5,6,6,7,7,10,10,12,12,13,13,14,14,15,15,20,20,23,23,27,27,30,30,31,31],"right_children":[2,4,6,8,10,12,14,16,-1,-1,18,-1,20,22,24,26,-1,-1,-1,-1,28,-1,-1,30,-1,-1,-1,32,-1,-1,34,36,-1,-1,-1,-1,-1],"split_conditions":[3E0,3.5E0,5E0,1.6E0,5.1E0,5.3E0,5.5E0,3.4E0,-6.1970386E-3,1.3623387E-3,3.9E0,4.602332E-3,2.7E0,2.8E0,3.3E0,4.7E0,-9.991557E-4,-4.7355616E-3,-2.0589218E-3,-2.7216128E-3,6.6E0,9.021607E-3,2.7274648E-3,6.6E0,5.6389575E-3,-4.2759986E-3,-1.4124216E-3,4.8E0,-2.3511248E-3,-2.944013E-3,7.2E0,5.9E0,8.168933E-3,3.4894838E-3,1.1357435E-3,-2.3050087E-3,2.086881E-3],"split_indices":[2,1,2,2,0,0,2,1,0,0,1,0,1,1,1,0,0,0,0,0,0,0,0,0,0,0,0,2,0,0,0,0,0,0,0,0,0],"split_type":[0,0,0,0,0,0,0,0,0,0,0,0,0,0,0,0,0,0,0,0,0,0,0,0,0,0,0,0,0,0,0,0,0,0,0,0,0],"sum_hessian":[1.12E2,3.9E1,7.3E1,2.1E1,1.8E1,4.1E1,3.2E1,1.5E1,6E0,5E0,1.3E1,5E0,3.6E1,1.1E1,2.1E1,1E1,5E0,8E0,5E0,8E0,2.8E1,5E0,6E0,1.6E1,5E0,5E0,5E0,2.3E1,5E0,6E0,1E1,1.7E1,6E0,5E0,5E0,9E0,8E0],"tree_param":{"num_deleted":"0","num_feature":"3","num_nodes":"37","size_leaf_vector":"1"}},{"base_weights":[2.891164E-3,-3.831472E-2,2.7806118E-2,-4.36589E-3,-3.282883E-2,2.2024266E-2,5.293888E-3,-2.4411244E-2,-4.974051E-2,5.0360367E-2,1.2322187E-2,-1.3666414E-2,-4.3462208E-3,-6.016332E-3,-8.2298816E-4,7.890682E-2,-7.7761355E-4,-2.7120454E-2,2.8874114E-2,-4.342741E-2,1.300274E-3,3.1018716E-3,7.7478164E-3,-6.1776615E-3,3.5840631E-3,1.1863327E-2,5.674904E-2,-1.5072675E-3,-4.464002E-3,4.0786476E-3,-6.3421903E-3,6.97096E-3,1.688069E-3,3.3505165E-3,-3.1321544E-2,-5.4688468E-3,1.682089E-3],"categories":[],"categories_nodes":[],"categories_segments":[],"categories_sizes":[],"default_left":[0,0,0,0,0,0,0,0,0,0,0,0,0,0,0,0,0,0,0,0,0,0,0,0,0,0,0,0,0,0,0,0,0,0,0,0,0],"id":47,"left_children":[1,3,5,-1,7,9,-1,11,13,15,17,19,-1,-1,-1,21,-1,23,25,27,-1,-1,-1,-1,-1,29,31,-1,-1,-1,33,-1,-1,-1,35,-1,-1],"loss_changes":[1.17076E-1,2.7825758E-3,1.6006704E-2,0E0,3.910575E-3,1.6974274E-2,0E0,8.5775005E-3,1.21164955E-2,2.8555471E-2,3.2772813E-2,2.0129437E-2,0E0,0E0,0E0,5.8044717E-3,0E0,6.6014335E-2,1.592287E-2,2.9337704E-3,0E0,0E0,0E0,0E0,0E0,1.8148597E-2,1.4020745E-2,0E0,0E0,0E0,2.3063028E-2,0E0,0E0,0E0,2.8464776E-2,0E0,0E0],"parents":[2147483647,0,0,1,1,2,2,4,4,5,5,7,7,8,8,9,9,10,10,11,11,15,15,17,17,18,18,19,19,25,25,26,26,30,30,34,34],"right_children":[2,4,6,-1,8,10,-1,12,14,16,18,20,-1,-1,-1,22,-1,24,26,28,-1,-1,-1,-1,-1,30,32,-1,-1,-1,34,-1,-1,-1,36,-1,-1],"split_conditions":[3.6E0,1.4E0,3.3E0,-4.36589E-3,3.6E0,5.8E0,5.293888E-3,1.7E0,5.4E0,2.9E0,6.2E0,3.4E0,-4.3462208E-3,-6.016332E-3,-8.2298816E-4,4.3E0,-7.7761355E-4,2.9E0,5.6E0,1.5E0,1.300274E-3,3.1018716E-3,7.7478164E-3,-6.1776615E-3,3.5840631E-3,2.8E0,6.8E0,-1.5072675E-3,-4.464002E-3,4.0786476E-3,4.8E0,6.97096E-3,1.688069E-3,3.3505165E-3,6.8E0,-5.4688468E-3,1.682089E-3],"split_indices":[2,2,1,0,1,0,0,2,0,1,0,1,0,0,0,2,0,1,2,2,0,0,0,0,0,1,0,0,0,0,2,0,0,0,0,0,0],"split_type":[0,0,0,0,0,0,0,0,0,0,0,0,0,0,0,0,0,0,0,0,0,0,0,0,0,0,0,0,0,0,0,0,0,0,0,0,0],"sum_hessian":[1.12E2,4.2E1,7E1,7E0,3.5E1,6.3E1,7E0,2.5E1,1E1,1.5E1,4.8E1,2E1,5E0,5E0,5E0,1E1,5E0,1.4E1,3.4E1,1E1,1E1,5E0,5E0,8E0,6E0,2.2E1,1.2E1,5E0,5E0,6E0,1.6E1,5E0,7E0,5E0,1.1E1,6E0,5E0],"tree_param":{"num_deleted":"0","num_feature":"3","num_nodes":"37","size_leaf_vector":"1"}},{"base_weights":[2.7172714E-3,-3.837742E-2,2.4893899E-2,-4.540591E-2,-2.8219305E-2,1.1146069E-2,4.1636772E-2,-2.9906668E-2,-5.575964E-3,1.5204981E-3,-4.698619E-2,4.342049E-3,3.2640814E-3,7.658482E-2,2.068162E-2,-3.6097202E-2,-1.0179684E-3,-4.301988E-3,-1.7696009E-3,-2.6554398E-3,1.5152545E-2,8.4133865E-3,2.635147E-3,3.443711E-3,4.955657E-3,-3.8061158E-3,-1.1572496E-3,2.621558E-2,-2.3718767E-3,-2.7954455E-3,2.904103E-2,-3.7297974E-3,7.4604675E-3,3.0338878E-3,9.592541E-4,-2.1785647E-3,1.8611577E-3],"categories":[],"categories_nodes":[],"categories_segments":[],"categories_sizes":[],"default_left":[0,0,0,0,0,0,0,0,0,0,0,0,0,0,0,0,0,0,0,0,0,0,0,0,0,0,0,0,0,0,0,0,0,0,0,0,0],"id":48,"left_children":[1,3,5,7,9,11,13,15,-1,-1,17,-1,19,21,23,25,-1,-1,-1,-1,27,-1,-1,29,-1,-1,-1,31,-1,-1,33,35,-1,-1,-1,-1,-1],"loss_changes":[1.03936955E-1,1.5745237E-3,1.6569104E-2,7.644709E-3,1.8243616E-2,1.5286621E-2,2.258338E-2,1.1278903E-3,0E0,0E0,2.0437893E-3,0E0,1.754636E-2,1.3762668E-2,1.6987327E-2,2.5477046E-3,0E0,0E0,0E0,0E0,1.5836624E-2,0E0,0E0,1.8800322E-2,0E0,0E0,0E0,5.3020246E-2,0E0,0E0,1.5224228E-3,1.3729435E-2,0E0,0E0,0E0,0E0,0E0],"parents":[2147483647,0,0,1,1,2,2,3,3,4,4,5,5,6,6,7,7,10,10,12,12,13,13,14,14,15,15,20,20,23,23,27,27,30,30,31,31],"right_children":[2,4,6,8,10,12,14,16,-1,-1,18,-1,20,22,24,26,-1,-1,-1,-1,28,-1,-1,30,-1,-1,-1,32,-1,-1,34,36,-1,-1,-1,-1,-1],"split_conditions":[3E0,3.5E0,5E0,1.6E0,5.1E0,5.3E0,5.5E0,3.4E0,-5.575964E-3,1.5204981E-3,3.9E0,4.342049E-3,2.7E0,2.8E0,3.3E0,4.7E0,-1.0179684E-3,-4.301988E-3,-1.7696009E-3,-2.6554398E-3,6.6E0,8.4133865E-3,2.635147E-3,6.6E0,4.955657E-3,-3.8061158E-3,-1.1572496E-3,4.8E0,-2.3718767E-3,-2.7954455E-3,7.2E0,5.9E0,7.4604675E-3,3.0338878E-3,9.592541E-4,-2.1785647E-3,1.8611577E-3],"split_indices":[2,1,2,2,0,0,2,1,0,0,1,0,1,1,1,0,0,0,0,0,0,0,0,0,0,0,0,2,0,0,0,0,0,0,0,0,0],"split_type":[0,0,0,0,0,0,0,0,0,0,0,0,0,0,0,0,0,0,0,0,0,0,0,0,0,0,0,0,0,0,0,0,0,0,0,0,0],"sum_hessian":[1.12E2,3.9E1,7.3E1,2.1E1,1.8E1,4.1E1,3.2E1,1.5E1,6E0,5E0,1.3E1,5E0,3.6E1,1.1E1,2.1E1,1E1,5E0,8E0,5E0,8E0,2.8E1,5E0,6E0,1.6E1,5E0,5E0,5E0,2.3E1,5E0,6E0,1E1,1.7E1,6E0,5E0,5E0,9E0,8E0],"tree_param":{"num_deleted":"0","num_feature":"3","num_nodes":"37","size_leaf_vector":"1"}},{"base_weights":[2.5803056E-3,-3.391142E-2,2.4644583E-2,-4.3998767E-2,-2.4092318E-2,1.1835918E-2,3.9035294E-2,-1.5240879E-3,-4.35678E-3,-4.0626448E-2,2.3385823E-4,1.8808575E-2,-2.2236349E-3,5.302033E-2,-3.1119637E-4,-1.253891E-3,-3.818141E-3,-6.821199E-4,2.9217636E-2,2.1133706E-2,8.051961E-3,4.152288E-3,6.9808657E-3,3.6689385E-3,-1.2179883E-3,1.88871E-3,-1.297009E-3],"categories":[],"categories_nodes":[],"categories_segments":[],"categories_sizes":[],"default_left":[0,0,0,0,0,0,0,0,0,0,0,0,0,0,0,0,0,0,0,0,0,0,0,0,0,0,0],"id":49,"left_children":[1,3,5,7,9,11,13,-1,-1,15,-1,17,-1,19,-1,-1,-1,-1,21,23,-1,25,-1,-1,-1,-1,-1],"loss_changes":[9.181921E-2,3.1990632E-3,1.2625113E-2,5.4926537E-3,1.0924296E-2,1.1838645E-2,2.0149946E-2,0E0,0E0,2.836233E-3,0E0,1.0141009E-2,0E0,4.1048393E-2,0E0,0E0,0E0,0E0,3.9630696E-2,1.8447949E-2,0E0,9.00478E-3,0E0,0E0,0E0,0E0,0E0],"parents":[2147483647,0,0,1,1,2,2,3,3,4,4,5,5,6,6,9,9,11,11,13,13,18,18,19,19,21,21],"right_children":[2,4,6,8,10,12,14,-1,-1,16,-1,18,-1,20,-1,-1,-1,-1,22,24,-1,26,-1,-1,-1,-1,-1],"split_conditions":[3.6E0,1.5E0,5E0,4.9E0,3.5E0,6.6E0,7.2E0,-1.5240879E-3,-4.35678E-3,1.6E0,2.3385823E-4,2.7E0,-2.2236349E-3,3.1E0,-3.1119637E-4,-1.253891E-3,-3.818141E-3,-6.821199E-4,4.8E0,6.5E0,8.051961E-3,4.3E0,6.9808657E-3,3.6689385E-3,-1.2179883E-3,1.88871E-3,-1.297009E-3],"split_indices":[2,2,2,0,1,0,0,0,0,2,0,1,0,1,0,0,0,0,2,0,0,2,0,0,0,0,0],"split_type":[0,0,0,0,0,0,0,0,0,0,0,0,0,0,0,0,0,0,0,0,0,0,0,0,0,0,0],"sum_hessian":[1.12E2,4.2E1,7E1,1.9E1,2.3E1,3.8E1,3.2E1,8E0,1.1E1,1.4E1,9E0,3.3E1,5E0,2.4E1,8E0,5E0,9E0,9E0,2.4E1,1.6E1,8E0,1.8E1,6E0,9E0,7E0,9E0,9E0],"tree_param":{"num_deleted":"0","num_feature":"3","num_nodes":"27","size_leaf_vector":"1"}},{"base_weights":[2.4234068E-3,-3.3722065E-2,2.1928752E-2,-2.690102E-2,-4.5819547E-2,-1.371172E-3,2.6402775E-2,-4.0120468E-2,1.3866612E-3,-5.353104E-3,-1.5694299E-3,5.065253E-3,2.0478206E-2,-2.6161999E-2,-4.9720528E-3,-2.9439328E-3,3.617474E-2,-3.1989682E-2,-8.3381834E-4,-3.7688387E-3,1.8245064E-2,9.537609E-3,6.538462E-2,-3.4763562E-3,-9.222254E-4,2.6215862E-3,6.9774813E-3,2.7531119E-2,-2.7776824E-3,1.14406105E-2,3.977109E-3,-1.8436767E-3,2.477399E-3,5.1183964E-4,3.7665644E-3,5.317352E-3,-4.7704987E-3],"categories":[],"categories_nodes":[],"categories_segments":[],"categories_sizes":[],"default_left":[0,0,0,0,0,0,0,0,0,0,0,0,0,0,0,0,0,0,0,0,0,0,0,0,0,0,0,0,0,0,0,0,0,0,0,0,0],"id":50,"left_children":[1,3,5,7,9,-1,11,13,-1,-1,-1,-1,15,17,-1,19,21,23,-1,-1,25,27,29,-1,-1,-1,31,33,-1,-1,35,-1,-1,-1,-1,-1,-1],"loss_changes":[8.0407865E-2,2.0681024E-3,1.3795689E-2,1.7542576E-2,6.776586E-3,0E0,1.494493E-2,6.303165E-3,0E0,0E0,0E0,0E0,2.2165284E-2,1.047139E-3,0E0,2.5976665E-2,2.7386807E-2,2.5411826E-3,0E0,0E0,3.1450517E-3,1.7780002E-2,9.037877E-2,0E0,0E0,0E0,1.0679314E-2,6.704675E-3,0E0,0E0,5.426002E-2,0E0,0E0,0E0,0E0,0E0,0E0],"parents":[2147483647,0,0,1,1,2,2,3,3,4,4,6,6,7,7,12,12,13,13,15,15,16,16,17,17,20,20,21,21,22,22,26,26,27,27,30,30],"right_children":[2,4,6,8,10,-1,12,14,-1,-1,-1,-1,16,18,-1,20,22,24,-1,-1,26,28,30,-1,-1,-1,32,34,-1,-1,36,-1,-1,-1,-1,-1,-1],"split_conditions":[3E0,3.6E0,2.5E0,3.5E0,5.3E0,-1.371172E-3,2.6E0,1.6E0,1.3866612E-3,-5.353104E-3,-1.5694299E-3,5.065253E-3,6.2E0,3.4E0,-4.9720528E-3,2.8E0,5.6E0,4.7E0,-8.3381834E-4,-3.7688387E-3,4.3E0,5.4E0,6.8E0,-3.4763562E-3,-9.222254E-4,2.6215862E-3,4.6E0,3E0,-2.7776824E-3,1.14406105E-2,3.1E0,-1.8436767E-3,2.477399E-3,5.1183964E-4,3.7665644E-3,5.317352E-3,-4.7704987E-3],"split_indices":[2,1,1,1,0,0,1,2,0,0,0,0,0,1,0,1,2,0,0,0,2,2,0,0,0,0,2,1,0,0,1,0,0,0,0,0,0],"split_type":[0,0,0,0,0,0,0,0,0,0,0,0,0,0,0,0,0,0,0,0,0,0,0,0,0,0,0,0,0,0,0,0,0,0,0,0,0],"sum_hessian":[1.12E2,3.9E1,7.3E1,2.7E1,1.2E1,7E0,6.6E1,2.1E1,6E0,5E0,7E0,7E0,5.9E1,1.5E1,6E0,2.4E1,3.5E1,1E1,5E0,7E0,1.7E1,1.9E1,1.6E1,5E0,5E0,6E0,1.1E1,1.4E1,5E0,6E0,1E1,5E0,6E0,8E0,6E0,5E0,5E0],"tree_param":{"num_deleted":"0","num_feature":"3","num_nodes":"37","size_leaf_vector":"1"}},{"base_weights":[2.249873E-3,-3.1586412E-2,2.0509353E-2,-3.6763374E-3,-2.640345E-2,1.5600236E-2,4.4294656E-3,-3.149726E-2,-4.9111026E-4,3.7786435E-2,6.679052E-3,-1.933477E-2,-5.161232E-3,6.814956E-3,6.743013E-3,-2.982987E-2,2.2134904E-2,-2.881465E-2,2.8060251E-4,-2.0431664E-3,2.9923928E-3,-5.8463877E-3,2.7226976E-3,7.752457E-3,4.5878086E-2,5.947933E-4,-3.598524E-3,3.2807633E-3,-1.0727597E-2,5.42962E-3,9.605419E-4,-4.3679434E-3,1.616308E-2,4.5496006E-3,-2.327177E-3],"categories":[],"categories_nodes":[],"categories_segments":[],"categories_sizes":[],"default_left":[0,0,0,0,0,0,0,0,0,0,0,0,0,0,0,0,0,0,0,0,0,0,0,0,0,0,0,0,0,0,0,0,0,0,0],"id":51,"left_children":[1,3,5,-1,7,9,-1,11,-1,13,15,17,-1,19,-1,21,23,25,-1,-1,-1,-1,-1,27,29,-1,-1,-1,31,-1,-1,-1,33,-1,-1],"loss_changes":[7.046294E-2,2.3196153E-3,1.30829625E-2,0E0,3.131343E-3,1.30087435E-2,0E0,1.047069E-2,0E0,3.005796E-2,2.830983E-2,4.7017448E-3,0E0,1.5734471E-2,0E0,5.056625E-2,1.1596309E-2,1.0944216E-2,0E0,0E0,0E0,0E0,0E0,1.5766945E-2,1.0472976E-2,0E0,0E0,0E0,2.138325E-2,0E0,0E0,0E0,2.4981895E-2,0E0,0E0],"parents":[2147483647,0,0,1,1,2,2,4,4,5,5,7,7,9,9,10,10,11,11,13,13,15,15,16,16,17,17,23,23,24,24,28,28,32,32],"right_children":[2,4,6,-1,8,10,-1,12,-1,14,16,18,-1,20,-1,22,24,26,-1,-1,-1,-1,-1,28,30,-1,-1,-1,32,-1,-1,-1,34,-1,-1],"split_conditions":[3E0,1.4E0,3.3E0,-3.6763374E-3,5.4E0,5.8E0,4.4294656E-3,3.6E0,-4.9111026E-4,4.5E0,6.2E0,1.6E0,-5.161232E-3,2.7E0,6.743013E-3,2.9E0,5.6E0,4.9E0,2.8060251E-4,-2.0431664E-3,2.9923928E-3,-5.8463877E-3,2.7226976E-3,4.8E0,7E0,5.947933E-4,-3.598524E-3,3.2807633E-3,5E0,5.42962E-3,9.605419E-4,-4.3679434E-3,5.3E0,4.5496006E-3,-2.327177E-3],"split_indices":[2,2,1,0,0,0,0,1,0,2,0,2,0,1,0,1,2,0,0,0,0,0,0,2,0,0,0,0,2,0,0,0,2,0,0],"split_type":[0,0,0,0,0,0,0,0,0,0,0,0,0,0,0,0,0,0,0,0,0,0,0,0,0,0,0,0,0,0,0,0,0,0,0],"sum_hessian":[1.12E2,3.9E1,7.3E1,7E0,3.2E1,6.6E1,7E0,2.5E1,7E0,1.8E1,4.8E1,2E1,5E0,1.2E1,6E0,1.4E1,3.4E1,1.4E1,6E0,6E0,6E0,8E0,6E0,2.2E1,1.2E1,5E0,9E0,7E0,1.5E1,6E0,6E0,5E0,1E1,5E0,5E0],"tree_param":{"num_deleted":"0","num_feature":"3","num_nodes":"35","size_leaf_vector":"1"}},{"base_weights":[2.1207111E-3,-2.9518705E-2,1.919444E-2,-2.12758E-2,-3.841138E-2,1.4610724E-2,4.138782E-3,-3.6023423E-2,1.988478E-3,-4.064434E-3,-2.344229E-2,3.535731E-2,6.267951E-3,-1.6523964E-3,-3.567518E-3,-3.0187236E-3,-2.0459146E-4,6.376854E-3,6.309534E-3,-2.7800879E-2,2.0689795E-2,-1.9118198E-3,2.8000246E-3,-5.456629E-3,2.5476674E-3,7.2203847E-3,4.2928763E-2,3.4194512E-3,-9.004701E-3,5.4276334E-3,1.1612183E-3,2.9809321E-3,-3.262954E-2,-5.4649636E-3,1.4813599E-3],"categories":[],"categories_nodes":[],"categories_segments":[],"categories_sizes":[],"default_left":[0,0,0,0,0,0,0,0,0,0,0,0,0,0,0,0,0,0,0,0,0,0,0,0,0,0,0,0,0,0,0,0,0,0,0],"id":52,"left_children":[1,3,5,7,9,11,-1,13,-1,-1,15,17,19,-1,-1,-1,-1,21,-1,23,25,-1,-1,-1,-1,27,29,-1,31,-1,-1,-1,33,-1,-1],"loss_changes":[6.1609514E-2,2.114825E-3,1.1401124E-2,1.7164841E-2,2.981715E-3,1.1375015E-2,0E0,1.8591937E-3,0E0,0E0,3.7199012E-3,2.6317585E-2,2.4650626E-2,0E0,0E0,0E0,0E0,1.3776491E-2,0E0,4.4123545E-2,1.017414E-2,0E0,0E0,0E0,0E0,1.4730206E-2,9.383488E-3,0E0,2.0876154E-2,0E0,0E0,0E0,2.6730843E-2,0E0,0E0],"parents":[2147483647,0,0,1,1,2,2,3,3,4,4,5,5,7,7,10,10,11,11,12,12,17,17,19,19,20,20,25,25,26,26,28,28,32,32],"right_children":[2,4,6,8,10,12,-1,14,-1,-1,16,18,20,-1,-1,-1,-1,22,-1,24,26,-1,-1,-1,-1,28,30,-1,32,-1,-1,-1,34,-1,-1],"split_conditions":[3E0,5.1E0,3.3E0,3.5E0,5.3E0,5.8E0,4.138782E-3,1.5E0,1.988478E-3,-4.064434E-3,3.8E0,4.5E0,6.2E0,-1.6523964E-3,-3.567518E-3,-3.0187236E-3,-2.0459146E-4,2.7E0,6.309534E-3,2.9E0,5.6E0,-1.9118198E-3,2.8000246E-3,-5.456629E-3,2.5476674E-3,2.8E0,6.8E0,3.4194512E-3,4.8E0,5.4276334E-3,1.1612183E-3,2.9809321E-3,6.8E0,-5.4649636E-3,1.4813599E-3],"split_indices":[2,0,1,1,0,0,0,2,0,0,1,2,0,0,0,0,0,1,0,1,2,0,0,0,0,1,0,0,2,0,0,0,0,0,0],"split_type":[0,0,0,0,0,0,0,0,0,0,0,0,0,0,0,0,0,0,0,0,0,0,0,0,0,0,0,0,0,0,0,0,0,0,0],"sum_hessian":[1.12E2,3.9E1,7.3E1,2.2E1,1.7E1,6.6E1,7E0,1.7E1,5E0,7E0,1E1,1.8E1,4.8E1,9E0,8E0,5E0,5E0,1.2E1,6E0,1.4E1,3.4E1,6E0,6E0,8E0,6E0,2.2E1,1.2E1,6E0,1.6E1,5E0,7E0,5E0,1.1E1,6E0,5E0],"tree_param":{"num_deleted":"0","num_feature":"3","num_nodes":"35","size_leaf_vector":"1"}},{"base_weights":[2.022839E-3,9.819028E-3,-6.441334E-2,3.4344967E-3,8.354934E-3,-7.232956E-3,-1.2235523E-3,-2.4523485E-2,1.6319018E-2,-3.3629607E-2,-1.5282512E-4,4.0662778E-3,1.2388258E-2,-2.0348147E-2,-4.4387253E-3,-5.519666E-4,3.0326722E-2,-2.6372172E-2,-4.4345562E-4,-2.8160466E-3,7.819621E-3,6.626106E-2,-4.4252872E-4,-3.0622648E-3,-5.639091E-4,1.6712157E-2,-2.401348E-3,7.5956127E-3,2.008754E-3,9.385264E-4,-1.6471848E-3,-5.479908E-4,6.2212176E-3],"categories":[],"categories_nodes":[],"categories_segments":[],"categories_sizes":[],"default_left":[0,0,0,0,0,0,0,0,0,0,0,0,0,0,0,0,0,0,0,0,0,0,0,0,0,0,0,0,0,0,0,0,0],"id":53,"left_children":[1,3,5,7,-1,-1,-1,9,11,13,-1,-1,15,17,-1,19,21,23,-1,-1,25,27,29,-1,-1,31,-1,-1,-1,-1,-1,-1,-1],"loss_changes":[5.916071E-2,6.5768614E-2,1.6911872E-2,3.534204E-2,0E0,0E0,0E0,6.27899E-3,9.309202E-3,6.262237E-3,0E0,0E0,1.440866E-2,1.2354166E-3,0E0,1.1752859E-2,2.8776811E-2,2.6914156E-3,0E0,0E0,1.1517063E-2,1.3874665E-2,4.4570845E-3,0E0,0E0,4.197042E-2,0E0,0E0,0E0,0E0,0E0,0E0,0E0],"parents":[2147483647,0,0,1,1,2,2,3,3,7,7,8,8,9,9,12,12,13,13,15,15,16,16,17,17,20,20,21,21,22,22,25,25],"right_children":[2,4,6,8,-1,-1,-1,10,12,14,-1,-1,16,18,-1,20,22,24,-1,-1,26,28,30,-1,-1,32,-1,-1,-1,-1,-1,-1,-1],"split_conditions":[3.7E0,6.1E0,3.9E0,3E0,8.354934E-3,-7.232956E-3,-1.2235523E-3,3.5E0,5.3E0,1.6E0,-1.5282512E-4,4.0662778E-3,5E0,3.4E0,-4.4387253E-3,2.6E0,5.5E0,4.7E0,-4.4345562E-4,-2.8160466E-3,6.6E0,2.8E0,5.8E0,-3.0622648E-3,-5.639091E-4,4.8E0,-2.401348E-3,7.5956127E-3,2.008754E-3,9.385264E-4,-1.6471848E-3,-5.479908E-4,6.2212176E-3],"split_indices":[1,2,1,2,0,0,0,1,0,2,0,0,2,1,0,1,2,0,0,0,0,1,2,0,0,2,0,0,0,0,0,0,0],"split_type":[0,0,0,0,0,0,0,0,0,0,0,0,0,0,0,0,0,0,0,0,0,0,0,0,0,0,0,0,0,0,0,0,0],"sum_hessian":[1.12E2,1.01E2,1.1E1,9.6E1,5E0,6E0,5E0,3E1,6.6E1,2.1E1,9E0,5E0,6.1E1,1.5E1,6E0,3.6E1,2.5E1,1E1,5E0,6E0,3E1,1.1E1,1.4E1,5E0,5E0,2.5E1,5E0,5E0,6E0,9E0,5E0,1.9E1,6E0],"tree_param":{"num_deleted":"0","num_feature":"3","num_nodes":"33","size_leaf_vector":"1"}},{"base_weights":[1.912319E-3,9.211145E-3,-6.028707E-2,3.2259463E-3,7.832751E-3,-6.7679835E-3,-1.1470795E-3,-2.13292E-2,1.6220462E-2,-1.5151887E-2,-3.572351E-3,3.8646184E-2,8.566748E-3,-2.5925463E-2,2.2850798E-3,6.488718E-2,-1.1927506E-3,-2.745938E-3,1.9647393E-2,-9.534279E-4,-3.3005826E-2,2.8510122E-3,6.0709757E-3,2.8177022E-3,5.239102E-3,-3.2763465E-3,-1.365098E-3,1.1300018E-2,-2.5806464E-3,-1.0309608E-3,3.1249542E-3],"categories":[],"categories_nodes":[],"categories_segments":[],"categories_sizes":[],"default_left":[0,0,0,0,0,0,0,0,0,0,0,0,0,0,0,0,0,0,0,0,0,0,0,0,0,0,0,0,0,0,0],"id":54,"left_children":[1,3,5,7,-1,-1,-1,9,11,13,-1,15,17,19,-1,21,-1,-1,23,-1,25,-1,-1,27,-1,-1,-1,29,-1,-1,-1],"loss_changes":[5.1855344E-2,5.7797354E-2,1.4791667E-2,3.1296946E-2,0E0,0E0,0E0,4.802498E-3,1.06538925E-2,1.5042994E-2,0E0,2.3934867E-2,2.524949E-2,1.8257014E-3,0E0,1.6702004E-3,0E0,0E0,3.3602104E-2,0E0,1.5762988E-3,0E0,0E0,1.0177547E-2,0E0,0E0,0E0,2.0347117E-2,0E0,0E0,0E0],"parents":[2147483647,0,0,1,1,2,2,3,3,7,7,8,8,9,9,11,11,12,12,13,13,15,15,18,18,20,20,23,23,27,27],"right_children":[2,4,6,8,-1,-1,-1,10,12,14,-1,16,18,20,-1,22,-1,-1,24,-1,26,-1,-1,28,-1,-1,-1,30,-1,-1,-1],"split_conditions":[3.7E0,6.1E0,3.9E0,3.6E0,7.832751E-3,-6.7679835E-3,-1.1470795E-3,1.7E0,5.8E0,1.6E0,-3.572351E-3,2.9E0,2.7E0,4.9E0,2.2850798E-3,4.3E0,-1.1927506E-3,-2.745938E-3,5.6E0,-9.534279E-4,5.1E0,2.8510122E-3,6.0709757E-3,5.4E0,5.239102E-3,-3.2763465E-3,-1.365098E-3,3E0,-2.5806464E-3,-1.0309608E-3,3.1249542E-3],"split_indices":[1,2,1,2,0,0,0,2,0,2,0,1,1,0,0,2,0,0,2,0,0,0,0,2,0,0,0,1,0,0,0],"split_type":[0,0,0,0,0,0,0,0,0,0,0,0,0,0,0,0,0,0,0,0,0,0,0,0,0,0,0,0,0,0,0],"sum_hessian":[1.12E2,1.01E2,1.1E1,9.6E1,5E0,6E0,5E0,3.3E1,6.3E1,2.8E1,5E0,1.5E1,4.8E1,2.3E1,5E0,1E1,5E0,9E0,3.9E1,9E0,1.4E1,5E0,5E0,3E1,9E0,7E0,7E0,2.5E1,5E0,1.4E1,1.1E1],"tree_param":{"num_deleted":"0","num_feature":"3","num_nodes":"31","size_leaf_vector":"1"}},{"base_weights":[1.7934119E-3,8.6250715E-3,-5.6425143E-2,3.013413E-3,7.343203E-3,-6.3328985E-3,-1.07539E-3,-2.177685E-2,1.4438557E-2,-3.0456305E-2,-3.7827194E-5,1.7889237E-2,-1.7718658E-3,-1.7524652E-2,-4.17476E-3,6.303526E-3,4.0208787E-2,-2.322366E-2,-3.1167717E-4,3.8345736E-3,-1.1356159E-3,1.0360807E-2,6.5562497E-3,-2.8112845E-3,-3.8196894E-4,-2.5784252E-3,6.4075883E-3,4.058119E-3,-4.2740367E-3,1.1136036E-3,-2.342675E-3],"categories":[],"categories_nodes":[],"categories_segments":[],"categories_sizes":[],"default_left":[0,0,0,0,0,0,0,0,0,0,0,0,0,0,0,0,0,0,0,0,0,0,0,0,0,0,0,0,0,0,0],"id":55,"left_children":[1,3,5,7,-1,-1,-1,9,11,13,-1,15,-1,17,-1,19,21,23,-1,-1,25,27,-1,-1,-1,-1,29,-1,-1,-1,-1],"loss_changes":[4.543009E-2,5.0810322E-2,1.2937196E-2,2.7787963E-2,0E0,0E0,0E0,5.708282E-3,9.2227245E-3,6.195862E-3,0E0,1.5778992E-2,0E0,1.1225268E-3,0E0,1.4063086E-2,2.8684538E-2,2.6531122E-3,0E0,0E0,9.498467E-3,4.4331692E-2,0E0,0E0,0E0,0E0,1.0313307E-2,0E0,0E0,0E0,0E0],"parents":[2147483647,0,0,1,1,2,2,3,3,7,7,8,8,9,9,11,11,13,13,15,15,16,16,17,17,20,20,21,21,26,26],"right_children":[2,4,6,8,-1,-1,-1,10,12,14,-1,16,-1,18,-1,20,22,24,-1,-1,26,28,-1,-1,-1,-1,30,-1,-1,-1,-1],"split_conditions":[3.7E0,6.1E0,3.9E0,3E0,7.343203E-3,-6.3328985E-3,-1.07539E-3,3.5E0,5.8E0,1.6E0,-3.7827194E-5,5E0,-1.7718658E-3,3.4E0,-4.17476E-3,5.3E0,6.6E0,4.7E0,-3.1167717E-4,3.8345736E-3,2.6E0,5.5E0,6.5562497E-3,-2.8112845E-3,-3.8196894E-4,-2.5784252E-3,6.6E0,4.058119E-3,-4.2740367E-3,1.1136036E-3,-2.342675E-3],"split_indices":[1,2,1,2,0,0,0,1,2,2,0,2,0,1,0,0,0,0,0,0,1,2,0,0,0,0,0,0,0,0,0],"split_type":[0,0,0,0,0,0,0,0,0,0,0,0,0,0,0,0,0,0,0,0,0,0,0,0,0,0,0,0,0,0,0],"sum_hessian":[1.12E2,1.01E2,1.1E1,9.6E1,5E0,6E0,5E0,3E1,6.6E1,2.1E1,9E0,6.1E1,5E0,1.5E1,6E0,4.1E1,2E1,1E1,5E0,5E0,3.6E1,1.3E1,7E0,5E0,5E0,6E0,3E1,8E0,5E0,2.5E1,5E0],"tree_param":{"num_deleted":"0","num_feature":"3","num_nodes":"31","size_leaf_vector":"1"}},{"base_weights":[1.6306945E-3,8.019569E-3,-5.2810628E-2,2.7552142E-3,6.8842536E-3,-5.9257858E-3,-1.0081783E-3,-1.9008126E-2,1.4273939E-2,-1.29377805E-2,-3.3885082E-3,3.512415E-2,7.1744015E-3,-2.3471376E-2,2.3514673E-3,5.9728246E-2,-1.187804E-3,-2.5079485E-2,2.214169E-2,-7.752961E-4,-3.066268E-2,2.6615125E-3,5.5511217E-3,-5.10729E-3,1.9837783E-3,3.414583E-2,-7.56212E-4,-3.0466085E-3,-1.265331E-3,2.693528E-3,7.548396E-3,3.717502E-3,-2.3730686E-3],"categories":[],"categories_nodes":[],"categories_segments":[],"categories_sizes":[],"default_left":[0,0,0,0,0,0,0,0,0,0,0,0,0,0,0,0,0,0,0,0,0,0,0,0,0,0,0,0,0,0,0,0,0],"id":56,"left_children":[1,3,5,7,-1,-1,-1,9,11,13,-1,15,17,19,-1,21,-1,23,25,-1,27,-1,-1,-1,-1,29,-1,-1,-1,31,-1,-1,-1],"loss_changes":[3.972704E-2,4.472884E-2,1.1315215E-2,2.4587855E-2,0E0,0E0,0E0,4.8171524E-3,9.221721E-3,1.4265556E-2,0E0,2.1007735E-2,2.4210207E-2,1.9498616E-3,0E0,1.1830777E-3,0E0,3.7268344E-2,1.3496421E-2,0E0,1.3748826E-3,0E0,0E0,0E0,0E0,5.2017927E-2,0E0,0E0,0E0,3.0536888E-2,0E0,0E0,0E0],"parents":[2147483647,0,0,1,1,2,2,3,3,7,7,8,8,9,9,11,11,12,12,13,13,15,15,17,17,18,18,20,20,25,25,29,29],"right_children":[2,4,6,8,-1,-1,-1,10,12,14,-1,16,18,20,-1,22,-1,24,26,-1,28,-1,-1,-1,-1,30,-1,-1,-1,32,-1,-1,-1],"split_conditions":[3.7E0,6.1E0,3.9E0,3.6E0,6.8842536E-3,-5.9257858E-3,-1.0081783E-3,1.7E0,5.8E0,1.6E0,-3.3885082E-3,2.9E0,6.2E0,4.9E0,2.3514673E-3,4.3E0,-1.187804E-3,2.9E0,6.8E0,-7.752961E-4,5.1E0,2.6615125E-3,5.5511217E-3,-5.10729E-3,1.9837783E-3,5.6E0,-7.56212E-4,-3.0466085E-3,-1.265331E-3,4.9E0,7.548396E-3,3.717502E-3,-2.3730686E-3],"split_indices":[1,2,1,2,0,0,0,2,0,2,0,1,0,0,0,2,0,1,0,0,0,0,0,0,0,2,0,0,0,2,0,0,0],"split_type":[0,0,0,0,0,0,0,0,0,0,0,0,0,0,0,0,0,0,0,0,0,0,0,0,0,0,0,0,0,0,0,0,0],"sum_hessian":[1.12E2,1.01E2,1.1E1,9.6E1,5E0,6E0,5E0,3.3E1,6.3E1,2.8E1,5E0,1.5E1,4.8E1,2.3E1,5E0,1E1,5E0,1.5E1,3.3E1,9E0,1.4E1,5E0,5E0,8E0,7E0,2.4E1,9E0,7E0,7E0,1.7E1,7E0,7E0,1E1],"tree_param":{"num_deleted":"0","num_feature":"3","num_nodes":"33","size_leaf_vector":"1"}},{"base_weights":[1.5602838E-3,7.543571E-3,-4.9427677E-2,2.609538E-3,6.453988E-3,-5.5448427E-3,-9.451688E-4,-1.9354455E-2,1.2733034E-2,-2.7632248E-2,5.941004E-5,1.6244132E-2,-1.9252867E-3,-1.5042774E-2,-3.9345543E-3,5.194143E-3,3.757058E-2,-2.0447882E-2,-1.9697101E-4,3.6193244E-3,-1.9295122E-3,1.0374405E-2,6.0350676E-3,-2.587119E-3,-2.2446514E-4,-2.469216E-3,5.1312326E-3,3.9253174E-3,-4.0724548E-3,9.805823E-4,-2.2608375E-3],"categories":[],"categories_nodes":[],"categories_segments":[],"categories_sizes":[],"default_left":[0,0,0,0,0,0,0,0,0,0,0,0,0,0,0,0,0,0,0,0,0,0,0,0,0,0,0,0,0,0,0],"id":57,"left_children":[1,3,5,7,-1,-1,-1,9,11,13,-1,15,-1,17,-1,19,21,23,-1,-1,25,27,-1,-1,-1,-1,29,-1,-1,-1,-1],"loss_changes":[3.4846406E-2,3.9287075E-2,9.896545E-3,2.1814622E-2,0E0,0E0,0E0,5.191737E-3,9.451178E-3,6.087549E-3,0E0,1.4415588E-2,0E0,1.0200983E-3,0E0,1.2977438E-2,2.3664515E-2,2.5938642E-3,0E0,0E0,8.265877E-3,4.083673E-2,0E0,0E0,0E0,0E0,9.080389E-3,0E0,0E0,0E0,0E0],"parents":[2147483647,0,0,1,1,2,2,3,3,7,7,8,8,9,9,11,11,13,13,15,15,16,16,17,17,20,20,21,21,26,26],"right_children":[2,4,6,8,-1,-1,-1,10,12,14,-1,16,-1,18,-1,20,22,24,-1,-1,26,28,-1,-1,-1,-1,30,-1,-1,-1,-1],"split_conditions":[3.7E0,6.1E0,3.9E0,3E0,6.453988E-3,-5.5448427E-3,-9.451688E-4,3.5E0,5.8E0,1.6E0,5.941004E-5,5E0,-1.9252867E-3,3.4E0,-3.9345543E-3,5.3E0,6.6E0,4.7E0,-1.9697101E-4,3.6193244E-3,2.6E0,5.5E0,6.0350676E-3,-2.587119E-3,-2.2446514E-4,-2.469216E-3,6.6E0,3.9253174E-3,-4.0724548E-3,9.805823E-4,-2.2608375E-3],"split_indices":[1,2,1,2,0,0,0,1,2,2,0,2,0,1,0,0,0,0,0,0,1,2,0,0,0,0,0,0,0,0,0],"split_type":[0,0,0,0,0,0,0,0,0,0,0,0,0,0,0,0,0,0,0,0,0,0,0,0,0,0,0,0,0,0,0],"sum_hessian":[1.12E2,1.01E2,1.1E1,9.6E1,5E0,6E0,5E0,3E1,6.6E1,2.1E1,9E0,6.1E1,5E0,1.5E1,6E0,4.1E1,2E1,1E1,5E0,5E0,3.6E1,1.3E1,7E0,5E0,5E0,6E0,3E1,8E0,5E0,2.5E1,5E0],"tree_param":{"num_deleted":"0","num_feature":"3","num_nodes":"31","size_leaf_vector":"1"}},{"base_weights":[1.4159407E-3,7.0111565E-3,-4.626139E-2,2.3823597E-3,6.050614E-3,-5.188385E-3,-8.860931E-4,-1.6960962E-2,1.2621274E-2,-1.10188145E-2,-3.2140885E-3,1.6138276E-2,-1.8049591E-3,-2.1316001E-2,2.4004802E-3,1.0610262E-2,4.176583E-3,-6.215465E-4,-2.8580746E-2,3.996558E-2,2.854011E-3,-2.8401834E-3,-1.1789841E-3,-5.547046E-4,6.0499725E-3,-1.12614045E-2,2.510473E-2,2.0691706E-3,-2.6803073E-3,-2.0397902E-3,4.2079147E-3],"categories":[],"categories_nodes":[],"categories_segments":[],"categories_sizes":[],"default_left":[0,0,0,0,0,0,0,0,0,0,0,0,0,0,0,0,0,0,0,0,0,0,0,0,0,0,0,0,0,0,0],"id":58,"left_children":[1,3,5,7,-1,-1,-1,9,11,13,-1,15,-1,17,-1,19,-1,-1,21,23,25,-1,-1,-1,-1,27,29,-1,-1,-1,-1],"loss_changes":[3.0468786E-2,3.4587182E-2,8.655729E-3,1.9425368E-2,0E0,0E0,0E0,4.759145E-3,8.646282E-3,1.3530372E-2,0E0,1.2308319E-2,0E0,2.034749E-3,0E0,1.19533595E-2,0E0,0E0,1.1965651E-3,2.180079E-2,1.3788074E-2,0E0,0E0,0E0,0E0,2.6660312E-2,2.9089738E-2,0E0,0E0,0E0,0E0],"parents":[2147483647,0,0,1,1,2,2,3,3,7,7,8,8,9,9,11,11,13,13,15,15,18,18,19,19,20,20,25,25,26,26],"right_children":[2,4,6,8,-1,-1,-1,10,12,14,-1,16,-1,18,-1,20,-1,-1,22,24,26,-1,-1,-1,-1,28,30,-1,-1,-1,-1],"split_conditions":[3.7E0,6.1E0,3.9E0,3.6E0,6.050614E-3,-5.188385E-3,-8.860931E-4,1.7E0,5.8E0,1.6E0,-3.2140885E-3,3.2E0,-1.8049591E-3,4.9E0,2.4004802E-3,2.6E0,4.176583E-3,-6.215465E-4,5.1E0,2.5E0,6.4E0,-2.8401834E-3,-1.1789841E-3,-5.547046E-4,6.0499725E-3,4.3E0,5.1E0,2.0691706E-3,-2.6803073E-3,-2.0397902E-3,4.2079147E-3],"split_indices":[1,2,1,2,0,0,0,2,2,2,0,1,0,0,0,1,0,0,0,1,0,0,0,0,0,2,2,0,0,0,0],"split_type":[0,0,0,0,0,0,0,0,0,0,0,0,0,0,0,0,0,0,0,0,0,0,0,0,0,0,0,0,0,0,0],"sum_hessian":[1.12E2,1.01E2,1.1E1,9.6E1,5E0,6E0,5E0,3.3E1,6.3E1,2.8E1,5E0,5.8E1,5E0,2.3E1,5E0,5.2E1,6E0,9E0,1.4E1,1E1,4.2E1,7E0,7E0,5E0,5E0,2.6E1,1.6E1,1E1,1.6E1,6E0,1E1],"tree_param":{"num_deleted":"0","num_feature":"3","num_nodes":"31","size_leaf_vector":"1"}},{"base_weights":[1.3446534E-3,6.583549E-3,-4.3298017E-2,2.2445966E-3,5.672452E-3,-4.854848E-3,-8.307129E-4,-1.7216751E-2,1.1215599E-2,-2.5116535E-2,1.4133364E-4,3.4121557E-3,7.7173025E-3,-1.2860745E-2,-3.7156271E-3,-5.760733E-3,1.8986294E-2,-1.799978E-2,-9.7179414E-5,1.2108495E-2,-3.2084513E-2,3.0654043E-2,-9.061279E-4,-2.386579E-3,-8.8390705E-5,-9.043653E-3,3.4979654E-3,-5.3706104E-3,1.4530347E-3,1.3090678E-3,6.9636363E-3,-2.2008985E-3,1.2111671E-3,3.6526765E-3,-2.495834E-3],"categories":[],"categories_nodes":[],"categories_segments":[],"categories_sizes":[],"default_left":[0,0,0,0,0,0,0,0,0,0,0,0,0,0,0,0,0,0,0,0,0,0,0,0,0,0,0,0,0,0,0,0,0,0,0],"id":59,"left_children":[1,3,5,7,-1,-1,-1,9,11,13,-1,-1,15,17,-1,19,21,23,-1,25,27,29,-1,-1,-1,31,-1,-1,-1,33,-1,-1,-1,-1,-1],"loss_changes":[2.6713302E-2,3.0389532E-2,7.570468E-3,1.7128114E-2,0E0,0E0,0E0,4.7250865E-3,7.683604E-3,5.94855E-3,0E0,0E0,9.526175E-3,9.2760543E-4,0E0,1.402968E-2,1.2695135E-2,2.5198974E-3,0E0,1.3569092E-2,2.5793146E-2,4.5505814E-2,0E0,0E0,0E0,