tree
version=v4
num_class=1
num_tree_per_iteration=1
label_index=0
max_feature_idx=28
objective=regression
feature_names=Column_0 Column_1 Column_2 Column_3 Column_4 Column_5 Column_6 Column_7 Column_8 Column_9 Column_10 Column_11 Column_12 Column_13 Column_14 Column_15 Column_16 Column_17 Column_18 Column_19 Column_20 Column_21 Column_22 Column_23 Column_24 Column_25 Column_26 Column_27 Column_28
feature_infos=[4.2999999999999998:7.9000000000000004] [2:4.4000000000000004] [1:6.9000000000000004] [0.15816064348156642:2.3302996575419397] [0.021389690836878472:2.5532692206676773] [0.023380192705997782:2.5546569161869352] [0.15891294663257427:2.4657688131306728] [0.20053804862103086:2.2708290336737074] [0.20053804862103086:2.2708290336737074] [0.20053804862103086:2.2708290336737074] [0.17814736578925561:2.4701099670562003] [0.13874569307334328:2.88008270288468] [0.16697993958467161:2.5032806173670012] [0.16182212531080764:2.4555139604621692] [0.19312237203121185:2.4318830966949463] [0.16706052215301792:2.4397561684722655] [0.23804448544979095:2.288923978805542] [0.14519126032360896:2.4817918858939128] [0.0021523801865148684:2.948589726423906] [0.15000000000000002:2.3833333333333333] [0.10000000000000001:2.3833333333333333] [0.17118570037096348:2.292824823463115] [0.26670213870126058:2.0359939393992632] [0.18235294117647063:2.2357142857142858] [0.15999999999999998:2.3599999999999999] [0.021561228155290824:2.3956963435794649] [0.18461538461538451:2.0958333333333332] [0.29847655285379593:1.9941052903172618] [0.36673468946832666:1.9713233294673773]
tree_sizes=1017 1010 1005 1020 1008 1013 1015 1010 892 1012 1014 1015 1011 1014 1012 1015 895 1019 1017 900 1018 1002 997 1018 1023 1019 1020 1125 906 1023 1240 1020 1143 1125 1143 1148 907 1152 918 1050 916 1155 917 1157 946 1158 1052 920 934 1161 1021 936 953 923 1038 1054 920 1162 1036 918 1043 925 1057 1041 1053 925 927 1162 1163 1043 1058 1163 1028 1048 1066 1043 1171 1169 1052

Tree=0
num_leaves=9
num_cat=0
split_feature=3 4 14 24 4 26 2 10
split_gain=90.8944 15.1025 1.58886 0.923132 0.213683 0.207055 0.162644 0.0479988
threshold=0.72798565528564241 1.6314988674813142 1.9707294106483462 1.2300000000000002 1.8124321092296443 0.30697940503432508 4.4500000000000011 0.27224639737870876
decision_type=2 2 2 2 2 2 2 2
left_child=5 3 4 -2 -3 7 -5 -1
right_child=1 2 -4 6 -6 -7 -8 -9
leaf_value=-0.063401927491123763 -0.0013183701140558825 0.042228271466704589 0.068640017859352032 0.011450945687504993 0.051950077963086358 -0.054251004836083402 0.020261475897588178 -0.058914236473826181
leaf_weight=13.000000000000002 11.999999999999998 10.000000000000002 14.999999999999998 10.000000000000002 12.999999999999998 18 10.999999999999998 10.999999999999998
leaf_count=13 12 10 15 10 13 18 11 11
internal_value=-4.2198e-09 0.0344901 0.0559798 0.0097444 0.0477232 -0.0583048 0.016066 -0.0613451
internal_weight=0 71 38 33 23 42 21 24
internal_count=113 71 38 33 23 42 21 24
is_linear=0
shrinkage=1


Tree=1
num_leaves=9
num_cat=0
split_feature=3 4 24 24 0 26 2 10
split_gain=82.0322 13.63 1.02226 0.833127 0.294933 0.186867 0.146786 0.0433189
threshold=0.72798565528564241 1.6314988674813142 2.0100000000000007 1.2300000000000002 6.3500000000000005 0.30697940503432508 4.4500000000000011 0.27224639737870876
decision_type=2 2 2 2 2 2 2 2
left_child=5 3 4 -2 -3 7 -5 -1
right_child=1 2 -4 6 -6 -7 -8 -9
leaf_value=-0.060231826397088843 -0.0012524476274847986 0.041592181416658242 0.063335804740587878 0.010878402553498742 0.053013703227043157 -0.051538451678223088 0.019248406724496323 -0.055968522483652285
leaf_weight=13.000000000000002 11.999999999999998 13.000000000000002 14.999999999999998 10.000000000000002 9.9999999999999982 18 10.999999999999998 10.999999999999998
leaf_count=13 12 13 15 10 10 18 11 11
internal_value=0 0.0327656 0.0531809 0.00925719 0.0465581 -0.0553895 0.0152627 -0.0582778
internal_weight=0 71 38 33 23 42 21 24
internal_count=113 71 38 33 23 42 21 24
is_linear=0
shrinkage=0.05


Tree=2
num_leaves=9
num_cat=0
split_feature=3 4 14 24 19 0 25 2
split_gain=74.0341 12.3011 1.35502 0.751897 0.191788 0.170121 0.182433 0.132474
threshold=0.72798565528564241 1.6314988674813142 1.9707294106483462 1.2300000000000002 1.7244047619047624 4.9500000000000011 0.28217320275568009 4.4500000000000011
decision_type=2 2 2 2 2 2 2 2
left_child=5 3 4 -2 -3 -1 -7 -5
right_child=1 2 -4 7 -6 6 -8 -9
leaf_value=-0.056294500662220852 -0.0011898249387741089 0.048102768063545215 0.062213268081347153 0.010334482360631225 0.0388924740254879 -0.05387415977624746 -0.045125140656124468 0.018285985561934386
leaf_weight=18 11.999999999999998 10.000000000000002 14.999999999999998 10.000000000000002 12.999999999999998 13.000000000000002 10.999999999999998 10.999999999999998
leaf_count=18 12 10 15 10 13 13 11 11
internal_value=0 0.0311273 0.0505218 0.00879433 0.0428969 -0.05262 -0.0498642 0.0144996
internal_weight=0 71 38 33 23 42 24 21
internal_count=113 71 38 33 23 42 24 21
is_linear=0
shrinkage=0.05


Tree=3
num_leaves=9
num_cat=0
split_feature=3 4 14 4 21 1 26 7
split_gain=66.8576 9.61922 1.2229 0.74502 0.398421 0.186301 0.0635068 0.058953
threshold=1.0774126387878675 1.6314988674813142 1.9707294106483462 0.32006253170005583 1.400033006764972 2.8500000000000001 0.30474613325364108 0.28392757432009486
decision_type=2 2 2 2 2 2 2 2
left_child=3 4 5 6 -2 -3 -1 -8
right_child=1 2 -4 -5 -6 -7 7 -9
leaf_value=-0.054058666278918588 0.0054169167454044022 0.045452206988226274 0.059102603395779933 -0.0366087231785059 0.017178749913970628 0.036443673074245453 -0.046720466613769517 -0.052024865963242274
leaf_weight=11.999999999999998 18.000000000000004 11.000000000000002 14.999999999999998 11.999999999999998 11.999999999999998 11.999999999999998 10.000000000000002 10.999999999999998
leaf_count=12 18 11 15 12 12 12 10 11
internal_value=0 0.0312866 0.0479957 -0.0472775 0.0101217 0.0407521 -0.051157 -0.049499
internal_weight=0 68 38 45 30 23 33 21
internal_count=113 68 38 45 30 23 33 21
is_linear=0
shrinkage=0.05


Tree=4
num_leaves=9
num_cat=0
split_feature=3 4 14 24 4 26 2 10
split_gain=60.549 9.95341 1.10367 0.60242 0.18165 0.156491 0.103391 0.030669
threshold=0.72798565528564241 1.6314988674813142 1.9707294106483462 1.2300000000000002 1.8124321092296443 0.30697940503432508 4.4500000000000011 0.27224639737870876
decision_type=2 2 2 2 2 2 2 2
left_child=5 3 4 -2 -3 7 -5 -1
right_child=1 2 -4 6 -6 -7 -8 -9
leaf_value=-0.051874338434292712 -0.00087585933506488804 0.033648140132427201 0.056147471865018207 0.0094881032221019249 0.042611694909059084 -0.044062870409753589 0.016512749005447736 -0.0482871261509982
leaf_weight=13.000000000000002 11.999999999999998 10.000000000000002 14.999999999999998 10.000000000000002 12.999999999999998 18 10.999999999999998 10.999999999999998
leaf_count=13 12 10 15 10 13 18 11 11
internal_value=0 0.0281501 0.0455959 0.00806094 0.0387145 -0.0475871 0.0131677 -0.0502302
internal_weight=0 71 38 33 23 42 21 24
internal_count=113 71 38 33 23 42 21 24
is_linear=0
shrinkage=0.05


Tree=5
num_leaves=9
num_cat=0
split_feature=4 4 14 4 19 26 22 10
split_gain=54.6455 8.98295 0.99606 0.548711 0.177616 0.141233 0.11327 0.0276787
threshold=0.75458376154300377 1.6314988674813142 1.9707294106483462 1.2467317028893359 1.7244047619047624 0.30697940503432508 1.4522773626896008 0.27224639737870876
decision_type=2 2 2 2 2 2 2 2
left_child=5 3 4 -2 -3 7 -5 -1
right_child=1 2 -4 6 -6 -7 -8 -9
leaf_value=-0.049280623518503618 -0.00087122457722822819 0.041788554787635795 0.053340097864468895 0.0086803118884563428 0.03292509357516582 -0.041859726359446847 0.016032908010211858 -0.045872770927169106
leaf_weight=13.000000000000002 11.999999999999998 10.000000000000002 14.999999999999998 10.000000000000002 12.999999999999998 18 10.999999999999998 10.999999999999998
leaf_count=13 12 10 15 10 13 18 11 11
internal_value=0 0.0267426 0.0433161 0.00765789 0.0367788 -0.0452077 0.0125317 -0.0477187
internal_weight=0 71 38 33 23 42 21 24
internal_count=113 71 38 33 23 42 21 24
is_linear=0
shrinkage=0.05


Tree=6
num_leaves=9
num_cat=0
split_feature=3 3 14 24 11 26 3 10
split_gain=49.3176 8.11432 0.897625 0.504074 0.169985 0.127463 0.082599 0.0249801
threshold=0.72798565528564241 1.6569641798688386 1.9707294106483462 1.2300000000000002 1.8310967033556662 0.30697940503432508 1.4295292969155842 0.27224639737870876
decision_type=2 2 2 2 2 2 2 2
left_child=5 3 4 -2 -3 7 -5 -1
right_child=1 2 -4 6 -6 -7 -8 -9
leaf_value=-0.046816591803844149 -0.00090789928411444041 0.03005040355026721 0.050673093994458518 0.0086494295392185432 0.038721379494437803 -0.039766740964518654 0.014928144453601404 -0.043579131906682798
leaf_weight=13.000000000000002 11.999999999999998 10.000000000000002 14.999999999999998 10.000000000000002 12.999999999999998 18 10.999999999999998 10.999999999999998
leaf_count=13 12 10 15 10 13 18 11 11
internal_value=0 0.0254055 0.0411573 0.00726694 0.0349514 -0.0429473 0.0119383 -0.0453328
internal_weight=0 71 38 33 23 42 21 24
internal_count=113 71 38 33 23 42 21 24
is_linear=0
shrinkage=0.05


Tree=7
num_leaves=9
num_cat=0
split_feature=3 4 14 18 20 0 25 2
split_gain=44.5091 7.33581 0.807795 0.467189 0.168095 0.116528 0.150771 0.0699408
threshold=0.72798565528564241 1.6314988674813142 1.9707294106483462 1.2561326241737509 1.7244047619047624 4.9500000000000011 0.28217320275568009 4.4500000000000011
decision_type=2 2 2 2 2 2 2 2
left_child=5 3 4 -2 -3 -1 -7 -5
right_child=1 2 -4 7 -6 6 -8 -9
leaf_value=-0.043841053214338094 -0.00098133108889063205 0.038098798394203173 0.048139437933762873 0.008359550216700878 0.029476170112880382 -0.042164557713728679 -0.034210899065841328 0.014137163521213967
leaf_weight=18 11.999999999999998 10.000000000000002 14.999999999999998 10.000000000000002 12.999999999999998 13.000000000000002 10.999999999999998 10.999999999999998
leaf_count=18 12 10 15 10 13 13 11 11
internal_value=0 0.0241352 0.0391124 0.00688874 0.0332251 -0.0408 -0.0385191 0.0113859
internal_weight=0 71 38 33 23 42 24 21
internal_count=113 71 38 33 23 42 24 21
is_linear=0
shrinkage=0.05


Tree=8
num_leaves=8
num_cat=0
split_feature=3 3 14 4 27 4 19
split_gain=40.2064 5.7451 0.725872 0.469169 0.242647 0.154542 0.0425179
threshold=1.0774126387878675 1.6569641798688386 1.9707294106483462 0.32006253170005583 1.4227190736066289 1.8124321092296443 0.21250000000000005
decision_type=2 2 2 2 2 2 2
left_child=3 4 5 6 -2 -3 -1
right_child=1 2 -4 -5 -6 -7 -8
leaf_value=-0.038000381518812743 0.0023981435408738129 0.026921601295471182 0.045732466578483587 -0.028196544510622819 0.011577057859136 0.035189310712023428 -0.0415914872661233
leaf_weight=17 12.000000000000002 10.000000000000002 14.999999999999998 11.999999999999998 18 12.999999999999998 15.999999999999998
leaf_count=17 12 10 15 12 18 13 16
internal_value=0 0.0242622 0.0371754 -0.0366629 0.00790549 0.0315947 -0.0397415
internal_weight=0 68 38 45 30 23 33
internal_count=113 68 38 45 30 23 33
is_linear=0
shrinkage=0.05


Tree=9
num_leaves=9
num_cat=0
split_feature=3 4 24 4 0 26 22 10
split_gain=36.4 5.95308 0.621963 0.373236 0.143941 0.109943 0.0756195 0.0187187
threshold=0.72798565528564241 1.6314988674813142 2.0100000000000007 1.2467317028893359 6.3500000000000005 0.30697940503432508 1.4522773626896008 0.27224639737870876
decision_type=2 2 2 2 2 2 2 2
left_child=5 3 4 -2 -3 7 -5 -1
right_child=1 2 -4 6 -6 -7 -8 -9
leaf_value=-0.040396493673324575 -0.00074447337538003928 0.026683140417131088 0.043239141007264455 0.0071626728295814228 0.034662238210439685 -0.033942661682764691 0.013170261985876345 -0.037593991648067128
leaf_weight=13.000000000000002 11.999999999999998 13.000000000000002 14.999999999999998 10.000000000000002 9.9999999999999982 18 10.999999999999998 10.999999999999998
leaf_count=13 12 13 15 10 10 18 11 11
internal_value=0 0.0218261 0.0353182 0.00628988 0.0301523 -0.0368966 0.0103095 -0.039112
internal_weight=0 71 38 33 23 42 21 24
internal_count=113 71 38 33 23 42 21 24
is_linear=0
shrinkage=0.05


Tree=10
num_leaves=9
num_cat=0
split_feature=3 3 14 24 7 26 2 27
split_gain=32.851 5.38626 0.612169 0.341054 0.170112 0.0992233 0.0498472 0.0174364
threshold=0.72798565528564241 1.6569641798688386 1.9707294106483462 1.2300000000000002 1.8651263012240225 0.30697940503432508 4.4500000000000011 0.43394556092356906
decision_type=2 2 2 2 2 2 2 2
left_child=5 3 4 -2 -3 7 -5 -1
right_child=1 2 -4 6 -6 -7 -8 -9
leaf_value=-0.038396116174184348 -0.00076753345007697746 0.032560439283649122 0.041426835556825005 0.00724421704187989 0.023952197656035425 -0.03224552936024136 0.01212178897112608 -0.035691308162429117
leaf_weight=13.000000000000002 11.999999999999998 12.000000000000002 14.999999999999998 10.000000000000002 10.999999999999998 18 10.999999999999998 10.999999999999998
leaf_count=13 12 12 15 10 11 18 11 11
internal_value=0 0.0207348 0.0335685 0.00595671 0.0284435 -0.0350517 0.00979914 -0.0371564
internal_weight=0 71 38 33 23 42 21 24
internal_count=113 71 38 33 23 42 21 24
is_linear=0
shrinkage=0.05


Tree=11
num_leaves=9
num_cat=0
split_feature=3 4 14 18 19 0 25 2
split_gain=29.648 4.86962 0.550903 0.313316 0.158849 0.0923971 0.126403 0.0426871
threshold=0.72798565528564241 1.6314988674813142 1.9707294106483462 1.2561326241737509 1.7244047619047624 4.9500000000000011 0.28217320275568009 4.4500000000000011
decision_type=2 2 2 2 2 2 2 2
left_child=5 3 4 -2 -3 -1 -7 -5
right_child=1 2 -4 7 -6 6 -8 -9
leaf_value=-0.036007130808300446 -0.00079842287426193565 0.031776642799377433 0.03935549408197403 0.0069651255290955286 0.023394523245783953 -0.034606045713791472 -0.027323437278920955 0.011478813238103283
leaf_weight=18 11.999999999999998 10.000000000000002 14.999999999999998 10.000000000000002 12.999999999999998 13.000000000000002 10.999999999999998 10.999999999999998
leaf_count=18 12 10 15 10 13 13 11 11
internal_value=0 0.0196981 0.0319007 0.00564658 0.0270389 -0.0332992 -0.0312682 0.00932944
internal_weight=0 71 38 33 23 42 24 21
internal_count=113 71 38 33 23 42 24 21
is_linear=0
shrinkage=0.05


Tree=12
num_leaves=9
num_cat=0
split_feature=3 4 24 4 25 25 19 1
split_gain=26.7601 3.81911 0.401344 0.32374 0.27249 0.230355 0.0367845 0.0313887
threshold=1.0774126387878675 1.6778897565148203 2.0100000000000007 0.32006253170005583 1.496557739125971 1.8406485056013415 0.21250000000000005 2.7500000000000004
decision_type=2 2 2 2 2 2 2 2
left_child=3 4 5 6 7 -3 -1 -2
right_child=1 2 -4 -5 -6 -7 -8 -9
leaf_value=-0.030848351120948792 0.0023128451102159236 0.03202873170375823 0.037482057909170786 -0.022877668496221304 0.013600946093599001 0.021296657100319864 -0.034188569243997338 0.0061833684798330074
leaf_weight=17 11.000000000000002 10.000000000000002 14.999999999999998 11.999999999999998 11.999999999999998 9.9999999999999982 15.999999999999998 9.9999999999999982
leaf_count=17 11 10 15 12 12 10 16 10
internal_value=0 0.0197937 0.0312996 -0.0299105 0.00759049 0.0266627 -0.0324679 0.00415595
internal_weight=0 68 35 45 33 20 33 21
internal_count=113 68 35 45 33 20 33 21
is_linear=0
shrinkage=0.05


Tree=13
num_leaves=9
num_cat=0
split_feature=5 5 14 5 1 26 22 27
split_gain=24.2468 3.95485 0.472131 0.251764 0.154164 0.0853772 0.0486 0.0147338
threshold=0.7567851339752163 1.6310032162212644 1.9707294106483462 1.2449566985142915 2.8500000000000001 0.30697940503432508 1.4522773626896008 0.43394556092356906
decision_type=2 2 2 2 2 2 2 2
left_child=5 3 4 -2 -3 7 -5 -1
right_child=1 2 -4 6 -6 -7 -8 -9
leaf_value=-0.033205447288659894 -0.00062681032965580634 0.028585305014117192 0.035711825837691627 0.005929125417023895 0.020390511117875577 -0.027510493662622239 0.010745292275466702 -0.030719082463871353
leaf_weight=13.000000000000002 11.999999999999998 11.000000000000002 14.999999999999998 10.000000000000002 11.999999999999998 18 10.999999999999998 10.999999999999998
leaf_count=13 12 11 15 10 12 18 11 11
internal_value=0 0.0178137 0.0288106 0.00515054 0.0243098 -0.0301136 0.00845188 -0.0320659
internal_weight=0 71 38 33 23 42 21 24
internal_count=113 71 38 33 23 42 21 24
is_linear=0
shrinkage=0.05


Tree=14
num_leaves=9
num_cat=0
split_feature=3 3 14 18 12 0 25 2
split_gain=21.8827 3.5889 0.422373 0.227415 0.14458 0.078638 0.106974 0.0278367
threshold=0.72798565528564241 1.6569641798688386 1.9707294106483462 1.2561326241737509 1.7635552940402153 4.9500000000000011 0.28217320275568009 4.4500000000000011
decision_type=2 2 2 2 2 2 2 2
left_child=5 3 4 -2 -3 -1 -7 -5
right_child=1 2 -4 7 -6 6 -8 -9
leaf_value=-0.031106105860736633 -0.00063093643014629686 0.027661653831601136 0.033926234394311909 0.0060883173812180738 0.0196648560034541 -0.029804852146368757 -0.023105286603624171 0.0097332743327239197
leaf_weight=18 11.999999999999998 10.000000000000002 14.999999999999998 10.000000000000002 12.999999999999998 13.000000000000002 10.999999999999998 10.999999999999998
leaf_count=18 12 10 15 10 13 13 11 11
internal_value=0 0.016923 0.0273988 0.00485994 0.0231417 -0.0286079 -0.0267342 0.00799758
internal_weight=0 71 38 33 23 42 24 21
internal_count=113 71 38 33 23 42 24 21
is_linear=0
shrinkage=0.05


Tree=15
num_leaves=9
num_cat=0
split_feature=3 3 24 24 25 0 25 2
split_gain=19.7491 3.23899 0.419984 0.212442 0.12498 0.0709708 0.096544 0.0235681
threshold=0.72798565528564241 1.6569641798688386 2.0100000000000007 1.2300000000000002 1.8406485056013415 4.9500000000000011 0.28217320275568009 4.4500000000000011
decision_type=2 2 2 2 2 2 2 2
left_child=5 3 4 -2 -3 -1 -7 -5
right_child=1 2 -4 7 -6 6 -8 -9
leaf_value=-0.029550800472497942 -0.00069009330278883385 0.025016462974823434 0.032537809113661449 0.00589274602010846 0.017581435899629697 -0.028314609940235425 -0.021950021995739505 0.0092466106722978031
leaf_weight=18 11.999999999999998 13.000000000000002 14.999999999999998 10.000000000000002 9.9999999999999982 13.000000000000002 10.999999999999998 10.999999999999998
leaf_count=18 12 13 15 10 10 13 11 11
internal_value=0 0.0160768 0.0260288 0.00461694 0.0217838 -0.0271775 -0.0253975 0.00764953
internal_weight=0 71 38 33 23 42 24 21
internal_count=113 71 38 33 23 42 24 21
is_linear=0
shrinkage=0.05


Tree=16
num_leaves=8
num_cat=0
split_feature=4 4 25 24 0 25 19
split_gain=17.8616 2.19212 0.567538 0.343785 0.131317 0.114096 0.07493
threshold=1.1512342026816473 1.6778897565148203 0.33757507262632763 1.8200000000000003 6.8500000000000005 1.496557739125971 0.19375000000000006
decision_type=2 2 2 2 2 2 2
left_child=2 5 6 -3 -5 -2 -1
right_child=1 3 -4 4 -6 -7 -8
leaf_value=-0.023990569263696672 0.0046470675979637431 0.01872321522484223 -0.013715825260927281 0.032476583925577306 0.024855402484536174 0.010941250870625179 -0.028552792469660443
leaf_weight=18 18.000000000000004 11.999999999999998 11.999999999999998 13.000000000000002 9.9999999999999982 11.999999999999998 18
leaf_count=18 18 12 12 13 10 12 18
internal_value=0 0.0170826 -0.0231327 0.0255837 0.029163 0.00716474 -0.0262717
internal_weight=0 65 48 35 23 30 36
internal_count=113 65 48 35 23 30 36
is_linear=0
shrinkage=0.05


Tree=17
num_leaves=9
num_cat=0
split_feature=3 4 3 14 24 26 22 27
split_gain=16.1738 2.63286 0.352174 0.171175 0.168203 0.0665055 0.0180163 0.00990058
threshold=0.72798565528564241 1.6314988674813142 2.0400030894194874 1.9191667437553408 1.2300000000000002 0.30697940503432508 1.4729028915683753 0.43394556092356906
decision_type=2 2 2 2 2 2 2 2
left_child=5 4 3 -3 -2 7 -6 -1
right_child=1 2 -4 -5 6 -7 -8 -9
leaf_value=-0.027251949906349177 -0.0005053818070640167 0.016735619106995205 0.031576073318719866 0.024554446100124291 0.0055189263583584249 -0.022297279122802948 0.0084512810688465844 -0.025213791836391799
leaf_weight=13.000000000000002 11.999999999999998 14.000000000000002 9.9999999999999982 13.999999999999998 11.000000000000002 18 9.9999999999999982 10.999999999999998
leaf_count=13 12 14 10 14 11 18 10 11
internal_value=0 0.014549 0.0235216 0.020645 0.00421686 -0.0245947 0.00691529 -0.0263178
internal_weight=0 71 38 28 33 42 21 24
internal_count=113 71 38 28 33 42 21 24
is_linear=0
shrinkage=0.05


Tree=18
num_leaves=9
num_cat=0
split_feature=3 4 24 4 0 7 26 27
split_gain=14.5969 2.37669 0.282067 0.201675 0.11856 0.0609587 0.0600212 0.00893527
threshold=0.72798565528564241 1.6778897565148203 1.8200000000000003 1.2467317028893359 6.8500000000000005 1.4460570485124831 0.30697940503432508 0.43394556092356906
decision_type=2 2 2 2 2 2 2 2
left_child=6 3 -3 -2 -4 -5 7 -1
right_child=1 2 4 5 -6 -7 -8 -9
leaf_value=-0.025889352193245514 -0.00049101334686080624 0.016885116463527083 0.029490000983843429 0.0051297551522461252 0.022248463341966271 0.010187134146690369 -0.021182415282560721 -0.023953101716258311
leaf_weight=13.000000000000002 11.999999999999998 11.999999999999998 13.000000000000002 13.000000000000002 9.9999999999999982 10.999999999999998 18 10.999999999999998
leaf_count=13 12 12 13 13 10 11 18 11
internal_value=0 0.0138215 0.0230993 0.00480148 0.0263415 0.00744772 -0.023365 -0.0250019
internal_weight=0 71 35 36 23 24 42 24
internal_count=113 71 35 36 23 24 42 24
is_linear=0
shrinkage=0.05


Tree=19
num_leaves=8
num_cat=0
split_feature=4 4 25 3 25 7 19
split_gain=13.1889 1.60113 0.410189 0.255866 0.239351 0.0838886 0.0632143
threshold=1.1512342026816473 1.6778897565148203 0.33757507262632763 2.0400030894194874 1.761218037950685 1.4460570485124831 0.19375000000000006
decision_type=2 2 2 2 2 2 2
left_child=2 5 6 4 -3 -2 -1
right_child=1 3 -4 -5 -6 -7 -8
leaf_value=-0.020451271327005496 0.0041911074940703414 0.025232449918985357 -0.011872143018990755 0.028703808635473251 0.015245977316517384 0.0096777774054895762 -0.024641679392920602
leaf_weight=18 19.000000000000004 10.000000000000002 11.999999999999998 9.9999999999999982 14.999999999999998 10.999999999999998 18
leaf_count=18 19 10 12 10 15 11 18
internal_value=0 0.0146791 -0.0198779 0.0219443 0.0192406 0.00620289 -0.0225465
internal_weight=0 65 48 35 25 30 36
internal_count=113 65 48 35 25 30 36
is_linear=0
shrinkage=0.05


Tree=20
num_leaves=9
num_cat=0
split_feature=3 4 14 12 24 0 19 22
split_gain=11.9556 1.93094 0.29289 0.167235 0.124402 0.0537993 0.0859831 0.0122261
threshold=0.72798565528564241 1.6314988674813142 1.9707294106483462 1.7635552940402153 1.2300000000000002 4.9500000000000011 0.23750000000000007 1.4729028915683753
decision_type=2 2 2 2 2 2 2 2
left_child=5 4 3 -3 -2 -1 -7 -6
right_child=1 2 -4 -5 7 6 -8 -9
leaf_value=-0.023211998823616242 -0.00040072594614078599 0.021508954055607311 0.025628367513418199 0.012908413332815356 0.0048307434740391631 -0.016054820287972681 -0.022125231261764255 0.007246352508664131
leaf_weight=18 11.999999999999998 10.000000000000002 14.999999999999998 12.999999999999998 11.000000000000002 10.000000000000002 13.999999999999998 9.9999999999999982
leaf_count=18 12 10 15 13 11 10 14 10
internal_value=0 0.0125087 0.0201927 0.0166478 0.00366039 -0.0211457 -0.0195959 0.00598103
internal_weight=0 71 38 23 33 42 24 21
internal_count=113 71 38 23 33 42 24 21
is_linear=0
shrinkage=0.05


Tree=21
num_leaves=9
num_cat=0
split_feature=3 3 3 25 24 0 19 26
split_gain=10.7899 1.74939 0.266109 0.167632 0.111333 0.0485539 0.0775997 0.00939307
threshold=0.72798565528564241 1.6569641798688386 2.0400030894194874 1.7281518986889608 1.2300000000000002 4.9500000000000011 0.23750000000000007 1.4916714401355609
decision_type=2 2 2 2 2 2 2 2
left_child=5 4 3 -3 -2 -1 -7 -6
right_child=1 2 -4 -5 7 6 -8 -9
leaf_value=-0.02205139845609665 -0.00038068967405706648 0.021887109577655786 0.026198595836758615 0.013813054489178789 0.0046483120457692572 -0.015252079479396339 -0.021018969533698903 0.0067656347900629053
leaf_weight=18 11.999999999999998 10.000000000000002 9.9999999999999982 18 11.000000000000002 10.000000000000002 13.999999999999998 9.9999999999999982
leaf_count=18 12 10 10 18 11 10 14 10
internal_value=0 0.0118833 0.0191972 0.0166966 0.0034612 -0.0200884 -0.0186161 0.00565656
internal_weight=0 71 38 28 33 42 24 21
internal_count=113 71 38 28 33 42 24 21
is_linear=0
shrinkage=0.05


Tree=22
num_leaves=9
num_cat=0
split_feature=4 11 25 3 11 25 19 21
split_gain=9.74401 1.18968 0.297869 0.169795 0.233091 0.124281 0.0511224 0.00640393
threshold=1.1512342026816473 1.7478449993490051 0.33757507262632763 2.0400030894194874 1.899141388048337 1.6121799730311064 0.19375000000000006 1.3182215964573987
decision_type=2 2 2 2 2 2 2 2
left_child=2 5 6 4 -3 7 -1 -2
right_child=1 3 -4 -5 -6 -7 -8 -9
leaf_value=-0.017475682574634752 0.0031340478647810706 0.021729156561195846 -0.010263639471183222 0.024888666793704037 0.01139312286861241 0.010609590206295254 -0.021244060165352293 0.004804254390976646
leaf_weight=18 12.000000000000002 12.000000000000002 11.999999999999998 9.9999999999999982 9.9999999999999982 9.9999999999999982 18 10.999999999999998
leaf_count=18 12 12 12 10 10 10 18 11
internal_value=0 0.0126172 -0.0170858 0.0194865 0.017031 0.0059561 -0.0193599 0.00393284
internal_weight=0 65 48 32 22 33 36 23
internal_count=113 65 48 32 22 33 36 23
is_linear=0
shrinkage=0.05


Tree=23
num_leaves=9
num_cat=0
split_feature=3 4 24 24 8 4 26 4
split_gain=8.83815 1.41877 0.229662 0.116646 0.0875982 0.0401627 0.0388914 0.010484
threshold=0.72798565528564241 1.6778897565148203 1.8200000000000003 1.2300000000000002 1.9713756172810604 1.4941660850707374 0.30697940503432508 0.2810246055821693
decision_type=2 2 2 2 2 2 2 2
left_child=6 3 -3 -2 -4 -5 7 -1
right_child=1 2 4 5 -6 -7 -8 -9
leaf_value=-0.018615380248853133 -0.00023923915966103475 0.012315863529996326 0.024366961270570749 0.0039168088768537215 0.018142382685954757 0.0080218641256744223 -0.016424052484540475 -0.020735083371400835
leaf_weight=14.000000000000002 11.999999999999998 11.999999999999998 10.000000000000002 13.000000000000002 12.999999999999998 10.999999999999998 18 9.9999999999999982
leaf_count=14 12 12 10 13 13 11 18 10
internal_value=0 0.0107549 0.0179232 0.00378578 0.0208487 0.00579829 -0.0181809 -0.0194986
internal_weight=0 71 35 36 23 24 42 24
internal_count=113 71 35 36 23 24 42 24
is_linear=0
shrinkage=0.05


Tree=24
num_leaves=9
num_cat=0
split_feature=3 4 24 25 18 0 19 22
split_gain=7.97643 1.28338 0.216665 0.129358 0.0799282 0.0411864 0.0660758 0.00708202
threshold=0.72798565528564241 1.6314988674813142 2.0100000000000007 1.8406485056013415 1.2561326241737509 4.9500000000000011 0.23750000000000007 1.4729028915683753
decision_type=2 2 2 2 2 2 2 2
left_child=5 4 3 -3 -2 -1 -7 -6
right_child=1 2 -4 -5 7 6 -8 -9
leaf_value=-0.019079855870869425 -0.00025168348414202535 0.016721407983165518 0.021156732340653739 0.0091572718287352469 0.0039882100229574865 -0.012811706670327109 -0.018133191019296648 0.0058267031237483023
leaf_weight=18 11.999999999999998 13.000000000000002 14.999999999999998 9.9999999999999982 11.000000000000002 10.000000000000002 13.999999999999998 9.9999999999999982
leaf_count=18 12 13 15 10 11 10 14 10
internal_value=0 0.0102172 0.0164816 0.0134327 0.00300355 -0.0172719 -0.0159159 0.00486368
internal_weight=0 71 38 23 33 42 24 21
internal_count=113 71 38 23 33 42 24 21
is_linear=0
shrinkage=0.05


Tree=25
num_leaves=9
num_cat=0
split_feature=3 4 27 7 4 0 25 25
split_gain=7.19873 1.16572 0.173561 0.249151 0.0960828 0.0371707 0.0611713 0.0275175
threshold=0.72798565528564241 1.6778897565148203 1.6886129801434218 1.9713756172810604 1.2467317028893359 4.9500000000000011 0.28217320275568009 1.5434853118240304
decision_type=2 2 2 2 2 2 2 2
left_child=5 4 -3 -4 -2 -1 -7 -6
right_child=1 2 3 -5 7 6 -8 -9
leaf_value=-0.018125862917966314 -0.00026390038741131626 0.011329398180047672 0.024680679887533183 0.014182995134391464 0.0037848017294891175 -0.017442115338949054 -0.012375923923470757 0.0072189255803823474
leaf_weight=18 11.999999999999998 11.999999999999998 10.000000000000002 12.999999999999998 14.000000000000002 13.000000000000002 10.999999999999998 9.9999999999999982
leaf_count=18 12 12 10 13 14 13 11 10
internal_value=0 0.00970631 0.016204 0.0187472 0.00338916 -0.0164083 -0.0151201 0.00521569
internal_weight=0 71 35 23 36 42 24 24
internal_count=113 71 35 23 36 42 24 24
is_linear=0
shrinkage=0.05


Tree=26
num_leaves=9
num_cat=0
split_feature=4 11 4 3 18 25 19 19
split_gain=6.50691 0.800092 0.205168 0.136036 0.216224 0.0816112 0.0191956 0.00472209
threshold=1.1512342026816473 1.7478449993490051 0.32006253170005583 2.0400030894194874 1.9743851410293762 1.6121799730311064 0.21250000000000005 1.3515873015873019
decision_type=2 2 2 2 2 2 2 2
left_child=2 5 6 4 -3 7 -1 -2
right_child=1 3 -4 -5 -6 -7 -8 -9
leaf_value=-0.014996216489988216 0.0039566702294078727 0.018270992487668985 -0.0091136152980228272 0.020779290460050108 0.008315956192091108 0.0086188910249620689 -0.017409138148650527 0.0025224557049417246
leaf_weight=17 11.000000000000002 12.000000000000002 14.999999999999998 9.9999999999999982 9.9999999999999982 9.9999999999999982 15.999999999999998 11.999999999999998
leaf_count=17 11 12 15 10 10 10 16 12
internal_value=0 0.0103106 -0.0139622 0.0159439 0.013746 0.00484793 -0.0161661 0.00320838
internal_weight=0 65 48 32 22 33 33 23
internal_count=113 65 48 32 22 33 33 23
is_linear=0
shrinkage=0.05


Tree=27
num_leaves=10
num_cat=0
split_feature=3 11 3 11 25 1 13 25 4
split_gain=5.90041 0.942327 0.122772 0.197073 0.114727 0.0543151 0.0337403 0.0682336 0.00802843
threshold=0.72798565528564241 1.7478449993490051 2.0400030894194874 1.899141388048337 1.6121799730311064 2.6500000000000008 0.21284310549294597 0.30200792530163745 0.22597692768832847
decision_type=2 2 2 2 2 2 2 2 2
left_child=6 4 3 -3 5 -2 -1 8 -8
right_child=1 2 -4 -5 -6 -7 7 -9 -10
leaf_value=-0.01261440214390556 -0.00079072428806367396 0.017378656069437656 0.019740326292812825 0.0078747018240392219 0.0081879464723169804 0.0036688839758021968 -0.018439339250326144 -0.012379145845770836 -0.016435788422822954
leaf_weight=11.999999999999998 11.000000000000002 12.000000000000002 9.9999999999999982 9.9999999999999982 9.9999999999999982 18 10.000000000000005 9.9999999999999982 9.9999999999999982
leaf_count=12 11 12 10 10 10 18 10 10 10
internal_value=0 0.00878754 0.0151467 0.0130587 0.00356978 0.00197731 -0.0148551 -0.0157514 -0.0174376
internal_weight=0 71 32 22 39 29 42 30 20
internal_count=113 71 32 22 39 29 42 30 20
is_linear=0
shrinkage=0.05


Tree=28
num_leaves=8
num_cat=0
split_feature=3 11 14 12 1 0 19
split_gain=5.32512 0.853658 0.249894 0.11555 0.0479352 0.0330989 0.0557275
threshold=0.72798565528564241 1.6067374151728304 1.9707294106483462 1.7635552940402153 2.6500000000000008 4.9500000000000011 0.23750000000000007
decision_type=2 2 2 2 2 2 2
left_child=5 4 3 -3 -2 -1 -7
right_child=1 2 -4 -5 -6 6 -8
leaf_value=-0.015733146543304124 -0.00050902180725339945 0.013406258835815463 0.018177152350544928 0.0067397480973830602 0.0035707043251022698 -0.010046021882444618 -0.014933066123298236
leaf_weight=18 12.000000000000002 13.000000000000002 14.999999999999998 12.999999999999998 18 10.000000000000002 13.999999999999998
leaf_count=18 12 13 15 13 18 10 14
internal_value=0 0.00834817 0.0130379 0.010073 0.00193881 -0.0141124 -0.0128968
internal_weight=0 71 41 26 30 42 24
internal_count=113 71 41 26 30 42 24
is_linear=0
shrinkage=0.05


Tree=29
num_leaves=9
num_cat=0
split_feature=4 6 14 14 0 24 0 20
split_gain=4.81228 0.540054 0.393851 0.181264 0.147383 0.0607801 0.0388133 0.050294
threshold=1.2189249996913853 1.8346585111348124 0.50814594328403484 1.9707294106483462 6.0500000000000007 1.6700000000000004 4.9500000000000011 0.23750000000000004
decision_type=2 2 2 2 2 2 2 2
left_child=2 4 6 -3 -2 -6 -1 -8
right_child=1 3 -4 -5 5 -7 7 -9
leaf_value=-0.015374600229894415 0.0089693123272809316 0.010340001247823236 -0.0024797251075506215 0.018714486647929466 0.0052873902488499861 -0.00022532831877470017 -0.0095437208749353866 -0.014186412734644755
leaf_weight=17 15.999999999999998 12.000000000000002 9.9999999999999982 13.999999999999998 10.000000000000002 9.9999999999999982 10.000000000000002 13.999999999999998
leaf_count=17 16 12 10 14 10 10 10 14
internal_value=0 0.00935827 -0.0113767 0.0148493 0.00539249 0.00253103 -0.0135467 -0.012252
internal_weight=0 62 51 26 36 20 41 24
internal_count=113 62 51 26 36 20 41 24
is_linear=0
shrinkage=0.05


Tree=30
num_leaves=11
num_cat=0
split_feature=4 14 14 4 7 20 1 17 25 14
split_gain=4.34308 0.474377 0.355451 0.186471 0.0791278 0.0357775 0.0535622 0.0158712 0.0112672 0.00912778
threshold=1.2189249996913853 1.9191667437553408 0.50814594328403484 1.7759935166365073 1.9897789147943119 0.21250000000000005 3.2500000000000004 0.30050342613604564 1.6121799730311064 1.370862662792206
decision_type=2 2 2 2 2 2 2 2 2 2
left_child=2 3 5 8 -3 6 -1 -7 9 -2
right_child=1 4 -4 -5 -6 7 -8 -9 -10 -11
leaf_value=-0.014076378121972081 0.0042063642805442187 0.018220439702272408 -0.0023557388037443163 0.011697247102856637 0.01207507054575465 -0.015791367813944811 -0.0090203139253637998 -0.012974351570010185 0.0051304690391671933 0.0020700377086177468
leaf_weight=10.000000000000002 10.000000000000005 10.000000000000002 9.9999999999999982 9.9999999999999982 10.999999999999998 10.000000000000002 10.999999999999998 9.9999999999999982 10.999999999999998 9.9999999999999982
leaf_count=10 10 10 10 10 11 10 11 10 11 10
internal_value=0 0.00889035 -0.0108079 0.00576028 0.0150014 -0.0128694 -0.011428 -0.0143829 0.00384513 0.0031382
internal_weight=0 62 51 41 21 41 21 20 31 20
internal_count=113 62 51 41 21 41 21 20 31 20
is_linear=0
shrinkage=0.05


Tree=31
num_leaves=9
num_cat=0
split_feature=3 11 3 18 25 1 10 27
split_gain=3.92225 0.646864 0.103096 0.189301 0.076589 0.0371968 0.0273885 0.0476455
threshold=0.72798565528564241 1.7478449993490051 2.0400030894194874 1.9743851410293762 1.6121799730311064 2.6500000000000008 0.22886433842462281 0.47248775449355435
decision_type=2 2 2 2 2 2 2 2
left_child=6 4 3 -3 5 -2 -1 -8
right_child=1 2 -4 -5 -6 -7 7 -9
leaf_value=-0.010398609538873038 -0.0007502240679142148 0.014753896774103241 0.016642820145934819 0.0054392221942543987 0.0066148726514074956 0.0029403108379079238 -0.01480487650260329 -0.010530169985511087
leaf_weight=14.999999999999998 11.000000000000002 12.000000000000002 9.9999999999999982 9.9999999999999982 9.9999999999999982 18 16.000000000000004 10.999999999999998
leaf_count=15 11 12 10 10 10 18 16 11
internal_value=0 0.00716463 0.0124333 0.01052 0.00284159 0.00154045 -0.0121116 -0.0130633
internal_weight=0 71 32 22 39 29 42 27
internal_count=113 71 32 22 39 29 42 27
is_linear=0
shrinkage=0.05


Tree=32
num_leaves=10
num_cat=0
split_feature=4 6 14 14 0 24 19 1 0
split_gain=3.54855 0.411759 0.285952 0.156942 0.121952 0.0543716 0.0321467 0.0465269 0.00625778
threshold=1.2189249996913853 1.8346585111348124 0.50814594328403484 1.9707294106483462 6.0500000000000007 1.6700000000000004 0.21250000000000005 3.2500000000000004 5.1500000000000012
decision_type=2 2 2 2 2 2 2 2 2
left_child=2 4 6 -3 -2 -6 7 -1 -8
right_child=1 3 -4 -5 5 -7 8 -9 -10
leaf_value=-0.012720440924167629 0.0078269136836752306 0.0086348862387239916 -0.0021884462796151641 0.016427284851670266 0.0045773751777596757 -0.00063662705942988404 -0.013937463089823719 -0.008008114790374582 -0.012168596256524326
leaf_weight=10.000000000000002 15.999999999999998 12.000000000000002 9.9999999999999982 13.999999999999998 10.000000000000002 9.9999999999999982 10.000000000000002 10.999999999999998 9.9999999999999982
leaf_count=10 16 12 10 14 10 10 10 11 10
internal_value=0 0.00803611 -0.00976939 0.0128308 0.00457328 0.00197037 -0.0116184 -0.0102521 -0.013053
internal_weight=0 62 51 26 36 20 41 21 20
internal_count=113 62 51 26 36 20 41 21 20
is_linear=0
shrinkage=0.05


Tree=33
num_leaves=10
num_cat=0
split_feature=4 14 14 4 7 0 25 0 24
split_gain=3.20257 0.367018 0.258071 0.142676 0.0740582 0.0305659 0.0434266 0.0077004 0.0238613
threshold=1.2189249996913853 1.9191667437553408 0.50814594328403484 1.7759935166365073 1.9897789147943119 4.9500000000000011 0.28217320275568009 6.0500000000000007 1.6700000000000004
decision_type=2 2 2 2 2 2 2 2 2
left_child=2 3 5 7 -3 -1 -7 -2 -9
right_child=1 4 -4 -5 -6 6 -8 8 -10
leaf_value=-0.012659576557138386 0.0042684771035882548 0.016123750619590278 -0.0020790239796042442 0.010074315387755634 0.010178502509370448 -0.01184493188674633 -0.0075763306495818224 0.0043485062959371127 0.00089442943688482039
leaf_weight=17 11.000000000000002 10.000000000000002 9.9999999999999982 9.9999999999999982 10.999999999999998 13.000000000000002 10.999999999999998 10.000000000000002 9.9999999999999982
leaf_count=17 11 10 10 10 11 13 11 10 10
internal_value=0 0.0076343 -0.00928092 0.00488112 0.0130096 -0.0110375 -0.00988849 0.00320589 0.00262147
internal_weight=0 62 51 41 21 41 24 31 20
internal_count=113 62 51 41 21 41 24 31 20
is_linear=0
shrinkage=0.05


Tree=34
num_leaves=10
num_cat=0
split_feature=4 6 14 14 0 24 19 13 17
split_gain=2.89032 0.33891 0.232909 0.137559 0.105098 0.0474907 0.0295888 0.041565 0.012027
threshold=1.2189249996913853 1.8346585111348124 0.50814594328403484 1.9707294106483462 6.0500000000000007 1.6700000000000004 0.21250000000000005 0.22246583696401492 0.30050342613604564
decision_type=2 2 2 2 2 2 2 2 2
left_child=2 4 6 -3 -2 -6 7 -1 -8
right_child=1 3 -4 -5 5 -7 8 -9 -10
leaf_value=-0.0070538315583359087 0.0071314281027298424 0.007674233221526567 -0.0019750727340579035 0.01496959751072739 0.0041310811520088447 -0.00074183680349960935 -0.013088101819157597 -0.011507802456617356 -0.010635853596031667
leaf_weight=11.000000000000002 15.999999999999998 12.000000000000002 9.9999999999999982 13.999999999999998 10.000000000000002 9.9999999999999982 10.000000000000002 9.9999999999999982 9.9999999999999982
leaf_count=11 16 12 10 14 10 10 10 10 10
internal_value=0 0.00725259 -0.00881687 0.0116025 0.00411098 0.00169462 -0.0104856 -0.00917477 -0.011862
internal_weight=0 62 51 26 36 20 41 21 20
internal_count=113 62 51 26 36 20 41 21 20
is_linear=0
shrinkage=0.05


Tree=35
num_leaves=10
num_cat=0
split_feature=25 24 14 4 27 13 19 1 17
split_gain=2.61285 0.307823 0.208361 0.107775 0.0638336 0.147688 0.0267039 0.0387681 0.0108544
threshold=1.1924582475897061 1.8200000000000003 0.50814594328403484 1.9972134367971124 1.5798070313340637 1.5059685449894076 0.21250000000000005 3.2500000000000004 0.30050342613604564
decision_type=2 2 2 2 2 2 2 2 2
left_child=2 4 6 -3 5 -2 7 -1 -8
right_child=1 3 -4 -5 -6 -7 8 -9 -10
leaf_value=-0.010969202369451521 0.0021603980815658964 0.0069693517568521178 -0.0019117791485041382 0.013586264668265359 0.00072754514826969677 0.010004930961877108 -0.012433696538209912 -0.0066676945002241573 -0.010104060955345632
leaf_weight=10.000000000000002 15.000000000000002 10.000000000000002 9.9999999999999982 15.999999999999998 10.999999999999998 9.9999999999999982 10.000000000000002 10.999999999999998 9.9999999999999982
leaf_count=10 15 10 10 16 11 10 10 11 10
internal_value=0 0.00689568 -0.00838298 0.0110413 0.00390162 0.00529821 -0.00996132 -0.00871603 -0.0112689
internal_weight=0 62 51 26 36 25 41 21 20
internal_count=113 62 51 26 36 25 41 21 20
is_linear=0
shrinkage=0.05


Tree=36
num_leaves=8
num_cat=0
split_feature=3 6 14 1 1 0 25
split_gain=2.35882 0.400141 0.12331 0.119225 0.107157 0.0219752 0.0359003
threshold=0.72798565528564241 1.8346585111348124 1.9707294106483462 2.6500000000000008 2.8500000000000001 4.9500000000000011 0.28217320275568009
decision_type=2 2 2 2 2 2 2
left_child=5 3 -3 -2 -5 -1 -7
right_child=1 2 -4 4 -6 6 -8
leaf_value=-0.010713157202634547 -0.00076189002138562503 0.006775068190472665 0.013682255720985788 0.008804074530489741 0.0024096436185860322 -0.010180899945016088 -0.0062997816913676541
leaf_weight=18 15.999999999999998 12.000000000000002 13.999999999999998 10.000000000000002 19 13.000000000000002 10.999999999999998
leaf_count=18 16 12 14 10 19 13 11
internal_value=0 0.00555614 0.0104943 0.00270297 0.00461462 -0.00939253 -0.00840205
internal_weight=0 71 26 45 29 42 24
internal_count=113 71 26 45 29 42 24
is_linear=0
shrinkage=0.05


Tree=37
num_leaves=10
num_cat=0
split_feature=25 24 14 4 0 1 19 10 17
split_gain=2.13787 0.252828 0.16685 0.0942036 0.066314 0.0823483 0.0245108 0.0362344 0.00868123
threshold=1.1924582475897061 1.8200000000000003 0.50814594328403484 1.9972134367971124 5.8500000000000005 2.9500000000000006 0.21250000000000005 0.22886433842462281 0.30050342613604564
decision_type=2 2 2 2 2 2 2 2 2
left_child=2 4 6 -3 -2 -6 7 -1 -8
right_child=1 3 -4 -5 5 -7 8 -9 -10
leaf_value=-0.0058219113302501752 0.0065588933842567103 0.0061876410897821164 -0.0017920268140733241 0.012373933571507224 -0.00068748823832720507 0.0051905840931629598 -0.011289660483598706 -0.0099804786592721934 -0.0092062467128380381
leaf_weight=11.000000000000002 11.999999999999998 10.000000000000002 9.9999999999999982 15.999999999999998 13.000000000000002 10.999999999999998 10.000000000000002 9.9999999999999982 9.9999999999999982
leaf_count=11 12 10 10 16 13 11 10 10 10
internal_value=0 0.0062375 -0.00758285 0.00999459 0.00352405 0.00200663 -0.00899524 -0.00780218 -0.010248
internal_weight=0 62 51 26 36 24 41 21 20
internal_count=113 62 51 26 36 24 41 21 20
is_linear=0
shrinkage=0.05


Tree=38
num_leaves=8
num_cat=0
split_feature=18 14 14 11 0 25 26
split_gain=1.93223 0.234879 0.149411 0.118469 0.0235285 0.0310437 0.0107407
threshold=1.1565154737646044 1.9707294106483462 0.50814594328403484 1.7478449993490051 4.9500000000000011 0.28217320275568009 1.7266630677170354
decision_type=2 2 2 2 2 2 2
left_child=2 3 4 6 -1 -6 -2
right_child=1 -3 -4 -5 5 -7 -8
leaf_value=-0.0099686461665174555 0.0029117391126132321 0.011377461329102516 -0.0017290809843689204 0.0073776488127704296 -0.0091915548349229166 -0.0055824945045804437 0.00088728010887280113
leaf_weight=17 19.000000000000004 14.999999999999998 9.9999999999999982 18 13.000000000000002 10.999999999999998 9.9999999999999982
leaf_count=17 19 15 10 18 13 11 10
internal_value=0 0.00592993 -0.00720893 0.00419135 -0.00854548 -0.0075374 0.00221365
internal_weight=0 62 51 47 41 24 29
internal_count=113 62 51 47 41 24 29
is_linear=0
shrinkage=0.05


Tree=39
num_leaves=9
num_cat=0
split_feature=4 14 14 4 19 13 17 26
split_gain=1.74384 0.211979 0.134844 0.11231 0.0225738 0.0318261 0.00685643 0.00573159
threshold=1.2189249996913853 1.9707294106483462 0.50814594328403484 1.7759935166365073 0.21250000000000005 0.22246583696401492 0.30050342613604564 1.7266630677170354
decision_type=2 2 2 2 2 2 2 2
left_child=2 3 4 7 5 -1 -6 -2
right_child=1 -3 -4 -5 6 -7 -8 -9
leaf_value=-0.0051173523915084909 0.002766152102451183 0.010808588359504939 -0.0016426269710063937 0.0073839154949382653 -0.010246172323822973 -0.0090147523023188115 -0.0083946281764656315 0.0013703589599269133
leaf_weight=11.000000000000002 19.000000000000004 14.999999999999998 9.9999999999999982 15.999999999999998 10.000000000000002 9.9999999999999982 9.9999999999999982 11.999999999999998
leaf_count=11 19 15 10 16 10 10 10 12
internal_value=0 0.00563343 -0.00684848 0.00398178 -0.0081182 -0.00697326 -0.0093204 0.00222585
internal_weight=0 62 51 47 41 21 20 31
internal_count=113 62 51 47 41 21 20 31
is_linear=0
shrinkage=0.05


Tree=40
num_leaves=8
num_cat=0
split_feature=25 24 14 26 11 0 19
split_gain=1.57558 0.193257 0.120962 0.0866947 0.06547 0.0210582 0.0279852
threshold=1.1924582475897061 2.0100000000000007 0.50814594328403484 1.7266630677170354 1.7478449993490051 4.9500000000000011 0.23750000000000007
decision_type=2 2 2 2 2 2 2
left_child=2 3 5 -2 -5 -1 -7
right_child=1 -3 -4 4 -6 6 -8
leaf_value=-0.0090586818754673001 0.0011208344214154703 0.010088016430381687 -0.0015790880564600228 0.0025598614688285368 0.0075707730735302906 -0.0047384117823094114 -0.0082015981299004385
leaf_weight=17 19 15.999999999999998 9.9999999999999982 11.000000000000002 15.999999999999998 10.000000000000002 13.999999999999998
leaf_count=17 19 16 10 11 16 10 14
internal_value=0 0.00535476 -0.00650971 0.00370841 0.00552929 -0.00771229 -0.0067586
internal_weight=0 62 51 46 27 41 24
internal_count=113 62 51 46 27 41 24
is_linear=0
shrinkage=0.05


Tree=41
num_leaves=10
num_cat=0
split_feature=25 14 14 1 28 24 4 25 14
split_gain=1.42196 0.177483 0.109168 0.0950449 0.099278 0.0196652 0.0471976 0.0164057 0.00695085
threshold=1.1924582475897061 1.9707294106483462 0.50814594328403484 2.8500000000000001 1.877815031466342 0.29000000000000009 0.2810246055821693 1.6121799730311064 0.28659234941005712
decision_type=2 2 2 2 2 2 2 2 2
left_child=2 3 5 4 -2 6 8 -5 -1
right_child=1 -3 -4 7 -6 -7 -8 -9 -10
leaf_value=-0.0071837083436548672 0.0029064331465633582 0.0098224151382843659 -0.0015001337416470052 0.00013332949213994044 0.0096519803442060952 -0.009254685658961535 -0.0038775271276244895 0.0026970794424414635 -0.0090050959214568148
leaf_weight=11.000000000000005 12.000000000000002 14.999999999999998 9.9999999999999982 12.000000000000002 9.9999999999999982 9.9999999999999982 9.9999999999999982 12.999999999999998 9.9999999999999982
leaf_count=11 12 15 10 12 10 10 10 13 10
internal_value=0 0.00508702 -0.00618422 0.00357572 0.00597259 -0.00732668 -0.00670474 0.00146648 -0.00805104
internal_weight=0 62 51 47 22 41 31 25 21
internal_count=113 62 51 47 22 41 31 25 21
is_linear=0
shrinkage=0.05


Tree=42
num_leaves=8
num_cat=0
split_feature=4 24 14 26 11 0 25
split_gain=1.28477 0.163019 0.0979222 0.0698099 0.0572908 0.0184604 0.0257395
threshold=1.2189249996913853 2.0100000000000007 0.50814594328403484 1.7266630677170354 1.7478449993490051 4.9500000000000011 0.28217320275568009
decision_type=2 2 2 2 2 2 2
left_child=2 3 5 -2 -5 -1 -7
right_child=1 -3 -4 4 -6 6 -8
leaf_value=-0.008220951900105267 0.0010013632274134771 0.0091826267358555928 -0.0014420669153332711 0.0021795372095022515 0.006867001032514964 -0.0075736387453686719 -0.0042873362375592649
leaf_weight=17 19 15.999999999999998 9.9999999999999982 11.000000000000002 15.999999999999998 13.000000000000002 10.999999999999998
leaf_count=17 19 16 10 11 16 13 11
internal_value=0 0.0048354 -0.00587833 0.00332332 0.00495729 -0.00696035 -0.00606742
internal_weight=0 62 51 46 27 41 24
internal_count=113 62 51 46 27 41 24
is_linear=0
shrinkage=0.05


Tree=43
num_leaves=10
num_cat=0
split_feature=4 14 14 1 28 19 10 13 17
split_gain=1.1595 0.148584 0.0883747 0.086773 0.0833905 0.0185408 0.0276548 0.0124357 0.00564652
threshold=1.2189249996913853 1.9707294106483462 0.50814594328403484 2.8500000000000001 1.877815031466342 0.21250000000000005 0.22886433842462281 1.5059685449894076 0.30050342613604564
decision_type=2 2 2 2 2 2 2 2 2
left_child=2 3 5 4 -2 6 -1 -5 -7
right_child=1 -3 -4 7 -6 8 -8 -9 -10
leaf_value=-0.003844672748395664 0.0026909016063048808 0.0089263818630327795 -0.0013699636142700913 -0.00017031258583301672 0.0088731867866590625 -0.0085419818758964514 -0.0074776994693093006 0.0021059880219399928 -0.0068617262318730367
leaf_weight=11.000000000000002 12.000000000000002 14.999999999999998 9.9999999999999982 10.000000000000002 9.9999999999999982 10.000000000000002 9.9999999999999982 14.999999999999998 9.9999999999999982
leaf_count=11 12 15 10 10 10 10 10 15 10
internal_value=0 0.00459363 -0.00558441 0.00321084 0.00550103 -0.00661233 -0.00557469 0.00119547 -0.00770185
internal_weight=0 62 51 47 22 41 21 25 20
internal_count=113 62 51 47 22 41 21 25 20
is_linear=0
shrinkage=0.05


Tree=44
num_leaves=8
num_cat=0
split_feature=3 24 0 1 3 12 17
split_gain=1.04807 0.19068 0.0944244 0.0820405 0.0677845 0.0159192 0.0178832
threshold=0.72798565528564241 1.8200000000000003 6.5500000000000007 2.6500000000000008 1.6569641798688386 0.22057842300092942 0.31867742117918174
decision_type=2 2 2 2 2 2 2
left_child=5 3 -3 -2 -5 -1 -7
right_child=1 2 -4 4 -6 6 -8
leaf_value=-0.0047216865719140822 -0.0011401988351281034 0.010631114510099654 0.0045321391212443515 0.0015660501144961207 0.0066518281726166617 -0.0078732228320505873 -0.0053813460127760974
leaf_weight=11.999999999999998 15.999999999999998 11.000000000000002 14.999999999999998 19.000000000000004 9.9999999999999982 18.000000000000004 11.999999999999998
leaf_count=12 16 11 15 19 10 18 12
internal_value=0 0.00370358 0.00711247 0.001734 0.00331977 -0.00626082 -0.00687647
internal_weight=0 71 26 45 29 42 30
internal_count=113 71 26 45 29 42 30
is_linear=0
shrinkage=0.05


Tree=45
num_leaves=10
num_cat=0
split_feature=25 14 1 14 4 24 3 25 1
split_gain=0.946584 0.128768 0.0831696 0.0710861 0.0547349 0.0171207 0.0403421 0.00923234 0.00402859
threshold=1.1924582475897061 1.9707294106483462 2.8500000000000001 0.50814594328403484 1.6314988674813142 0.29000000000000009 0.26192485843725483 1.6121799730311064 3.1500000000000008
decision_type=2 2 2 2 2 2 2 2 2
left_child=3 2 4 5 -2 6 8 -4 -1
right_child=1 -3 7 -5 -6 -7 -8 -9 -10
leaf_value=-0.0073583035741466981 0.0026113778905710199 0.008183978125452995 -0.00010995680737930037 -0.0012658938067033887 0.0075993133539503273 -0.0077665517386049029 -0.0027734559006057681 0.0018132840139934653 -0.0059716763821515174
leaf_weight=10.000000000000005 11.000000000000002 14.999999999999998 12.000000000000002 9.9999999999999982 10.999999999999998 9.9999999999999982 9.9999999999999982 12.999999999999998 10.999999999999998
leaf_count=10 11 15 12 10 11 10 10 13 11
internal_value=0 0.00415049 0.00286321 -0.0050457 0.00510535 -0.0059676 -0.00538729 0.000890128 -0.00663198
internal_weight=0 62 47 51 22 41 31 25 21
internal_count=113 62 47 51 22 41 31 25 21
is_linear=0
shrinkage=0.05


Tree=46
num_leaves=9
num_cat=0
split_feature=3 24 0 1 3 19 10 17
split_gain=0.855055 0.159823 0.0886522 0.0734496 0.0556537 0.0150836 0.0238902 0.00553547
threshold=0.72798565528564241 1.8200000000000003 6.5500000000000007 2.6500000000000008 1.6569641798688386 0.21250000000000005 0.22886433842462281 0.30050342613604564
decision_type=2 2 2 2 2 2 2 2
left_child=5 3 -3 -2 -5 6 -1 -7
right_child=1 2 -4 4 -6 7 -8 -9
leaf_value=-0.003099498973990028 -0.0011775314254919068 0.0098755057964643265 0.0039658867878218495 0.0014533999650187691 0.0060616846941411494 -0.0074539369344711285 -0.0064762052148580555 -0.0058285359462553806
leaf_weight=11.000000000000002 15.999999999999998 11.000000000000002 14.999999999999998 19.000000000000004 9.9999999999999982 10.000000000000002 9.9999999999999982 10.999999999999998
leaf_count=11 16 11 15 19 10 10 10 11
internal_value=0 0.00334521 0.00646611 0.00154202 0.00304246 -0.005655 -0.00470745 -0.00660254
internal_weight=0 71 26 45 29 42 21 21
internal_count=113 71 26 45 29 42 21 21
is_linear=0
shrinkage=0.05


Tree=47
num_leaves=8
num_cat=0
split_feature=4 14 1 28 4 15 25
split_gain=0.771788 0.111904 0.0793925 0.0616738 0.0611033 0.0080228 0.00669071
threshold=1.2189249996913853 1.9707294106483462 2.8500000000000001 1.877815031466342 0.32006253170005583 0.24803491116197626 1.6121799730311064
decision_type=2 2 2 2 2 2 2
left_child=4 2 3 -2 5 -1 -4
right_child=1 -3 6 -5 -6 -7 -8
leaf_value=-0.0051650548215930988 0.0023216588383850943 0.0075078489507238071 -0.00023142226564232252 0.0076383448374690499 -0.0022127187862578369 -0.0067424818474267206 0.0014058234170079233
leaf_weight=19 12.000000000000002 14.999999999999998 12.000000000000002 9.9999999999999982 18 13.999999999999998 12.999999999999998
leaf_count=19 12 15 12 10 18 14 13
internal_value=0 0.00374774 0.0025477 0.00473833 -0.00455607 -0.00583427 0.000619945
internal_weight=0 62 47 22 51 33 25
internal_count=113 62 47 22 51 33 25
is_linear=0
shrinkage=0.05


Tree=48
num_leaves=8
num_cat=0
split_feature=4 24 1 15 14 0 11
split_gain=0.700739 0.13358 0.0836079 0.0999916 0.0183153 0.0141429 0.0249826
threshold=0.75458376154300377 2.0100000000000007 2.6500000000000008 1.7239273554218884 1.4017809033393862 4.9500000000000011 0.25832694806334316
decision_type=2 2 2 2 2 2 2
left_child=5 2 -2 4 -4 -1 -7
right_child=1 -3 3 -5 -6 6 -8
leaf_value=-0.006178791551954217 -0.0011849844391690568 0.0070493306746357122 0.0026440914738206905 0.0066876672566510177 -1.0026941219201455e-05 -0.0029613559500181242 -0.0062334825284779075
leaf_weight=18 15.999999999999998 15.999999999999998 13.000000000000002 12.999999999999998 12.999999999999998 14.000000000000002 9.9999999999999982
leaf_count=18 16 16 13 13 13 14 10
internal_value=0 0.00302834 0.0018586 0.00310724 0.00131703 -0.00511933 -0.00432474
internal_weight=0 71 55 39 26 42 24
internal_count=113 71 55 39 26 42 24
is_linear=0
shrinkage=0.05


Tree=49
num_leaves=10
num_cat=0
split_feature=3 17 25 2 22 14 19 10 12
split_gain=0.632417 0.120655 0.0635662 0.181624 0.0135761 0.0246684 0.0134806 0.0204887 0.00747188
threshold=0.72798565528564241 1.9681251904754991 1.8406485056013415 4.8500000000000005 1.4522773626896008 1.2418815493583681 0.21250000000000005 0.22886433842462281 0.27437592219952134
decision_type=2 2 2 2 2 2 2 2 2
left_child=6 2 3 4 5 -2 7 -1 -8
right_child=1 -3 -4 -5 -6 -7 8 -9 -10
leaf_value=-0.0024784996809268534 0.0016694648487662724 0.0070358972031889224 -0.0013779959175735713 0.0079853129146310198 0.0021437434906450411 -0.0017617947841063143 -0.0066583914343606321 -0.0056055922806262969 -0.0047699726423888937
leaf_weight=11.000000000000002 11.000000000000002 13.999999999999998 11.999999999999998 11.999999999999998 11.999999999999998 9.9999999999999982 11.000000000000002 9.9999999999999982 9.9999999999999982
leaf_count=11 11 14 12 12 12 10 11 10 10
internal_value=0 0.00287692 0.00185542 0.00271766 0.000802154 3.55317e-05 -0.00486337 -0.00396759 -0.00575914
internal_weight=0 71 57 45 33 21 42 21 21
internal_count=113 71 57 45 33 21 42 21 21
is_linear=0
shrinkage=0.05


Tree=50
num_leaves=9
num_cat=0
split_feature=25 3 18 3 4 1 7 3
split_gain=0.572093 0.0959973 0.0739604 0.117626 0.0482282 0.0152459 0.00660768 0.00769883
threshold=1.1924582475897061 2.0400030894194874 1.9743851410293762 1.7555928015611537 0.32006253170005583 2.8500000000000001 0.31062442434996573 0.22690785545377373
decision_type=2 2 2 2 2 2 2 2
left_child=4 2 3 5 6 -2 7 -1
right_child=1 -3 -4 -5 -6 -7 -8 -9
leaf_value=-0.0056346701737493262 0.0029296650551259512 0.0077131373435258867 -0.001500616641715169 0.0077260230392725629 -0.0018407244675068394 0.00070154079277177949 -0.0061311837472021588 -0.0037893374880345974
leaf_weight=10.000000000000002 14.000000000000002 9.9999999999999982 9.9999999999999982 10.999999999999998 18 17 9.9999999999999982 12.999999999999998
leaf_count=10 14 10 10 11 18 17 10 13
internal_value=0 0.00322666 0.00236388 0.00328399 -0.00392261 0.00170779 -0.00505818 -0.00459166
internal_weight=0 62 52 42 51 31 33 23
internal_count=113 62 52 42 51 31 33 23
is_linear=0
shrinkage=0.05


Tree=51
num_leaves=8
num_cat=0
split_feature=3 24 1 15 14 0 25
split_gain=0.518063 0.109246 0.0682506 0.0779784 0.0187873 0.0128139 0.0175821
threshold=0.72798565528564241 2.0100000000000007 2.6500000000000008 1.7239273554218884 1.4017809033393862 4.9500000000000011 0.28217320275568009
decision_type=2 2 2 2 2 2 2
left_child=5 2 -2 4 -4 -1 -7
right_child=1 -3 3 -5 -6 6 -8
leaf_value=-0.0054102139961388386 -0.0012038682645652444 0.0062402030569501223 0.0024373027925881051 0.0058360112096684487 -0.00025079868948803496 -0.004890296006431945 -0.0021742141847922044
leaf_weight=18 15.999999999999998 15.999999999999998 13.000000000000002 12.999999999999998 12.999999999999998 13.000000000000002 10.999999999999998
leaf_count=18 16 16 13 13 13 13 11
internal_value=0 0.00260386 0.00154601 0.00267417 0.00109325 -0.00440176 -0.00364543
internal_weight=0 71 55 39 26 42 24
internal_count=113 71 55 39 26 42 24
is_linear=0
shrinkage=0.05


Tree=52
num_leaves=8
num_cat=0
split_feature=3 24 1 15 11 11 16
split_gain=0.467552 0.0985945 0.0615962 0.0703755 0.013228 0.0286552 0.00869748
threshold=0.72798565528564241 2.0100000000000007 2.6500000000000008 1.7239273554218884 0.25832694806334316 0.23881823127931875 1.3973833322525027
decision_type=2 2 2 2 2 2 2
left_child=4 2 -2 6 5 -1 -4
right_child=1 -3 3 -5 -6 -7 -8
leaf_value=-0.0048821964094208341 -0.001143674849299714 0.0059281931025907397 0.0020263540791347619 0.005544210648020873 -0.0055846890046571699 -0.0017278792647023996 0.00019193399098834822
leaf_weight=18.000000000000004 15.999999999999998 15.999999999999998 12.000000000000002 12.999999999999998 11.999999999999998 11.999999999999998 13.999999999999998
leaf_count=18 16 16 12 13 12 12 14
internal_value=0 0.00247367 0.00146871 0.00254046 -0.00418168 -0.00362047 0.00103859
internal_weight=0 71 55 39 42 30 26
internal_count=113 71 55 39 42 30 26
is_linear=0
shrinkage=0.05


Tree=53
num_leaves=8
num_cat=0
split_feature=4 14 17 14 4 16 22
split_gain=0.422263 0.0718248 0.0893226 0.137081 0.0375473 0.00798635 0.00632187
threshold=1.2189249996913853 1.9707294106483462 1.7348967431988116 1.5811399817466738 0.32006253170005583 1.3973833322525027 0.27478330780740179
decision_type=2 2 2 2 2 2 2
left_child=4 2 3 5 6 -2 -1
right_child=1 -3 -4 -5 -6 -7 -8
leaf_value=-0.0050037417819516527 0.0019975972827523942 0.0057845303043723116 -0.0015358209909339037 0.0081177040562033648 -0.0015330831287428738 0.00013241553255780177 -0.0036138925080498063
leaf_weight=18 12.000000000000002 14.999999999999998 13.999999999999998 9.9999999999999982 18 10.999999999999998 14.999999999999998
leaf_count=18 12 15 14 10 18 11 15
internal_value=0 0.00277212 0.00181071 0.00323045 -0.00337002 0.00110555 -0.00437199
internal_weight=0 62 47 33 51 23 33
internal_count=113 62 47 33 51 23 33
is_linear=0
shrinkage=0.05


Tree=54
num_leaves=9
num_cat=0
split_feature=3 3 1 15 24 3 14 27
split_gain=0.382935 0.0858146 0.0614002 0.0538248 0.0131397 0.0317379 0.011845 0.00370371
threshold=0.72798565528564241 2.0400030894194874 2.6500000000000008 1.7239273554218884 0.29000000000000009 0.26192485843725483 1.4017809033393862 0.41766487151300979
decision_type=2 2 2 2 2 2 2 2
left_child=4 2 -2 6 5 7 -4 -1
right_child=1 -3 3 -5 -6 -7 -8 -9
leaf_value=-0.0050580252148210965 -0.0011254809083766305 0.0065319145098328597 0.0021556283848790016 0.004598626129639646 -0.0052690517030317685 -0.00093920259736478327 5.9662264123159866e-05 -0.0037284832278435885
leaf_weight=10.000000000000005 15.999999999999998 9.9999999999999982 13.000000000000002 18 10.999999999999998 9.9999999999999982 13.999999999999998 10.999999999999998
leaf_count=10 16 10 13 18 11 10 14 11
internal_value=0 0.00223866 0.00153485 0.00248075 -0.00378441 -0.0032576 0.00106883 -0.0043616
internal_weight=0 71 61 45 42 31 27 21
internal_count=113 71 61 45 42 31 27 21
is_linear=0
shrinkage=0.05


Tree=55
num_leaves=9
num_cat=0
split_feature=4 17 25 20 24 14 11 11
split_gain=0.345599 0.0768285 0.075141 0.135629 0.0159355 0.0205509 0.0133951 0.0245503
threshold=0.75458376154300377 1.9681251904754991 1.8406485056013415 1.6835714285714289 1.6399999999999999 1.2418815493583681 0.25832694806334316 0.23881823127931875
decision_type=2 2 2 2 2 2 2 2
left_child=6 2 3 4 5 -2 7 -1
right_child=1 -3 -4 -5 -6 -7 -8 -9
leaf_value=-0.004198311491765909 0.0015722244787453245 0.0054454870754852896 -0.0022038978912557166 0.0073844597768038507 0.0022588452363076312 -0.0014197794924257325 -0.0050070397633438313 -0.0012786515212307374
leaf_weight=18.000000000000004 11.000000000000002 13.999999999999998 11.999999999999998 9.9999999999999982 11.999999999999998 11.999999999999998 11.999999999999998 11.999999999999998
leaf_count=18 11 14 12 10 12 12 12 12
internal_value=0 0.00212673 0.0013116 0.00224906 0.000781807 1.11789e-05 -0.00359519 -0.00303045
internal_weight=0 71 57 45 35 23 42 30
internal_count=113 71 57 45 35 23 42 30
is_linear=0
shrinkage=0.05


Tree=56
num_leaves=8
num_cat=0
split_feature=4 24 25 21 4 1 15
split_gain=0.313156 0.0600381 0.058179 0.080551 0.0288077 0.0151307 0.00616583
threshold=1.2189249996913853 2.0100000000000007 1.8406485056013415 1.6794601406718888 0.32006253170005583 2.8500000000000001 0.24803491116197626
decision_type=2 2 2 2 2 2 2
left_child=4 2 3 5 6 -2 -1
right_child=1 -3 -4 -5 -6 -7 -8
leaf_value=-0.0031931371722174321 0.0023280356638133519 0.0050254583082278261 -0.0017022106288508935 0.0060095764738930905 -0.0012931515139320659 -0.00021844617024596247 -0.004576009485338416
leaf_weight=19 10.000000000000002 15.999999999999998 10.999999999999998 10.999999999999998 18 13.999999999999998 13.999999999999998
leaf_count=19 10 16 11 11 18 14 14
internal_value=0 0.00238727 0.00146963 0.0024665 -0.00290217 0.000842588 -0.00377981
internal_weight=0 62 46 35 51 24 33
internal_count=113 62 46 35 51 24 33
is_linear=0
shrinkage=0.05


Tree=57
num_leaves=10
num_cat=0
split_feature=4 17 25 21 13 25 22 14 4
split_gain=0.282956 0.0666098 0.066779 0.114384 0.0121355 0.019801 0.00997454 0.0222266 0.00478129
threshold=0.75458376154300377 1.9681251904754991 1.8406485056013415 1.6794601406718888 0.21284310549294597 0.30200792530163745 1.4522773626896008 1.2418815493583681 0.22597692768832847
decision_type=2 2 2 2 2 2 2 2 2
left_child=4 2 3 6 -1 8 7 -2 -6
right_child=1 -3 -4 -5 5 -7 -8 -9 -10
leaf_value=-0.0019092534785158932 0.0014924310317093671 0.0050145349294845286 -0.0021487520503190656 0.0064810275999744515 -0.0054720165394246539 -0.0019739747280254961 0.0017037499266175126 -0.0017645852873101832 -0.0039258449897170066
leaf_weight=11.999999999999998 11.000000000000002 13.999999999999998 11.999999999999998 10.999999999999998 10.000000000000005 9.9999999999999982 12.999999999999998 9.9999999999999982 9.9999999999999982
leaf_count=12 11 14 12 11 10 10 13 10 10
internal_value=0 0.00192436 0.00116537 0.00204913 -0.00325308 -0.00379061 0.000615283 -5.85291e-05 -0.00469893
internal_weight=0 71 57 45 42 30 34 21 20
internal_count=113 71 57 45 42 30 34 21 20
is_linear=0
shrinkage=0.05


Tree=58
num_leaves=9
num_cat=0
split_feature=4 3 18 11 26 0 0 19
split_gain=0.257153 0.0642959 0.0769165 0.0780331 0.0244206 0.00849872 0.00601726 0.00400542
threshold=1.2189249996913853 2.0400030894194874 1.9743851410293762 1.7478449993490051 0.3327395419995568 5.0500000000000007 6.3500000000000005 0.19375000000000006
decision_type=2 2 2 2 2 2 2 2
left_child=4 2 3 6 5 7 -2 -1
right_child=1 -3 -4 -5 -6 -7 -8 -9
leaf_value=-0.0033772764727473246 0.0004936640739048782 0.0058350000996142629 -0.0024837674992159008 0.0058031744440086193 -0.0011484491910474996 -0.0024426955765543077 0.001963121071457863 -0.0047924473555758596
leaf_weight=10.000000000000002 19.000000000000004 9.9999999999999982 9.9999999999999982 11.999999999999998 18 12.999999999999998 10.999999999999998 9.9999999999999982
leaf_count=10 19 10 10 12 18 13 11 10
internal_value=0 0.0021633 0.0014572 0.00239552 -0.00262989 -0.00343795 0.00103246 -0.00408486
internal_weight=0 62 52 42 51 33 30 20
internal_count=113 62 52 42 51 33 30 20
is_linear=0
shrinkage=0.05


Tree=59
num_leaves=8
num_cat=0
split_feature=4 3 25 2 4 14 22
split_gain=0.232081 0.0580271 0.0727728 0.10226 0.0224966 0.00719477 0.00654656
threshold=1.2189249996913853 2.0400030894194874 1.8406485056013415 4.9500000000000011 0.32006253170005583 1.4017809033393862 0.27478330780740179
decision_type=2 2 2 2 2 2 2
left_child=4 2 3 5 6 -2 -1
right_child=1 -3 -4 -5 -6 -7 -8
leaf_value=-0.0039168474083352417 0.0016506227248880478 0.0055432499665766955 -0.0016972926278997745 0.006583336435935715 -0.0010765101980521449 1.710208419423837e-05 -0.0025025140742460888
leaf_weight=18 14.000000000000002 9.9999999999999982 13.999999999999998 10.999999999999998 18 12.999999999999998 14.999999999999998
leaf_count=18 14 10 14 11 18 13 15
internal_value=0 0.00205513 0.00138434 0.00251968 -0.0024984 0.000864113 -0.00327397
internal_weight=0 62 52 38 51 27 33
internal_count=113 62 52 38 51 27 33
is_linear=0
shrinkage=0.05


Tree=60
num_leaves=9
num_cat=0
split_feature=3 3 18 11 11 21 22 14
split_gain=0.210061 0.0606079 0.0574581 0.0843128 0.0140622 0.0214986 0.00849771 0.0211946
threshold=0.72798565528564241 2.0400030894194874 1.9743851410293762 1.7478449993490051 0.25832694806334316 0.25429989274099712 1.4522773626896008 1.2418815493583681
decision_type=2 2 2 2 2 2 2 2
left_child=4 2 3 6 5 -1 7 -2
right_child=1 -3 -4 -5 -6 -7 -8 -9
leaf_value=-0.0034763162781018759 0.0014496166026219722 0.0052660873346030718 -0.0023989239422371614 0.005411080518797462 -0.0042494822371130191 -0.00079337088141723407 0.0014155863835993742 -0.0017308899271301925
leaf_weight=16.000000000000004 11.000000000000002 9.9999999999999982 9.9999999999999982 11.999999999999998 11.999999999999998 13.999999999999998 18 9.9999999999999982
leaf_count=16 11 10 10 12 12 14 18 10
internal_value=0 0.00165806 0.00106658 0.00174609 -0.00280291 -0.00222428 0.000618396 -6.49103e-05
internal_weight=0 71 61 51 42 30 39 21
internal_count=113 71 61 51 42 30 39 21
is_linear=0
shrinkage=0.05


Tree=61
num_leaves=8
num_cat=0
split_feature=4 14 17 14 26 14 16
split_gain=0.19068 0.0470217 0.0945055 0.0988067 0.0195608 0.00810998 0.00745951
threshold=1.2189249996913853 1.9707294106483462 1.7348967431988116 1.5811399817466738 0.3327395419995568 0.28659234941005712 1.3973833322525027
decision_type=2 2 2 2 2 2 2
left_child=4 2 3 6 5 -1 -2
right_child=1 -3 -4 -5 -6 -7 -8
leaf_value=-0.0021798593679704936 0.001603379886364564 0.0043002271500881765 -0.0023573146833639064 0.0066945401113480329 -0.00093875159638830358 -0.0037482433897607472 -0.00019923145459456879
leaf_weight=15.999999999999998 12.000000000000002 14.999999999999998 13.999999999999998 9.9999999999999982 18 17 10.999999999999998
leaf_count=16 12 15 14 10 18 17 11
internal_value=0 0.00186283 0.00108494 0.00254529 -0.00226462 -0.00298781 0.000741261
internal_weight=0 62 47 33 51 33 23
internal_count=113 62 47 33 51 33 23
is_linear=0
shrinkage=0.05


Tree=62
num_leaves=9
num_cat=0
split_feature=24 3 25 2 18 11 11 14
split_gain=0.172481 0.0435443 0.0707412 0.0808823 0.0236727 0.0117395 0.0206018 0.010279
threshold=1.2300000000000002 2.0400030894194874 1.8406485056013415 4.9500000000000011 1.1065766483733206 0.25832694806334316 0.23881823127931875 1.4017809033393862
decision_type=2 2 2 2 2 2 2 2
left_child=4 2 3 7 5 6 -1 -2
right_child=1 -3 -4 -5 -6 -7 -8 -9
leaf_value=-0.0030528770688559026 0.0019544026793234721 0.0048756633559241891 -0.0017486446096362279 0.0060071014121852138 0.00015407328493893149 -0.0037365075184165372 -0.00037829253900175297 -0.00012234488072303626
leaf_weight=18.000000000000004 11.000000000000002 9.9999999999999982 13.999999999999998 10.999999999999998 9.9999999999999982 13.999999999999998 11.999999999999998 12.999999999999998
leaf_count=18 11 10 14 11 10 14 12 13
internal_value=0 0.00186884 0.0012552 0.00245674 -0.00204188 -0.00254096 -0.00198304 0.000829498
internal_weight=0 59 49 35 54 44 30 24
internal_count=113 59 49 35 54 44 30 24
is_linear=0
shrinkage=0.05


Tree=63
num_leaves=9
num_cat=0
split_feature=24 25 25 15 1 13 25 14
split_gain=0.157352 0.0483708 0.140203 0.0944449 0.0353136 0.0111726 0.0187436 0.0026433
threshold=1.5100000000000002 1.8406485056013415 2.100901523289902 1.7239273554218884 2.9500000000000006 0.21284310549294597 0.30200792530163745 1.1630244851112368
decision_type=2 2 2 2 2 2 2 2
left_child=4 3 -3 -2 7 -6 -7 -1
right_child=1 2 -4 -5 5 6 -8 -9
leaf_value=0.00068429023405769819 0.0012275091721676288 -0.0032755028058697152 0.0045394487298009078 0.0074217205960303541 -0.0011233409507743395 -0.0039132928867873394 -0.0014493919873180298 -0.00046534013235941533
leaf_weight=10.000000000000002 16.000000000000004 12.000000000000002 10.999999999999998 9.9999999999999982 11.999999999999998 19 12.999999999999998 9.9999999999999982
leaf_count=10 16 12 11 10 12 19 13 10
internal_value=0 0.00213235 0.000462083 0.0036099 -0.00163258 -0.00242443 -0.00291233 0.000109475
internal_weight=0 49 23 26 64 44 32 20
internal_count=113 49 23 26 64 44 32 20
is_linear=0
shrinkage=0.05


Tree=64
num_leaves=9
num_cat=0
split_feature=24 25 25 15 1 0 19 14
split_gain=0.14201 0.0436547 0.126534 0.0852365 0.0318705 0.0106211 0.019363 0.00238558
threshold=1.5100000000000002 1.8406485056013415 2.100901523289902 1.7239273554218884 2.9500000000000006 4.9500000000000011 0.25833333333333341 1.1630244851112368
decision_type=2 2 2 2 2 2 2 2
left_child=4 3 -3 -2 7 -6 -7 -1
right_child=1 2 -4 -5 5 6 -8 -9
leaf_value=0.00065007569151930488 0.0011661337979603557 -0.0031117277583689422 0.0043124761263077915 0.0070506343431770806 -0.0033308607889921404 -0.00057727760722627855 -0.003234233400629213 -0.00044207312399521478
leaf_weight=10.000000000000002 16.000000000000004 12.000000000000002 10.999999999999998 9.9999999999999982 15.999999999999998 16.000000000000004 11.999999999999998 9.9999999999999982
leaf_count=10 16 12 11 10 16 16 12 10
internal_value=0 0.00202573 0.000438978 0.0034294 -0.00155095 -0.0023032 -0.00171597 0.000104001
internal_weight=0 49 23 26 64 44 28 20
internal_count=113 49 23 26 64 44 28 20
is_linear=0
shrinkage=0.05


Tree=65
num_leaves=8
num_cat=0
split_feature=25 17 17 14 4 16 22
split_gain=0.129849 0.0469438 0.095255 0.0839468 0.0158507 0.00682205 0.00569015
threshold=1.1924582475897061 1.9681251904754991 1.7348967431988116 1.5811399817466738 0.32006253170005583 1.3973833322525027 0.27478330780740179
decision_type=2 2 2 2 2 2 2
left_child=4 2 3 5 6 -2 -1
right_child=1 -3 -4 -5 -6 -7 -8
leaf_value=-0.0031191576983676189 0.0014575126037622487 0.0040847634464236246 -0.0025095291311542194 0.006120435176417232 -0.00067526886252582911 -0.00026635678739032962 -0.0018005766967932385
leaf_weight=18 12.000000000000002 13.999999999999998 14.999999999999998 9.9999999999999982 18 10.999999999999998 14.999999999999998
leaf_count=18 12 14 15 10 18 11 15
internal_value=0 0.00153723 0.000794201 0.0022959 -0.00186879 0.000633053 -0.0025198
internal_weight=0 62 48 33 51 23 33
internal_count=113 62 48 33 51 23 33
is_linear=0
shrinkage=0.05


Tree=66
num_leaves=8
num_cat=0
split_feature=4 17 17 14 4 15 25
split_gain=0.117205 0.0423632 0.0859749 0.075754 0.0142995 0.00581671 0.00417974
threshold=1.2189249996913853 1.9681251904754991 1.7348967431988116 1.5811399817466738 0.32006253170005583 0.24803491116197626 1.4606354149339413
decision_type=2 2 2 2 2 2 2
left_child=4 2 3 6 5 -1 -2
right_child=1 -3 -4 -5 -6 -7 -8
leaf_value=-0.0018239909256073208 0.0012470132981737452 0.0038805252720651752 -0.0023840527531380456 0.0058144134515896442 -0.00064185807423200458 -0.0031671419473631047 -0.00010232683694498106
leaf_weight=19 12.000000000000002 13.999999999999998 14.999999999999998 9.9999999999999982 18 13.999999999999998 10.999999999999998
leaf_count=19 12 14 15 10 18 14 11
internal_value=0 0.00146047 0.000754623 0.00218129 -0.00177548 -0.00239381 0.000601677
internal_weight=0 62 48 33 51 33 23
internal_count=113 62 48 33 51 33 23
is_linear=0
shrinkage=0.05


Tree=67
num_leaves=10
num_cat=0
split_feature=24 25 25 15 1 19 27 25 14
split_gain=0.109876 0.0409811 0.120931 0.076907 0.0251824 0.0114247 0.0155623 0.00715454 0.00262539
threshold=1.5100000000000002 1.8406485056013415 2.100901523289902 1.7239273554218884 2.9500000000000006 0.21250000000000005 0.41766487151300979 0.30200792530163745 1.1630244851112368
decision_type=2 2 2 2 2 2 2 2 2
left_child=4 3 -3 -2 8 6 -6 -7 -1
right_child=1 2 -4 -5 5 7 -8 -9 -10
leaf_value=0.00067971763928653651 0.00099202791170682736 -0.0032267495320411396 0.0040312409676103436 0.0065816143900156027 -0.00254506840952672 -0.0034980147744395895 0.00024440702516585592 -0.0017469487630296498 -0.00046601153677329428
leaf_weight=10.000000000000002 16.000000000000004 12.000000000000002 10.999999999999998 9.9999999999999982 10.000000000000002 14.000000000000002 9.9999999999999982 9.9999999999999982 9.9999999999999982
leaf_count=10 16 12 11 10 10 14 10 10 10
internal_value=0 0.00178186 0.000244463 0.00314187 -0.00136424 -0.00203292 -0.00115033 -0.0027684 0.000106853
internal_weight=0 49 23 26 64 44 20 24 20
internal_count=113 49 23 26 64 44 20 24 20
is_linear=0
shrinkage=0.05


Tree=68
num_leaves=10
num_cat=0
split_feature=24 17 14 4 1 15 26 3 14
split_gain=0.0991631 0.0403075 0.118784 0.0526727 0.0227271 0.0112003 0.0114234 0.0110726 0.00236942
threshold=1.5100000000000002 1.7348967431988116 1.9707294106483462 1.5844542110726425 2.9500000000000006 0.24803491116197626 0.30697940503432508 0.22690785545377373 1.1630244851112368
decision_type=2 2 2 2 2 2 2 2 2
left_child=4 3 -3 -2 8 7 -7 -6 -1
right_child=1 2 -4 -5 5 6 -8 -9 -10
leaf_value=0.00064573173527605811 0.00085364934522658565 -0.0028104631147081293 0.0035933484109409624 0.0059855449199676522 -0.002300562607124447 -0.0037603970772276314 -0.0015296786782776261 -1.7306949964470484e-06 -0.00044271096354350455
leaf_weight=10.000000000000002 10.000000000000002 14.000000000000002 14.999999999999998 9.9999999999999982 10.000000000000002 12.000000000000002 10.999999999999998 10.999999999999998 9.9999999999999982
leaf_count=10 10 14 15 10 10 12 11 11 10
internal_value=0 0.00169277 0.000501853 0.0034196 -0.00129603 -0.00193127 -0.00269353 -0.00109641 0.00010151
internal_weight=0 49 29 20 64 44 23 21 20
internal_count=113 49 29 20 64 44 23 21 20
is_linear=0
shrinkage=0.05


Tree=69
num_leaves=9
num_cat=0
split_feature=4 17 17 14 0 18 14 16
split_gain=0.087751 0.0385992 0.0787396 0.0622413 0.0133167 0.0172706 0.0177675 0.00681635
threshold=1.2189249996913853 1.9681251904754991 1.7348967431988116 1.5811399817466738 4.9500000000000011 0.23846281489089918 0.39938279986381536 1.3973833322525027
decision_type=2 2 2 2 2 2 2 2
left_child=4 2 3 7 -1 -6 -7 -2
right_child=1 -3 -4 -5 5 6 -8 -9
leaf_value=-0.0026302382104202281 0.0013475586679608867 0.0035737475205678496 -0.002413760906395813 0.0052484518941491847 -0.0025572002801874825 0.0012901860278692432 -0.0015516671643126757 -0.00037559031254865913
leaf_weight=18 12.000000000000002 13.999999999999998 14.999999999999998 9.9999999999999982 10.999999999999998 11.000000000000002 10.999999999999998 10.999999999999998
leaf_count=18 12 14 15 10 11 11 11 11
internal_value=0 0.00126371 0.000589944 0.00195526 -0.00153627 -0.00093956 -0.000130741 0.000523444
internal_weight=0 62 48 33 51 33 22 23
internal_count=113 62 48 33 51 33 22 23
is_linear=0
shrinkage=0.05


Tree=70
num_leaves=9
num_cat=0
split_feature=24 7 22 24 1 11 21 14
split_gain=0.0831954 0.0415239 0.105952 0.0558774 0.0198349 0.0121101 0.0189491 0.0024583
threshold=1.5100000000000002 1.9713756172810604 1.9318959188036373 1.6700000000000004 2.9500000000000006 0.25832694806334316 0.25429989274099712 1.1630244851112368
decision_type=2 2 2 2 2 2 2 2
left_child=4 2 3 -2 7 6 -6 -1
right_child=1 -3 -4 -5 5 -7 -8 -9
leaf_value=0.00067282194300787501 0.0036262750206515187 -0.0007508932662728642 0.0068207748443819584 -0.0011988929038246473 -0.0023644186467087513 -0.0028778798558050768 0.00024369473640735331 -0.00043584920582361524
leaf_weight=10.000000000000002 10.000000000000002 13.999999999999998 9.9999999999999982 14.999999999999998 15.000000000000002 15.999999999999998 12.999999999999998 9.9999999999999982
leaf_count=10 10 14 10 15 15 16 13 10
internal_value=0 0.0015505 0.00247106 0.000731174 -0.0011871 -0.00178055 -0.00115351 0.000118486
internal_weight=0 49 35 25 64 44 28 20
internal_count=113 49 35 25 64 44 28 20
is_linear=0
shrinkage=0.05


Tree=71
num_leaves=10
num_cat=0
split_feature=24 25 25 15 1 24 3 14 12
split_gain=0.0750838 0.038229 0.113473 0.0706088 0.017901 0.0115999 0.0225925 0.00221862 0.00123666
threshold=1.5100000000000002 1.8406485056013415 2.100901523289902 1.7239273554218884 2.9500000000000006 0.29000000000000009 0.26192485843725483 1.1630244851112368 0.22057842300092942
decision_type=2 2 2 2 2 2 2 2 2
left_child=4 3 -3 -2 7 6 8 -1 -6
right_child=1 2 -4 -5 5 -7 -8 -9 -10
leaf_value=0.0006391808809712527 0.00072659287543501688 -0.0033743721510594081 0.0036562446679454298 0.0060824158787727359 -0.0017139958101324724 -0.002879939163436315 0.00080353449360700321 -0.00041405668831430382 -0.0025003349827602507
leaf_weight=10.000000000000002 16.000000000000004 12.000000000000002 10.999999999999998 9.9999999999999982 10.000000000000005 13.999999999999998 9.9999999999999982 9.9999999999999982 9.9999999999999982
leaf_count=10 16 12 11 10 10 14 10 10 10
internal_value=0 0.00147298 -1.19032e-05 0.00278652 -0.00112775 -0.00169153 -0.00113693 0.000112562 -0.00210717
internal_weight=0 49 23 26 64 44 30 20 20
internal_count=113 49 23 26 64 44 30 20 20
is_linear=0
shrinkage=0.05


Tree=72
num_leaves=9
num_cat=0
split_feature=14 1 28 18 6 0 18 1
split_gain=0.0726361 0.0512796 0.0445961 0.0142235 0.0265619 0.0098889 0.013416 0.00386141
threshold=1.9707294106483462 2.8500000000000001 1.877815031466342 1.6827899320067032 1.3809366435744621 4.9500000000000011 0.23846281489089918 2.5500000000000003
decision_type=2 2 2 2 2 2 2 2
left_child=1 2 7 4 5 -3 -7 -1
right_child=-2 3 -4 -5 -6 6 -8 -9
leaf_value=0.00052329543131318928 0.0032402194322397313 -0.0024162865601230058 0.0039336968690622601 -0.002917678205465729 0.0013844605232588949 -0.0022731872508302323 -5.6786835193634035e-05 -0.00083425623015500607
leaf_weight=11.000000000000005 14.999999999999998 17 9.9999999999999982 10.999999999999998 9.9999999999999982 11.000000000000002 18 9.9999999999999982
leaf_count=11 15 17 10 11 10 11 18 10
internal_value=0 -0.000495952 0.00118551 -0.00127394 -0.000951062 -0.00145878 -0.00089749 -0.000123158
internal_weight=0 98 31 67 56 46 29 21
internal_count=113 98 31 67 56 46 29 21
is_linear=0
shrinkage=0.05


Tree=73
num_leaves=9
num_cat=0
split_feature=17 26 17 14 14 22 14 2
split_gain=0.0661291 0.0338548 0.0612252 0.0701073 0.00625749 0.00428722 0.0116688 0.00725782
threshold=1.9681251904754991 0.3327395419995568 1.7348967431988116 1.5811399817466738 0.28659234941005712 1.4522773626896008 1.2418815493583681 3.4000000000000004
decision_type=2 2 2 2 2 2 2 2
left_child=1 4 3 5 -1 6 7 -3
right_child=-2 2 -4 -5 -6 -7 -8 -9
leaf_value=-0.0010527580634516198 0.0032164789021148217 -0.00045549804810434547 -0.0026090869462738436 0.0047785313241183762 -0.00243042024290737 0.00095367115837606531 -0.0015948558982927354 0.0014494716309127399
leaf_weight=15.999999999999998 13.999999999999998 10.000000000000005 14.999999999999998 9.9999999999999982 17 10.999999999999998 9.9999999999999982 9.9999999999999982
leaf_count=16 14 10 15 10 17 11 10 10
internal_value=0 -0.000454856 0.000198948 0.00102484 -0.00176246 0.000109306 -0.000200294 0.000496987
internal_weight=0 99 66 51 33 41 30 20
internal_count=113 99 66 51 33 41 30 20
is_linear=0
shrinkage=0.05


Tree=74
num_leaves=9
num_cat=0
split_feature=14 1 26 18 6 13 25 4
split_gain=0.0636803 0.0431146 0.0314423 0.014081 0.0217059 0.00871949 0.0181604 0.00226583
threshold=1.9707294106483462 2.8500000000000001 1.7266630677170354 1.6827899320067032 1.3809366435744621 0.21284310549294597 0.30200792530163745 0.22597692768832847
decision_type=2 2 2 2 2 2 2 2
left_child=1 2 -1 4 5 -3 7 -7
right_child=-2 3 -4 -5 -6 6 -8 -9
leaf_value=-0.00027584017370827494 0.0030338957921291392 -0.00015671516691024106 0.0029511663077685696 -0.0028132280758158728 0.0012547905673272908 -0.0032234256551600983 -0.00034325852757319811 -0.0021590416831895709
leaf_weight=18.000000000000004 14.999999999999998 11.999999999999998 12.999999999999998 10.999999999999998 9.9999999999999982 10.000000000000002 13.999999999999998 9.9999999999999982
leaf_count=18 15 12 13 11 10 10 14 10
internal_value=0 -0.000464372 0.00107742 -0.00117774 -0.000856482 -0.00131545 -0.00172442 -0.00269123
internal_weight=0 98 31 67 56 46 34 20
internal_count=113 98 31 67 56 46 34 20
is_linear=0
shrinkage=0.05


Tree=75
num_leaves=9
num_cat=0
split_feature=14 1 28 18 4 15 6 1
split_gain=0.0574715 0.038911 0.0363911 0.0127081 0.0195955 0.0062642 0.00587613 0.0035919
threshold=1.9707294106483462 2.8500000000000001 1.877815031466342 1.6827899320067032 0.32006253170005583 0.24803491116197626 1.3809366435744621 2.5500000000000003
decision_type=2 2 2 2 2 2 2 2
left_child=1 2 7 4 5 -3 -6 -1
right_child=-2 3 -4 -5 6 -7 -8 -9
leaf_value=0.00046487300953065782 0.0028822009948392714 -0.0010449983406272767 0.00350608995417133 -0.0026725667190145366 -0.0003948778259135516 -0.0024693902259549268 0.0011920510686468334 -0.00084444629261270175
leaf_weight=11.000000000000005 14.999999999999998 19 9.9999999999999982 10.999999999999998 14.000000000000002 12.999999999999998 9.9999999999999982 9.9999999999999982
leaf_count=11 15 19 10 11 14 13 10 10
internal_value=0 -0.000441153 0.00102355 -0.00111885 -0.000813658 -0.00162366 0.000266343 -0.000158612
internal_weight=0 98 31 67 56 32 24 21
internal_count=113 98 31 67 56 32 24 21
is_linear=0
shrinkage=0.05


Tree=76
num_leaves=10
num_cat=0
split_feature=17 25 19 26 0 19 24 28 3
split_gain=0.05453 0.0397968 0.0772628 0.0217446 0.00557493 0.00485133 0.00454693 0.0132317 0.00666749
threshold=1.9681251904754991 1.8406485056013415 1.6835714285714289 0.3327395419995568 5.0500000000000007 0.19375000000000006 1.6399999999999999 0.94024966513651387 1.0774126387878675
decision_type=2 2 2 2 2 2 2 2 2
left_child=1 2 3 4 5 -1 7 8 -5
right_child=-2 -3 -4 6 -6 -7 -8 -9 -10
leaf_value=-0.0012931409152224657 0.0029208016249218159 -0.0031123072132080171 0.0040939396619796755 -0.00027041895761309806 -0.00074184281984344133 -0.0028505948279052974 0.00097998075458842026 -0.0016693389514693992 0.0014777031328412705
leaf_weight=10.000000000000002 13.999999999999998 11.999999999999998 9.9999999999999982 12.000000000000002 12.999999999999998 9.9999999999999982 11.999999999999998 9.9999999999999982 9.9999999999999982
leaf_count=10 14 12 10 12 13 10 12 10 10
internal_value=0 -0.000413043 -4.07303e-05 -0.0005777 -0.00154792 -0.00207187 0.000149963 -0.000161293 0.000524182
internal_weight=0 99 87 77 33 20 44 32 22
internal_count=113 99 87 77 33 20 44 32 22
is_linear=0
shrinkage=0.05


Tree=77
num_leaves=10
num_cat=0
split_feature=25 25 15 26 26 28 8 14 1
split_gain=0.0521066 0.0592735 0.12816 0.0178356 0.0089312 0.0102191 0.00909835 0.00532894 0.00698433
threshold=2.100901523289902 1.8406485056013415 1.7239273554218884 0.3327395419995568 1.7266630677170354 1.4107700392268672 1.1912503501422662 0.28719361126422888 3.2500000000000004
decision_type=2 2 2 2 2 2 2 2 2
left_child=1 2 3 7 5 6 -5 8 -1
right_child=-2 -3 -4 4 -6 -7 -8 -9 -10
leaf_value=-0.0018345028317222987 0.0032694977147250692 -0.0036534812181344026 0.0054241834022104741 0.00071958373611172028 -0.0012797814852092415 0.0017697308748029173 -0.0011275445535526766 -0.0023690855765545913 -4.532733286396251e-05
leaf_weight=12.000000000000002 10.999999999999998 11.999999999999998 9.9999999999999982 15.000000000000002 9.9999999999999982 9.9999999999999982 11.999999999999998 10.999999999999998 9.9999999999999982
leaf_count=12 11 12 10 15 10 10 12 11 10
internal_value=0 -0.000352593 8.75256e-05 -0.000579557 4.60152e-05 0.000404339 -0.000101362 -0.00147052 -0.00102124
internal_weight=0 102 90 80 47 37 27 33 22
internal_count=113 102 90 80 47 37 27 33 22
is_linear=0
shrinkage=0.05


Tree=78
num_leaves=9
num_cat=0
split_feature=17 17 14 4 7 28 28 21
split_gain=0.0487361 0.037695 0.0842337 0.0177463 0.00543916 0.00524396 0.0150966 0.00447716
threshold=1.9681251904754991 1.7348967431988116 1.5811399817466738 0.32006253170005583 0.31062442434996573 0.53716402711885813 0.94024966513651387 0.25100129128540116
decision_type=2 2 2 2 2 2 2 2
left_child=1 2 3 4 7 -5 -7 -1
right_child=-2 -3 -4 5 -6 6 -8 -9
leaf_value=-0.0017286580648611886 0.0027612751200129944 -0.0026992950347873076 0.0043289470090530817 -0.0007446361434025069 -0.0023968200618401173 0.0020706520466774229 -0.00032945909739570006 -0.0003321350334166103
leaf_weight=11.000000000000002 13.999999999999998 14.999999999999998 9.9999999999999982 11.999999999999998 9.9999999999999982 10.000000000000002 19 11.999999999999998
leaf_count=11 14 15 10 12 10 10 19 12
internal_value=0 -0.000390483 2.18045e-05 -0.000560242 -0.0014233 0.000134419 0.000498165 -0.00100004
internal_weight=0 99 84 74 33 41 29 23
internal_count=113 99 84 74 33 41 29 23
is_linear=0
shrinkage=0.05


end of trees

feature_importances:
Column_14=76
Column_4=75
Column_3=61
Column_25=60
Column_24=47
Column_1=37
Column_0=36
Column_19=28
Column_17=25
Column_26=25
Column_11=22
Column_18=16
Column_15=14
Column_22=14
Column_2=13
Column_10=11
Column_7=10
Column_27=10
Column_28=9
Column_13=8
Column_6=7
Column_21=7
Column_12=6
Column_16=5
Column_20=4
Column_5=3
Column_8=2

parameters:
[boosting: gbdt]
[objective: regression]
[metric: rmse]
[tree_learner: serial]
[device_type: cpu]
[data_sample_strategy: bagging]
[data: ]
[valid: ]
[num_iterations: 10000]
[learning_rate: 0.05]
[num_leaves: 63]
[num_threads: 0]
[seed: 5]
[deterministic: 0]
[force_col_wise: 0]
[force_row_wise: 0]
[histogram_pool_size: -1]
[max_depth: -1]
[min_data_in_leaf: 10]
[min_sum_hessian_in_leaf: 0.001]
[bagging_fraction: 0.9]
[pos_bagging_fraction: 1]
[neg_bagging_fraction: 1]
[bagging_freq: 0]
[bagging_seed: 28693]
[feature_fraction: 0.9]
[feature_fraction_bynode: 1]
[feature_fraction_seed: 24449]
[extra_trees: 0]
[extra_seed: 31430]
[early_stopping_round: 0]
[early_stopping_min_delta: 0]
[first_metric_only: 0]
[max_delta_step: 0]
[lambda_l1: 0]
[lambda_l2: 0]
[linear_lambda: 0]
[min_gain_to_split: 0]
[drop_rate: 0.1]
[max_drop: 50]
[skip_drop: 0.5]
[xgboost_dart_mode: 0]
[uniform_drop: 0]
[drop_seed: 12255]
[top_rate: 0.2]
[other_rate: 0.1]
[min_data_per_group: 100]
[max_cat_threshold: 32]
[cat_l2: 10]
[cat_smooth: 10]
[max_cat_to_onehot: 4]
[top_k: 20]
[monotone_constraints: ]
[monotone_constraints_method: basic]
[monotone_penalty: 0]
[feature_contri: ]
[forcedsplits_filename: ]
[refit_decay_rate: 0.9]
[cegb_tradeoff: 1]
[cegb_penalty_split: 0]
[cegb_penalty_feature_lazy: ]
[cegb_penalty_feature_coupled: ]
[path_smooth: 0]
[interaction_constraints: ]
[verbosity: -1]
[saved_feature_importance_type: 0]
[use_quantized_grad: 0]
[num_grad_quant_bins: 4]
[quant_train_renew_leaf: 0]
[stochastic_rounding: 1]
[linear_tree: 0]
[max_bin: 255]
[max_bin_by_feature: ]
[min_data_in_bin: 3]
[bin_construct_sample_cnt: 200000]
[data_random_seed: 54]
[is_enable_sparse: 1]
[enable_bundle: 1]
[use_missing: 1]
[zero_as_missing: 0]
[feature_pre_filter: 1]
[pre_partition: 0]
[two_round: 0]
[header: 0]
[label_column: ]
[weight_column: ]
[group_column: ]
[ignore_column: ]
[categorical_feature: ]
[forcedbins_filename: ]
[precise_float_parser: 0]
[parser_config_file: ]
[objective_seed: 27660]
[num_class: 1]
[is_unbalance: 0]
[scale_pos_weight: 1]
[sigmoid: 1]
[boost_from_average: 1]
[reg_sqrt: 0]
[alpha: 0.9]
[fair_c: 1]
[poisson_max_delta_step: 0.7]
[tweedie_variance_power: 1.5]
[lambdarank_truncation_level: 30]
[lambdarank_norm: 1]
[label_gain: ]
[lambdarank_position_bias_regularization: 0]
[eval_at: ]
[multi_error_top_k: 1]
[auc_mu_weights: ]
[num_machines: 1]
[local_listen_port: 12400]
[time_out: 120]
[machine_list_filename: ]
[machines: ]
[gpu_platform_id: -1]
[gpu_device_id: -1]
[gpu_use_dp: 0]
[num_gpu: 1]

end of parameters

pandas_categorical:null
