tree
version=v4
num_class=1
num_tree_per_iteration=1
label_index=0
max_feature_idx=2
objective=regression
feature_names=Column_0 Column_1 Column_2
feature_infos=[4.4000000000000004:7.7000000000000002] [2:4.4000000000000004] [1:6.9000000000000004]
tree_sizes=999 893 995 885 1001 1008 1008 1012 1026 1131 1032 1016 1033 1035 1038 926 1024

Tree=0
num_leaves=9
num_cat=0
split_feature=2 2 1 2 2 1 1 1
split_gain=85.5009 16.8023 1.72477 1.54893 0.158384 0.152657 0.0530952 0.0074665
threshold=2.4500000000000006 4.8500000000000005 3.1500000000000008 4.2500000000000009 5.1500000000000012 3.2500000000000004 2.9500000000000006 3.5500000000000003
decision_type=2 2 2 2 2 2 2 2
left_child=5 3 4 -2 -3 -1 -5 -7
right_child=1 2 -4 6 -6 7 -8 -9
leaf_value=-0.28282126130181412 -0.014639853902469231 0.16525381404640416 0.2794730445140271 0.053490913721019169 0.19733959339292989 -0.25109369877314602 0.073141533536715556 -0.25846267736020995
leaf_weight=11.999999999999998 19 10.000000000000002 10.999999999999998 11.000000000000002 15.999999999999998 11.000000000000002 10.999999999999998 10.999999999999998
leaf_count=12 19 10 11 11 16 11 11 11
internal_value=-3.39268e-09 0.115371 0.213086 0.0271902 0.184999 -0.264676 0.0633162 -0.254778
internal_weight=0 78 37 41 26 34 22 22
internal_count=112 78 37 41 26 34 22 22
is_linear=0
shrinkage=1


Tree=1
num_leaves=8
num_cat=0
split_feature=2 2 2 1 2 2 1
split_gain=54.7934 9.25713 1.17311 1.11085 0.431774 0.188971 0.0343671
threshold=3.5500000000000003 4.7500000000000009 1.5500000000000003 3.1500000000000008 4.4500000000000011 5.1500000000000012 3.4500000000000006
decision_type=2 2 2 2 2 2 2
left_child=2 4 6 5 -2 -3 -1
right_child=1 3 -4 -5 -6 -7 -8
leaf_value=-0.22581836921828127 0.0034928557512007262 0.12467031752069789 -0.14348774403333664 0.21637320866187415 0.048884424765904745 0.15787168017122896 -0.2112324674924215
leaf_weight=14.000000000000002 19 12.000000000000002 11.999999999999998 11.999999999999998 14.999999999999998 15.999999999999998 11.999999999999998
leaf_count=14 19 12 12 12 15 16 12
internal_value=0 0.100245 -0.195213 0.165462 0.0235185 0.143643 -0.219086
internal_weight=0 74 38 40 34 28 26
internal_count=112 74 38 40 34 28 26
is_linear=0
shrinkage=0.2


Tree=2
num_leaves=9
num_cat=0
split_feature=2 2 1 2 1 1 1 1
split_gain=35.89 6.86579 0.726742 0.555718 0.233246 0.116479 0.0707928 0.00277514
threshold=2.4500000000000006 4.8500000000000005 3.1500000000000008 4.4500000000000011 2.7500000000000004 2.7500000000000004 3.2500000000000004 3.5500000000000003
decision_type=2 2 2 2 2 2 2 2
left_child=6 3 5 4 -2 -3 -1 -8
right_child=1 2 -4 -5 -6 -7 7 -9
leaf_value=-0.18383768796920777 -0.019883548067166249 0.10204601973295209 0.18030379414558412 0.044699962933858237 0.020744799301028252 0.12956169918179514 -0.16249455755407155 -0.16698708967729048
leaf_weight=11.999999999999998 13.000000000000002 10.000000000000002 10.999999999999998 18 9.9999999999999982 15.999999999999998 11.000000000000002 10.999999999999998
leaf_count=12 13 10 11 18 10 16 11 11
internal_value=0 0.0747481 0.137211 0.0183795 -0.00221905 0.118979 -0.171481 -0.164741
internal_weight=0 78 37 41 23 26 34 22
internal_count=112 78 37 41 23 26 34 22
is_linear=0
shrinkage=0.2


Tree=3
num_leaves=8
num_cat=0
split_feature=0 0 1 1 0 1 1
split_gain=18.0428 2.87089 0.910077 0.532559 0.291409 0.0697308 0.0280335
threshold=5.4500000000000011 6.1500000000000012 3.0500000000000003 3.1500000000000008 5.7500000000000009 2.8500000000000001 3.4500000000000006
decision_type=2 2 2 2 2 2 2
left_child=2 4 -1 5 -2 -3 -4
right_child=1 3 6 -5 -6 -7 -8
leaf_value=-0.065359964724630112 -0.0084965780843049288 0.08638156149536369 -0.14243597686290738 0.12133524955383368 0.029109133736175654 0.06616959209657379 -0.12926250050465268
leaf_weight=9.9999999999999982 15.999999999999998 11.000000000000002 14.000000000000002 13.999999999999998 17 18 11.999999999999998
leaf_count=10 16 11 14 14 17 18 12
internal_value=0 0.0552481 -0.116635 0.089301 0.0108761 0.0738362 -0.136356
internal_weight=0 76 36 43 33 29 26
internal_count=112 76 36 43 33 29 26
is_linear=0
shrinkage=0.2


Tree=4
num_leaves=9
num_cat=0
split_feature=2 2 2 1 1 1 1 1
split_gain=15.9954 3.45639 0.356672 0.252954 0.0823187 0.0591912 0.0513767 0.0216277
threshold=2.4500000000000006 5.0500000000000007 4.4500000000000011 3.0500000000000003 2.7500000000000004 2.8500000000000001 3.2500000000000004 3.5500000000000003
decision_type=2 2 2 2 2 2 2 2
left_child=6 2 4 -3 -2 -4 -1 -8
right_child=1 3 5 -5 -6 -7 7 -9
leaf_value=-0.12500595152378083 -0.013318706762332181 0.084696624303857493 0.043965677544474585 0.12054134474268981 0.010817632973194123 0.023498833265442116 -0.10246652337637813 -0.11500814502889461
leaf_weight=11.999999999999998 13.000000000000002 18 10.000000000000002 13.999999999999998 9.9999999999999982 12.999999999999998 11.000000000000002 10.999999999999998
leaf_count=12 13 18 10 14 10 13 11 11
internal_value=0 0.0499012 0.0147864 0.100379 -0.00282465 0.0323975 -0.114479 -0.108737
internal_weight=0 78 46 32 23 23 34 22
internal_count=112 78 46 32 23 23 34 22
is_linear=0
shrinkage=0.2


Tree=5
num_leaves=9
num_cat=0
split_feature=2 2 1 1 1 1 1 1
split_gain=10.2371 2.28636 0.185086 0.105732 0.0328811 0.0251689 0.0218253 0.0138417
threshold=2.4500000000000006 4.7500000000000009 3.1500000000000008 2.9500000000000006 3.2500000000000004 2.7500000000000004 2.5500000000000003 3.5500000000000003
decision_type=2 2 2 2 2 2 2 2
left_child=4 3 5 6 -1 -3 -2 -6
right_child=1 2 -4 -5 7 -7 -8 -9
leaf_value=-0.10000476241111755 0.0049522633850574479 0.056344393566250789 0.094077035536368703 0.020318518807956331 -0.081973218646916451 0.06885865413480334 -0.0069584227167069912 -0.092006512121720757
leaf_weight=11.999999999999998 10.000000000000002 10.000000000000002 11.999999999999998 11.999999999999998 11.000000000000002 18 15.999999999999998 10.999999999999998
leaf_count=12 10 10 12 12 11 18 16 11
internal_value=0 0.039921 0.0732956 0.00478974 -0.0915834 0.0643893 -0.00237739 -0.0869899
internal_weight=0 78 40 38 34 28 26 22
internal_count=112 78 40 38 34 28 26 22
is_linear=0
shrinkage=0.2


Tree=6
num_leaves=9
num_cat=0
split_feature=2 2 2 1 1 1 1 1
split_gain=6.55172 1.51402 0.147928 0.110952 0.0488481 0.0375919 0.0210439 0.0088587
threshold=2.4500000000000006 5.0500000000000007 4.4500000000000011 3.0500000000000003 2.7500000000000004 2.8500000000000001 3.2500000000000004 3.5500000000000003
decision_type=2 2 2 2 2 2 2 2
left_child=6 2 4 -3 -2 -4 -1 -8
right_child=1 3 5 -5 -6 -7 7 -9
leaf_value=-0.08000381241242091 -0.010729211740768871 0.054958899070819224 0.029256947636604299 0.078698455356061459 0.0078636355698108677 0.012946364140281311 -0.065578574433245426 -0.073605211214585742
leaf_weight=11.999999999999998 13.000000000000002 18 10.000000000000002 13.999999999999998 9.9999999999999982 12.999999999999998 11.000000000000002 10.999999999999998
leaf_count=12 13 18 10 14 10 13 11 11
internal_value=0 0.0319368 0.00869628 0.065345 -0.00264537 0.0200379 -0.0732667 -0.0695919
internal_weight=0 78 46 32 23 23 34 22
internal_count=112 78 46 32 23 23 34 22
is_linear=0
shrinkage=0.2


Tree=7
num_leaves=9
num_cat=0
split_feature=2 2 1 1 1 1 1 1
split_gain=4.1931 0.988762 0.0785075 0.0636219 0.0228179 0.0155008 0.0134681 0.00566957
threshold=2.4500000000000006 4.8500000000000005 2.9500000000000006 2.7500000000000004 3.1500000000000008 2.5500000000000003 3.2500000000000004 3.5500000000000003
decision_type=2 2 2 2 2 2 2 2
left_child=6 2 5 -3 -5 -2 -1 -8
right_child=1 3 -4 4 -6 -7 7 -9
leaf_value=-0.064003047347068784 0.0045082064718008031 0.035625852122902868 0.017002115241036966 0.049479664074897289 0.061312621290033509 -0.0053126478774680038 -0.052462858842177808 -0.058884170109575446
leaf_weight=11.999999999999998 10.000000000000002 9.9999999999999982 12.999999999999998 16.000000000000004 10.999999999999998 18 11.000000000000002 10.999999999999998
leaf_count=12 10 10 13 16 11 18 11 11
internal_value=0 0.0255494 0.0041581 0.0492533 0.0543005 -0.0018052 -0.0586133 -0.0556735
internal_weight=0 78 41 37 27 28 34 22
internal_count=112 78 41 37 27 28 34 22
is_linear=0
shrinkage=0.2


Tree=8
num_leaves=9
num_cat=0
split_feature=2 2 2 1 1 2 1 2
split_gain=2.74911 0.49102 0.171532 0.0784543 0.0570465 0.0441175 0.0181703 0.00851763
threshold=3.8500000000000001 5.0500000000000007 1.6500000000000001 2.7500000000000004 2.9500000000000006 4.5500000000000007 3.4500000000000006 5.6500000000000012
decision_type=2 2 2 2 2 2 2 2
left_child=2 3 6 -2 -3 -5 -1 -6
right_child=1 4 -4 5 7 -7 -8 -9
leaf_value=-0.052696218589941647 0.02220072544490298 0.031270926259458064 -0.018457176331430677 0.0099961175614347031 0.052841014862060533 -0.0062736319688459236 -0.042883616513930835 0.044586254861205821
leaf_weight=18.000000000000004 11.999999999999998 11.999999999999998 9.9999999999999982 15.000000000000002 10.000000000000002 11.999999999999998 12.999999999999998 9.9999999999999982
leaf_count=18 12 12 10 15 10 12 13 10
internal_value=0 0.0238111 -0.0412339 0.0087453 0.0421726 0.00276512 -0.0485813 0.0487136
internal_weight=0 71 41 39 32 27 31 20
internal_count=112 71 41 39 32 27 31 20
is_linear=0
shrinkage=0.2


Tree=9
num_leaves=10
num_cat=0
split_feature=0 0 0 0 1 1 0 1 0
split_gain=1.02548 0.231178 0.0499447 0.0496737 0.0331147 0.0285412 0.0956701 0.00894387 0.0296608
threshold=5.3500000000000005 6.1500000000000012 4.8500000000000005 6.3500000000000005 3.3500000000000001 2.7500000000000004 5.7500000000000009 2.9500000000000006 6.7500000000000009
decision_type=2 2 2 2 2 2 2 2 2
left_child=2 5 -1 -3 -4 -2 -7 -5 -9
right_child=1 3 4 7 -6 6 -8 8 -10
leaf_value=-0.041410211473703384 -0.0061185390750567127 0.034616724271327261 -0.016553483937274321 0.013532756716012957 -0.031745563012858233 -0.0075670138678767445 0.019462071747984741 0.026996458708666835 0.012508293092250825
leaf_weight=9.9999999999999982 14.999999999999998 9.9999999999999982 11.000000000000002 9.9999999999999982 11.999999999999998 11.000000000000002 9.9999999999999982 13.000000000000002 9.9999999999999982
leaf_count=10 15 10 11 10 12 11 10 13 10
internal_value=0 0.0123688 -0.0296102 0.0222682 -0.0244798 0.000544597 0.00530398 0.0185262 0.0206973
internal_weight=0 79 33 43 23 36 21 33 23
internal_count=112 79 33 43 23 36 21 33 23
is_linear=0
shrinkage=0.2


Tree=10
num_leaves=9
num_cat=0
split_feature=0 0 1 0 0 1 1 0
split_gain=0.656309 0.147954 0.0352386 0.0592467 0.0319646 0.0211934 0.0182664 0.0612288
threshold=5.3500000000000005 6.1500000000000012 2.9500000000000006 6.7500000000000009 4.8500000000000005 3.3500000000000001 2.7500000000000004 5.7500000000000009
decision_type=2 2 2 2 2 2 2 2
left_child=4 6 -3 -4 -1 -6 -2 -8
right_child=1 2 3 -5 5 -7 7 -9
leaf_value=-0.033128169178962712 -0.0048948314289251962 0.010377043858170509 0.029407430374447031 0.010006634294986725 -0.01324278651313348 -0.025396450174351534 -0.0060536112636327723 0.015569657906889918
leaf_weight=9.9999999999999982 14.999999999999998 15.999999999999998 17.000000000000004 9.9999999999999982 11.000000000000002 11.999999999999998 11.000000000000002 9.9999999999999982
leaf_count=10 15 16 17 10 11 12 11 10
internal_value=0 0.00989506 0.0178145 0.022222 -0.0236882 -0.0195838 0.000435677 0.00424318
internal_weight=0 79 43 27 33 23 36 21
internal_count=112 79 43 27 33 23 36 21
is_linear=0
shrinkage=0.2


Tree=11
num_leaves=9
num_cat=0
split_feature=2 2 1 2 1 1 1 1
split_gain=0.953232 0.321121 0.0197709 0.0627717 0.0156959 0.0264661 0.00848526 0.00869215
threshold=2.4500000000000006 4.7500000000000009 2.8500000000000001 5.5500000000000007 2.5500000000000003 2.8500000000000001 3.5500000000000003 3.2500000000000004
decision_type=2 2 2 2 2 2 2 2
left_child=6 4 -3 -4 -2 -6 7 -1
right_child=1 2 3 -5 5 -7 -8 -9
leaf_value=-0.029484028555452815 0.0058173732832074165 0.03042990823586782 0.00993934470144185 0.030128665268421173 -0.01166294037364423 0.001169746933091018 -0.032515224983746358 -0.021700608019124379
leaf_weight=12.000000000000002 9.9999999999999982 14.999999999999998 11.000000000000002 13.999999999999998 10.000000000000002 18 10.999999999999998 10.999999999999998
leaf_count=12 10 15 11 14 10 18 11 11
internal_value=0 0.0121818 0.0246896 0.0212454 -0.000984216 -0.00341336 -0.0279465 -0.0257615
internal_weight=0 78 40 25 38 28 34 23
internal_count=112 78 40 25 38 28 34 23
is_linear=0
shrinkage=0.2


Tree=12
num_leaves=9
num_cat=0
split_feature=2 2 1 2 2 1 1 2
split_gain=0.626606 0.171398 0.0822903 0.0537379 0.0470619 0.0188457 0.00632412 0.00456392
threshold=3.8500000000000001 5.0500000000000007 2.7500000000000004 4.5500000000000007 1.5500000000000003 2.9500000000000006 3.2500000000000004 5.6500000000000012
decision_type=2 2 2 2 2 2 2 2
left_child=4 2 -2 -4 6 -3 -1 -7
right_child=1 5 3 -5 -6 7 -8 -9
leaf_value=-0.020887135006487364 0.016247198668618998 0.015950287568072478 0.0043226730761428663 -0.013633586086022357 -0.010764904655516147 0.028997002765536302 -0.027298590517602861 0.022954543083906175
leaf_weight=10.000000000000002 11.999999999999998 11.999999999999998 15.000000000000002 11.999999999999998 14.999999999999998 10.000000000000002 15.999999999999998 9.9999999999999982
leaf_count=10 12 12 15 12 15 10 16 10
internal_value=0 0.0113679 0.00246676 -0.00365789 -0.0196859 0.0222162 -0.0248326 0.0259758
internal_weight=0 71 39 27 41 32 26 20
internal_count=112 71 39 27 41 32 26 20
is_linear=0
shrinkage=0.2


Tree=13
num_leaves=9
num_cat=0
split_feature=2 2 2 1 2 1 1 1
split_gain=0.443523 0.0688003 0.0470723 0.0182614 0.0161545 0.125546 0.00779457 0.00299395
threshold=4.4500000000000011 1.6500000000000001 5.0500000000000007 2.8500000000000001 5.3500000000000005 3.0500000000000003 3.4500000000000006 2.7500000000000004
decision_type=2 2 2 2 2 2 2 2
left_child=1 6 3 -2 -4 -6 -1 -3
right_child=2 7 4 -5 5 -7 -8 -9
leaf_value=-0.021421570004895325 0.012336520494427529 -0.0069219408986660128 0.024438165463507175 0.00096838508660976709 -0.0018071433901786799 0.028535407533248264 -0.014994707535235928 -0.002629589050327643
leaf_weight=18.000000000000004 10.000000000000002 13.000000000000002 9.9999999999999982 12.999999999999998 10.000000000000002 11.999999999999998 12.999999999999998 12.999999999999998
leaf_count=18 10 13 10 13 10 12 13 13
internal_value=0 -0.012363 0.0128125 0.00591105 0.017773 0.0147433 -0.0187264 -0.00477576
internal_weight=0 57 55 23 32 22 31 26
internal_count=112 57 55 23 32 22 31 26
is_linear=0
shrinkage=0.2


Tree=14
num_leaves=9
num_cat=0
split_feature=1 0 0 0 1 0 0 0
split_gain=0.0650425 0.122575 0.0736322 0.0611172 0.0203729 0.03403 0.0168342 0.00927217
threshold=2.8500000000000001 5.8500000000000005 5.9500000000000011 6.3500000000000005 3.5500000000000003 4.9500000000000011 5.6500000000000012 6.7500000000000009
decision_type=2 2 2 2 2 2 2 2
left_child=2 4 6 -3 5 -2 -1 -5
right_child=1 3 -4 7 -6 -7 -8 -9
leaf_value=0.009248254211111499 -0.016956668381515716 0.01652123716970285 -0.0036994270297388237 0.0025001225868860875 -0.018604385717348619 -0.0025060410611331464 0.02058634899556637 -0.0051446651870554151
leaf_weight=11.000000000000002 11.000000000000002 11.999999999999998 14.999999999999998 15.000000000000002 10.999999999999998 15.999999999999998 9.9999999999999982 10.999999999999998
leaf_count=11 11 12 15 15 11 16 10 11
internal_value=0 -0.00331714 0.00700286 0.00471488 -0.0113492 -0.00839333 0.0146473 -0.000734211
internal_weight=0 76 36 38 38 27 21 26
internal_count=112 76 36 38 38 27 21 26
is_linear=0
shrinkage=0.2


Tree=15
num_leaves=8
num_cat=0
split_feature=2 2 1 2 2 1 1
split_gain=0.246127 0.0335264 0.0251628 0.0399823 0.0235572 0.00587292 0.00378032
threshold=4.4500000000000011 4.7500000000000009 2.8500000000000001 5.5500000000000007 1.5500000000000003 3.2500000000000004 2.7500000000000004
decision_type=2 2 2 2 2 2 2
left_child=4 -2 -3 -4 5 -1 -6
right_child=1 2 3 -5 6 -7 -8
leaf_value=-0.0098471713438630076 0.0014810270816087723 0.019044369806845984 -0.000340389460325241 0.015772507659026557 -0.0080849323421716673 -0.016025682991312351 -0.0036091676809721523
leaf_weight=10.000000000000002 14.999999999999998 14.999999999999998 11.000000000000002 13.999999999999998 13.000000000000002 15.999999999999998 18
leaf_count=10 15 15 11 14 13 16 18
internal_value=0 0.00954458 0.0125684 0.00868283 -0.00920968 -0.0136493 -0.0054861
internal_weight=0 55 40 25 57 26 31
internal_count=112 55 40 25 57 26 31
is_linear=0
shrinkage=0.2


Tree=16
num_leaves=9
num_cat=0
split_feature=2 2 2 2 1 1 2 1
split_gain=0.157521 0.0228138 0.0171501 0.0150766 0.0103412 0.00375867 0.00255717 0.00241941
threshold=4.4500000000000011 5.0500000000000007 4.6500000000000012 1.5500000000000003 2.9500000000000006 3.2500000000000004 5.6500000000000012 2.7500000000000004
decision_type=2 2 2 2 2 2 2 2
left_child=3 2 -2 5 -3 -1 -6 -5
right_child=1 4 -4 7 6 -7 -8 -9
leaf_value=-0.0078777370229363413 0.0085352359847588946 0.0064474107076724369 -0.002397791831754148 -0.0064679460026896901 0.016135412454605098 -0.01282054667826742 0.011612427532672883 -0.0028873343848519854
leaf_weight=10.000000000000002 11.000000000000002 11.999999999999998 11.999999999999998 13.000000000000002 10.000000000000002 15.999999999999998 9.9999999999999982 18
leaf_count=10 11 12 12 13 10 16 10 18
internal_value=0 0.00763566 0.00283105 -0.00736774 0.011089 -0.0109195 0.0138739 -0.00438888
internal_weight=0 55 23 57 32 26 20 31
internal_count=112 55 23 57 32 26 20 31
is_linear=0
shrinkage=0.2


end of trees

feature_importances:
Column_1=66
Column_2=48
Column_0=20

parameters:
[boosting: gbdt]
[objective: regression]
[metric: rmse]
[tree_learner: serial]
[device_type: cpu]
[data_sample_strategy: bagging]
[data: ]
[valid: ]
[num_iterations: 10000]
[learning_rate: 0.2]
[num_leaves: 63]
[num_threads: 0]
[seed: 1236]
[deterministic: 0]
[force_col_wise: 0]
[force_row_wise: 0]
[histogram_pool_size: -1]
[max_depth: -1]
[min_data_in_leaf: 10]
[min_sum_hessian_in_leaf: 0.001]
[bagging_fraction: 1]
[pos_bagging_fraction: 1]
[neg_bagging_fraction: 1]
[bagging_freq: 0]
[bagging_seed: 21709]
[feature_fraction: 0.5]
[feature_fraction_bynode: 1]
[feature_fraction_seed: 24116]
[extra_trees: 0]
[extra_seed: 15571]
[early_stopping_round: 0]
[early_stopping_min_delta: 0]
[first_metric_only: 0]
[max_delta_step: 0]
[lambda_l1: 0]
[lambda_l2: 0]
[linear_lambda: 0]
[min_gain_to_split: 0]
[drop_rate: 0.1]
[max_drop: 50]
[skip_drop: 0.5]
[xgboost_dart_mode: 0]
[uniform_drop: 0]
[drop_seed: 15722]
[top_rate: 0.2]
[other_rate: 0.1]
[min_data_per_group: 100]
[max_cat_threshold: 32]
[cat_l2: 10]
[cat_smooth: 10]
[max_cat_to_onehot: 4]
[top_k: 20]
[monotone_constraints: ]
[monotone_constraints_method: basic]
[monotone_penalty: 0]
[feature_contri: ]
[forcedsplits_filename: ]
[refit_decay_rate: 0.9]
[cegb_tradeoff: 1]
[cegb_penalty_split: 0]
[cegb_penalty_feature_lazy: ]
[cegb_penalty_feature_coupled: ]
[path_smooth: 0]
[interaction_constraints: ]
[verbosity: -1]
[saved_feature_importance_type: 0]
[use_quantized_grad: 0]
[num_grad_quant_bins: 4]
[quant_train_renew_leaf: 0]
[stochastic_rounding: 1]
[linear_tree: 0]
[max_bin: 255]
[max_bin_by_feature: ]
[min_data_in_bin: 3]
[bin_construct_sample_cnt: 200000]
[data_random_seed: 4074]
[is_enable_sparse: 1]
[enable_bundle: 1]
[use_missing: 1]
[zero_as_missing: 0]
[feature_pre_filter: 1]
[pre_partition: 0]
[two_round: 0]
[header: 0]
[label_column: ]
[weight_column: ]
[group_column: ]
[ignore_column: ]
[categorical_feature: ]
[forcedbins_filename: ]
[precise_float_parser: 0]
[parser_config_file: ]
[objective_seed: 10917]
[num_class: 1]
[is_unbalance: 0]
[scale_pos_weight: 1]
[sigmoid: 1]
[boost_from_average: 1]
[reg_sqrt: 0]
[alpha: 0.9]
[fair_c: 1]
[poisson_max_delta_step: 0.7]
[tweedie_variance_power: 1.5]
[lambdarank_truncation_level: 30]
[lambdarank_norm: 1]
[label_gain: ]
[lambdarank_position_bias_regularization: 0]
[eval_at: ]
[multi_error_top_k: 1]
[auc_mu_weights: ]
[num_machines: 1]
[local_listen_port: 12400]
[time_out: 120]
[machine_list_filename: ]
[machines: ]
[gpu_platform_id: -1]
[gpu_device_id: -1]
[gpu_use_dp: 0]
[num_gpu: 1]

end of parameters

pandas_categorical:null
